519 100
</s> 0.004003 0.004419 -0.003830 -0.003278 0.001367 0.003021 0.000941 0.000211 -0.003604 0.002218 -0.004356 0.001250 -0.000751 -0.000957 -0.003316 -0.001882 0.002579 0.003025 0.002969 0.001597 0.001545 -0.003803 -0.004096 0.004970 0.003801 0.003090 -0.000604 0.004016 -0.000495 0.000735 -0.000149 -0.002983 0.001312 -0.001337 -0.003825 0.004754 0.004379 -0.001095 -0.000226 0.000509 -0.003638 -0.004007 0.004555 0.000063 -0.002582 -0.003042 -0.003076 0.001697 0.000201 0.001331 -0.004214 -0.003808 -0.000130 0.001144 0.002550 -0.003170 0.004080 0.000927 0.001120 -0.000608 0.002986 -0.002288 -0.002097 0.002158 -0.000753 0.001031 0.001805 -0.004089 -0.001983 0.002914 0.004232 0.003932 -0.003047 -0.002108 -0.000909 0.002001 -0.003788 0.002998 0.002788 -0.001599 -0.001552 -0.002238 0.004229 0.003912 -0.001180 0.004215 0.004820 0.001815 0.004983 -0.003111 -0.001532 -0.002107 -0.002907 0.002815 0.001579 0.000425 -0.002194 0.001524 0.003059 0.000194 
the -0.106674 -0.172156 0.239887 -0.223004 0.051696 -0.181082 0.096377 -0.351745 0.046274 0.124229 0.215555 0.302341 -0.299421 -0.073829 0.036618 0.291828 0.144073 0.013268 0.244277 -0.200460 -0.249334 0.207587 0.031058 -0.059804 -0.120546 -0.323921 0.014355 0.064196 0.241393 0.196720 -0.088806 0.019521 -0.394785 -0.139982 -0.037849 0.155303 0.245288 -0.267350 0.039412 -0.078434 -0.056383 0.147067 -0.039403 -0.161183 0.083119 0.342809 0.009152 0.081491 -0.104934 -0.089163 -0.190378 -0.139172 -0.016733 0.033081 0.035448 -0.125650 -0.098780 -0.193920 -0.089778 -0.106987 0.020026 -0.272953 0.206584 0.070561 -0.282326 0.087267 0.232312 0.029284 0.245375 0.195901 -0.011441 0.004868 0.174784 -0.176029 0.053473 -0.149502 -0.126766 0.099588 -0.229244 -0.286089 0.069372 0.073329 0.032710 -0.224653 0.082140 0.317075 0.214232 0.059362 0.539316 -0.376161 -0.181751 0.117374 0.021307 0.275238 0.338855 0.121849 -0.043370 0.169601 -0.101574 0.045761 
of -0.173649 -0.118810 0.213107 -0.211772 0.093182 -0.204218 0.093486 -0.390795 0.091598 0.129615 0.141591 0.267867 -0.203200 -0.050294 0.000656 0.181198 0.132535 -0.058173 0.141150 -0.136523 -0.324104 0.155589 0.039451 -0.020475 -0.040360 -0.301196 0.025782 0.058178 0.200254 0.192541 -0.088989 0.044648 -0.364399 -0.150411 0.004941 0.184082 0.202037 -0.287062 0.000930 -0.059669 -0.057310 0.116865 -0.017975 -0.185486 0.104848 0.366502 0.099189 0.062541 -0.010998 -0.041942 -0.134150 -0.215708 -0.024083 -0.044005 0.028963 -0.161962 -0.130233 -0.153446 -0.047315 -0.125738 0.062840 -0.261091 0.270352 0.077662 -0.216104 0.100489 0.289379 0.028837 0.252154 0.192153 -0.032881 0.021278 0.234885 -0.198371 0.096154 -0.200560 -0.081428 0.213619 -0.270956 -0.241037 0.134234 0.103732 -0.016416 -0.117810 0.118261 0.241166 0.198587 -0.003943 0.514153 -0.357291 -0.206681 0.033578 -0.042168 0.247349 0.237218 0.080936 -0.063026 0.176985 -0.115626 0.108809 
and -0.106640 -0.184865 0.236920 -0.233721 0.049924 -0.165615 0.117336 -0.328520 0.051612 0.135007 0.235100 0.341972 -0.342275 -0.100756 0.044966 0.339995 0.157382 0.060631 0.306774 -0.245329 -0.214013 0.253362 0.023001 -0.082881 -0.170761 -0.333723 0.014730 0.089113 0.295820 0.214600 -0.107106 0.014383 -0.423757 -0.120582 -0.064771 0.156193 0.276302 -0.270055 0.080441 -0.079961 -0.041046 0.183612 -0.068034 -0.159708 0.097188 0.357655 -0.031447 0.107872 -0.152555 -0.140049 -0.207730 -0.117693 0.013863 0.048783 0.022950 -0.139130 -0.070493 -0.212521 -0.113707 -0.103287 0.011834 -0.288292 0.183256 0.082099 -0.334882 0.082507 0.211166 0.019692 0.259237 0.218030 0.004352 0.010751 0.160550 -0.181763 0.019459 -0.135329 -0.153606 0.062943 -0.247377 -0.334867 0.056804 0.071230 0.075338 -0.289492 0.086192 0.363832 0.221988 0.076127 0.575229 -0.406451 -0.175104 0.155307 0.065044 0.306668 0.415116 0.162374 -0.034940 0.179159 -0.093314 0.035586 
* -0.067108 -0.154837 0.181697 -0.165457 0.025330 -0.118969 0.088363 -0.238141 0.033291 0.108925 0.199020 0.268164 -0.272221 -0.078463 0.040039 0.275885 0.117157 0.072472 0.257235 -0.191319 -0.141489 0.191819 0.018845 -0.067386 -0.132165 -0.244482 0.006909 0.058835 0.221543 0.158593 -0.077381 -0.000387 -0.310002 -0.084931 -0.054316 0.100281 0.209347 -0.188419 0.057854 -0.053595 -0.035194 0.136112 -0.044770 -0.119636 0.068162 0.245370 -0.035133 0.079737 -0.121217 -0.102540 -0.162795 -0.068410 0.014114 0.057521 0.022102 -0.091164 -0.039849 -0.160505 -0.082432 -0.066951 0.006556 -0.214170 0.123886 0.062674 -0.260117 0.053522 0.145063 0.015771 0.192782 0.162262 -0.000191 -0.004440 0.115002 -0.122859 0.003523 -0.077820 -0.131345 0.032423 -0.168754 -0.237270 0.029566 0.044995 0.064731 -0.226345 0.053973 0.278826 0.167528 0.069918 0.422209 -0.295872 -0.118593 0.128134 0.061726 0.223445 0.310649 0.116491 -0.016795 0.126265 -0.070131 0.020246 
in -0.078744 -0.140028 0.182176 -0.182260 0.042199 -0.130893 0.087712 -0.254736 0.044996 0.106622 0.182771 0.267962 -0.260085 -0.070593 0.036258 0.249011 0.127880 0.044785 0.224810 -0.185264 -0.166868 0.178430 0.022830 -0.064913 -0.115413 -0.242676 0.006595 0.061314 0.216238 0.161135 -0.073661 0.015673 -0.313172 -0.095726 -0.045579 0.114396 0.207517 -0.204492 0.056430 -0.062290 -0.027969 0.129731 -0.037477 -0.127376 0.076874 0.271239 -0.014496 0.077523 -0.112008 -0.104848 -0.164674 -0.096652 0.007748 0.031664 0.021809 -0.106429 -0.054833 -0.160112 -0.074283 -0.070813 0.009802 -0.218543 0.140715 0.068120 -0.251343 0.058930 0.173974 0.012070 0.198285 0.160513 0.006753 0.015984 0.133717 -0.133379 0.029725 -0.100197 -0.109397 0.066584 -0.194767 -0.234199 0.045155 0.050383 0.050057 -0.189997 0.069697 0.264788 0.156290 0.045381 0.432115 -0.301450 -0.128371 0.111515 0.037647 0.216112 0.298630 0.117707 -0.029187 0.135142 -0.069762 0.028902 
^ -0.116043 -0.198037 0.271152 -0.249294 0.050380 -0.195358 0.133866 -0.386182 0.091583 0.162320 0.224435 0.368745 -0.353411 -0.090030 0.034570 0.328352 0.177876 0.045593 0.279079 -0.236612 -0.246579 0.247124 0.017753 -0.061298 -0.144157 -0.350670 0.007170 0.094392 0.280225 0.232499 -0.106899 0.042713 -0.452595 -0.126738 -0.041736 0.187064 0.292540 -0.294275 0.062873 -0.074723 -0.045132 0.195487 -0.076190 -0.182834 0.098788 0.401738 -0.013372 0.103927 -0.124807 -0.124644 -0.193586 -0.154963 0.033051 0.026038 0.033993 -0.150748 -0.104635 -0.202300 -0.117034 -0.127870 0.013722 -0.327128 0.231697 0.058170 -0.334892 0.095918 0.259584 0.026523 0.254772 0.229185 -0.010685 0.015603 0.192777 -0.194030 0.023996 -0.151504 -0.157475 0.113770 -0.287311 -0.326076 0.073865 0.078056 0.064207 -0.268409 0.108195 0.367765 0.226095 0.064238 0.628577 -0.431336 -0.175892 0.162923 0.052651 0.329248 0.402296 0.153145 -0.034395 0.208483 -0.124703 0.073749 
Azerbaijan -0.056425 -0.199001 0.225465 -0.218365 0.021236 -0.135024 0.107166 -0.294079 0.035097 0.118368 0.257701 0.327300 -0.354830 -0.100186 0.063363 0.348305 0.157259 0.109382 0.334489 -0.257489 -0.139953 0.255198 0.020709 -0.090407 -0.201661 -0.307315 0.007954 0.062908 0.296231 0.214125 -0.101945 0.008901 -0.401349 -0.107545 -0.089738 0.120788 0.273839 -0.241335 0.081579 -0.077154 -0.034647 0.195089 -0.063543 -0.143507 0.080212 0.321259 -0.067620 0.121809 -0.196982 -0.150526 -0.224052 -0.074038 0.008642 0.079899 0.045296 -0.111162 -0.036843 -0.236895 -0.112170 -0.077938 -0.012963 -0.272860 0.135973 0.072434 -0.352363 0.054884 0.152052 0.016932 0.237576 0.198488 0.010763 0.000365 0.121321 -0.160533 -0.007435 -0.096366 -0.170461 0.009877 -0.203336 -0.322870 0.017679 0.041204 0.114327 -0.303797 0.062323 0.369989 0.210894 0.098279 0.543472 -0.384731 -0.143303 0.183461 0.112456 0.298429 0.427059 0.148506 -0.024898 0.155597 -0.082119 0.018065 
to -0.064107 -0.125753 0.169241 -0.161500 0.040952 -0.126570 0.073323 -0.239453 0.044708 0.099814 0.145852 0.227132 -0.217760 -0.051849 0.033664 0.201130 0.100968 0.026184 0.192022 -0.146393 -0.161871 0.145767 0.019975 -0.056398 -0.104868 -0.227062 0.011344 0.039375 0.188506 0.147061 -0.073085 0.017497 -0.284580 -0.097912 -0.023941 0.107153 0.175071 -0.185130 0.046088 -0.047147 -0.029148 0.111001 -0.044218 -0.120558 0.070458 0.226638 -0.005883 0.060453 -0.082244 -0.074047 -0.131384 -0.091787 -0.005080 0.020186 0.018113 -0.089068 -0.045607 -0.142121 -0.059388 -0.066380 0.018579 -0.182057 0.129419 0.053879 -0.211086 0.060640 0.148792 0.013049 0.173704 0.146319 0.010455 -0.003176 0.124651 -0.131336 0.030674 -0.096889 -0.096559 0.069180 -0.164758 -0.197684 0.044309 0.043017 0.045346 -0.161099 0.050783 0.229076 0.136895 0.042416 0.370473 -0.262457 -0.118562 0.079975 0.040664 0.196463 0.251146 0.093767 -0.016830 0.124487 -0.054085 0.030949 
a -0.108534 -0.211984 0.305269 -0.270177 0.053746 -0.213781 0.146403 -0.405821 0.093272 0.173507 0.269438 0.409030 -0.381330 -0.109618 0.037064 0.371289 0.184633 0.046543 0.329402 -0.275459 -0.258323 0.275149 0.027022 -0.090995 -0.167413 -0.383403 0.015488 0.088621 0.321186 0.246354 -0.122740 0.017210 -0.479689 -0.143792 -0.046761 0.179148 0.313076 -0.316590 0.074117 -0.097988 -0.038708 0.207631 -0.079621 -0.194639 0.102820 0.420163 -0.034359 0.128405 -0.168975 -0.144742 -0.229243 -0.152490 0.010604 0.040540 0.043613 -0.162235 -0.085991 -0.233118 -0.120702 -0.105230 0.007838 -0.342532 0.233607 0.072124 -0.363895 0.104260 0.263327 0.025944 0.284244 0.233866 -0.002910 0.000506 0.180907 -0.210730 0.029146 -0.143997 -0.159053 0.091527 -0.276686 -0.358926 0.079423 0.071984 0.090577 -0.310259 0.110323 0.401031 0.240866 0.085889 0.658668 -0.462478 -0.206671 0.166857 0.075886 0.365662 0.456512 0.164500 -0.045284 0.213785 -0.112728 0.065903 
The -0.114658 -0.183152 0.244879 -0.230672 0.063990 -0.177392 0.115602 -0.353733 0.067474 0.137998 0.217762 0.327254 -0.313661 -0.087774 0.034995 0.295188 0.161403 0.042086 0.264119 -0.220574 -0.235752 0.214937 0.017348 -0.068328 -0.141545 -0.323528 0.006388 0.073622 0.259540 0.209792 -0.097936 0.024339 -0.414619 -0.126906 -0.035845 0.162298 0.257522 -0.271185 0.060014 -0.066760 -0.048138 0.163823 -0.048543 -0.167071 0.085885 0.357052 -0.002174 0.099314 -0.114544 -0.102772 -0.186999 -0.145997 0.002695 0.034671 0.035649 -0.138246 -0.090174 -0.195679 -0.095765 -0.102388 0.019601 -0.289202 0.207563 0.071677 -0.314310 0.087839 0.225877 0.031605 0.250829 0.203661 -0.004253 -0.000585 0.179808 -0.188067 0.036774 -0.143109 -0.143444 0.100558 -0.254990 -0.299929 0.080113 0.070939 0.047548 -0.240734 0.098176 0.329102 0.201078 0.049046 0.560641 -0.398211 -0.175849 0.129311 0.055852 0.295083 0.350794 0.137185 -0.044898 0.180207 -0.093073 0.062678 
Retrieved 0.036013 -0.393672 0.311973 -0.265055 -0.061403 -0.100382 0.208814 -0.243013 -0.029284 0.177346 0.509969 0.548227 -0.680342 -0.227778 0.163841 0.706334 0.238585 0.369595 0.700917 -0.484747 0.013516 0.433152 -0.007230 -0.215357 -0.447189 -0.384688 -0.009720 0.129607 0.463917 0.294283 -0.106109 -0.075959 -0.556989 -0.096057 -0.212998 0.061392 0.449306 -0.262509 0.196244 -0.111224 -0.011185 0.323373 -0.120941 -0.152707 0.041874 0.342138 -0.315045 0.209720 -0.451961 -0.325714 -0.366510 0.092570 0.084167 0.264720 0.059353 -0.066997 0.071733 -0.375120 -0.229550 -0.027451 -0.087398 -0.369567 -0.006572 0.101722 -0.589954 0.040623 0.045442 -0.004950 0.293233 0.294292 0.044619 -0.034063 0.027398 -0.153932 -0.126543 0.012058 -0.348584 -0.194015 -0.230554 -0.509859 -0.097802 -0.005150 0.300165 -0.612422 0.012208 0.629993 0.296431 0.219197 0.727291 -0.527761 -0.105984 0.411928 0.321418 0.414673 0.777360 0.287590 0.035822 0.155458 -0.041888 -0.096886 
is -0.096043 -0.285303 0.332362 -0.299110 0.026437 -0.214410 0.170091 -0.420052 0.047079 0.200826 0.376156 0.486269 -0.502528 -0.138033 0.094162 0.495344 0.227255 0.139354 0.474895 -0.365014 -0.230190 0.342427 0.033339 -0.145272 -0.265657 -0.438706 0.018849 0.109670 0.395957 0.303647 -0.143267 0.006242 -0.560220 -0.159666 -0.095508 0.169415 0.369323 -0.346035 0.118234 -0.101283 -0.032292 0.262135 -0.088225 -0.219391 0.105438 0.444877 -0.093933 0.159400 -0.247072 -0.209521 -0.302498 -0.119404 0.031717 0.120040 0.061202 -0.174938 -0.077991 -0.302918 -0.142588 -0.100008 -0.003581 -0.387614 0.206507 0.110728 -0.480325 0.103299 0.243796 0.023558 0.335199 0.288767 0.015372 0.006336 0.177676 -0.228586 0.016551 -0.130107 -0.236033 0.042999 -0.299574 -0.429708 0.050781 0.072540 0.139401 -0.417774 0.094380 0.499734 0.290694 0.116480 0.754917 -0.535690 -0.205861 0.254159 0.140855 0.411161 0.589790 0.223864 -0.023151 0.223461 -0.101076 0.027612 
was -0.082678 -0.220520 0.258640 -0.243488 0.037267 -0.167890 0.130976 -0.338981 0.046964 0.143314 0.279813 0.379984 -0.400183 -0.106926 0.063117 0.386836 0.167358 0.094529 0.352793 -0.267921 -0.200716 0.266124 0.025962 -0.108545 -0.205913 -0.348896 0.012193 0.080879 0.308115 0.225895 -0.105555 0.008152 -0.452048 -0.129412 -0.073307 0.144611 0.292019 -0.277854 0.085479 -0.089378 -0.034651 0.194589 -0.058901 -0.171895 0.085322 0.353078 -0.062400 0.122258 -0.192727 -0.152186 -0.239446 -0.089404 0.015654 0.072225 0.045403 -0.123766 -0.060238 -0.245975 -0.117871 -0.087632 0.002269 -0.306832 0.175861 0.081703 -0.368986 0.082589 0.195926 0.026484 0.265876 0.222085 0.015612 0.000522 0.158257 -0.182053 0.017393 -0.112623 -0.178687 0.053175 -0.254743 -0.336801 0.032749 0.061828 0.099132 -0.312746 0.075442 0.394485 0.227731 0.094350 0.607301 -0.430297 -0.175356 0.190503 0.106086 0.316332 0.453286 0.170772 -0.013832 0.168720 -0.083491 0.017205 
by -0.104914 -0.330394 0.382653 -0.356137 0.042759 -0.242242 0.189152 -0.466682 0.063758 0.211697 0.426069 0.551662 -0.591253 -0.174792 0.095060 0.581087 0.250782 0.176305 0.547008 -0.426571 -0.257834 0.407455 0.024288 -0.150215 -0.313863 -0.492874 0.014625 0.127094 0.463587 0.340422 -0.160280 -0.000444 -0.652806 -0.177293 -0.128710 0.192393 0.447249 -0.387363 0.128048 -0.124024 -0.052807 0.292947 -0.106429 -0.238005 0.120572 0.517609 -0.117284 0.176508 -0.290624 -0.246956 -0.354000 -0.119591 0.026959 0.131092 0.051309 -0.178998 -0.066022 -0.353002 -0.185419 -0.119162 -0.002874 -0.439298 0.229873 0.123125 -0.555333 0.107230 0.264798 0.022269 0.390865 0.327525 0.011614 0.003827 0.202321 -0.258551 -0.001795 -0.155590 -0.275387 0.037984 -0.351985 -0.508157 0.050185 0.072191 0.160434 -0.487668 0.102794 0.588857 0.331627 0.141120 0.871576 -0.614329 -0.230967 0.282148 0.161846 0.476299 0.681994 0.262842 -0.026526 0.257693 -0.120567 0.016081 
as -0.086986 -0.144246 0.194435 -0.180218 0.038398 -0.139728 0.089890 -0.255952 0.045003 0.103176 0.174144 0.264689 -0.257401 -0.064025 0.032115 0.252877 0.111654 0.046818 0.229643 -0.170614 -0.180278 0.175456 0.016801 -0.063850 -0.125965 -0.246631 0.013423 0.057393 0.216254 0.175728 -0.074023 0.015200 -0.317415 -0.095847 -0.044809 0.109581 0.200170 -0.203344 0.057159 -0.065479 -0.028202 0.126815 -0.043143 -0.129481 0.072796 0.267289 -0.016728 0.073111 -0.108347 -0.086611 -0.148903 -0.090476 0.000207 0.028858 0.032374 -0.105752 -0.063296 -0.163796 -0.075381 -0.072341 0.020587 -0.206084 0.143186 0.062623 -0.249684 0.066056 0.166991 0.014589 0.187110 0.158804 0.005370 -0.002012 0.125633 -0.148314 0.026321 -0.102823 -0.117834 0.066370 -0.189734 -0.238115 0.054566 0.055130 0.054994 -0.206647 0.059617 0.254891 0.164293 0.060349 0.438572 -0.297950 -0.138113 0.104158 0.050229 0.231697 0.298005 0.109229 -0.028064 0.127334 -0.066175 0.040000 
on -0.083312 -0.267890 0.292694 -0.279591 0.018793 -0.179184 0.162326 -0.355304 0.043944 0.175858 0.352253 0.438624 -0.470198 -0.144313 0.078178 0.466472 0.199042 0.154149 0.450790 -0.337037 -0.180795 0.319865 0.018198 -0.133471 -0.254416 -0.393644 0.012101 0.097739 0.364824 0.269396 -0.116528 -0.005096 -0.511862 -0.145466 -0.108500 0.151158 0.356769 -0.303117 0.110488 -0.096261 -0.038073 0.240067 -0.076770 -0.195706 0.093054 0.397835 -0.106724 0.134145 -0.250047 -0.204434 -0.284194 -0.079003 0.031335 0.115387 0.042902 -0.127609 -0.045717 -0.285203 -0.152054 -0.085758 -0.007071 -0.350622 0.168580 0.098764 -0.434132 0.082975 0.192885 0.016618 0.295221 0.268169 0.007964 -0.005678 0.160669 -0.194309 -0.012282 -0.110204 -0.220168 0.019611 -0.276769 -0.404139 0.020380 0.053427 0.135167 -0.393678 0.069804 0.468972 0.259205 0.115282 0.685699 -0.479901 -0.182240 0.233549 0.138298 0.371567 0.543381 0.206288 -0.011788 0.189184 -0.097392 0.001755 
for -0.077074 -0.190532 0.241053 -0.218122 0.028011 -0.162066 0.120606 -0.303111 0.050681 0.148430 0.254415 0.339554 -0.339734 -0.090756 0.057788 0.330760 0.160776 0.086965 0.316089 -0.246262 -0.182784 0.245182 0.028821 -0.099616 -0.187384 -0.320174 0.007477 0.064643 0.279949 0.217218 -0.111623 0.009908 -0.407124 -0.125818 -0.065533 0.129849 0.260214 -0.250791 0.074211 -0.072921 -0.016372 0.186067 -0.066611 -0.155497 0.076067 0.333372 -0.047413 0.110666 -0.168551 -0.142194 -0.207174 -0.105201 0.023019 0.072504 0.040109 -0.135981 -0.063475 -0.206348 -0.093877 -0.081747 0.010641 -0.269795 0.167077 0.071295 -0.333995 0.085347 0.202285 0.025046 0.252014 0.200217 -0.000244 -0.000440 0.138720 -0.174379 0.028453 -0.113412 -0.154794 0.037783 -0.224076 -0.296098 0.044409 0.050035 0.086517 -0.279542 0.069576 0.349452 0.201776 0.076747 0.545899 -0.392981 -0.165185 0.164198 0.075822 0.300031 0.397962 0.150398 -0.027568 0.154821 -0.081806 0.033870 
Azerbaijani -0.096860 -0.318701 0.351887 -0.330268 0.033166 -0.215465 0.183894 -0.436870 0.061614 0.202193 0.410369 0.520362 -0.549371 -0.169747 0.095533 0.553710 0.240790 0.167659 0.514767 -0.400253 -0.230199 0.375752 0.027014 -0.149028 -0.294880 -0.450135 0.024239 0.111804 0.426041 0.302719 -0.141924 0.000950 -0.595772 -0.164573 -0.110139 0.181232 0.408883 -0.365670 0.121727 -0.114626 -0.041280 0.275825 -0.087045 -0.223228 0.116699 0.457969 -0.108725 0.163087 -0.285231 -0.225038 -0.331623 -0.098752 0.018229 0.120562 0.049746 -0.160758 -0.060261 -0.327050 -0.162432 -0.111290 -0.010864 -0.397096 0.206597 0.113944 -0.511160 0.101244 0.242193 0.022476 0.345986 0.297614 0.011525 -0.003007 0.185146 -0.240247 0.004635 -0.128979 -0.254821 0.029459 -0.315585 -0.463908 0.039977 0.055575 0.149659 -0.452379 0.091798 0.530943 0.313221 0.136370 0.803818 -0.572989 -0.212316 0.259636 0.151775 0.437033 0.621096 0.240923 -0.018720 0.222983 -0.113298 0.009622 
with -0.071694 -0.136926 0.161251 -0.161810 0.038123 -0.115288 0.084608 -0.230217 0.040119 0.094547 0.169915 0.235221 -0.233446 -0.068241 0.029155 0.221237 0.111331 0.053865 0.204840 -0.170478 -0.149765 0.164507 0.022805 -0.063462 -0.117058 -0.233560 0.007196 0.048395 0.199602 0.149268 -0.077692 0.014067 -0.300207 -0.098314 -0.043671 0.105387 0.182886 -0.184323 0.046659 -0.060541 -0.033151 0.128377 -0.037716 -0.119236 0.056581 0.249330 -0.021978 0.072419 -0.097798 -0.084574 -0.146560 -0.083914 0.004955 0.037862 0.030825 -0.103043 -0.050679 -0.152609 -0.062108 -0.061665 0.003129 -0.194396 0.130003 0.059299 -0.233988 0.064067 0.139395 0.011581 0.179819 0.146253 0.000191 0.000709 0.119207 -0.137218 0.015842 -0.093683 -0.103324 0.052580 -0.171113 -0.221894 0.033291 0.037327 0.055953 -0.189395 0.058271 0.248255 0.158913 0.051657 0.391606 -0.272643 -0.122045 0.099612 0.043366 0.211816 0.266625 0.104688 -0.025821 0.127239 -0.057847 0.022702 
are -0.089680 -0.241785 0.290376 -0.272613 0.030571 -0.184618 0.149849 -0.357842 0.047801 0.171140 0.328603 0.416891 -0.446858 -0.132694 0.065048 0.432014 0.184507 0.120419 0.409877 -0.319881 -0.197764 0.306137 0.028995 -0.112647 -0.218135 -0.377576 0.023959 0.092839 0.352568 0.245405 -0.120115 -0.008809 -0.482929 -0.140297 -0.094051 0.161969 0.328781 -0.309345 0.097003 -0.104636 -0.043647 0.223234 -0.063631 -0.193285 0.091556 0.384762 -0.073178 0.139624 -0.217284 -0.185656 -0.272015 -0.089036 0.025947 0.097663 0.034470 -0.136069 -0.053141 -0.260498 -0.143498 -0.101021 -0.004165 -0.339835 0.175759 0.088583 -0.404821 0.092386 0.219256 0.009465 0.296588 0.253502 0.007513 0.006809 0.165881 -0.184501 0.006827 -0.122847 -0.201944 0.027174 -0.275123 -0.384451 0.037221 0.067867 0.111455 -0.362123 0.070286 0.432027 0.244021 0.103825 0.660309 -0.463234 -0.174497 0.214316 0.113682 0.355912 0.505048 0.192512 -0.028058 0.192504 -0.098854 0.012067 
from -0.055157 -0.204680 0.238661 -0.224297 0.033288 -0.155920 0.123838 -0.295043 0.029828 0.148210 0.266698 0.348200 -0.362708 -0.083700 0.072123 0.356856 0.153568 0.077689 0.326941 -0.238609 -0.150249 0.233815 0.014446 -0.111262 -0.188259 -0.309320 0.022351 0.069454 0.261632 0.196205 -0.093966 0.004950 -0.381937 -0.125512 -0.060016 0.132507 0.263630 -0.255176 0.072800 -0.071869 -0.034207 0.168403 -0.058942 -0.152126 0.063753 0.320979 -0.056324 0.118424 -0.190020 -0.125679 -0.230477 -0.073495 -0.006970 0.068191 0.025981 -0.096876 -0.060214 -0.207881 -0.120899 -0.085707 -0.002733 -0.258075 0.148580 0.066623 -0.313217 0.084505 0.184234 0.014865 0.247037 0.198075 0.004168 0.005691 0.142996 -0.142478 0.010524 -0.089118 -0.143304 0.031588 -0.208832 -0.287690 0.040594 0.051823 0.070585 -0.287441 0.051597 0.335708 0.180554 0.085955 0.522017 -0.375923 -0.156300 0.169743 0.101175 0.271251 0.390560 0.154775 -0.013016 0.150321 -0.064234 0.007199 
has -0.080031 -0.169164 0.210679 -0.201156 0.031554 -0.136939 0.115547 -0.273020 0.049050 0.119840 0.244217 0.320340 -0.341055 -0.084870 0.050105 0.331743 0.144696 0.106725 0.292424 -0.237437 -0.165054 0.225705 0.021896 -0.100018 -0.168448 -0.292673 0.017697 0.072491 0.271668 0.185719 -0.084215 0.011746 -0.380088 -0.122166 -0.060544 0.109622 0.239589 -0.216869 0.083514 -0.071684 -0.039037 0.170111 -0.051184 -0.165243 0.075119 0.292634 -0.050370 0.101767 -0.159232 -0.139902 -0.195299 -0.082464 0.024259 0.078825 0.025142 -0.117863 -0.055987 -0.205831 -0.080800 -0.065443 0.001774 -0.251528 0.129821 0.088610 -0.314278 0.080603 0.178384 0.006874 0.215693 0.190966 0.020550 0.012237 0.112302 -0.166634 0.018993 -0.074566 -0.155483 0.038531 -0.215155 -0.296798 0.022581 0.048885 0.081837 -0.262321 0.072320 0.334479 0.197902 0.071380 0.493656 -0.343408 -0.132354 0.159089 0.083252 0.255563 0.372468 0.146779 -0.026588 0.147118 -0.061633 0.022627 
at -0.061048 -0.186476 0.217652 -0.205969 0.020587 -0.144735 0.116977 -0.272477 0.027429 0.137142 0.244564 0.303621 -0.317281 -0.074518 0.061002 0.306801 0.150608 0.073674 0.294934 -0.215489 -0.154251 0.220957 0.022928 -0.093620 -0.178691 -0.291109 0.028644 0.065837 0.251220 0.200333 -0.099940 0.004173 -0.373366 -0.111891 -0.063215 0.121215 0.237169 -0.231040 0.067006 -0.067917 -0.018990 0.151576 -0.060839 -0.135243 0.065203 0.298437 -0.058992 0.092427 -0.161189 -0.132762 -0.214296 -0.083001 0.019302 0.074536 0.033240 -0.120993 -0.053250 -0.191867 -0.091669 -0.062423 -0.000736 -0.246885 0.139337 0.058129 -0.310859 0.072937 0.176347 0.023082 0.231908 0.191838 -0.000719 0.003938 0.131309 -0.142544 0.012973 -0.084743 -0.138117 0.023073 -0.204640 -0.261173 0.039553 0.049706 0.078541 -0.252362 0.060916 0.326668 0.191943 0.078527 0.486364 -0.355521 -0.140964 0.166027 0.083880 0.265120 0.370491 0.150022 -0.028504 0.145457 -0.070773 0.021036 
its -0.072279 -0.137669 0.160034 -0.155072 0.038565 -0.118843 0.083704 -0.225907 0.033722 0.097435 0.176054 0.238081 -0.236394 -0.058403 0.042073 0.223529 0.104343 0.047671 0.215773 -0.171755 -0.144617 0.166545 0.026254 -0.069451 -0.115689 -0.224542 0.007688 0.045475 0.196830 0.148673 -0.068907 0.017938 -0.284428 -0.084810 -0.043486 0.105060 0.181897 -0.183737 0.051507 -0.058089 -0.029057 0.116028 -0.034681 -0.115193 0.064396 0.232159 -0.023944 0.068929 -0.097149 -0.084632 -0.148711 -0.080699 -0.003278 0.031867 0.028166 -0.084458 -0.055375 -0.139305 -0.061913 -0.065091 0.005027 -0.198697 0.132571 0.065414 -0.235574 0.065062 0.133046 0.015490 0.176996 0.141190 0.003202 0.000291 0.112509 -0.130835 0.023513 -0.079391 -0.103477 0.050861 -0.154203 -0.214381 0.032663 0.033689 0.044521 -0.180395 0.058706 0.236344 0.143433 0.050349 0.382280 -0.267956 -0.112673 0.102619 0.042748 0.204731 0.265500 0.098175 -0.019812 0.124880 -0.058202 0.024712 
that -0.054803 -0.089117 0.127829 -0.136266 0.036635 -0.107203 0.066738 -0.178029 0.044653 0.064127 0.123307 0.191226 -0.174382 -0.045493 0.038346 0.184092 0.078020 0.033120 0.149152 -0.129425 -0.124382 0.143890 0.016272 -0.059591 -0.099455 -0.179748 0.007881 0.042681 0.164721 0.114061 -0.063519 0.008290 -0.236330 -0.085393 -0.024625 0.092324 0.152172 -0.149906 0.041759 -0.058109 -0.021285 0.094938 -0.031909 -0.107400 0.052431 0.205121 -0.018468 0.071134 -0.076102 -0.071351 -0.127150 -0.065295 0.001514 0.018292 0.014138 -0.076211 -0.041043 -0.131197 -0.056297 -0.052555 0.011037 -0.170972 0.118009 0.066637 -0.197248 0.054201 0.136238 0.009346 0.136281 0.117072 0.018514 0.005128 0.094148 -0.113037 0.025315 -0.064682 -0.087935 0.053028 -0.134009 -0.172033 0.036523 0.027640 0.042880 -0.145161 0.052956 0.190542 0.129907 0.032206 0.326665 -0.219482 -0.097741 0.076798 0.045739 0.173570 0.222278 0.081424 -0.021143 0.110723 -0.033103 0.021859 
In -0.080578 -0.285903 0.328582 -0.300886 0.019289 -0.208076 0.168832 -0.387828 0.057842 0.186589 0.375050 0.482089 -0.517650 -0.153162 0.090385 0.517586 0.221814 0.165151 0.491135 -0.364448 -0.211140 0.349994 0.013022 -0.138484 -0.276866 -0.427355 0.012069 0.111807 0.403564 0.285274 -0.136474 -0.002914 -0.557786 -0.147421 -0.112675 0.165042 0.385736 -0.329210 0.111065 -0.103520 -0.042797 0.244667 -0.078693 -0.209316 0.099747 0.432769 -0.109169 0.148179 -0.262046 -0.208882 -0.300485 -0.080762 0.026380 0.118011 0.050918 -0.146830 -0.053650 -0.312096 -0.165631 -0.102454 -0.009240 -0.374327 0.178474 0.106567 -0.473512 0.093608 0.214370 0.017453 0.332225 0.276720 0.010138 -0.006757 0.173173 -0.212447 -0.007100 -0.122895 -0.240328 0.012566 -0.295924 -0.424039 0.036114 0.063279 0.152178 -0.424438 0.068479 0.503403 0.281861 0.127073 0.737180 -0.517103 -0.199317 0.246157 0.154416 0.398067 0.589477 0.221459 -0.010968 0.211711 -0.094149 -0.001302 
2011. 0.117016 -0.477370 0.340320 -0.315042 -0.103524 -0.077018 0.200739 -0.229359 -0.078300 0.175786 0.670178 0.665499 -0.869622 -0.287547 0.219652 0.885944 0.290948 0.514199 0.903897 -0.611205 0.059943 0.540659 -0.018289 -0.272661 -0.575523 -0.444872 0.001740 0.156081 0.586578 0.344087 -0.102987 -0.129957 -0.626795 -0.126560 -0.297335 0.029087 0.536973 -0.302679 0.269416 -0.144084 -0.030042 0.380149 -0.122064 -0.180045 0.036180 0.334935 -0.418892 0.253126 -0.612446 -0.416343 -0.493563 0.186818 0.079246 0.376183 0.070482 -0.040331 0.129545 -0.485595 -0.290147 -0.014655 -0.133154 -0.402600 -0.057798 0.147520 -0.729992 0.002206 -0.009696 -0.002436 0.355107 0.361346 0.089584 -0.040434 0.005402 -0.160437 -0.172480 0.060570 -0.423384 -0.294797 -0.231535 -0.596960 -0.135645 -0.027991 0.387254 -0.765106 -0.040148 0.765213 0.352082 0.302282 0.845806 -0.610931 -0.101355 0.496711 0.421593 0.443752 0.971315 0.332324 0.054814 0.157346 -0.047067 -0.164429 
May 0.113899 -0.432514 0.329132 -0.278558 -0.094191 -0.088565 0.175077 -0.215907 -0.076739 0.170489 0.603634 0.601086 -0.776973 -0.230957 0.203162 0.817361 0.250047 0.445018 0.809699 -0.586077 0.046628 0.506705 0.007818 -0.263738 -0.531383 -0.427468 0.005551 0.122490 0.534763 0.325345 -0.127794 -0.138002 -0.625992 -0.136646 -0.243502 0.029587 0.476436 -0.260708 0.237300 -0.130317 -0.022564 0.314681 -0.098630 -0.150029 0.028937 0.318245 -0.376121 0.253297 -0.527418 -0.370175 -0.436638 0.149423 0.055420 0.375019 0.088197 -0.027206 0.116502 -0.446245 -0.267544 -0.001239 -0.103908 -0.364565 -0.069986 0.150550 -0.667071 0.027942 0.004313 0.002890 0.304845 0.335165 0.096200 -0.047079 -0.023721 -0.174021 -0.131639 0.059900 -0.414645 -0.284566 -0.167917 -0.527049 -0.104778 -0.031317 0.356657 -0.723165 -0.040056 0.719695 0.340830 0.302336 0.756098 -0.546276 -0.130822 0.465419 0.366274 0.439494 0.854667 0.303049 0.043208 0.127492 -0.025720 -0.151721 
Archived_from 0.008199 -0.328922 0.334431 -0.283920 -0.033754 -0.170316 0.186480 -0.284277 -0.020813 0.186692 0.493190 0.464666 -0.624418 -0.178635 0.110487 0.650247 0.257324 0.255431 0.618672 -0.403894 -0.054467 0.362970 -0.008561 -0.147057 -0.335449 -0.381240 0.037877 0.120763 0.380601 0.285612 -0.090537 -0.074493 -0.539000 -0.131229 -0.187645 0.109572 0.392198 -0.301281 0.153422 -0.097347 -0.074301 0.250940 -0.109864 -0.163399 0.081428 0.317737 -0.209487 0.126912 -0.340235 -0.281988 -0.323649 0.037683 0.051705 0.232369 0.045791 -0.065217 -0.032611 -0.328080 -0.193516 -0.072441 -0.044300 -0.353583 0.068425 0.057255 -0.478742 0.060339 0.136983 0.008793 0.275237 0.253564 0.026565 -0.005236 0.075631 -0.138177 -0.098623 -0.041329 -0.299106 -0.139504 -0.231042 -0.430684 -0.064358 0.017803 0.177342 -0.541636 -0.017068 0.550708 0.257416 0.200332 0.722263 -0.493273 -0.109966 0.339574 0.187716 0.393808 0.647896 0.244143 0.010106 0.182852 -0.094014 -0.089465 
Soviet -0.078682 -0.200193 0.252650 -0.221678 0.035847 -0.169743 0.124194 -0.319697 0.054463 0.133764 0.254402 0.347580 -0.356606 -0.097221 0.044040 0.342840 0.154190 0.078283 0.319926 -0.246542 -0.194462 0.236884 0.014247 -0.082887 -0.172840 -0.324464 0.016834 0.081264 0.275102 0.212213 -0.105611 0.007590 -0.408402 -0.116759 -0.064321 0.134766 0.270251 -0.255910 0.078913 -0.076570 -0.043018 0.174036 -0.055980 -0.156430 0.084699 0.340814 -0.052059 0.105046 -0.152697 -0.132655 -0.212356 -0.102135 0.005355 0.060621 0.027260 -0.123721 -0.066740 -0.216819 -0.114662 -0.087484 0.014274 -0.276601 0.175619 0.080203 -0.330555 0.072390 0.192386 0.018391 0.248342 0.207576 0.003398 -0.001501 0.144572 -0.168445 0.014812 -0.120190 -0.157257 0.053197 -0.233966 -0.313624 0.053074 0.060924 0.088480 -0.289080 0.082552 0.351092 0.204659 0.080229 0.560728 -0.396100 -0.160337 0.165374 0.079290 0.296443 0.407618 0.157252 -0.022725 0.160986 -0.078501 0.027459 
which -0.085077 -0.235462 0.286430 -0.261828 0.042364 -0.187113 0.136813 -0.364735 0.052644 0.161503 0.299663 0.398516 -0.413862 -0.124843 0.067873 0.409406 0.184801 0.103269 0.388700 -0.305803 -0.202754 0.290058 0.021458 -0.114867 -0.225392 -0.378311 0.013473 0.079173 0.339986 0.255951 -0.122823 -0.003874 -0.484289 -0.146698 -0.085219 0.146022 0.321345 -0.302222 0.094791 -0.095345 -0.046275 0.214120 -0.069185 -0.180379 0.101917 0.388893 -0.061396 0.126494 -0.205646 -0.165756 -0.257337 -0.103268 0.012891 0.077474 0.050608 -0.142623 -0.065275 -0.265341 -0.128242 -0.094498 0.002376 -0.326807 0.184210 0.092689 -0.399243 0.091233 0.223852 0.029601 0.289616 0.244073 0.014052 0.003116 0.166963 -0.200427 0.018229 -0.129954 -0.186592 0.039335 -0.254234 -0.363459 0.042878 0.052460 0.105880 -0.341197 0.076514 0.423816 0.244509 0.096462 0.642431 -0.454665 -0.178614 0.192408 0.110558 0.351067 0.480338 0.173280 -0.030262 0.182545 -0.087310 0.017114 
Azerbaijan, -0.088403 -0.197687 0.233997 -0.213813 0.030145 -0.156032 0.110569 -0.315104 0.039932 0.131741 0.241905 0.335328 -0.339745 -0.104549 0.049214 0.341751 0.153478 0.082516 0.304724 -0.242729 -0.192267 0.230847 0.021469 -0.079177 -0.164224 -0.314511 0.002842 0.070837 0.271394 0.200367 -0.093088 0.006361 -0.392342 -0.109364 -0.056312 0.133210 0.261115 -0.248597 0.064105 -0.071875 -0.044195 0.177690 -0.050343 -0.149897 0.077122 0.320343 -0.039015 0.098817 -0.150096 -0.122707 -0.189545 -0.101573 0.007140 0.053694 0.042800 -0.113467 -0.059336 -0.213497 -0.101765 -0.081315 0.003690 -0.272754 0.161374 0.065646 -0.314386 0.070892 0.183785 0.022481 0.235744 0.192020 -0.008779 -0.002272 0.150659 -0.163503 0.012533 -0.122598 -0.144886 0.057735 -0.228148 -0.302528 0.040234 0.060034 0.086424 -0.269911 0.072628 0.339203 0.199196 0.072152 0.529680 -0.368467 -0.154230 0.148556 0.079270 0.285791 0.372317 0.139420 -0.027684 0.163793 -0.078851 0.025119 
were -0.085569 -0.225963 0.263291 -0.264456 0.029972 -0.174749 0.133380 -0.340207 0.049367 0.155534 0.293397 0.392337 -0.404603 -0.114205 0.069536 0.400341 0.178559 0.100271 0.371747 -0.286291 -0.210064 0.289405 0.022955 -0.101576 -0.217093 -0.365727 0.006037 0.090805 0.339747 0.249758 -0.109585 0.003111 -0.468036 -0.137415 -0.089427 0.148338 0.315110 -0.288391 0.094329 -0.099562 -0.045556 0.212579 -0.068388 -0.182722 0.099199 0.383801 -0.059085 0.132806 -0.197274 -0.174794 -0.249859 -0.106354 0.017882 0.078908 0.038700 -0.138666 -0.062959 -0.254733 -0.116972 -0.096855 0.005025 -0.317150 0.178153 0.099927 -0.400307 0.087611 0.215468 0.029456 0.273903 0.242964 0.017035 0.005091 0.162086 -0.189140 0.022879 -0.124374 -0.195989 0.042413 -0.260240 -0.373655 0.036412 0.061272 0.099980 -0.331366 0.074115 0.415131 0.251804 0.099604 0.630537 -0.458107 -0.181988 0.193718 0.099849 0.338831 0.480811 0.178663 -0.035074 0.191649 -0.090400 0.030258 
original_on 0.041772 -0.426717 0.372735 -0.323287 -0.049369 -0.136153 0.178131 -0.299482 -0.029403 0.216939 0.599125 0.578464 -0.743438 -0.260608 0.169588 0.782903 0.284671 0.382785 0.754333 -0.503038 -0.019142 0.433998 -0.041103 -0.172975 -0.439453 -0.449377 -0.006683 0.129022 0.476210 0.316223 -0.131580 -0.046390 -0.601300 -0.109100 -0.237184 0.051703 0.452953 -0.284437 0.199158 -0.099789 -0.024787 0.308866 -0.103860 -0.197790 0.042159 0.363882 -0.323129 0.154887 -0.492088 -0.348537 -0.379043 0.112442 0.051273 0.329475 0.055283 -0.083016 0.063071 -0.386611 -0.265390 -0.031600 -0.087930 -0.358169 0.004022 0.085702 -0.566496 0.019765 0.065003 0.014178 0.351384 0.316216 0.047003 -0.017423 0.049844 -0.177770 -0.118980 0.003590 -0.339716 -0.220830 -0.218148 -0.508430 -0.105945 -0.025870 0.260905 -0.632759 -0.023948 0.644381 0.301898 0.228654 0.779910 -0.554475 -0.136689 0.402610 0.291084 0.402844 0.800107 0.279809 0.051100 0.131904 -0.093641 -0.138238 
an -0.089287 -0.201269 0.239476 -0.221894 0.041506 -0.159451 0.118574 -0.323239 0.044903 0.132886 0.246968 0.339393 -0.336397 -0.094135 0.052654 0.338024 0.149635 0.069268 0.309673 -0.241951 -0.183138 0.242268 0.024104 -0.083617 -0.181465 -0.320923 0.016774 0.071828 0.284322 0.214547 -0.108029 0.003346 -0.407886 -0.127449 -0.061434 0.130439 0.270603 -0.270259 0.081610 -0.077707 -0.030427 0.183793 -0.059324 -0.157139 0.089833 0.350023 -0.046159 0.110451 -0.161343 -0.138954 -0.215506 -0.110166 0.011885 0.056396 0.035119 -0.133206 -0.059805 -0.222183 -0.104358 -0.087806 0.002533 -0.274501 0.162621 0.081132 -0.338262 0.079577 0.202612 0.025741 0.254161 0.207662 0.002120 0.004824 0.151638 -0.181140 0.027052 -0.114911 -0.160236 0.046581 -0.228517 -0.317096 0.047560 0.052025 0.090471 -0.288090 0.075724 0.361866 0.218162 0.080401 0.561133 -0.400366 -0.169696 0.156990 0.076042 0.299671 0.406557 0.155402 -0.031928 0.168706 -0.085790 0.040417 
also -0.079283 -0.255923 0.290587 -0.263839 0.023999 -0.183193 0.143961 -0.350424 0.043210 0.160476 0.338328 0.431173 -0.453505 -0.140138 0.071956 0.456088 0.199814 0.145842 0.436787 -0.336343 -0.186379 0.318207 0.026079 -0.123581 -0.248194 -0.373251 0.008107 0.098701 0.354012 0.257378 -0.119764 -0.008941 -0.495675 -0.142686 -0.106117 0.140081 0.335358 -0.302108 0.108139 -0.097181 -0.036542 0.234648 -0.076197 -0.189663 0.085640 0.396360 -0.090482 0.144916 -0.232038 -0.192565 -0.275557 -0.081927 0.031985 0.104343 0.042738 -0.135704 -0.054349 -0.279254 -0.140114 -0.083108 -0.014639 -0.332822 0.171211 0.102290 -0.428367 0.088165 0.209386 0.023612 0.289510 0.257401 0.014280 -0.004803 0.152906 -0.198155 -0.006610 -0.115471 -0.205991 0.013521 -0.267530 -0.388956 0.028971 0.055000 0.128375 -0.370150 0.081007 0.448451 0.254424 0.109399 0.662396 -0.477980 -0.171387 0.222111 0.120982 0.353565 0.518300 0.206245 -0.028846 0.185494 -0.089788 0.016643 
World -0.083819 -0.225809 0.272665 -0.232685 0.017928 -0.158499 0.142643 -0.330547 0.041077 0.158668 0.290609 0.391523 -0.419575 -0.124697 0.053979 0.420332 0.179844 0.122582 0.399237 -0.298076 -0.158880 0.288546 0.010843 -0.107455 -0.228368 -0.341501 0.011756 0.082028 0.303070 0.231780 -0.106214 -0.004081 -0.450279 -0.111354 -0.096115 0.145099 0.315485 -0.268662 0.084532 -0.079121 -0.037520 0.212627 -0.067637 -0.165923 0.081779 0.352027 -0.088306 0.129839 -0.222543 -0.175645 -0.243743 -0.081227 0.044669 0.092665 0.032700 -0.123118 -0.060508 -0.241595 -0.142041 -0.075423 -0.019203 -0.305514 0.161578 0.062029 -0.382736 0.073306 0.188284 0.022941 0.245372 0.216941 0.015369 -0.003789 0.138653 -0.154926 -0.004051 -0.097674 -0.179561 0.020882 -0.243570 -0.361069 0.022993 0.059764 0.119951 -0.344657 0.061566 0.411839 0.211973 0.104069 0.586663 -0.426991 -0.141447 0.210089 0.111035 0.325140 0.480670 0.171450 -0.023728 0.169842 -0.090197 0.004017 
Baku -0.046998 -0.209039 0.244050 -0.225188 0.020002 -0.146198 0.124682 -0.287015 0.039940 0.143181 0.292517 0.367271 -0.395825 -0.118908 0.060318 0.391998 0.165447 0.128276 0.374233 -0.279576 -0.146091 0.269980 0.009737 -0.101134 -0.224450 -0.321607 0.010136 0.083845 0.310885 0.222567 -0.096871 -0.017807 -0.429428 -0.113386 -0.090002 0.122825 0.298857 -0.254755 0.094349 -0.081505 -0.024774 0.189492 -0.067175 -0.152690 0.067791 0.322119 -0.093469 0.116049 -0.205031 -0.171564 -0.241456 -0.053078 0.029041 0.106210 0.032162 -0.104041 -0.033960 -0.235762 -0.121441 -0.074427 -0.010507 -0.283586 0.122325 0.077329 -0.367541 0.064187 0.159188 0.016995 0.249398 0.214143 0.004578 -0.008371 0.115675 -0.165961 -0.002453 -0.091678 -0.184610 0.002898 -0.225249 -0.325725 0.017717 0.032569 0.122527 -0.341484 0.046393 0.399069 0.217565 0.101952 0.570401 -0.412130 -0.142601 0.197716 0.118989 0.310331 0.455676 0.168924 -0.002517 0.157114 -0.077186 0.001678 
March -0.031152 -0.331227 0.331210 -0.301214 -0.018571 -0.156019 0.190631 -0.322068 0.023745 0.178093 0.429279 0.529278 -0.606446 -0.183101 0.121009 0.613150 0.228795 0.256417 0.592333 -0.446330 -0.116330 0.405688 0.015193 -0.178516 -0.357880 -0.415996 0.005177 0.115256 0.446802 0.294520 -0.135503 -0.048572 -0.576066 -0.119415 -0.163260 0.121958 0.426167 -0.302473 0.163009 -0.115907 -0.032264 0.285531 -0.096420 -0.170236 0.088215 0.400723 -0.208217 0.195131 -0.352371 -0.263184 -0.335642 -0.018815 0.058424 0.188664 0.060577 -0.114196 0.010966 -0.349551 -0.200769 -0.071153 -0.054919 -0.385593 0.089192 0.112306 -0.547234 0.067532 0.152282 0.008906 0.307521 0.291096 0.039014 -0.004269 0.104862 -0.190311 -0.062152 -0.065156 -0.299359 -0.084689 -0.269103 -0.486217 -0.029001 0.032529 0.226853 -0.526268 0.061340 0.580823 0.290902 0.183516 0.753210 -0.539325 -0.169056 0.329767 0.236799 0.419513 0.689125 0.265320 0.000158 0.191890 -0.075032 -0.048739 
National -0.076700 -0.170886 0.220544 -0.196538 0.034103 -0.151510 0.106416 -0.295076 0.043094 0.132419 0.230812 0.313017 -0.305844 -0.097089 0.036501 0.313526 0.144241 0.077581 0.282898 -0.217189 -0.175360 0.213312 0.010436 -0.077841 -0.144091 -0.278571 0.009164 0.076010 0.244757 0.190376 -0.088652 0.006582 -0.357071 -0.095653 -0.046799 0.117629 0.243337 -0.224499 0.060397 -0.065867 -0.026145 0.159073 -0.060040 -0.136669 0.074293 0.295623 -0.034481 0.083746 -0.130537 -0.112487 -0.168205 -0.089402 0.016739 0.057556 0.030615 -0.113297 -0.051905 -0.182881 -0.089766 -0.070497 0.010332 -0.240967 0.148415 0.065139 -0.280888 0.071071 0.166141 0.018021 0.223163 0.175993 -0.010184 0.003214 0.133161 -0.149865 0.014890 -0.100597 -0.142439 0.056461 -0.201848 -0.277978 0.047662 0.041919 0.070449 -0.253623 0.067768 0.310686 0.172900 0.068496 0.487315 -0.349110 -0.133208 0.138784 0.074979 0.252939 0.346406 0.140412 -0.020001 0.143057 -0.081666 0.034515 
country -0.070052 -0.186964 0.214955 -0.201755 0.031330 -0.149642 0.105671 -0.272959 0.045011 0.126226 0.239357 0.307820 -0.325237 -0.095924 0.060078 0.322949 0.142942 0.086803 0.298718 -0.228888 -0.148907 0.216033 0.019528 -0.086484 -0.174935 -0.274578 0.014127 0.061862 0.255093 0.190587 -0.094631 0.007596 -0.363072 -0.109362 -0.062951 0.109271 0.246416 -0.226605 0.065069 -0.074242 -0.023629 0.161829 -0.058153 -0.141549 0.064106 0.296596 -0.062209 0.101794 -0.164772 -0.127655 -0.193725 -0.061551 0.013823 0.074251 0.033034 -0.105945 -0.048896 -0.197337 -0.097399 -0.067981 0.003122 -0.240946 0.139443 0.073578 -0.300682 0.061431 0.166261 0.020662 0.219167 0.187352 0.006772 -0.000564 0.122965 -0.154392 0.015673 -0.090168 -0.147155 0.027014 -0.192956 -0.276140 0.037206 0.036334 0.074156 -0.265593 0.056700 0.320979 0.185383 0.069012 0.492449 -0.349766 -0.133085 0.148626 0.085721 0.269854 0.373000 0.137809 -0.019091 0.137912 -0.059786 0.012313 
it -0.070118 -0.224675 0.261053 -0.255367 0.030797 -0.169708 0.143162 -0.324424 0.050112 0.139240 0.297734 0.394636 -0.409266 -0.118410 0.080354 0.408355 0.177339 0.130816 0.385009 -0.299831 -0.176546 0.287379 0.026625 -0.117726 -0.225747 -0.348673 0.016134 0.081970 0.337498 0.232001 -0.110975 -0.002460 -0.468689 -0.135690 -0.094475 0.140019 0.316231 -0.273146 0.101360 -0.092280 -0.035276 0.204957 -0.068669 -0.178335 0.094376 0.359428 -0.089622 0.128659 -0.211932 -0.175478 -0.254096 -0.074043 0.024373 0.094885 0.035314 -0.120064 -0.045795 -0.258021 -0.125908 -0.085951 -0.009153 -0.317165 0.158239 0.097513 -0.398064 0.075099 0.189346 0.023893 0.268588 0.235837 0.026143 -0.005070 0.144399 -0.186984 0.006785 -0.092514 -0.202674 0.014678 -0.250169 -0.353695 0.022784 0.044914 0.125295 -0.347105 0.070526 0.413354 0.235683 0.107097 0.622081 -0.430067 -0.162046 0.198466 0.126211 0.336292 0.480692 0.176322 -0.018592 0.175963 -0.073416 0.011542 
June -0.019562 -0.397240 0.391840 -0.329470 -0.010530 -0.202800 0.229388 -0.363519 0.003495 0.217930 0.540866 0.595819 -0.715649 -0.234089 0.157787 0.727057 0.258336 0.305663 0.714524 -0.510334 -0.096843 0.464220 0.013720 -0.211634 -0.434199 -0.486353 0.012309 0.129714 0.512198 0.353943 -0.163740 -0.046828 -0.681074 -0.157462 -0.210338 0.131000 0.494021 -0.340329 0.181071 -0.135356 -0.058080 0.344052 -0.109757 -0.205332 0.102409 0.463764 -0.246807 0.197666 -0.420679 -0.302190 -0.392454 -0.003224 0.060637 0.239352 0.076316 -0.132331 -0.004598 -0.396419 -0.236577 -0.084703 -0.065396 -0.432229 0.101327 0.108299 -0.629441 0.086123 0.162499 0.018470 0.351269 0.331222 0.044690 -0.012953 0.119883 -0.225149 -0.078878 -0.079698 -0.339964 -0.126519 -0.293157 -0.552589 -0.051902 0.022621 0.250992 -0.614857 0.049414 0.664430 0.338082 0.217476 0.868050 -0.619003 -0.169309 0.409506 0.276587 0.489198 0.793754 0.309420 0.005809 0.211252 -0.087012 -0.058498 
have -0.089755 -0.202210 0.256992 -0.237217 0.047891 -0.179043 0.125674 -0.323492 0.061494 0.141273 0.274679 0.381444 -0.384412 -0.107785 0.053913 0.386417 0.168604 0.094477 0.342992 -0.282828 -0.209134 0.269035 0.028906 -0.101719 -0.200965 -0.342602 0.012514 0.081853 0.317857 0.211143 -0.100454 0.007726 -0.436298 -0.128416 -0.062732 0.137980 0.287985 -0.259894 0.083239 -0.083364 -0.040265 0.193362 -0.056021 -0.187996 0.086102 0.353021 -0.047377 0.119534 -0.175673 -0.149458 -0.241284 -0.104483 0.023122 0.071169 0.028550 -0.126423 -0.067150 -0.231770 -0.109206 -0.090365 0.003507 -0.310381 0.174920 0.092977 -0.373002 0.092831 0.212913 0.020497 0.261750 0.218668 0.014377 -0.000768 0.143992 -0.182049 0.015427 -0.101188 -0.172087 0.050159 -0.251616 -0.335353 0.043096 0.064030 0.092322 -0.311535 0.088086 0.385306 0.227860 0.081028 0.591312 -0.424163 -0.158114 0.174535 0.104183 0.313298 0.439972 0.157611 -0.027629 0.181649 -0.078676 0.029289 
Azerbaijan. -0.075103 -0.194482 0.241059 -0.216625 0.031921 -0.159063 0.118381 -0.309326 0.036708 0.140143 0.262582 0.347789 -0.353724 -0.117158 0.047653 0.357631 0.169839 0.083028 0.319865 -0.258677 -0.175951 0.237358 0.014838 -0.082863 -0.171910 -0.314581 0.009707 0.066627 0.269140 0.205484 -0.094098 0.008106 -0.395019 -0.116173 -0.067479 0.129061 0.270157 -0.246088 0.070593 -0.078392 -0.041725 0.174885 -0.051984 -0.157798 0.073912 0.315529 -0.053010 0.101982 -0.170881 -0.139358 -0.205219 -0.090027 0.012249 0.067634 0.042623 -0.118063 -0.058950 -0.208549 -0.105476 -0.080125 0.001125 -0.269659 0.157961 0.065247 -0.323651 0.065104 0.175692 0.024417 0.237131 0.194502 -0.007817 0.000945 0.141235 -0.157695 -0.001834 -0.110001 -0.150298 0.040133 -0.220914 -0.306733 0.032239 0.048676 0.092830 -0.282306 0.059790 0.343014 0.205744 0.081013 0.542205 -0.375532 -0.149097 0.159248 0.081153 0.292751 0.396913 0.142746 -0.026050 0.155870 -0.093522 0.017767 
December -0.019212 -0.368747 0.339565 -0.301408 -0.010582 -0.175897 0.194758 -0.336746 0.008306 0.198496 0.489652 0.529757 -0.637899 -0.208411 0.134118 0.651568 0.236735 0.277237 0.642701 -0.459488 -0.093731 0.420549 -0.008467 -0.183035 -0.395542 -0.427044 0.016499 0.117557 0.441508 0.317608 -0.140472 -0.041460 -0.600646 -0.144667 -0.178523 0.127966 0.424855 -0.313695 0.170239 -0.111351 -0.047965 0.308085 -0.097938 -0.194243 0.094615 0.404824 -0.226803 0.174807 -0.383042 -0.270960 -0.354913 0.007881 0.054384 0.219445 0.047907 -0.113115 0.000417 -0.348213 -0.215602 -0.069098 -0.047029 -0.387241 0.102499 0.097153 -0.558849 0.078274 0.161355 0.013039 0.326951 0.290601 0.038272 -0.019250 0.104477 -0.198499 -0.069215 -0.065216 -0.305543 -0.112935 -0.263750 -0.487848 -0.049189 0.011695 0.213545 -0.552581 0.032968 0.588212 0.303636 0.188448 0.781384 -0.556104 -0.143483 0.356120 0.242891 0.429768 0.704608 0.279302 0.003987 0.192760 -0.078865 -0.062545 
Republic -0.078826 -0.196246 0.234859 -0.217483 0.026294 -0.156467 0.108143 -0.313191 0.037773 0.135047 0.260707 0.331596 -0.353848 -0.119362 0.046259 0.350549 0.158563 0.087679 0.318357 -0.249546 -0.181298 0.231131 0.008979 -0.072648 -0.154654 -0.305078 0.016174 0.076065 0.265426 0.210483 -0.082986 0.009421 -0.394357 -0.120939 -0.074128 0.122872 0.266744 -0.253475 0.058381 -0.067349 -0.048880 0.166845 -0.055798 -0.153886 0.070487 0.325411 -0.042237 0.091881 -0.162568 -0.123738 -0.191178 -0.089179 0.006777 0.064708 0.034724 -0.120306 -0.056589 -0.201683 -0.110983 -0.073040 0.006840 -0.270140 0.156806 0.072866 -0.306252 0.064864 0.180663 0.024414 0.243694 0.203499 -0.005465 -0.000209 0.149672 -0.165735 0.005485 -0.114620 -0.147938 0.046167 -0.214908 -0.298897 0.037719 0.063046 0.081229 -0.275245 0.060496 0.337944 0.206682 0.076007 0.530400 -0.365545 -0.154681 0.147163 0.063562 0.270472 0.379226 0.147333 -0.023385 0.149462 -0.088634 0.015691 
European -0.088085 -0.330062 0.360182 -0.326837 0.028699 -0.229106 0.184966 -0.458265 0.048174 0.205100 0.422355 0.525672 -0.572410 -0.160749 0.100660 0.554994 0.248775 0.159197 0.539536 -0.397979 -0.231228 0.378928 0.027421 -0.152901 -0.307427 -0.483454 0.010612 0.122139 0.430249 0.332519 -0.154279 0.000070 -0.628391 -0.177337 -0.119044 0.187510 0.428153 -0.377923 0.118096 -0.122039 -0.056730 0.278309 -0.086097 -0.225530 0.111983 0.489325 -0.119275 0.168496 -0.284810 -0.223744 -0.338062 -0.119544 0.026320 0.129253 0.063439 -0.175882 -0.065585 -0.338890 -0.175687 -0.120961 -0.005414 -0.421429 0.216701 0.114086 -0.527259 0.104919 0.251543 0.030246 0.372356 0.317803 -0.000450 -0.006653 0.203074 -0.245171 0.003895 -0.141291 -0.253622 0.037143 -0.339048 -0.477126 0.040553 0.069113 0.158887 -0.460680 0.096060 0.562752 0.316157 0.141231 0.828403 -0.602729 -0.217059 0.284287 0.157226 0.453736 0.641941 0.244904 -0.027015 0.239759 -0.111429 0.023555 
Iranian -0.085754 -0.153716 0.193008 -0.180712 0.040045 -0.143656 0.089356 -0.278001 0.036012 0.104619 0.197982 0.276107 -0.278786 -0.076720 0.040705 0.264495 0.132332 0.052481 0.238161 -0.196459 -0.175367 0.189421 0.022777 -0.058589 -0.126306 -0.269559 0.008326 0.064967 0.228678 0.169381 -0.084467 0.017166 -0.339529 -0.108967 -0.047302 0.125047 0.223622 -0.214447 0.048883 -0.058246 -0.040212 0.140249 -0.039294 -0.130967 0.072120 0.289483 -0.009504 0.084070 -0.114791 -0.099357 -0.168367 -0.104740 0.002208 0.039206 0.034933 -0.111367 -0.061466 -0.174182 -0.083030 -0.073303 0.006630 -0.225765 0.154737 0.065254 -0.270614 0.062838 0.181659 0.020622 0.206498 0.170222 0.001025 0.010099 0.144373 -0.150719 0.022806 -0.107907 -0.118028 0.069312 -0.196418 -0.254643 0.048345 0.061050 0.052579 -0.210767 0.062291 0.282184 0.177073 0.058236 0.455121 -0.313295 -0.133414 0.111871 0.044706 0.233052 0.312115 0.115504 -0.028664 0.145900 -0.082527 0.032315 
Azerbaijan's -0.077529 -0.269883 0.310780 -0.285222 0.021111 -0.194588 0.161864 -0.370723 0.045102 0.175902 0.354774 0.454481 -0.493018 -0.145059 0.082200 0.486644 0.210084 0.147836 0.467299 -0.343821 -0.190051 0.330218 0.020718 -0.131279 -0.268484 -0.398596 0.012340 0.094041 0.373871 0.264690 -0.121365 -0.012431 -0.512342 -0.138132 -0.105753 0.152240 0.351692 -0.306562 0.107265 -0.100334 -0.038812 0.233008 -0.080582 -0.191260 0.095415 0.400538 -0.103230 0.140309 -0.252610 -0.196400 -0.279412 -0.083956 0.026842 0.122060 0.047729 -0.129842 -0.049808 -0.289635 -0.147673 -0.097879 -0.012132 -0.356857 0.173271 0.092958 -0.441840 0.087391 0.203085 0.029109 0.305226 0.267930 0.015756 -0.000876 0.152892 -0.198803 0.000710 -0.114089 -0.224015 0.012875 -0.266449 -0.409774 0.022811 0.044401 0.138567 -0.401055 0.075321 0.471865 0.258717 0.122445 0.689495 -0.498494 -0.175756 0.234766 0.149877 0.374256 0.558568 0.207071 -0.014337 0.194943 -0.094071 -0.000547 
– -0.071044 -0.194308 0.233103 -0.203821 0.006185 -0.133053 0.121470 -0.284970 0.054343 0.140492 0.239568 0.346819 -0.349064 -0.113355 0.036640 0.357560 0.166670 0.100111 0.313652 -0.259322 -0.139724 0.256393 -0.005723 -0.081322 -0.174520 -0.290098 0.018711 0.073743 0.277982 0.195580 -0.094025 0.007650 -0.385865 -0.099850 -0.062026 0.124942 0.271615 -0.226295 0.078746 -0.070425 -0.013371 0.180999 -0.069981 -0.142110 0.069254 0.305041 -0.081037 0.118643 -0.184629 -0.161586 -0.198158 -0.078083 0.048951 0.067455 0.026458 -0.113396 -0.057708 -0.206736 -0.110053 -0.074804 -0.010805 -0.271910 0.140738 0.057857 -0.313346 0.066033 0.153640 0.022756 0.219328 0.190498 -0.006879 0.008869 0.119996 -0.146532 -0.024800 -0.086439 -0.161619 0.031178 -0.230341 -0.303658 0.023308 0.060357 0.103711 -0.291877 0.062686 0.343768 0.185847 0.085471 0.519310 -0.363132 -0.136554 0.182048 0.106710 0.298291 0.418349 0.163951 -0.006314 0.154456 -0.077760 0.021174 
been -0.076694 -0.103939 0.118892 -0.136834 0.045874 -0.114023 0.056756 -0.197968 0.041250 0.068716 0.134650 0.188393 -0.165168 -0.041748 0.033737 0.182958 0.079256 0.023057 0.155629 -0.144644 -0.124107 0.131733 0.022261 -0.055672 -0.086007 -0.184186 -0.001879 0.035950 0.172974 0.119684 -0.054219 0.023445 -0.247290 -0.079870 -0.031661 0.091352 0.156587 -0.165528 0.031970 -0.057102 -0.018376 0.112449 -0.035510 -0.107014 0.054593 0.212506 -0.005380 0.077797 -0.083200 -0.072468 -0.124980 -0.064803 -0.006190 0.007008 0.027248 -0.084875 -0.032874 -0.123752 -0.045761 -0.065976 0.010072 -0.177288 0.124985 0.070544 -0.205842 0.062102 0.131917 0.021587 0.139004 0.109411 0.016014 0.004694 0.106986 -0.119686 0.018044 -0.061362 -0.073508 0.066803 -0.128127 -0.187554 0.028595 0.022488 0.040892 -0.133414 0.072090 0.180824 0.141427 0.035960 0.323509 -0.239162 -0.100560 0.060773 0.038352 0.169572 0.222909 0.081749 -0.033407 0.121237 -0.037006 0.035181 
national -0.077160 -0.262473 0.304953 -0.274184 0.020121 -0.192508 0.156767 -0.363138 0.047495 0.178020 0.358681 0.444615 -0.480830 -0.140451 0.086857 0.474463 0.205901 0.145749 0.451874 -0.341952 -0.189286 0.327113 0.021519 -0.124580 -0.254264 -0.388054 0.019053 0.096032 0.365587 0.274699 -0.132616 -0.004926 -0.512483 -0.149178 -0.098132 0.151411 0.351163 -0.316179 0.111524 -0.091175 -0.043663 0.239735 -0.076020 -0.202148 0.095165 0.406020 -0.109410 0.149428 -0.250366 -0.201776 -0.276571 -0.091508 0.032374 0.117738 0.047745 -0.138279 -0.055716 -0.283044 -0.141579 -0.093119 -0.014148 -0.348314 0.173645 0.105195 -0.435706 0.088282 0.218279 0.021158 0.309369 0.264690 0.010545 -0.004347 0.163058 -0.207553 0.004193 -0.108275 -0.222949 0.018499 -0.265764 -0.397093 0.035466 0.051778 0.138644 -0.399768 0.074572 0.472175 0.263532 0.119796 0.683706 -0.495832 -0.175778 0.228629 0.138410 0.367317 0.551611 0.206760 -0.022779 0.203191 -0.092193 0.005175 
May_2007. -0.053123 -0.331856 0.319620 -0.282324 0.000461 -0.171253 0.185133 -0.350414 0.032902 0.202099 0.431990 0.498182 -0.563560 -0.184136 0.097522 0.601546 0.240489 0.245325 0.574047 -0.394719 -0.119612 0.382808 -0.001160 -0.158262 -0.317312 -0.414771 0.007277 0.119691 0.426261 0.299475 -0.123187 -0.015623 -0.542667 -0.130665 -0.148898 0.115918 0.413525 -0.294036 0.153575 -0.113208 -0.023609 0.283321 -0.097572 -0.167423 0.092758 0.391866 -0.184925 0.174232 -0.333114 -0.257306 -0.304742 -0.022443 0.041432 0.184738 0.055880 -0.125802 -0.020658 -0.329008 -0.196245 -0.069573 -0.023440 -0.367747 0.118808 0.095723 -0.507905 0.070483 0.145464 0.021554 0.317698 0.291368 0.013074 -0.008200 0.118487 -0.205768 -0.066115 -0.077358 -0.274643 -0.068819 -0.280617 -0.456187 -0.007766 0.051740 0.189758 -0.503530 0.056315 0.543144 0.281702 0.159514 0.738865 -0.528541 -0.149080 0.312475 0.201395 0.417823 0.652493 0.271249 -0.000391 0.188762 -0.077642 -0.042240 
b -0.104656 -0.125815 0.216470 -0.201755 0.058087 -0.160843 0.107100 -0.301422 0.103759 0.135512 0.167340 0.292788 -0.230853 -0.067372 -0.002031 0.232020 0.134082 0.002939 0.186819 -0.177298 -0.217064 0.170786 -0.004878 -0.049004 -0.086816 -0.267079 0.025117 0.064908 0.222059 0.181157 -0.104983 0.039289 -0.348253 -0.105955 -0.004292 0.142483 0.204918 -0.232725 0.043036 -0.042242 -0.006515 0.143475 -0.062008 -0.172707 0.090886 0.308337 -0.001424 0.066304 -0.070999 -0.093307 -0.144077 -0.136687 0.029134 0.005927 0.018900 -0.145605 -0.089502 -0.154958 -0.050286 -0.087080 0.029554 -0.237049 0.190566 0.041679 -0.244938 0.082797 0.222042 0.013222 0.209640 0.164317 -0.016627 0.015616 0.164016 -0.178624 0.028703 -0.138234 -0.114687 0.109966 -0.238121 -0.226363 0.085203 0.052477 0.048143 -0.196658 0.079660 0.245902 0.149201 0.016550 0.478312 -0.342358 -0.153951 0.095608 0.031636 0.261869 0.295580 0.125962 -0.020655 0.167974 -0.080060 0.063978 
2010. -0.000604 -0.418950 0.368553 -0.336043 -0.030187 -0.187799 0.213122 -0.350148 -0.005992 0.197493 0.551468 0.622364 -0.740182 -0.239483 0.165236 0.765795 0.275559 0.351753 0.739264 -0.523449 -0.063733 0.487418 0.006785 -0.211472 -0.463556 -0.485886 0.004773 0.146736 0.533042 0.363422 -0.138633 -0.051634 -0.667550 -0.154103 -0.216824 0.106646 0.488349 -0.333474 0.188445 -0.139207 -0.050150 0.348573 -0.122616 -0.207893 0.082754 0.433794 -0.266649 0.226338 -0.456232 -0.334384 -0.413838 0.024909 0.068779 0.257842 0.069718 -0.113575 0.020913 -0.421570 -0.242496 -0.076097 -0.079393 -0.430774 0.084243 0.123708 -0.648439 0.066148 0.134582 0.021753 0.361830 0.344883 0.046567 -0.026533 0.092210 -0.218708 -0.091715 -0.052516 -0.358974 -0.158110 -0.278543 -0.567777 -0.069820 0.009319 0.270408 -0.644148 0.045371 0.680542 0.341045 0.226447 0.856722 -0.629660 -0.161508 0.420801 0.300513 0.481771 0.832651 0.315331 0.027067 0.216911 -0.081914 -0.063213 
"Azerbaijan -0.055696 -0.170328 0.232834 -0.201021 0.017065 -0.140381 0.123332 -0.274410 0.059363 0.129825 0.235462 0.332760 -0.313474 -0.090065 0.028479 0.319679 0.146994 0.087935 0.300219 -0.228578 -0.149253 0.234744 -0.000609 -0.088506 -0.166425 -0.286843 0.017758 0.068787 0.262445 0.199533 -0.095169 -0.002047 -0.374247 -0.107875 -0.048878 0.114370 0.251196 -0.230023 0.079000 -0.063257 -0.016892 0.165817 -0.065687 -0.139865 0.081641 0.293624 -0.075713 0.104813 -0.174363 -0.141619 -0.199028 -0.075159 0.033399 0.056354 0.028863 -0.113676 -0.043947 -0.201051 -0.094064 -0.065851 -0.009258 -0.252638 0.131983 0.051035 -0.306871 0.059276 0.160560 0.009439 0.216412 0.173021 0.001085 0.003141 0.113075 -0.160041 -0.003619 -0.091180 -0.141913 0.027692 -0.212267 -0.277834 0.033232 0.041370 0.107118 -0.273020 0.061899 0.322082 0.176335 0.069119 0.506119 -0.360625 -0.141420 0.156470 0.095974 0.280206 0.385121 0.141452 -0.018398 0.160152 -0.067795 0.026194 
one -0.057200 -0.189487 0.215397 -0.198553 0.019608 -0.137353 0.112838 -0.261140 0.037901 0.124588 0.252138 0.314330 -0.334909 -0.103402 0.058461 0.330327 0.137514 0.095168 0.319429 -0.239068 -0.140501 0.230059 0.014935 -0.086008 -0.184358 -0.276792 0.004191 0.070391 0.270104 0.195509 -0.091286 -0.007734 -0.363055 -0.108163 -0.078035 0.104973 0.251982 -0.226751 0.076077 -0.071249 -0.023974 0.169917 -0.064190 -0.134598 0.070174 0.295241 -0.061718 0.097528 -0.173331 -0.143255 -0.195625 -0.060982 0.010835 0.073891 0.039076 -0.094482 -0.038448 -0.207758 -0.105093 -0.070762 -0.003785 -0.251300 0.129356 0.064376 -0.316129 0.058110 0.150687 0.021208 0.220000 0.192953 0.011600 0.004424 0.107981 -0.149913 0.003049 -0.082660 -0.152384 0.011796 -0.200133 -0.292964 0.026459 0.040591 0.090921 -0.281473 0.060207 0.335824 0.187138 0.083256 0.497573 -0.355477 -0.133246 0.158542 0.092004 0.266339 0.385294 0.142165 -0.012067 0.138673 -0.069288 0.001579 
A -0.090171 -0.242148 0.298514 -0.278039 0.035571 -0.189431 0.157182 -0.376610 0.058538 0.167420 0.310950 0.423021 -0.433121 -0.126064 0.062337 0.415104 0.194980 0.104650 0.397863 -0.317250 -0.217558 0.295583 0.024833 -0.110986 -0.226779 -0.388874 0.018241 0.101466 0.347612 0.260262 -0.126406 0.004808 -0.503368 -0.142942 -0.083531 0.159887 0.329586 -0.312931 0.099641 -0.091047 -0.040225 0.223418 -0.074727 -0.196997 0.107290 0.406463 -0.075150 0.128902 -0.204668 -0.176941 -0.262037 -0.123854 0.023040 0.086122 0.032374 -0.162554 -0.062300 -0.264488 -0.131885 -0.098282 0.010482 -0.331879 0.195944 0.083599 -0.406964 0.092578 0.231082 0.022925 0.301724 0.251204 -0.001295 0.004821 0.179243 -0.210748 0.011653 -0.135551 -0.196245 0.052610 -0.280834 -0.381403 0.054916 0.060977 0.110280 -0.354854 0.088850 0.433617 0.256682 0.094524 0.679864 -0.486810 -0.194084 0.210436 0.106119 0.365159 0.499633 0.188186 -0.035310 0.201371 -0.104643 0.038806 
April -0.011006 -0.324247 0.303147 -0.266152 -0.030306 -0.136092 0.172428 -0.277923 -0.000913 0.168681 0.420599 0.474951 -0.567958 -0.187786 0.115571 0.586850 0.219824 0.270306 0.581436 -0.419765 -0.061567 0.376294 -0.002950 -0.170276 -0.353453 -0.370670 -0.002136 0.105676 0.409702 0.272046 -0.117248 -0.043908 -0.513180 -0.116337 -0.163214 0.088169 0.392658 -0.265722 0.153781 -0.110629 -0.027249 0.264347 -0.087216 -0.162347 0.069130 0.345002 -0.214730 0.179207 -0.351640 -0.263276 -0.314897 0.026632 0.057663 0.210055 0.058645 -0.098272 0.023749 -0.315370 -0.183217 -0.054590 -0.061025 -0.332684 0.058021 0.097963 -0.503064 0.057486 0.104544 0.008264 0.276767 0.261349 0.029549 -0.024412 0.079623 -0.163967 -0.074771 -0.042465 -0.276552 -0.114832 -0.233358 -0.440271 -0.038985 0.021910 0.220424 -0.500413 0.026085 0.523371 0.259038 0.168086 0.675668 -0.479702 -0.135732 0.312754 0.233978 0.377191 0.640283 0.241694 0.014475 0.157239 -0.064893 -0.056579 
Iran -0.084872 -0.222375 0.252459 -0.248098 0.031843 -0.172048 0.137665 -0.320922 0.053751 0.144830 0.284036 0.385452 -0.396105 -0.108839 0.069950 0.399073 0.171727 0.117123 0.368695 -0.284745 -0.182607 0.281000 0.024400 -0.109690 -0.213155 -0.346802 0.009557 0.093033 0.319056 0.227869 -0.113586 0.006887 -0.448793 -0.131819 -0.079286 0.143481 0.299930 -0.275899 0.096065 -0.080412 -0.042615 0.203139 -0.064547 -0.168574 0.085748 0.359497 -0.077344 0.123053 -0.199848 -0.160440 -0.245455 -0.092491 0.020135 0.081084 0.031993 -0.123564 -0.055584 -0.247376 -0.120155 -0.092003 -0.008509 -0.308962 0.168435 0.093343 -0.379633 0.074229 0.198179 0.020764 0.260899 0.223883 0.010199 -0.003103 0.145815 -0.184835 0.002056 -0.101847 -0.181337 0.035617 -0.249529 -0.352992 0.038472 0.050353 0.103882 -0.334243 0.073281 0.402138 0.225957 0.098091 0.601381 -0.435280 -0.162248 0.191503 0.110267 0.322653 0.457714 0.175916 -0.022315 0.179086 -0.085306 0.025054 
September -0.059643 -0.332386 0.331967 -0.302547 0.005325 -0.185063 0.197793 -0.364398 0.037856 0.180817 0.421314 0.513310 -0.577026 -0.174852 0.112019 0.583146 0.232719 0.232218 0.557662 -0.409475 -0.143768 0.404293 0.006817 -0.176670 -0.343381 -0.429587 -0.003166 0.113709 0.434949 0.308785 -0.140842 -0.021352 -0.587101 -0.138919 -0.150491 0.142556 0.416896 -0.317927 0.142277 -0.118257 -0.035707 0.283402 -0.087026 -0.187430 0.104465 0.440109 -0.176297 0.176482 -0.330127 -0.243904 -0.329929 -0.052519 0.058274 0.163364 0.057649 -0.148415 -0.020243 -0.343309 -0.193081 -0.090005 -0.037323 -0.402810 0.138176 0.103260 -0.538339 0.072982 0.186781 0.017817 0.326881 0.286447 0.019358 -0.012784 0.139848 -0.202016 -0.041750 -0.093860 -0.285454 -0.036492 -0.300221 -0.479882 0.000975 0.042989 0.196372 -0.505387 0.077842 0.563201 0.294701 0.154163 0.778097 -0.556917 -0.178308 0.317237 0.204759 0.440409 0.673617 0.259108 -0.004446 0.206079 -0.086523 -0.025411 
first -0.081334 -0.277690 0.312953 -0.279872 0.025145 -0.194369 0.167842 -0.375463 0.048203 0.182106 0.363405 0.460654 -0.500136 -0.149115 0.081835 0.495743 0.214769 0.152976 0.466994 -0.344922 -0.191664 0.333066 0.022724 -0.134410 -0.266619 -0.400691 0.017853 0.106902 0.387303 0.271209 -0.130663 -0.000424 -0.526617 -0.151266 -0.105273 0.153976 0.365098 -0.319513 0.111623 -0.098086 -0.046688 0.242062 -0.075242 -0.198134 0.093017 0.409848 -0.100534 0.150531 -0.259022 -0.204092 -0.293023 -0.076597 0.027018 0.118804 0.040841 -0.139711 -0.051842 -0.298395 -0.159722 -0.093552 -0.014781 -0.359891 0.165002 0.094126 -0.451941 0.091986 0.206825 0.023666 0.313093 0.268553 0.006054 -0.004242 0.163963 -0.200591 -0.006205 -0.118647 -0.225909 0.017466 -0.284130 -0.414384 0.025098 0.060018 0.143082 -0.415554 0.076379 0.481239 0.269460 0.126331 0.709884 -0.500971 -0.190128 0.244117 0.146872 0.385987 0.561529 0.213142 -0.020504 0.196313 -0.092597 0.000206 
up -0.057378 -0.195719 0.227147 -0.208630 0.021475 -0.146000 0.108265 -0.277089 0.028882 0.133200 0.249103 0.331377 -0.350523 -0.099205 0.064708 0.352335 0.154909 0.102291 0.336200 -0.250785 -0.143054 0.243898 0.021686 -0.090331 -0.196831 -0.296851 0.012610 0.069099 0.280386 0.203401 -0.094262 0.000325 -0.388132 -0.112717 -0.075699 0.119827 0.262199 -0.235463 0.081038 -0.071314 -0.027524 0.179658 -0.056891 -0.151922 0.074134 0.303969 -0.073233 0.113640 -0.186240 -0.139693 -0.212400 -0.068546 0.013806 0.082207 0.037850 -0.099349 -0.038497 -0.212709 -0.109317 -0.077140 -0.005365 -0.266415 0.133691 0.081500 -0.330432 0.063158 0.164435 0.017332 0.223449 0.190764 0.010196 0.002691 0.118547 -0.150299 0.004127 -0.080803 -0.166064 0.019613 -0.206094 -0.300358 0.024038 0.036630 0.090316 -0.287510 0.060632 0.348406 0.197936 0.089091 0.510580 -0.364670 -0.136879 0.171054 0.100365 0.270303 0.403422 0.144956 -0.014311 0.149772 -0.069752 0.008019 
August -0.029373 -0.320289 0.324070 -0.277539 -0.007743 -0.171592 0.185614 -0.311888 0.020883 0.187699 0.443499 0.492728 -0.574699 -0.191393 0.120568 0.593307 0.217077 0.245196 0.580696 -0.412530 -0.091835 0.383372 0.001631 -0.165799 -0.343273 -0.395226 0.010712 0.115737 0.415906 0.280684 -0.131598 -0.031645 -0.553913 -0.126271 -0.155018 0.110026 0.403105 -0.288971 0.155578 -0.113621 -0.039139 0.275712 -0.099478 -0.165597 0.081407 0.385477 -0.196458 0.163810 -0.341627 -0.253914 -0.316901 -0.002821 0.055092 0.192407 0.054680 -0.115143 -0.001335 -0.324204 -0.188275 -0.066660 -0.044249 -0.358649 0.088355 0.088943 -0.511860 0.070006 0.140570 0.007902 0.297373 0.273724 0.029601 -0.007721 0.100844 -0.193859 -0.058854 -0.066780 -0.269860 -0.088696 -0.252537 -0.456120 -0.037565 0.031223 0.198812 -0.504052 0.042763 0.546516 0.282201 0.170364 0.720904 -0.510525 -0.147729 0.326863 0.213031 0.399092 0.648728 0.250036 0.001541 0.185756 -0.071419 -0.052319 
over -0.044710 -0.201660 0.215895 -0.194564 0.007780 -0.123820 0.107851 -0.242574 0.023137 0.124107 0.262758 0.332740 -0.357108 -0.102721 0.061234 0.364936 0.145304 0.130175 0.341896 -0.268217 -0.110836 0.240332 0.011696 -0.101344 -0.198978 -0.283812 0.001281 0.067221 0.276992 0.197043 -0.083045 -0.013833 -0.362197 -0.099295 -0.084003 0.100178 0.253733 -0.209813 0.084855 -0.076046 -0.029069 0.169937 -0.062444 -0.132634 0.060135 0.276163 -0.091389 0.109604 -0.198201 -0.155480 -0.215272 -0.032467 0.020032 0.097424 0.032065 -0.090754 -0.019994 -0.209275 -0.107545 -0.050930 -0.012708 -0.245784 0.103972 0.069256 -0.326132 0.058730 0.131361 0.012575 0.217187 0.185540 0.015695 -0.008227 0.099136 -0.142957 -0.011115 -0.059404 -0.171170 -0.013091 -0.181094 -0.300554 0.002148 0.026511 0.116635 -0.306773 0.042399 0.343989 0.190473 0.100503 0.487206 -0.353998 -0.117121 0.184406 0.114647 0.265242 0.412283 0.147786 -0.003122 0.130055 -0.055752 -0.005520 
Main_article: -0.082411 -0.305018 0.341394 -0.316338 0.025385 -0.200763 0.173931 -0.411437 0.046284 0.195570 0.397425 0.500647 -0.545469 -0.165268 0.098246 0.543277 0.230836 0.176337 0.507119 -0.393049 -0.205828 0.371335 0.017931 -0.142250 -0.298568 -0.444434 0.008585 0.115598 0.429491 0.304228 -0.144471 -0.006987 -0.585982 -0.153552 -0.125065 0.166544 0.400724 -0.348534 0.121665 -0.106281 -0.052121 0.271540 -0.090565 -0.211227 0.105414 0.456300 -0.116479 0.169159 -0.289124 -0.227964 -0.319953 -0.089995 0.036652 0.130944 0.051703 -0.161645 -0.051562 -0.322894 -0.177536 -0.107402 -0.019580 -0.401129 0.187151 0.103532 -0.508062 0.091753 0.227842 0.021326 0.342040 0.303681 0.013371 -0.007143 0.168086 -0.229707 -0.009013 -0.123657 -0.253182 0.005908 -0.303123 -0.459197 0.029721 0.064457 0.161502 -0.462727 0.086520 0.536354 0.295837 0.145480 0.783772 -0.555277 -0.199939 0.270056 0.158972 0.422968 0.633018 0.243377 -0.020662 0.222795 -0.112250 0.011368 
10 -0.001823 -0.283318 0.262637 -0.231391 -0.031161 -0.128744 0.145096 -0.248214 -0.006611 0.144298 0.386199 0.402815 -0.502068 -0.143299 0.096209 0.504060 0.196229 0.222040 0.491706 -0.339470 -0.056483 0.309856 0.008730 -0.134309 -0.291011 -0.324141 0.018516 0.098715 0.339324 0.237668 -0.104662 -0.040185 -0.444385 -0.108539 -0.132775 0.069783 0.315189 -0.237355 0.127366 -0.087090 -0.029229 0.218687 -0.081098 -0.146786 0.057110 0.299696 -0.183513 0.129205 -0.301994 -0.223333 -0.285271 0.011896 0.035055 0.181977 0.048977 -0.086957 0.004290 -0.280603 -0.163448 -0.044242 -0.041252 -0.286862 0.054821 0.069290 -0.416853 0.042168 0.091430 0.013156 0.247477 0.230792 0.023136 -0.004535 0.067866 -0.144328 -0.056344 -0.038939 -0.231003 -0.097454 -0.179751 -0.363338 -0.031137 0.021137 0.173292 -0.417779 0.015703 0.460190 0.228356 0.161205 0.574797 -0.415741 -0.109959 0.266383 0.188255 0.314098 0.550352 0.199449 0.008018 0.135854 -0.062227 -0.050854 
Russia -0.084590 -0.193850 0.232291 -0.222985 0.042694 -0.156994 0.119021 -0.305723 0.049702 0.129184 0.243198 0.334673 -0.337333 -0.087226 0.046007 0.325934 0.158068 0.067528 0.301669 -0.239299 -0.187630 0.235016 0.022121 -0.084991 -0.170771 -0.305949 0.013997 0.079659 0.267508 0.206241 -0.096961 0.006297 -0.391638 -0.118334 -0.051346 0.134842 0.255167 -0.248737 0.076337 -0.074069 -0.030819 0.170565 -0.055784 -0.152607 0.082395 0.331716 -0.037668 0.098376 -0.148247 -0.131520 -0.207425 -0.104907 0.010156 0.055567 0.026614 -0.125485 -0.058899 -0.195519 -0.106880 -0.079566 0.016468 -0.267573 0.170809 0.065849 -0.319411 0.071491 0.187970 0.012082 0.241801 0.196828 -0.001210 0.000787 0.146590 -0.164732 0.024685 -0.113024 -0.144682 0.054121 -0.228964 -0.295643 0.050912 0.052678 0.084302 -0.265308 0.076561 0.329909 0.197428 0.070459 0.533221 -0.387431 -0.158991 0.157311 0.067681 0.290274 0.378331 0.143979 -0.027336 0.155674 -0.077577 0.030724 
into -0.080091 -0.266262 0.302458 -0.272069 0.026665 -0.182076 0.157703 -0.356962 0.048237 0.164367 0.350954 0.444550 -0.472016 -0.136479 0.081534 0.474302 0.200056 0.148135 0.447361 -0.340230 -0.188316 0.325677 0.023453 -0.125967 -0.256888 -0.384363 0.018863 0.105851 0.368898 0.266737 -0.126827 -0.007711 -0.503435 -0.139636 -0.101699 0.145461 0.349848 -0.304092 0.104122 -0.098605 -0.042820 0.232812 -0.072608 -0.192345 0.093339 0.393794 -0.100608 0.137853 -0.250212 -0.191205 -0.280432 -0.080883 0.028199 0.115799 0.041386 -0.139381 -0.056278 -0.281768 -0.149156 -0.085961 -0.010859 -0.349179 0.172840 0.089699 -0.434014 0.083925 0.208673 0.016848 0.301360 0.256006 0.007616 -0.004126 0.156785 -0.197703 -0.000323 -0.111166 -0.220455 0.017397 -0.271563 -0.394418 0.032868 0.048629 0.129129 -0.394495 0.070072 0.461101 0.267166 0.114599 0.683287 -0.489197 -0.180420 0.227762 0.129639 0.365913 0.538292 0.209891 -0.018702 0.196546 -0.088512 0.009073 
region -0.073307 -0.193347 0.235387 -0.217424 0.027938 -0.152299 0.122275 -0.297702 0.046432 0.133785 0.253728 0.335227 -0.352224 -0.096897 0.060192 0.348150 0.159784 0.095082 0.321479 -0.247559 -0.177079 0.247241 0.012912 -0.090168 -0.182236 -0.312524 0.006801 0.072056 0.281738 0.206277 -0.096900 -0.002853 -0.394651 -0.112206 -0.066527 0.125997 0.274310 -0.247309 0.081759 -0.076277 -0.030172 0.182368 -0.065487 -0.153191 0.078080 0.324616 -0.059805 0.107197 -0.170296 -0.138833 -0.216187 -0.083575 0.015143 0.077600 0.032773 -0.113686 -0.052483 -0.220378 -0.104668 -0.075180 -0.002047 -0.272298 0.150079 0.074656 -0.339482 0.073804 0.179697 0.015162 0.238939 0.210852 0.004109 -0.003006 0.130178 -0.163080 0.008153 -0.105560 -0.164831 0.030372 -0.216826 -0.316558 0.033608 0.053418 0.091929 -0.290841 0.064624 0.358454 0.212996 0.086929 0.536213 -0.377718 -0.145709 0.168851 0.087643 0.287928 0.404940 0.151310 -0.020684 0.161539 -0.071082 0.015739 
name -0.060347 -0.200038 0.220398 -0.203295 0.016562 -0.143231 0.116292 -0.278067 0.037217 0.129974 0.259520 0.340592 -0.359724 -0.104436 0.062623 0.356353 0.147944 0.113261 0.328087 -0.261819 -0.140684 0.239693 0.015299 -0.090606 -0.193511 -0.297646 0.003357 0.078108 0.280371 0.200228 -0.089266 0.000844 -0.389833 -0.106015 -0.071812 0.109281 0.266974 -0.226817 0.085785 -0.072545 -0.032184 0.181243 -0.065936 -0.148341 0.066120 0.292427 -0.077241 0.108422 -0.186218 -0.145474 -0.214764 -0.058870 0.024185 0.084748 0.040104 -0.106635 -0.039626 -0.211591 -0.105581 -0.066780 -0.010157 -0.266388 0.123127 0.077074 -0.335686 0.066830 0.159435 0.013740 0.220420 0.198824 0.014677 -0.003915 0.118348 -0.146891 -0.007905 -0.082900 -0.170460 0.015761 -0.207631 -0.301237 0.027229 0.044609 0.101005 -0.287709 0.061993 0.351950 0.198915 0.083912 0.514831 -0.371242 -0.137911 0.179406 0.104881 0.276986 0.409793 0.158266 -0.007428 0.146996 -0.068370 0.003803 
under -0.067134 -0.151494 0.186948 -0.186379 0.033399 -0.128601 0.098427 -0.249240 0.032297 0.115750 0.211488 0.279213 -0.274916 -0.087300 0.040682 0.274997 0.132974 0.069040 0.261073 -0.203219 -0.153321 0.192562 0.014074 -0.076137 -0.140039 -0.252717 0.008778 0.061716 0.231873 0.163841 -0.076243 0.001984 -0.329520 -0.098862 -0.051242 0.109671 0.225864 -0.207732 0.060783 -0.062417 -0.033625 0.143461 -0.046795 -0.126986 0.070488 0.261610 -0.034988 0.074626 -0.121397 -0.110506 -0.165669 -0.072570 0.014186 0.053002 0.028993 -0.100438 -0.044088 -0.171995 -0.085486 -0.073159 0.014350 -0.220963 0.137107 0.064062 -0.261226 0.055781 0.150200 0.006331 0.195624 0.171277 -0.000294 -0.004700 0.117631 -0.131325 0.009087 -0.090906 -0.131826 0.034780 -0.192972 -0.254642 0.031770 0.040228 0.063825 -0.226931 0.053610 0.278980 0.165730 0.055628 0.440176 -0.311593 -0.131171 0.120461 0.057411 0.229953 0.315998 0.118923 -0.016602 0.134023 -0.065381 0.022989 
had -0.066791 -0.112786 0.158939 -0.142870 0.029317 -0.112651 0.078233 -0.211886 0.032531 0.092400 0.162462 0.215623 -0.223959 -0.059222 0.029774 0.213886 0.097954 0.051949 0.184286 -0.159839 -0.145890 0.164678 0.018403 -0.056647 -0.113568 -0.222168 0.015817 0.045955 0.185893 0.129691 -0.068624 0.005208 -0.281769 -0.094217 -0.039654 0.099830 0.175648 -0.167700 0.047592 -0.060234 -0.030173 0.112823 -0.027417 -0.120439 0.055930 0.227203 -0.023152 0.080207 -0.098707 -0.090587 -0.144028 -0.078891 0.014122 0.035120 0.013963 -0.093961 -0.048558 -0.146080 -0.059567 -0.056274 0.001105 -0.193659 0.118992 0.062283 -0.218845 0.067106 0.153268 0.009947 0.154696 0.133245 0.012322 0.013514 0.102059 -0.120181 0.024090 -0.073409 -0.098095 0.048873 -0.162788 -0.208440 0.034197 0.043905 0.049674 -0.173703 0.062416 0.231905 0.144465 0.039031 0.370736 -0.252784 -0.107302 0.096434 0.049653 0.187516 0.254374 0.100169 -0.034806 0.118304 -0.050060 0.030373 
Caucasus -0.069490 -0.197798 0.220232 -0.217681 0.033676 -0.144879 0.110159 -0.284573 0.038485 0.133097 0.259698 0.332529 -0.349121 -0.099770 0.050658 0.354156 0.157605 0.096819 0.322215 -0.244676 -0.162737 0.239352 0.009224 -0.091104 -0.176134 -0.297993 0.003801 0.080038 0.278890 0.198271 -0.092684 0.007938 -0.382656 -0.112679 -0.068968 0.123959 0.264848 -0.235828 0.085215 -0.069275 -0.027291 0.168698 -0.064457 -0.140041 0.081916 0.312163 -0.061129 0.103700 -0.169664 -0.150077 -0.206070 -0.078977 0.018394 0.080265 0.026928 -0.111250 -0.040151 -0.212938 -0.114505 -0.080318 0.000229 -0.265974 0.143022 0.067402 -0.324732 0.068742 0.171751 0.012507 0.234412 0.199022 0.001581 0.005628 0.123253 -0.154920 -0.004420 -0.097851 -0.158812 0.022712 -0.218670 -0.308041 0.030987 0.050684 0.089834 -0.295323 0.054973 0.353865 0.192973 0.087422 0.527361 -0.372723 -0.137724 0.175840 0.085113 0.282497 0.396632 0.159709 -0.012597 0.153987 -0.073551 0.010663 
January -0.051668 -0.324795 0.325574 -0.286247 0.007455 -0.179553 0.187103 -0.352038 0.028541 0.195926 0.418654 0.502460 -0.561939 -0.173419 0.106558 0.570166 0.226131 0.223782 0.552299 -0.398202 -0.144409 0.380964 0.004301 -0.168366 -0.333266 -0.414370 0.011170 0.116227 0.416655 0.296618 -0.142036 -0.015975 -0.561545 -0.144882 -0.144377 0.135352 0.402671 -0.307556 0.139243 -0.104395 -0.043402 0.271638 -0.091023 -0.190313 0.100748 0.406752 -0.173976 0.159999 -0.322752 -0.236395 -0.323528 -0.034561 0.046878 0.171700 0.056623 -0.129979 -0.018590 -0.324701 -0.187671 -0.085022 -0.035067 -0.367470 0.135532 0.098898 -0.511413 0.080921 0.172421 0.013898 0.311695 0.283440 0.026880 -0.013910 0.126614 -0.201212 -0.039176 -0.085845 -0.270952 -0.044844 -0.271075 -0.448907 -0.004140 0.039417 0.189135 -0.481806 0.057871 0.539760 0.279907 0.153805 0.746445 -0.526608 -0.167360 0.305200 0.206443 0.412617 0.637336 0.252991 -0.011152 0.197259 -0.078306 -0.023424 
2009. 0.000506 -0.318193 0.290181 -0.266472 -0.033399 -0.150521 0.167544 -0.273953 -0.000757 0.168395 0.423704 0.457246 -0.568460 -0.179622 0.127858 0.572434 0.218243 0.251815 0.574389 -0.402180 -0.048137 0.353759 0.002362 -0.152758 -0.337325 -0.358800 0.010189 0.103252 0.393942 0.260069 -0.120836 -0.028852 -0.492234 -0.103969 -0.167536 0.083463 0.363985 -0.261663 0.140275 -0.092983 -0.035549 0.252956 -0.098909 -0.149378 0.067093 0.340192 -0.203783 0.150332 -0.351890 -0.255660 -0.309897 0.029564 0.059641 0.191289 0.052778 -0.087619 0.006582 -0.313873 -0.196000 -0.055199 -0.051331 -0.333815 0.062211 0.086021 -0.474808 0.045672 0.107857 0.019846 0.270905 0.260041 0.026750 -0.007339 0.078614 -0.146072 -0.070156 -0.041913 -0.265123 -0.106958 -0.214544 -0.419541 -0.054512 0.020708 0.195719 -0.489869 0.041326 0.505393 0.253160 0.167012 0.654831 -0.470939 -0.118159 0.320177 0.219829 0.363866 0.628046 0.241416 0.018224 0.156782 -0.066825 -0.058758 
October -0.037821 -0.316663 0.316692 -0.277330 -0.002138 -0.177560 0.171582 -0.326213 0.011284 0.183357 0.414091 0.483290 -0.566732 -0.163859 0.118333 0.558363 0.216603 0.218419 0.548532 -0.403938 -0.118474 0.370629 0.015139 -0.164687 -0.325788 -0.396250 0.015025 0.105817 0.406368 0.279218 -0.135901 -0.023631 -0.543812 -0.136494 -0.148515 0.121868 0.383710 -0.302657 0.146618 -0.111644 -0.049354 0.261972 -0.089421 -0.177427 0.086271 0.385719 -0.177783 0.157106 -0.325400 -0.237103 -0.322543 -0.025476 0.047948 0.181435 0.048892 -0.117829 -0.015100 -0.313443 -0.175444 -0.066886 -0.034789 -0.350872 0.105042 0.094562 -0.490892 0.072099 0.164536 0.011865 0.306975 0.269161 0.033957 -0.006610 0.115723 -0.192341 -0.041878 -0.065198 -0.268564 -0.064942 -0.248070 -0.443346 -0.015263 0.031475 0.181730 -0.472860 0.053912 0.530515 0.282656 0.158515 0.714269 -0.504319 -0.161285 0.305237 0.200221 0.390082 0.626233 0.242881 -0.008350 0.180934 -0.074502 -0.036767 
It -0.054179 -0.193998 0.222486 -0.197815 0.014283 -0.139332 0.119018 -0.266258 0.041167 0.128071 0.252356 0.334335 -0.354103 -0.103508 0.061309 0.346758 0.144337 0.111027 0.330247 -0.249507 -0.135274 0.236388 0.015763 -0.096285 -0.195774 -0.281807 0.009184 0.066040 0.271164 0.202981 -0.092946 -0.001752 -0.380075 -0.102850 -0.070893 0.105333 0.256322 -0.223684 0.081971 -0.069993 -0.024754 0.178484 -0.055016 -0.143209 0.069716 0.290822 -0.078561 0.104299 -0.181140 -0.138410 -0.205032 -0.061307 0.015613 0.077994 0.040697 -0.097299 -0.038633 -0.213645 -0.111333 -0.065903 -0.011481 -0.255029 0.123425 0.071196 -0.329244 0.067114 0.146565 0.020420 0.221994 0.189563 0.015826 0.001201 0.109362 -0.154313 -0.005842 -0.079916 -0.170763 0.010426 -0.197470 -0.289161 0.022875 0.034233 0.105492 -0.295238 0.051646 0.340825 0.195506 0.090233 0.506596 -0.363526 -0.133921 0.166317 0.105490 0.278377 0.396480 0.149594 -0.006416 0.135612 -0.063567 0.013981 
not -0.030507 -0.092650 0.096041 -0.103189 0.012255 -0.066628 0.051716 -0.133422 0.026084 0.051943 0.112249 0.152971 -0.150382 -0.044305 0.039000 0.148747 0.065599 0.044537 0.133108 -0.120506 -0.085917 0.118545 0.008307 -0.055946 -0.093710 -0.139351 0.003287 0.036690 0.139261 0.087362 -0.045541 0.000254 -0.190979 -0.058166 -0.027950 0.057086 0.118647 -0.112467 0.041624 -0.039272 -0.015334 0.087033 -0.028050 -0.076993 0.033671 0.147986 -0.026102 0.063485 -0.088991 -0.066511 -0.098577 -0.034571 0.005268 0.029402 0.013913 -0.054835 -0.018481 -0.103813 -0.049251 -0.033202 0.000633 -0.124690 0.065375 0.053494 -0.158583 0.044627 0.094904 0.012028 0.105047 0.092622 0.017587 -0.000831 0.069513 -0.074744 0.008591 -0.038158 -0.075861 0.026647 -0.099671 -0.141710 0.018116 0.018257 0.043738 -0.128516 0.031601 0.169344 0.095064 0.028151 0.256033 -0.178845 -0.074395 0.077509 0.053451 0.136252 0.184936 0.077867 -0.016381 0.067554 -0.026003 0.007306 
most -0.070403 -0.184696 0.217635 -0.200895 0.029147 -0.151150 0.115919 -0.279840 0.040404 0.125534 0.244908 0.322574 -0.324869 -0.094863 0.055427 0.330948 0.148037 0.083973 0.308803 -0.229421 -0.165160 0.237108 0.019495 -0.086624 -0.168353 -0.286034 0.010559 0.069190 0.268553 0.193815 -0.086949 -0.003443 -0.383168 -0.112227 -0.064517 0.114842 0.255066 -0.242865 0.067967 -0.073995 -0.037940 0.171983 -0.050409 -0.152565 0.072975 0.303792 -0.060223 0.098628 -0.163430 -0.136210 -0.199593 -0.083040 0.008291 0.069011 0.040569 -0.108823 -0.052863 -0.209185 -0.103369 -0.072428 -0.003724 -0.251400 0.147551 0.072185 -0.314979 0.070425 0.166722 0.013514 0.224633 0.197230 0.008168 0.001713 0.133677 -0.161467 0.013700 -0.094986 -0.159344 0.032876 -0.213749 -0.294557 0.029190 0.041579 0.082160 -0.272744 0.053509 0.336115 0.200897 0.077160 0.509112 -0.363971 -0.144286 0.160424 0.078157 0.274754 0.380558 0.149011 -0.014071 0.148530 -0.070368 0.011702 
this -0.054626 -0.130996 0.145920 -0.149707 0.022781 -0.108915 0.071410 -0.189410 0.031996 0.082952 0.166121 0.216800 -0.225169 -0.061597 0.033102 0.228774 0.092684 0.060544 0.208787 -0.162360 -0.116004 0.154454 0.012241 -0.058470 -0.116817 -0.199514 0.001788 0.049435 0.181445 0.128327 -0.058996 0.000474 -0.268450 -0.075495 -0.049123 0.079186 0.172609 -0.155231 0.048092 -0.054246 -0.023230 0.111082 -0.040872 -0.101614 0.053493 0.207695 -0.028533 0.074209 -0.114570 -0.094094 -0.134697 -0.061768 0.011958 0.048649 0.020590 -0.078165 -0.032032 -0.146380 -0.067146 -0.050003 0.001744 -0.178257 0.096823 0.055955 -0.223677 0.054887 0.120150 0.011733 0.152202 0.131107 0.013793 0.007235 0.091957 -0.105591 0.003000 -0.064779 -0.104112 0.029972 -0.150394 -0.205362 0.015974 0.034379 0.057284 -0.177840 0.045345 0.228662 0.139189 0.048980 0.355514 -0.252343 -0.092760 0.100720 0.063272 0.187985 0.258068 0.095810 -0.017448 0.108139 -0.047984 0.018251 
"The -0.067360 -0.184584 0.218825 -0.200374 0.021638 -0.146775 0.114955 -0.275327 0.039578 0.129043 0.258225 0.321371 -0.345163 -0.106434 0.054748 0.338591 0.154798 0.102192 0.321761 -0.250083 -0.153721 0.231763 0.013894 -0.080019 -0.180992 -0.290020 0.009206 0.070041 0.271455 0.202493 -0.094483 0.002021 -0.386256 -0.110713 -0.071413 0.116197 0.258120 -0.228797 0.075674 -0.066529 -0.032012 0.178554 -0.060031 -0.148240 0.074540 0.305640 -0.063820 0.106259 -0.170514 -0.135677 -0.203175 -0.069697 0.020069 0.082917 0.038120 -0.103691 -0.041641 -0.202209 -0.101512 -0.074737 0.001293 -0.261588 0.133579 0.070859 -0.325176 0.059112 0.158810 0.021011 0.222394 0.194028 0.008441 0.001191 0.122267 -0.155520 -0.007303 -0.092792 -0.155705 0.018571 -0.212692 -0.302303 0.032236 0.047390 0.091025 -0.287952 0.055029 0.338174 0.202107 0.082251 0.517127 -0.371026 -0.136672 0.162889 0.087719 0.282157 0.402584 0.147082 -0.020047 0.153728 -0.070821 0.017834 
ISBN -0.096225 -0.232049 0.271059 -0.261136 0.044540 -0.183002 0.142774 -0.367435 0.051954 0.153323 0.289882 0.397017 -0.405248 -0.116710 0.065525 0.398071 0.186211 0.099305 0.362172 -0.285474 -0.224059 0.280096 0.022164 -0.090514 -0.203297 -0.372490 0.006236 0.098279 0.326042 0.249020 -0.119713 0.000665 -0.475020 -0.142776 -0.074647 0.153189 0.321315 -0.297135 0.084459 -0.086566 -0.047169 0.211813 -0.065979 -0.178911 0.095830 0.384074 -0.057426 0.127274 -0.184163 -0.153884 -0.236167 -0.113566 0.020483 0.078887 0.039479 -0.151448 -0.062871 -0.250721 -0.131671 -0.109737 0.015119 -0.329585 0.189541 0.087543 -0.384571 0.087160 0.226438 0.024611 0.282236 0.241140 -0.006517 0.006739 0.174901 -0.198810 0.015827 -0.129775 -0.188958 0.055716 -0.263817 -0.359718 0.059922 0.068932 0.098801 -0.331911 0.090103 0.414390 0.253363 0.091398 0.640926 -0.452046 -0.186232 0.185052 0.087458 0.342212 0.470889 0.174317 -0.022865 0.187955 -0.096884 0.039791 
Nagorno-Karabakh -0.044108 -0.147456 0.165437 -0.150551 0.013392 -0.098946 0.083805 -0.195432 0.030844 0.094056 0.185229 0.249748 -0.264679 -0.078477 0.046243 0.267211 0.111856 0.087752 0.253078 -0.188182 -0.109997 0.181893 0.009739 -0.072742 -0.140839 -0.215475 0.009653 0.056247 0.199374 0.146526 -0.072335 0.002292 -0.277593 -0.080786 -0.062140 0.084651 0.190241 -0.162854 0.062120 -0.049498 -0.019093 0.130213 -0.037656 -0.107692 0.052247 0.224519 -0.060088 0.082125 -0.134210 -0.105448 -0.156290 -0.042503 0.016390 0.060072 0.030300 -0.079994 -0.021480 -0.156467 -0.084070 -0.055098 -0.002446 -0.192868 0.098901 0.054517 -0.242784 0.048135 0.111324 0.015920 0.167953 0.146562 0.004410 -0.001594 0.088140 -0.109209 -0.002711 -0.061935 -0.117519 0.004685 -0.150091 -0.228639 0.015434 0.026091 0.075655 -0.224163 0.037558 0.256688 0.142196 0.066089 0.376880 -0.272908 -0.098141 0.132430 0.070749 0.199705 0.298671 0.110541 -0.003775 0.104100 -0.053122 0.005867 
part -0.059688 -0.142184 0.170982 -0.153686 0.025979 -0.114696 0.083674 -0.216019 0.028489 0.092165 0.176133 0.241429 -0.249416 -0.073218 0.032164 0.250359 0.106259 0.064870 0.228513 -0.180079 -0.133946 0.170610 0.013107 -0.055499 -0.123605 -0.218373 0.008322 0.053437 0.194789 0.149574 -0.065679 0.002842 -0.286000 -0.077742 -0.045597 0.095871 0.193436 -0.173054 0.056949 -0.049307 -0.022911 0.123477 -0.041969 -0.109316 0.056489 0.232290 -0.037821 0.068254 -0.109926 -0.093388 -0.141057 -0.070288 0.008795 0.043208 0.031074 -0.085715 -0.043922 -0.145341 -0.078666 -0.060585 -0.000837 -0.190667 0.111345 0.056523 -0.238658 0.048041 0.124817 0.013560 0.164087 0.147455 -0.001900 -0.000441 0.099168 -0.120834 0.005223 -0.076735 -0.110003 0.031243 -0.161964 -0.219913 0.033141 0.036198 0.062378 -0.204473 0.046429 0.244373 0.150783 0.053225 0.386513 -0.273300 -0.112177 0.118213 0.062987 0.204003 0.280547 0.101836 -0.011185 0.111685 -0.061738 0.017266 
Turkic -0.089402 -0.109437 0.168304 -0.161494 0.042730 -0.125119 0.078862 -0.252969 0.044053 0.090018 0.142495 0.217094 -0.202587 -0.051149 0.025639 0.198124 0.101348 0.009702 0.164173 -0.151498 -0.181949 0.146649 0.027597 -0.047692 -0.085475 -0.229425 0.008637 0.045208 0.185439 0.145173 -0.067942 0.023013 -0.282185 -0.091440 -0.019497 0.117025 0.181234 -0.197291 0.040398 -0.048270 -0.034229 0.119581 -0.037448 -0.126792 0.071540 0.253677 0.016730 0.067619 -0.064164 -0.064023 -0.131360 -0.110031 -0.003562 0.004647 0.021721 -0.105055 -0.069037 -0.135756 -0.062097 -0.078721 0.022885 -0.199744 0.160587 0.051717 -0.207016 0.066077 0.175187 0.012645 0.176353 0.140569 -0.004800 0.005653 0.132377 -0.135169 0.035961 -0.107197 -0.085661 0.083339 -0.180270 -0.201629 0.060755 0.055697 0.032691 -0.157173 0.066613 0.222481 0.143520 0.032704 0.386870 -0.266774 -0.132350 0.078227 0.014425 0.204986 0.241464 0.083432 -0.033630 0.124782 -0.075236 0.052141 
population -0.065230 -0.207543 0.235343 -0.222738 0.018415 -0.152058 0.127367 -0.299759 0.044755 0.137689 0.269768 0.351972 -0.367664 -0.113957 0.069260 0.365597 0.157196 0.105310 0.348094 -0.263152 -0.163640 0.248378 0.011830 -0.096605 -0.200086 -0.313844 0.007216 0.072594 0.294871 0.212237 -0.101577 -0.003766 -0.407886 -0.118196 -0.082675 0.120465 0.281418 -0.246469 0.079637 -0.082438 -0.037633 0.181868 -0.056267 -0.157427 0.079844 0.316799 -0.071298 0.110745 -0.191906 -0.151308 -0.220904 -0.067917 0.015583 0.076104 0.034856 -0.108265 -0.044782 -0.223904 -0.108432 -0.073618 -0.004134 -0.274966 0.143547 0.079180 -0.347072 0.064468 0.167440 0.014196 0.236816 0.206930 0.008314 -0.000912 0.128750 -0.157686 -0.003972 -0.094507 -0.169497 0.020140 -0.215458 -0.322175 0.021817 0.045934 0.105584 -0.303334 0.060204 0.366833 0.206872 0.087299 0.549364 -0.386863 -0.149051 0.176796 0.095950 0.293124 0.426213 0.157744 -0.014352 0.156259 -0.078449 0.012351 
or -0.041297 -0.162788 0.169515 -0.154693 0.017618 -0.110376 0.094758 -0.210460 0.034220 0.095683 0.204474 0.266397 -0.278724 -0.081978 0.043823 0.272560 0.120432 0.079514 0.261105 -0.193545 -0.119818 0.185135 0.009888 -0.072799 -0.145166 -0.229776 0.005707 0.054296 0.213395 0.162885 -0.071594 -0.004841 -0.300505 -0.085007 -0.058407 0.092539 0.206922 -0.179557 0.067909 -0.055931 -0.029334 0.138897 -0.047458 -0.116212 0.052975 0.226162 -0.052722 0.085808 -0.137175 -0.107233 -0.156537 -0.044716 0.012959 0.058840 0.033442 -0.075646 -0.030559 -0.157515 -0.084218 -0.052813 0.001829 -0.208623 0.101902 0.054524 -0.256347 0.052781 0.117477 0.004770 0.174468 0.152156 0.011466 0.001151 0.090457 -0.122673 -0.004526 -0.065256 -0.129055 0.013626 -0.152968 -0.230042 0.014827 0.037251 0.075544 -0.227786 0.048299 0.267834 0.163163 0.070976 0.393827 -0.286908 -0.111360 0.130229 0.071151 0.220884 0.306548 0.116070 -0.014072 0.116982 -0.051897 0.009489 
Russian -0.055652 -0.162265 0.188953 -0.184630 0.028559 -0.124790 0.098701 -0.244643 0.039548 0.114409 0.211486 0.281196 -0.288385 -0.079862 0.044005 0.280633 0.127364 0.078998 0.264012 -0.205115 -0.149943 0.198178 0.014653 -0.071572 -0.148929 -0.249723 0.003077 0.062365 0.234307 0.174913 -0.079340 -0.000647 -0.330210 -0.100246 -0.058488 0.108907 0.218689 -0.200406 0.064829 -0.057122 -0.035091 0.141178 -0.052978 -0.122508 0.069618 0.265587 -0.047215 0.081869 -0.140393 -0.108266 -0.165337 -0.075692 0.019574 0.056236 0.025849 -0.093752 -0.040291 -0.178214 -0.087540 -0.070269 0.006290 -0.224335 0.119835 0.062735 -0.276607 0.059779 0.148764 0.014342 0.196710 0.167577 0.000693 -0.001302 0.110624 -0.140526 0.011419 -0.084828 -0.136548 0.028078 -0.180435 -0.253705 0.034417 0.046086 0.079344 -0.233568 0.061406 0.283059 0.176059 0.066831 0.436837 -0.312297 -0.120011 0.130659 0.074510 0.232188 0.326959 0.119040 -0.013436 0.125120 -0.061032 0.015724 
26 -0.049812 -0.279201 0.277160 -0.257702 -0.002739 -0.138561 0.152116 -0.297068 0.027675 0.161566 0.363467 0.438262 -0.485724 -0.155376 0.080219 0.511310 0.211635 0.214281 0.485548 -0.352826 -0.105083 0.331063 0.006658 -0.115438 -0.268429 -0.357219 0.001687 0.112392 0.366348 0.240160 -0.105665 -0.005664 -0.466522 -0.101991 -0.136085 0.104590 0.350783 -0.253691 0.124829 -0.100521 -0.028741 0.252210 -0.080179 -0.143986 0.065556 0.327639 -0.146189 0.163341 -0.296294 -0.225318 -0.279034 -0.018701 0.036324 0.158329 0.054435 -0.099043 -0.009039 -0.283606 -0.148884 -0.056470 -0.041314 -0.332815 0.104676 0.088029 -0.434679 0.054845 0.134908 0.019474 0.279776 0.244630 0.000078 -0.012285 0.110650 -0.179080 -0.045973 -0.072237 -0.245752 -0.056424 -0.243261 -0.399043 -0.026703 0.042707 0.162182 -0.432519 0.060660 0.468299 0.251217 0.125858 0.621813 -0.453467 -0.131185 0.268346 0.171491 0.365529 0.559579 0.235006 0.014652 0.161573 -0.069679 -0.029959 
military -0.061657 -0.188830 0.220770 -0.210876 0.028337 -0.138923 0.116178 -0.276830 0.049736 0.129169 0.256458 0.335392 -0.353101 -0.102228 0.055242 0.344633 0.151510 0.100287 0.321243 -0.252129 -0.159638 0.244340 0.020829 -0.102298 -0.195387 -0.307237 0.013718 0.077021 0.286904 0.202694 -0.104174 -0.000518 -0.402494 -0.119372 -0.068444 0.127455 0.267813 -0.236524 0.083541 -0.074170 -0.029854 0.179237 -0.066044 -0.150657 0.079047 0.310511 -0.073813 0.108689 -0.184323 -0.144038 -0.215546 -0.073577 0.020423 0.084854 0.035669 -0.114646 -0.045307 -0.213947 -0.110815 -0.075256 -0.004942 -0.272524 0.134738 0.079366 -0.342388 0.070038 0.157143 0.010496 0.230418 0.193007 0.005627 0.002904 0.131074 -0.160808 -0.005438 -0.092116 -0.170034 0.018244 -0.219246 -0.303300 0.033644 0.051058 0.106505 -0.300373 0.056158 0.353532 0.200868 0.089748 0.527783 -0.370863 -0.147760 0.175631 0.098530 0.292844 0.414917 0.156834 -0.011872 0.156659 -0.074712 0.008178 
state -0.071928 -0.246971 0.271983 -0.253865 0.015202 -0.162390 0.147527 -0.333821 0.042325 0.157448 0.322099 0.408911 -0.433711 -0.125436 0.079669 0.440492 0.183835 0.137660 0.410017 -0.319013 -0.171572 0.302049 0.012314 -0.120817 -0.237961 -0.360091 0.014254 0.090791 0.339182 0.247261 -0.113117 -0.007367 -0.470815 -0.128682 -0.099031 0.130241 0.316471 -0.278886 0.098673 -0.091789 -0.030675 0.212133 -0.073726 -0.168230 0.088111 0.362268 -0.093852 0.132461 -0.219780 -0.181467 -0.253153 -0.077155 0.026338 0.110017 0.043106 -0.119735 -0.046813 -0.261689 -0.136465 -0.080915 -0.007947 -0.319499 0.150793 0.089694 -0.406097 0.074030 0.183157 0.014256 0.272419 0.237614 0.006567 0.001507 0.137745 -0.184296 -0.002025 -0.103678 -0.200757 0.007959 -0.241803 -0.366130 0.023653 0.047496 0.120333 -0.364231 0.069370 0.426751 0.242786 0.114842 0.624084 -0.445902 -0.158889 0.214409 0.129603 0.337337 0.504467 0.189817 -0.019772 0.172887 -0.083923 0.008948 
international -0.063789 -0.237253 0.265346 -0.243897 0.014844 -0.164836 0.132592 -0.310611 0.045050 0.153482 0.311603 0.386564 -0.425819 -0.118950 0.075180 0.425205 0.172748 0.139229 0.401349 -0.303387 -0.163547 0.284714 0.018354 -0.114248 -0.230370 -0.347753 0.002965 0.088606 0.324587 0.240651 -0.103479 -0.009364 -0.458253 -0.123415 -0.093857 0.129777 0.314880 -0.264597 0.102873 -0.092182 -0.029163 0.205317 -0.077470 -0.163996 0.088881 0.350612 -0.086398 0.132347 -0.220023 -0.180080 -0.242733 -0.075496 0.029191 0.109301 0.033358 -0.122946 -0.037206 -0.247619 -0.130273 -0.076851 -0.008359 -0.309646 0.154001 0.084090 -0.390722 0.066361 0.173086 0.012685 0.263269 0.229114 0.014922 -0.003365 0.125952 -0.180013 -0.011665 -0.096913 -0.195367 0.010716 -0.234664 -0.361273 0.027009 0.042063 0.122173 -0.355111 0.070189 0.413327 0.227179 0.101839 0.601220 -0.435337 -0.152610 0.207404 0.126163 0.327659 0.484435 0.184934 -0.013300 0.170278 -0.083692 0.011109 
all -0.076317 -0.197852 0.237607 -0.221237 0.022255 -0.157044 0.115778 -0.295485 0.039123 0.135113 0.255240 0.343735 -0.359723 -0.109961 0.063532 0.356060 0.152104 0.101390 0.331869 -0.251094 -0.171677 0.248384 0.020799 -0.089102 -0.183723 -0.312183 0.010577 0.074489 0.279223 0.211060 -0.089386 0.002249 -0.403881 -0.120365 -0.070695 0.123277 0.269663 -0.242367 0.077428 -0.077016 -0.044477 0.176185 -0.063622 -0.149006 0.085397 0.323882 -0.051050 0.105563 -0.169239 -0.136537 -0.208838 -0.090097 0.017155 0.077561 0.029345 -0.112015 -0.045453 -0.223185 -0.112414 -0.075154 0.005570 -0.264984 0.142304 0.073429 -0.338558 0.061821 0.177755 0.018637 0.243814 0.204208 0.001676 -0.000465 0.130927 -0.161699 0.006602 -0.103006 -0.160080 0.029626 -0.217512 -0.313284 0.028294 0.057170 0.091257 -0.289618 0.059400 0.358770 0.214111 0.082470 0.529173 -0.376870 -0.143445 0.168805 0.089847 0.288804 0.409380 0.157096 -0.017818 0.163717 -0.082779 0.011483 
be -0.049806 -0.147766 0.177408 -0.169438 0.015312 -0.108635 0.094860 -0.228543 0.028970 0.103557 0.202282 0.268392 -0.278753 -0.080628 0.047692 0.273708 0.119946 0.079449 0.258265 -0.206498 -0.122888 0.189457 0.015592 -0.078994 -0.153322 -0.239858 0.009307 0.064035 0.219498 0.161848 -0.081453 -0.010782 -0.312875 -0.101713 -0.063947 0.096856 0.212025 -0.199306 0.062405 -0.056544 -0.020112 0.143828 -0.048527 -0.124955 0.056684 0.241401 -0.058165 0.087581 -0.149819 -0.119014 -0.175999 -0.058273 0.007430 0.058588 0.032692 -0.085469 -0.038290 -0.180355 -0.096139 -0.066402 -0.008595 -0.207487 0.113458 0.061947 -0.269159 0.048781 0.136706 0.005383 0.181561 0.159604 0.011368 0.008140 0.108779 -0.122134 0.003473 -0.075961 -0.127867 0.016678 -0.168733 -0.234963 0.024486 0.037047 0.074248 -0.228249 0.052316 0.280188 0.165578 0.072319 0.427429 -0.298573 -0.112730 0.138345 0.075667 0.222675 0.329972 0.129256 -0.006785 0.123142 -0.058575 0.005636 
his -0.089709 -0.312261 0.344338 -0.320028 0.029764 -0.216998 0.174463 -0.417584 0.050360 0.199106 0.404645 0.514256 -0.548866 -0.159633 0.091600 0.549081 0.233803 0.165108 0.516240 -0.395492 -0.214184 0.372562 0.025602 -0.142944 -0.295786 -0.451379 0.014652 0.118656 0.425910 0.307523 -0.139006 -0.001324 -0.586251 -0.166731 -0.118838 0.167026 0.405356 -0.344530 0.123599 -0.119277 -0.048895 0.268989 -0.085936 -0.211849 0.115456 0.461163 -0.110947 0.169682 -0.281282 -0.222216 -0.320927 -0.099856 0.033326 0.131931 0.049164 -0.154797 -0.055260 -0.330075 -0.165516 -0.111919 -0.009663 -0.391880 0.198306 0.114290 -0.510021 0.099342 0.235754 0.020544 0.348479 0.297500 0.010410 0.004726 0.171297 -0.232707 -0.000430 -0.123948 -0.253011 0.018632 -0.317370 -0.465179 0.029379 0.064598 0.150309 -0.456481 0.089406 0.534335 0.303533 0.135171 0.786318 -0.558073 -0.208309 0.267259 0.152700 0.422964 0.622338 0.239914 -0.022571 0.220003 -0.100904 0.008740 
than -0.065498 -0.118066 0.152181 -0.152072 0.039451 -0.109294 0.072198 -0.210854 0.039883 0.079001 0.142341 0.208439 -0.203176 -0.051166 0.031261 0.206426 0.102335 0.041695 0.179958 -0.152951 -0.143867 0.148538 0.026838 -0.055791 -0.095405 -0.210400 0.004778 0.042951 0.180746 0.125938 -0.056798 0.004518 -0.255069 -0.085950 -0.024789 0.100349 0.173337 -0.167587 0.042964 -0.050229 -0.026011 0.107858 -0.034122 -0.114475 0.060890 0.225884 -0.011602 0.070907 -0.092679 -0.079158 -0.131477 -0.078658 -0.009847 0.026658 0.023579 -0.082206 -0.038332 -0.140635 -0.065444 -0.056871 0.009100 -0.179611 0.126595 0.055066 -0.201902 0.052702 0.137310 0.010477 0.158522 0.128980 0.004932 0.008572 0.105331 -0.108399 0.023207 -0.076211 -0.083897 0.062297 -0.150720 -0.191543 0.036346 0.041229 0.039036 -0.152030 0.058191 0.216511 0.131328 0.045382 0.356951 -0.244577 -0.108393 0.089539 0.046909 0.179646 0.237983 0.084430 -0.027129 0.118204 -0.047757 0.025079 
2008. -0.012917 -0.306618 0.297860 -0.268693 -0.018411 -0.158820 0.174005 -0.298165 0.009412 0.164193 0.408144 0.463726 -0.549958 -0.168491 0.112676 0.568019 0.214806 0.243923 0.540431 -0.384687 -0.083498 0.352264 -0.002158 -0.151203 -0.324647 -0.370147 -0.000268 0.116106 0.389721 0.263708 -0.116359 -0.036770 -0.516806 -0.112904 -0.152409 0.099967 0.376455 -0.264440 0.134380 -0.105747 -0.042835 0.247228 -0.092925 -0.153654 0.081766 0.345501 -0.182717 0.160566 -0.319823 -0.243580 -0.308423 0.004306 0.041035 0.180306 0.051744 -0.107945 -0.007341 -0.311693 -0.179368 -0.060818 -0.039162 -0.339713 0.087130 0.092321 -0.480408 0.051141 0.133178 0.016679 0.283237 0.256392 0.027870 -0.010524 0.094270 -0.167979 -0.065328 -0.050121 -0.268303 -0.089228 -0.241566 -0.427228 -0.030332 0.018608 0.187527 -0.477456 0.037529 0.512932 0.259956 0.150651 0.678205 -0.478432 -0.137425 0.292463 0.199634 0.378866 0.615918 0.239995 0.010091 0.173619 -0.066977 -0.051093 
Azerbaijan". -0.043829 -0.175942 0.202337 -0.185884 0.018409 -0.122666 0.106032 -0.235273 0.033942 0.115168 0.232349 0.285832 -0.311670 -0.100759 0.052855 0.319967 0.137301 0.096661 0.288553 -0.221318 -0.107755 0.209788 0.009674 -0.072879 -0.161992 -0.256531 0.011701 0.058819 0.240906 0.180432 -0.080738 -0.004822 -0.338210 -0.084541 -0.075094 0.092156 0.235578 -0.195614 0.068014 -0.056897 -0.032828 0.161806 -0.058281 -0.118743 0.055747 0.262935 -0.075890 0.088938 -0.162129 -0.136829 -0.184198 -0.043697 0.022900 0.079905 0.032664 -0.091660 -0.038775 -0.184784 -0.096892 -0.051939 -0.016126 -0.220584 0.106649 0.042568 -0.279762 0.053003 0.120990 0.016081 0.192724 0.163073 0.005195 0.005428 0.106563 -0.119094 -0.013935 -0.080045 -0.142107 0.002385 -0.178815 -0.267377 0.001974 0.034191 0.089004 -0.258236 0.045078 0.300490 0.158681 0.078508 0.441381 -0.314685 -0.112109 0.162582 0.090094 0.251979 0.353302 0.137839 -0.006569 0.127881 -0.063086 -0.007628 
International -0.081375 -0.269013 0.307656 -0.282719 0.029233 -0.188227 0.150378 -0.371705 0.045808 0.174038 0.344489 0.448222 -0.468634 -0.144818 0.079636 0.461318 0.200514 0.141102 0.439011 -0.345065 -0.200069 0.316809 0.018443 -0.121369 -0.251417 -0.394338 0.007555 0.097342 0.362622 0.269879 -0.123412 0.000874 -0.514787 -0.143184 -0.097531 0.161278 0.347577 -0.309435 0.104670 -0.092170 -0.046985 0.232207 -0.080342 -0.187533 0.103722 0.404907 -0.086285 0.144979 -0.232655 -0.194268 -0.269745 -0.093689 0.026667 0.101112 0.048405 -0.139816 -0.052334 -0.284151 -0.149923 -0.094790 0.000126 -0.343356 0.178356 0.090614 -0.429067 0.090655 0.211014 0.027922 0.301687 0.256332 0.004986 -0.003622 0.159571 -0.202401 -0.005352 -0.127518 -0.212192 0.024328 -0.270550 -0.403044 0.037905 0.057157 0.123530 -0.381650 0.075173 0.459212 0.259282 0.119002 0.689754 -0.493414 -0.184344 0.223018 0.122980 0.371736 0.531162 0.204383 -0.024082 0.203104 -0.104826 0.011475 
27 -0.016682 -0.273334 0.262932 -0.233513 -0.016515 -0.120152 0.139065 -0.260768 0.006834 0.143107 0.365203 0.417580 -0.474790 -0.153348 0.098811 0.491389 0.188979 0.223765 0.482169 -0.344967 -0.089080 0.315653 0.000747 -0.122097 -0.272686 -0.328169 -0.000989 0.101659 0.347736 0.235519 -0.095262 -0.018394 -0.434580 -0.098302 -0.124429 0.089345 0.334177 -0.228072 0.132005 -0.091092 -0.024126 0.236328 -0.079631 -0.143303 0.054720 0.295452 -0.163875 0.142187 -0.294690 -0.217636 -0.276138 0.005326 0.045083 0.167001 0.050579 -0.079831 0.004304 -0.273579 -0.145410 -0.048632 -0.045664 -0.302461 0.081687 0.087593 -0.418227 0.047419 0.107468 0.020349 0.264774 0.235976 0.006215 -0.007565 0.084089 -0.162338 -0.052359 -0.051500 -0.238345 -0.064781 -0.222104 -0.380775 -0.035504 0.037625 0.165154 -0.415105 0.041753 0.450547 0.241280 0.133680 0.586747 -0.427225 -0.124399 0.259566 0.189046 0.335142 0.544344 0.215613 0.016201 0.141078 -0.057393 -0.030402 
territory -0.052151 -0.137196 0.162375 -0.151148 0.015990 -0.103198 0.085466 -0.202754 0.028135 0.085516 0.178247 0.233840 -0.249520 -0.077152 0.041582 0.244538 0.105597 0.063707 0.225673 -0.169199 -0.116149 0.162855 0.006679 -0.058014 -0.125473 -0.215290 0.008345 0.049921 0.199109 0.148168 -0.063857 -0.002016 -0.272478 -0.083437 -0.052932 0.080076 0.182096 -0.167994 0.061682 -0.051892 -0.028841 0.120089 -0.039009 -0.109024 0.048813 0.212593 -0.043706 0.071168 -0.121003 -0.097570 -0.143414 -0.050111 0.005862 0.052548 0.024685 -0.081999 -0.028842 -0.149380 -0.077301 -0.057510 -0.006476 -0.184717 0.101046 0.052672 -0.234734 0.046406 0.114063 0.009089 0.156909 0.137539 0.006241 -0.002923 0.090776 -0.112902 -0.001282 -0.072883 -0.115517 0.023092 -0.153325 -0.219980 0.020728 0.036783 0.063991 -0.206691 0.036967 0.247468 0.142583 0.059674 0.371441 -0.262116 -0.099095 0.113482 0.062700 0.198438 0.284155 0.111179 -0.011000 0.107019 -0.050005 0.013397 
