519 100
</s> 0.004003 0.004419 -0.003830 -0.003278 0.001367 0.003021 0.000941 0.000211 -0.003604 0.002218 -0.004356 0.001250 -0.000751 -0.000957 -0.003316 -0.001882 0.002579 0.003025 0.002969 0.001597 0.001545 -0.003803 -0.004096 0.004970 0.003801 0.003090 -0.000604 0.004016 -0.000495 0.000735 -0.000149 -0.002983 0.001312 -0.001337 -0.003825 0.004754 0.004379 -0.001095 -0.000226 0.000509 -0.003638 -0.004007 0.004555 0.000063 -0.002582 -0.003042 -0.003076 0.001697 0.000201 0.001331 -0.004214 -0.003808 -0.000130 0.001144 0.002550 -0.003170 0.004080 0.000927 0.001120 -0.000608 0.002986 -0.002288 -0.002097 0.002158 -0.000753 0.001031 0.001805 -0.004089 -0.001983 0.002914 0.004232 0.003932 -0.003047 -0.002108 -0.000909 0.002001 -0.003788 0.002998 0.002788 -0.001599 -0.001552 -0.002238 0.004229 0.003912 -0.001180 0.004215 0.004820 0.001815 0.004983 -0.003111 -0.001532 -0.002107 -0.002907 0.002815 0.001579 0.000425 -0.002194 0.001524 0.003059 0.000194 
the -0.082252 -0.247251 0.223249 -0.234602 0.029869 -0.175849 0.097878 -0.327565 0.006161 0.186093 0.250066 0.303514 -0.306075 -0.133407 0.014503 0.330225 0.227017 0.065848 0.320846 -0.213934 -0.213771 0.178063 0.043995 -0.058575 -0.109951 -0.320887 -0.026634 0.035428 0.225416 0.214250 -0.079913 -0.003715 -0.340868 -0.123860 -0.066769 0.178778 0.233072 -0.264646 -0.013964 -0.111547 -0.022943 0.191631 -0.069352 -0.167230 0.033379 0.284248 -0.022005 0.061287 -0.112784 -0.093439 -0.170641 -0.141363 -0.015622 0.071249 0.044708 -0.082928 -0.059968 -0.172767 -0.093332 -0.152504 -0.026675 -0.296231 0.173904 0.049186 -0.246851 0.095731 0.166815 -0.005971 0.268337 0.197674 -0.026646 0.029007 0.143436 -0.149601 0.027491 -0.124828 -0.150514 0.026572 -0.186768 -0.263121 0.030304 0.055786 0.032480 -0.232385 0.059481 0.279426 0.152418 0.066724 0.464380 -0.340527 -0.099628 0.157493 0.046607 0.227792 0.302987 0.148371 -0.025237 0.176958 -0.107180 -0.026988 
of -0.153685 -0.273016 0.253907 -0.233148 0.072959 -0.224985 0.091698 -0.425190 0.041927 0.201449 0.186334 0.305043 -0.273137 -0.113476 -0.000470 0.323071 0.261729 -0.007759 0.243633 -0.196720 -0.321454 0.140949 0.070015 0.001227 -0.023510 -0.323616 0.002145 0.041884 0.217622 0.220419 -0.076205 0.023301 -0.300602 -0.131918 -0.047987 0.276916 0.231867 -0.291010 -0.083855 -0.093662 -0.019425 0.141477 -0.049131 -0.166218 0.043120 0.299732 0.078933 0.084174 -0.019422 -0.043645 -0.159588 -0.213271 -0.039356 0.015706 0.012299 -0.126612 -0.091762 -0.145681 -0.058868 -0.191330 0.020051 -0.282081 0.264431 0.030849 -0.180190 0.081623 0.210999 0.002382 0.291670 0.186873 -0.073523 0.020150 0.217445 -0.152856 0.060560 -0.178840 -0.116228 0.152982 -0.245862 -0.217348 0.088038 0.109181 -0.014259 -0.147924 0.057620 0.205480 0.124734 -0.001567 0.445910 -0.342745 -0.142096 0.068618 -0.000607 0.209456 0.210625 0.117001 -0.073622 0.160301 -0.156788 0.043568 
and -0.112912 -0.209598 0.197810 -0.196286 0.056033 -0.175575 0.077237 -0.327627 0.029087 0.165931 0.161890 0.265647 -0.245042 -0.101217 0.002608 0.276841 0.206930 0.005642 0.238119 -0.183933 -0.242749 0.135767 0.054124 -0.027023 -0.056263 -0.280512 -0.009947 0.042420 0.204211 0.177983 -0.080405 0.016016 -0.271321 -0.105639 -0.040502 0.221260 0.193603 -0.234052 -0.036747 -0.089964 -0.009842 0.135799 -0.061774 -0.133439 0.045573 0.253896 0.037095 0.070585 -0.043721 -0.062008 -0.140455 -0.163081 -0.017255 0.020833 0.000992 -0.102535 -0.072566 -0.123291 -0.066316 -0.163702 0.003265 -0.241416 0.199049 0.033463 -0.179586 0.077561 0.163737 -0.006690 0.240957 0.159190 -0.037064 0.025832 0.156068 -0.125336 0.042488 -0.135345 -0.100721 0.082002 -0.197086 -0.204959 0.060795 0.078852 0.000754 -0.158909 0.054214 0.196307 0.101125 0.021943 0.379189 -0.289293 -0.110493 0.086149 0.014389 0.190032 0.214863 0.123722 -0.049717 0.146418 -0.110949 0.014242 
* -0.064487 -0.207705 0.178332 -0.210477 0.019251 -0.141340 0.095570 -0.262109 0.010599 0.190399 0.239791 0.295022 -0.280788 -0.130513 0.015808 0.305128 0.197007 0.100123 0.329839 -0.206323 -0.152892 0.182377 0.027755 -0.080442 -0.127033 -0.286392 -0.038271 0.039181 0.232547 0.197307 -0.084552 -0.014187 -0.325991 -0.097651 -0.063881 0.124531 0.216295 -0.224755 0.024150 -0.095293 -0.018300 0.203982 -0.073385 -0.154198 0.049357 0.252931 -0.046650 0.054850 -0.126593 -0.113575 -0.150187 -0.110579 0.018739 0.083246 0.035659 -0.076331 -0.034423 -0.155660 -0.092587 -0.118841 -0.025188 -0.279375 0.129864 0.057917 -0.260328 0.085719 0.145289 -0.009961 0.256044 0.190871 -0.005705 0.029071 0.122849 -0.130976 0.001039 -0.076360 -0.156358 -0.008617 -0.168786 -0.250252 0.015995 0.034507 0.056108 -0.244315 0.064025 0.283939 0.134779 0.071303 0.427780 -0.314213 -0.073968 0.173977 0.072941 0.217513 0.309303 0.153953 -0.005663 0.161897 -0.080379 -0.031602 
in -0.091442 -0.221662 0.199978 -0.219110 0.047168 -0.170051 0.087894 -0.316027 0.017782 0.183992 0.210964 0.299032 -0.284468 -0.119698 0.013831 0.303232 0.227052 0.053190 0.288504 -0.207685 -0.214205 0.158795 0.051402 -0.057191 -0.085508 -0.296356 -0.024819 0.039727 0.229001 0.200360 -0.075536 0.008259 -0.314118 -0.115394 -0.058215 0.191329 0.221623 -0.248377 -0.009587 -0.107819 -0.013933 0.175271 -0.060491 -0.157637 0.050820 0.275541 0.004228 0.067601 -0.089754 -0.095926 -0.166817 -0.154322 -0.005264 0.046947 0.020809 -0.097479 -0.054782 -0.153188 -0.078446 -0.146074 -0.015904 -0.278211 0.174428 0.053639 -0.233067 0.085407 0.175236 -0.010180 0.267119 0.184272 -0.019163 0.037785 0.159044 -0.132557 0.037772 -0.116263 -0.131098 0.061648 -0.209949 -0.241973 0.039732 0.059313 0.024566 -0.190495 0.065298 0.251911 0.117944 0.038740 0.430333 -0.318664 -0.095939 0.131550 0.036151 0.203473 0.274816 0.145392 -0.034902 0.162279 -0.103089 -0.008152 
^ -0.093995 -0.317060 0.272610 -0.320073 0.027317 -0.226079 0.141934 -0.419802 0.040329 0.287299 0.316230 0.440914 -0.419592 -0.180153 0.011727 0.439076 0.325000 0.119547 0.436496 -0.302564 -0.250459 0.249663 0.039519 -0.095639 -0.159851 -0.421745 -0.052432 0.073255 0.314112 0.294613 -0.120020 0.008875 -0.487993 -0.143310 -0.076371 0.235830 0.331346 -0.343910 0.013415 -0.141459 -0.010758 0.295797 -0.117544 -0.217134 0.058442 0.404506 -0.053813 0.087067 -0.159652 -0.153501 -0.206917 -0.196284 0.036543 0.093460 0.040019 -0.124713 -0.073316 -0.210633 -0.146633 -0.202869 -0.043073 -0.414946 0.229233 0.044327 -0.355717 0.124181 0.228560 -0.018732 0.350944 0.267133 -0.021169 0.050454 0.192241 -0.187956 0.002556 -0.127920 -0.212487 0.029139 -0.290565 -0.343510 0.038404 0.064162 0.068646 -0.323690 0.110110 0.381147 0.173271 0.075481 0.634049 -0.471811 -0.102406 0.240596 0.089367 0.319066 0.417943 0.225620 -0.024634 0.241038 -0.140087 -0.013387 
Azerbaijan -0.076746 -0.221436 0.203998 -0.225546 0.032186 -0.163277 0.089223 -0.325497 0.020492 0.181326 0.229349 0.299602 -0.289112 -0.129389 0.018723 0.306854 0.223498 0.075764 0.315651 -0.222528 -0.182713 0.177120 0.047306 -0.057072 -0.118828 -0.306267 -0.033381 0.024153 0.242654 0.212897 -0.090677 0.007194 -0.333096 -0.106230 -0.068736 0.177961 0.227433 -0.256277 -0.003913 -0.105570 -0.010232 0.209753 -0.076356 -0.159933 0.052422 0.291427 -0.015297 0.079009 -0.117823 -0.104936 -0.162934 -0.149225 -0.004281 0.056073 0.044760 -0.092743 -0.051871 -0.181182 -0.086562 -0.148019 -0.032981 -0.299877 0.168777 0.052149 -0.264355 0.083105 0.157267 -0.007726 0.267205 0.185691 -0.012313 0.037517 0.142646 -0.148076 0.018533 -0.112695 -0.150338 0.021687 -0.184866 -0.268387 0.026080 0.047589 0.055590 -0.228946 0.073273 0.280804 0.138514 0.063890 0.456351 -0.336874 -0.093716 0.155676 0.069949 0.236265 0.309137 0.142042 -0.028922 0.179937 -0.101036 -0.010365 
to -0.092351 -0.231262 0.214597 -0.221547 0.055151 -0.181912 0.085234 -0.335100 0.031112 0.189005 0.190204 0.282205 -0.262038 -0.103007 0.013190 0.285192 0.217231 0.025134 0.268994 -0.187418 -0.235433 0.141953 0.052380 -0.046515 -0.081606 -0.301216 -0.016246 0.025269 0.219594 0.201967 -0.086173 0.016628 -0.312440 -0.124720 -0.044701 0.208133 0.211301 -0.256192 -0.026952 -0.091243 -0.012537 0.160338 -0.071592 -0.163319 0.049530 0.264481 0.017973 0.061005 -0.068407 -0.073007 -0.154460 -0.161968 -0.018457 0.038534 0.016495 -0.094631 -0.059188 -0.152370 -0.067680 -0.154098 -0.002486 -0.261392 0.186423 0.038694 -0.212243 0.088093 0.173430 -0.003966 0.263283 0.182901 -0.022779 0.020843 0.168758 -0.146109 0.042735 -0.128761 -0.126510 0.076069 -0.200725 -0.218023 0.044009 0.060508 0.018274 -0.179506 0.048208 0.235070 0.115877 0.039252 0.415960 -0.318403 -0.102701 0.108305 0.041293 0.210839 0.251672 0.134347 -0.030158 0.164028 -0.102397 -0.000213 
a -0.108179 -0.226457 0.226087 -0.222989 0.057277 -0.201385 0.093340 -0.365939 0.059060 0.198154 0.177181 0.299094 -0.252464 -0.108313 -0.005946 0.292457 0.239874 0.000324 0.241249 -0.200055 -0.266622 0.143136 0.059172 -0.035599 -0.044443 -0.307364 -0.014414 0.039839 0.213837 0.199753 -0.091154 0.017877 -0.299992 -0.111099 -0.032548 0.241633 0.220154 -0.263454 -0.049726 -0.102125 0.004978 0.160936 -0.074429 -0.152252 0.035197 0.302190 0.032614 0.084085 -0.054311 -0.061607 -0.146939 -0.190778 -0.015484 0.023210 0.014132 -0.118150 -0.078227 -0.131434 -0.068866 -0.161951 -0.008855 -0.281441 0.231049 0.019559 -0.191798 0.084266 0.191671 -0.002545 0.263812 0.159159 -0.051969 0.016932 0.171159 -0.137111 0.044224 -0.126528 -0.105269 0.097556 -0.218623 -0.214341 0.069752 0.074456 0.016126 -0.171490 0.079690 0.211996 0.105207 0.021760 0.417340 -0.325221 -0.123847 0.085099 0.024765 0.226349 0.229936 0.127623 -0.060905 0.164839 -0.124394 0.036598 
The -0.099830 -0.265220 0.233616 -0.259872 0.046267 -0.190014 0.113714 -0.359019 0.026070 0.217644 0.254488 0.335973 -0.324862 -0.145157 0.012748 0.343265 0.259484 0.084134 0.344040 -0.236803 -0.228489 0.188053 0.034969 -0.070440 -0.125235 -0.343237 -0.038433 0.048116 0.256564 0.237187 -0.090913 0.005933 -0.384077 -0.129272 -0.059849 0.204760 0.258498 -0.283994 -0.003161 -0.112247 -0.018564 0.217043 -0.077344 -0.185667 0.044992 0.320756 -0.019239 0.080223 -0.114861 -0.104367 -0.176268 -0.174289 0.002560 0.073804 0.036575 -0.103128 -0.069268 -0.177019 -0.102797 -0.161751 -0.023036 -0.332065 0.198158 0.054301 -0.286932 0.101634 0.183875 -0.003463 0.300910 0.215176 -0.018925 0.028846 0.169992 -0.167408 0.020786 -0.124159 -0.169073 0.041310 -0.231680 -0.284960 0.045059 0.060641 0.035492 -0.248382 0.080316 0.300905 0.136883 0.047958 0.505184 -0.383005 -0.102724 0.169904 0.075513 0.257068 0.318254 0.171257 -0.033823 0.189354 -0.107029 -0.004697 
Retrieved -0.012593 -0.321454 0.257725 -0.382654 -0.041603 -0.165409 0.228507 -0.297099 -0.017000 0.347027 0.535862 0.556590 -0.565634 -0.302338 0.070847 0.566472 0.306170 0.341502 0.744624 -0.424397 -0.050832 0.400229 -0.012254 -0.258391 -0.409650 -0.473518 -0.126080 0.073782 0.452633 0.363965 -0.141717 -0.083455 -0.671950 -0.160161 -0.144794 0.019065 0.405115 -0.370906 0.185473 -0.199709 -0.014643 0.502442 -0.179766 -0.288916 0.084831 0.451885 -0.281100 0.085057 -0.407682 -0.336049 -0.253998 -0.082260 0.118266 0.216854 0.126423 -0.073704 0.016823 -0.339978 -0.231259 -0.112777 -0.112742 -0.550149 0.047269 0.147279 -0.606321 0.188231 0.191534 -0.050602 0.417947 0.377650 0.084636 0.091833 0.096168 -0.236155 -0.072170 -0.031037 -0.355173 -0.213508 -0.253145 -0.559276 -0.066838 -0.040765 0.238349 -0.576085 0.140294 0.649898 0.273748 0.202436 0.802743 -0.568188 -0.034853 0.471466 0.259732 0.427785 0.743919 0.337445 0.078556 0.305917 -0.020171 -0.153776 
is -0.085459 -0.226958 0.211645 -0.205464 0.029927 -0.181468 0.092576 -0.333813 0.017201 0.207937 0.219869 0.299130 -0.267991 -0.107610 0.026588 0.283143 0.228137 0.036980 0.295552 -0.202896 -0.216341 0.152079 0.058884 -0.064293 -0.087709 -0.302611 -0.016508 0.031898 0.221681 0.217504 -0.091836 0.013141 -0.313465 -0.120292 -0.038190 0.191799 0.201171 -0.261840 -0.013802 -0.088905 0.006462 0.190691 -0.075630 -0.174167 0.041275 0.271625 0.003570 0.077173 -0.080341 -0.091071 -0.159622 -0.174057 -0.002117 0.063625 0.038625 -0.110531 -0.071184 -0.149497 -0.057167 -0.147084 -0.014733 -0.280100 0.190054 0.048105 -0.231278 0.092802 0.177124 -0.007348 0.265422 0.184228 -0.024534 0.036899 0.146354 -0.144212 0.047130 -0.114591 -0.133335 0.060170 -0.197953 -0.230122 0.050413 0.059229 0.023420 -0.200169 0.065285 0.246110 0.122087 0.029534 0.422903 -0.331315 -0.099175 0.140641 0.052233 0.223289 0.279044 0.145030 -0.031164 0.169554 -0.095273 0.010495 
was -0.086495 -0.234826 0.210792 -0.234593 0.041859 -0.173285 0.101599 -0.329918 0.021988 0.189231 0.230692 0.314049 -0.302109 -0.123008 0.016935 0.318133 0.221111 0.060500 0.307820 -0.209485 -0.216905 0.172510 0.048201 -0.072924 -0.116176 -0.318560 -0.025451 0.036180 0.238177 0.208461 -0.087305 0.006893 -0.347453 -0.122258 -0.057316 0.186347 0.225867 -0.267226 -0.004096 -0.112690 -0.004859 0.194646 -0.067265 -0.171903 0.043034 0.284491 -0.017524 0.073423 -0.114693 -0.101451 -0.174298 -0.139302 0.000370 0.055664 0.040790 -0.092615 -0.056728 -0.175161 -0.084397 -0.144586 -0.018656 -0.301273 0.182776 0.051595 -0.258032 0.098341 0.170468 -0.002069 0.272420 0.191039 -0.008460 0.034300 0.154831 -0.146984 0.032402 -0.108832 -0.145224 0.050726 -0.211725 -0.250104 0.029474 0.056976 0.041273 -0.220170 0.066977 0.277173 0.135171 0.058779 0.465142 -0.344659 -0.107529 0.158586 0.067922 0.228058 0.307289 0.151199 -0.018023 0.165571 -0.094786 -0.019735 
by -0.107547 -0.342821 0.307650 -0.355409 0.045320 -0.250589 0.152972 -0.445172 0.024686 0.292558 0.373196 0.466270 -0.459457 -0.209109 0.027348 0.482987 0.326266 0.141997 0.510155 -0.346173 -0.266623 0.283902 0.048876 -0.117859 -0.201786 -0.451960 -0.053204 0.062780 0.370268 0.324522 -0.135249 -0.007460 -0.527518 -0.171919 -0.100736 0.219975 0.353764 -0.376260 0.016002 -0.166806 -0.017690 0.318773 -0.126295 -0.249714 0.070338 0.431471 -0.066891 0.094447 -0.193026 -0.186360 -0.251012 -0.195479 0.011372 0.111325 0.052862 -0.127040 -0.063511 -0.258730 -0.146895 -0.196394 -0.037991 -0.447190 0.230543 0.094086 -0.412396 0.141913 0.235518 -0.023565 0.413073 0.297356 -0.010780 0.062716 0.198053 -0.221123 0.018176 -0.148451 -0.239157 0.016042 -0.291091 -0.406048 0.041498 0.056386 0.081502 -0.370084 0.104210 0.441921 0.202707 0.092906 0.687866 -0.503838 -0.122397 0.253705 0.113688 0.354757 0.491139 0.250312 -0.015224 0.265113 -0.123273 -0.047559 
as -0.089088 -0.189349 0.182467 -0.188885 0.036957 -0.153992 0.077642 -0.268185 0.024640 0.153581 0.167193 0.255858 -0.235081 -0.095631 0.009663 0.256384 0.173806 0.047318 0.244109 -0.169051 -0.193321 0.130160 0.036298 -0.046917 -0.080302 -0.249696 -0.017141 0.031170 0.196518 0.185426 -0.067698 0.009793 -0.268737 -0.094051 -0.045766 0.156700 0.179610 -0.212394 -0.006902 -0.090785 -0.002710 0.148552 -0.058139 -0.140177 0.041571 0.236402 0.002924 0.053496 -0.072462 -0.067888 -0.123425 -0.127176 -0.004410 0.035157 0.028841 -0.086838 -0.058176 -0.132219 -0.065044 -0.124827 -0.003645 -0.225491 0.152760 0.041448 -0.197149 0.075998 0.145769 -0.009059 0.218395 0.154340 -0.014641 0.020429 0.127951 -0.131454 0.029876 -0.102091 -0.113523 0.053548 -0.175458 -0.207227 0.044679 0.054685 0.029432 -0.177656 0.049174 0.202450 0.103388 0.043345 0.374391 -0.269209 -0.090461 0.106338 0.044720 0.189042 0.233042 0.120214 -0.031554 0.135186 -0.083248 0.007620 
on -0.093314 -0.294497 0.256456 -0.306540 0.023913 -0.203890 0.145699 -0.371869 0.017954 0.267128 0.339658 0.409305 -0.393954 -0.187406 0.022142 0.419603 0.284233 0.134243 0.458864 -0.300230 -0.207551 0.248509 0.037710 -0.119741 -0.182523 -0.398409 -0.049652 0.053212 0.319080 0.285438 -0.111304 -0.013784 -0.463194 -0.154015 -0.090552 0.185394 0.308815 -0.329813 0.027545 -0.142428 -0.016582 0.296427 -0.104048 -0.230423 0.062616 0.375314 -0.070434 0.074564 -0.189080 -0.171952 -0.217105 -0.162982 0.025913 0.102949 0.053624 -0.101425 -0.051184 -0.229000 -0.136085 -0.160991 -0.036726 -0.401553 0.185693 0.082060 -0.359011 0.129548 0.200805 -0.019101 0.343595 0.269994 -0.008300 0.047880 0.176308 -0.184818 0.006030 -0.116404 -0.207417 0.001076 -0.249755 -0.357468 0.020780 0.041678 0.079051 -0.331323 0.088977 0.395113 0.178276 0.087727 0.602489 -0.442159 -0.105730 0.235722 0.107152 0.310964 0.437713 0.215528 -0.005023 0.222151 -0.108668 -0.047860 
for -0.076203 -0.286634 0.254833 -0.279386 0.022217 -0.207966 0.127671 -0.363943 0.023689 0.271396 0.325173 0.389907 -0.368982 -0.168591 0.029907 0.383442 0.286454 0.113658 0.424908 -0.276863 -0.210795 0.236581 0.049332 -0.110142 -0.175813 -0.383993 -0.048241 0.032739 0.302499 0.278492 -0.126628 -0.003458 -0.438736 -0.151437 -0.076083 0.184964 0.276679 -0.313275 0.014834 -0.126899 0.001354 0.279198 -0.107555 -0.210247 0.052167 0.350050 -0.050543 0.084190 -0.170318 -0.153882 -0.204201 -0.173411 0.019871 0.110436 0.056313 -0.122363 -0.057085 -0.203187 -0.100950 -0.166924 -0.033727 -0.360842 0.189502 0.059716 -0.332959 0.125681 0.207342 -0.009228 0.344946 0.240411 -0.018381 0.042337 0.158587 -0.185579 0.029227 -0.122431 -0.191685 -0.003517 -0.234026 -0.316290 0.028298 0.041950 0.062852 -0.302632 0.078093 0.362214 0.162544 0.073127 0.561701 -0.434207 -0.111716 0.223863 0.089229 0.298635 0.398809 0.200720 -0.020780 0.205255 -0.108664 -0.026377 
Azerbaijani -0.091388 -0.271840 0.235677 -0.275228 0.036967 -0.188790 0.123895 -0.353886 0.029143 0.234485 0.295009 0.368991 -0.345574 -0.166482 0.021915 0.377622 0.262847 0.104742 0.386057 -0.270892 -0.216500 0.220573 0.045979 -0.097658 -0.154580 -0.350318 -0.029789 0.046238 0.287136 0.242166 -0.104844 -0.002071 -0.407461 -0.131805 -0.066333 0.189357 0.273699 -0.306741 0.011566 -0.129450 -0.004642 0.254937 -0.088827 -0.202223 0.062034 0.325868 -0.039718 0.076530 -0.154958 -0.139832 -0.199888 -0.153337 0.001615 0.079769 0.041041 -0.104001 -0.053304 -0.198764 -0.103050 -0.161122 -0.034174 -0.342542 0.187162 0.070456 -0.319125 0.116092 0.192464 -0.016654 0.309190 0.226949 -0.009911 0.044952 0.158779 -0.178266 0.026096 -0.105481 -0.184652 0.022969 -0.226475 -0.312398 0.035110 0.035509 0.056177 -0.281941 0.083013 0.329555 0.167165 0.074781 0.542753 -0.405988 -0.102629 0.188660 0.085892 0.279184 0.368332 0.191890 -0.014207 0.197549 -0.105350 -0.031472 
with -0.047354 -0.164647 0.137609 -0.166500 0.017703 -0.111408 0.082556 -0.203360 0.015311 0.142062 0.185595 0.226439 -0.217389 -0.105492 0.010802 0.223698 0.156238 0.081838 0.246499 -0.169456 -0.116814 0.133716 0.023497 -0.064502 -0.104978 -0.220397 -0.030673 0.026057 0.174769 0.150743 -0.066553 -0.005028 -0.261345 -0.087422 -0.050445 0.097828 0.158529 -0.172925 0.016926 -0.082264 -0.015895 0.163153 -0.056079 -0.124561 0.028248 0.204747 -0.040300 0.042337 -0.094460 -0.085611 -0.116995 -0.090924 0.012099 0.058569 0.036920 -0.067594 -0.029320 -0.125702 -0.064969 -0.088727 -0.029240 -0.213026 0.101088 0.046172 -0.200366 0.077025 0.105710 -0.013559 0.190004 0.141436 0.000212 0.027015 0.094441 -0.112755 -0.000528 -0.069619 -0.110725 -0.001366 -0.134066 -0.197897 0.009262 0.016082 0.049804 -0.180854 0.051776 0.217253 0.105031 0.050525 0.325920 -0.236085 -0.059547 0.126797 0.056345 0.170918 0.230269 0.115998 -0.007083 0.133616 -0.053252 -0.028336 
are -0.089585 -0.195783 0.193703 -0.205901 0.038728 -0.160861 0.087848 -0.286935 0.022359 0.176923 0.196327 0.253824 -0.247254 -0.107387 0.000523 0.262153 0.191878 0.038086 0.257465 -0.185088 -0.194315 0.149610 0.048467 -0.044967 -0.070674 -0.261511 -0.003452 0.031086 0.210307 0.167874 -0.077275 -0.000434 -0.274023 -0.104893 -0.055620 0.178054 0.196039 -0.236064 -0.021145 -0.100291 -0.011958 0.160920 -0.052287 -0.153778 0.036659 0.243397 0.005699 0.064043 -0.075188 -0.086452 -0.147909 -0.128295 -0.000884 0.049017 0.011049 -0.081973 -0.049509 -0.129161 -0.073447 -0.138504 -0.010573 -0.248904 0.163880 0.039229 -0.196360 0.086217 0.162960 -0.020124 0.238232 0.168781 -0.026566 0.032949 0.140486 -0.112890 0.031825 -0.108492 -0.115999 0.041489 -0.185593 -0.214387 0.037275 0.054897 0.012659 -0.175364 0.043638 0.215190 0.102204 0.036384 0.382657 -0.283642 -0.082115 0.112804 0.036081 0.192927 0.239797 0.124577 -0.032317 0.144864 -0.097221 -0.009720 
from -0.052600 -0.201057 0.180975 -0.201825 0.040373 -0.144676 0.090070 -0.260269 0.005255 0.174626 0.205180 0.264335 -0.250097 -0.089814 0.028606 0.272730 0.194865 0.033486 0.262638 -0.174199 -0.158368 0.149007 0.033564 -0.075942 -0.098707 -0.265092 -0.009009 0.026972 0.198969 0.169626 -0.075011 0.001854 -0.276628 -0.112490 -0.048042 0.165966 0.197676 -0.235368 -0.007296 -0.090596 -0.015458 0.159711 -0.063949 -0.141036 0.027967 0.249402 -0.013911 0.076724 -0.114374 -0.077408 -0.161534 -0.108217 -0.024470 0.052408 0.017084 -0.064108 -0.047264 -0.134675 -0.084019 -0.135833 -0.023439 -0.235551 0.145003 0.043253 -0.203056 0.092033 0.154965 -0.013274 0.247312 0.170385 -0.015681 0.032885 0.134975 -0.111039 0.024381 -0.087020 -0.110117 0.030511 -0.167541 -0.207858 0.032914 0.043486 0.013707 -0.196978 0.040452 0.226633 0.100765 0.054936 0.380054 -0.294330 -0.092765 0.133250 0.061272 0.184369 0.252023 0.136462 -0.016234 0.140100 -0.075946 -0.027228 
has -0.093551 -0.172933 0.175199 -0.174696 0.042294 -0.146957 0.081109 -0.270048 0.032846 0.148698 0.174732 0.244755 -0.236565 -0.090931 0.005608 0.251117 0.179198 0.053068 0.220831 -0.174156 -0.195269 0.125437 0.047776 -0.053573 -0.065892 -0.252651 -0.004095 0.028707 0.194308 0.150954 -0.062869 0.020508 -0.262271 -0.114802 -0.037434 0.151097 0.165604 -0.196081 -0.013393 -0.084432 -0.017945 0.149902 -0.049936 -0.161243 0.037260 0.216974 0.016256 0.056925 -0.065688 -0.073222 -0.126651 -0.134572 0.000336 0.044589 0.013604 -0.092003 -0.061940 -0.127822 -0.036139 -0.117072 -0.008945 -0.224983 0.145085 0.057283 -0.186190 0.095152 0.155720 -0.014517 0.205268 0.147794 -0.006866 0.038517 0.114133 -0.131509 0.042189 -0.081044 -0.105475 0.060121 -0.175101 -0.202044 0.027638 0.050143 0.012666 -0.149626 0.059840 0.199332 0.105942 0.022416 0.333917 -0.243017 -0.076770 0.098736 0.033425 0.161800 0.207050 0.112985 -0.033478 0.130992 -0.074840 0.006625 
at -0.066981 -0.285863 0.241052 -0.280688 0.016145 -0.197883 0.138336 -0.351846 -0.000760 0.265050 0.339022 0.381553 -0.369715 -0.159941 0.038647 0.384731 0.278195 0.110973 0.432840 -0.264994 -0.186370 0.231176 0.045715 -0.116487 -0.185117 -0.374697 -0.030260 0.040880 0.295047 0.279709 -0.121231 -0.016013 -0.436606 -0.147260 -0.082769 0.169269 0.271700 -0.312161 0.023993 -0.128131 -0.007214 0.266153 -0.106380 -0.198069 0.048487 0.343226 -0.069514 0.067562 -0.177530 -0.158856 -0.217922 -0.153541 0.024068 0.116920 0.055611 -0.110538 -0.049655 -0.210687 -0.110164 -0.147335 -0.041026 -0.358528 0.164781 0.061239 -0.339860 0.122360 0.198137 -0.005682 0.341727 0.252645 -0.013814 0.050340 0.157147 -0.171632 0.013717 -0.098859 -0.190240 -0.018618 -0.229594 -0.313138 0.028290 0.041800 0.063998 -0.304681 0.082759 0.377494 0.178994 0.088652 0.551972 -0.427900 -0.099430 0.242787 0.101457 0.289811 0.409279 0.215298 -0.020744 0.208267 -0.098514 -0.038888 
its -0.050338 -0.124560 0.103524 -0.114729 0.026678 -0.093175 0.055181 -0.168990 0.012070 0.105529 0.129253 0.167675 -0.155750 -0.064384 0.013144 0.162558 0.118135 0.036724 0.173557 -0.121513 -0.110969 0.095031 0.032171 -0.044898 -0.059177 -0.166773 -0.016936 0.015425 0.130647 0.114338 -0.044804 0.010086 -0.179137 -0.058899 -0.033902 0.102663 0.118693 -0.140840 0.000922 -0.058839 -0.004811 0.097786 -0.034576 -0.092297 0.029337 0.145257 -0.012635 0.032574 -0.050304 -0.050238 -0.090679 -0.080495 -0.007218 0.027500 0.020833 -0.046274 -0.035892 -0.081189 -0.037986 -0.081833 -0.016365 -0.159648 0.098271 0.037309 -0.139961 0.058451 0.078691 -0.002806 0.146262 0.098358 -0.008113 0.017016 0.079313 -0.086937 0.018293 -0.054446 -0.076574 0.024234 -0.100783 -0.139307 0.015134 0.017577 0.015914 -0.116070 0.039438 0.141487 0.064784 0.029313 0.237945 -0.176001 -0.048721 0.079085 0.023578 0.122125 0.155471 0.075740 -0.010431 0.097392 -0.050180 -0.007312 
that -0.096431 -0.205485 0.199214 -0.199722 0.055770 -0.181694 0.084699 -0.309088 0.042440 0.159839 0.175614 0.266934 -0.235101 -0.097986 0.018466 0.279502 0.202492 0.028046 0.235303 -0.183923 -0.220867 0.144907 0.051721 -0.052954 -0.074684 -0.271493 -0.011852 0.028526 0.206011 0.174904 -0.083933 0.018983 -0.279337 -0.119919 -0.041736 0.202899 0.197598 -0.232377 -0.035331 -0.102111 -0.006076 0.145913 -0.059867 -0.159803 0.038163 0.257465 0.012557 0.081852 -0.055896 -0.069075 -0.151934 -0.150160 -0.017016 0.028905 0.012101 -0.095934 -0.064401 -0.143321 -0.059786 -0.145731 -0.005127 -0.258914 0.194049 0.059658 -0.206856 0.090621 0.173558 -0.005218 0.232786 0.156952 -0.015889 0.029117 0.150499 -0.138434 0.044212 -0.108082 -0.113767 0.081117 -0.184289 -0.201803 0.049028 0.050721 0.017050 -0.161099 0.058047 0.203599 0.112860 0.023922 0.389656 -0.285408 -0.098203 0.095586 0.042388 0.199197 0.229586 0.121683 -0.040981 0.155241 -0.084409 0.005549 
In -0.076114 -0.198484 0.188391 -0.207962 0.027576 -0.157935 0.088315 -0.273516 0.029920 0.169313 0.199595 0.268002 -0.253324 -0.108350 0.012691 0.279330 0.200109 0.063194 0.274295 -0.186418 -0.189113 0.153766 0.028486 -0.059509 -0.094160 -0.270627 -0.023899 0.039081 0.213923 0.180757 -0.079240 0.005821 -0.297995 -0.101469 -0.052786 0.158140 0.206767 -0.225521 -0.011748 -0.089372 -0.007401 0.159570 -0.059469 -0.151960 0.037683 0.254794 -0.011975 0.050695 -0.088377 -0.085364 -0.140200 -0.121710 -0.002270 0.050613 0.026932 -0.083038 -0.049259 -0.146681 -0.077994 -0.126812 -0.013611 -0.252652 0.147536 0.050437 -0.218040 0.084789 0.144977 -0.014564 0.247491 0.166231 -0.021334 0.026808 0.136589 -0.126875 0.020559 -0.100644 -0.127197 0.029661 -0.178763 -0.210504 0.037647 0.047449 0.038377 -0.191778 0.044512 0.233714 0.111473 0.041934 0.389095 -0.284221 -0.090301 0.121137 0.054584 0.196505 0.259594 0.132738 -0.012853 0.149305 -0.079717 -0.021192 
2011. 0.102491 -0.287558 0.225790 -0.418132 -0.098249 -0.103068 0.227942 -0.192371 -0.057667 0.338982 0.682669 0.625711 -0.669480 -0.372887 0.099351 0.624116 0.276007 0.497739 0.921521 -0.500395 0.075618 0.500188 -0.073173 -0.345969 -0.561597 -0.475263 -0.152804 0.084562 0.548341 0.402254 -0.125412 -0.150548 -0.744931 -0.191112 -0.189255 -0.137014 0.427136 -0.388805 0.318576 -0.237732 -0.035053 0.605921 -0.202874 -0.347580 0.107329 0.432282 -0.427096 0.060131 -0.593805 -0.443542 -0.298912 0.029866 0.155072 0.315148 0.164113 -0.020179 0.081262 -0.420598 -0.284461 -0.050556 -0.161393 -0.584528 -0.079389 0.224634 -0.746994 0.185460 0.148865 -0.069660 0.460644 0.444383 0.179391 0.124647 0.030313 -0.261665 -0.124077 0.046890 -0.417758 -0.376404 -0.203024 -0.655151 -0.105752 -0.124902 0.333322 -0.722798 0.122570 0.798435 0.323889 0.301445 0.909031 -0.614823 0.013776 0.580641 0.369119 0.439475 0.946796 0.368824 0.148090 0.346154 0.030635 -0.246342 
May 0.038317 -0.299807 0.262171 -0.386920 -0.043683 -0.150814 0.205927 -0.282248 -0.043239 0.340243 0.593644 0.573429 -0.596403 -0.289569 0.083857 0.595436 0.291710 0.371178 0.788176 -0.471969 -0.038238 0.438601 -0.011860 -0.291808 -0.461096 -0.488409 -0.112079 0.065358 0.485501 0.381379 -0.146570 -0.127990 -0.720243 -0.204975 -0.145859 -0.017667 0.396524 -0.386686 0.228094 -0.217629 -0.030689 0.494716 -0.165397 -0.311932 0.090049 0.444592 -0.313758 0.093776 -0.448060 -0.357558 -0.268579 -0.059764 0.099681 0.289398 0.163906 -0.042214 0.023827 -0.381927 -0.254098 -0.084839 -0.109110 -0.554673 -0.006091 0.188390 -0.642537 0.196436 0.194172 -0.054648 0.444475 0.410616 0.138652 0.099374 0.065439 -0.271673 -0.057301 -0.007401 -0.382289 -0.273655 -0.205225 -0.572602 -0.044379 -0.067859 0.272389 -0.640255 0.104869 0.725300 0.304827 0.270730 0.842582 -0.580661 -0.065015 0.504900 0.281146 0.444394 0.790325 0.324814 0.081486 0.315316 -0.004286 -0.187062 
Archived_from -0.036129 -0.314034 0.266914 -0.373244 -0.022840 -0.194876 0.211783 -0.300184 -0.017583 0.319113 0.513684 0.464374 -0.512301 -0.245637 0.030297 0.521476 0.325852 0.258278 0.642845 -0.343940 -0.081612 0.335550 -0.002287 -0.187649 -0.297488 -0.425721 -0.059192 0.079195 0.371195 0.346260 -0.120407 -0.081163 -0.600810 -0.157840 -0.155518 0.084512 0.361323 -0.381196 0.135544 -0.172149 -0.042865 0.415019 -0.171457 -0.256199 0.092702 0.379762 -0.200742 0.029763 -0.306537 -0.293599 -0.238836 -0.096036 0.073951 0.208015 0.092461 -0.069734 -0.033171 -0.293807 -0.185410 -0.151263 -0.075317 -0.477426 0.107479 0.093970 -0.494589 0.153197 0.199507 -0.050133 0.354884 0.319778 0.054142 0.086923 0.107243 -0.203377 -0.080397 -0.060263 -0.324582 -0.164563 -0.244795 -0.462271 -0.050907 -0.007632 0.121255 -0.528239 0.080127 0.552893 0.235173 0.183712 0.764928 -0.529462 -0.037722 0.400784 0.153909 0.409136 0.627578 0.299407 0.049375 0.301497 -0.087939 -0.155462 
Soviet -0.054459 -0.173380 0.162132 -0.167556 0.026661 -0.130680 0.077284 -0.240143 0.019368 0.138029 0.172410 0.232445 -0.222373 -0.092932 0.003616 0.233737 0.164053 0.050451 0.232146 -0.158637 -0.160506 0.123156 0.024816 -0.039805 -0.077082 -0.235548 -0.016052 0.035899 0.169721 0.154371 -0.067917 0.001084 -0.246952 -0.082986 -0.045218 0.133504 0.168184 -0.188753 0.001417 -0.076617 -0.015575 0.138395 -0.048468 -0.117181 0.032581 0.214100 -0.018040 0.047905 -0.069811 -0.070904 -0.125558 -0.109268 -0.009528 0.042868 0.017108 -0.067535 -0.046599 -0.123270 -0.075063 -0.107614 -0.007418 -0.212973 0.136860 0.045047 -0.183475 0.061999 0.121653 -0.007978 0.204948 0.144790 -0.016645 0.021737 0.108329 -0.104185 0.016558 -0.088983 -0.105488 0.028022 -0.153185 -0.187788 0.034282 0.047546 0.035506 -0.170192 0.055414 0.198981 0.093549 0.042280 0.340992 -0.250367 -0.072672 0.114564 0.041314 0.166847 0.222018 0.116674 -0.015015 0.119401 -0.069851 -0.011057 
which -0.083702 -0.292087 0.268810 -0.297755 0.035938 -0.212301 0.128940 -0.382976 0.021664 0.257785 0.320079 0.397587 -0.381350 -0.182377 0.025106 0.407765 0.281193 0.116311 0.440323 -0.299228 -0.214873 0.240588 0.038542 -0.104872 -0.179004 -0.394250 -0.044696 0.041806 0.314241 0.280908 -0.120377 -0.019256 -0.451050 -0.151654 -0.082397 0.179367 0.292134 -0.328270 0.022815 -0.144562 -0.018070 0.277851 -0.101112 -0.213580 0.067736 0.367007 -0.054077 0.080948 -0.173970 -0.153944 -0.212437 -0.165364 0.012166 0.092824 0.062808 -0.113341 -0.059180 -0.228562 -0.122561 -0.166699 -0.037197 -0.384569 0.192693 0.075374 -0.347942 0.128515 0.216193 -0.007716 0.346752 0.255853 -0.004447 0.050853 0.167662 -0.191985 0.023241 -0.126915 -0.197155 -0.001344 -0.234654 -0.342655 0.030280 0.039885 0.069853 -0.317560 0.084833 0.380002 0.176051 0.081101 0.587716 -0.435988 -0.104263 0.221815 0.103873 0.306182 0.416541 0.199695 -0.020321 0.215301 -0.100515 -0.044765 
Azerbaijan, -0.071880 -0.213860 0.185788 -0.210167 0.015121 -0.146303 0.091891 -0.276718 0.005748 0.175405 0.222921 0.282504 -0.273665 -0.130328 0.016846 0.295496 0.196117 0.088051 0.300001 -0.204370 -0.167286 0.168690 0.030221 -0.064489 -0.118519 -0.283608 -0.039502 0.034665 0.218558 0.189959 -0.075026 -0.006488 -0.312244 -0.095106 -0.054908 0.141128 0.212604 -0.227483 0.006670 -0.098492 -0.019554 0.197540 -0.064016 -0.143904 0.037498 0.253537 -0.035408 0.058363 -0.116111 -0.099323 -0.139505 -0.124124 0.006837 0.059758 0.045026 -0.072629 -0.044118 -0.160987 -0.088043 -0.120605 -0.027482 -0.275664 0.139281 0.043245 -0.240480 0.085596 0.145446 -0.003844 0.241040 0.172064 -0.022053 0.027339 0.126748 -0.128767 0.009958 -0.101373 -0.135138 0.014165 -0.177625 -0.245655 0.018804 0.044841 0.055575 -0.219804 0.063321 0.262144 0.123136 0.056979 0.414816 -0.300869 -0.078729 0.154852 0.069131 0.214465 0.277818 0.139998 -0.018002 0.162143 -0.077137 -0.026505 
were -0.105355 -0.345847 0.306527 -0.362554 0.032944 -0.248659 0.162482 -0.448623 0.026615 0.309376 0.382391 0.482167 -0.464025 -0.212535 0.028761 0.494550 0.341283 0.135982 0.518394 -0.341772 -0.273895 0.289389 0.045605 -0.117100 -0.204223 -0.467966 -0.059734 0.064532 0.381152 0.331554 -0.130284 -0.012470 -0.531709 -0.173124 -0.105567 0.227443 0.356308 -0.384140 0.025972 -0.174646 -0.026136 0.331973 -0.119914 -0.259456 0.080099 0.439132 -0.057558 0.101353 -0.199090 -0.191648 -0.243714 -0.205953 0.020593 0.112651 0.056977 -0.133291 -0.070044 -0.261184 -0.140367 -0.208209 -0.039445 -0.456359 0.227772 0.093291 -0.417169 0.150964 0.246915 -0.011069 0.404559 0.306153 -0.005337 0.062638 0.203979 -0.217202 0.027784 -0.153317 -0.244809 0.008927 -0.293991 -0.421215 0.029277 0.062231 0.080393 -0.373244 0.099838 0.447760 0.213322 0.103812 0.695695 -0.529311 -0.134446 0.266047 0.110690 0.358341 0.499105 0.246725 -0.025532 0.270555 -0.130817 -0.040232 
original_on 0.021036 -0.362083 0.296491 -0.463866 -0.052385 -0.156639 0.218996 -0.285178 -0.026422 0.379582 0.660911 0.583993 -0.616279 -0.354181 0.073799 0.617900 0.330854 0.406236 0.823354 -0.443524 -0.008478 0.434453 -0.057747 -0.251453 -0.447138 -0.509976 -0.130717 0.075470 0.477514 0.410484 -0.168360 -0.072528 -0.740013 -0.161836 -0.185856 -0.054988 0.422291 -0.404447 0.232354 -0.195245 -0.018458 0.550226 -0.197324 -0.346363 0.085878 0.470392 -0.349745 0.015679 -0.508302 -0.394434 -0.275293 -0.025282 0.094811 0.305793 0.142513 -0.077398 0.056532 -0.376308 -0.277817 -0.088553 -0.142202 -0.549908 0.012314 0.152076 -0.634913 0.158382 0.184454 -0.056298 0.473875 0.427164 0.112231 0.119212 0.086453 -0.290532 -0.107720 -0.010197 -0.373122 -0.293407 -0.215476 -0.593580 -0.103574 -0.078365 0.217688 -0.669118 0.114756 0.708581 0.321859 0.247100 0.896897 -0.629389 -0.030749 0.517549 0.271919 0.440095 0.842068 0.362235 0.125040 0.314787 -0.046653 -0.240335 
an -0.091186 -0.236658 0.213251 -0.221397 0.041406 -0.174221 0.097979 -0.327602 0.021999 0.193571 0.231737 0.310771 -0.285546 -0.128317 0.015000 0.317635 0.219298 0.060533 0.312341 -0.219996 -0.197137 0.172346 0.045270 -0.056005 -0.111334 -0.306329 -0.021637 0.032974 0.237405 0.212422 -0.093804 -0.004623 -0.326789 -0.120822 -0.054408 0.172250 0.221645 -0.269509 -0.001339 -0.106053 -0.004697 0.200280 -0.073360 -0.167288 0.049121 0.297307 -0.013735 0.074607 -0.106954 -0.105617 -0.163864 -0.156535 0.001784 0.055660 0.030692 -0.102451 -0.057119 -0.168690 -0.084230 -0.148457 -0.023470 -0.286233 0.170130 0.053629 -0.248318 0.094740 0.180618 -0.002425 0.276973 0.190283 -0.021602 0.037591 0.150298 -0.155534 0.036521 -0.113887 -0.142656 0.030380 -0.197817 -0.260713 0.039560 0.046636 0.043333 -0.229917 0.063719 0.272594 0.133932 0.052131 0.454984 -0.341858 -0.105569 0.143118 0.054379 0.228651 0.296649 0.153044 -0.031309 0.170751 -0.099120 -0.000010 
also -0.089685 -0.224133 0.207018 -0.218617 0.032539 -0.176778 0.090179 -0.308455 0.023368 0.183414 0.223364 0.301567 -0.277327 -0.129146 0.011780 0.305375 0.219206 0.070619 0.307932 -0.222234 -0.200988 0.173437 0.049219 -0.067251 -0.108299 -0.288856 -0.030000 0.040245 0.230360 0.202089 -0.084946 -0.000160 -0.326226 -0.121734 -0.061354 0.162731 0.212173 -0.252796 -0.002208 -0.105736 -0.008430 0.196123 -0.071526 -0.171192 0.042112 0.279763 -0.006358 0.073739 -0.096784 -0.101081 -0.158226 -0.142974 0.003510 0.053936 0.028736 -0.092612 -0.058972 -0.163743 -0.076964 -0.134400 -0.024260 -0.276468 0.172967 0.064409 -0.247227 0.098594 0.173965 -0.007563 0.257238 0.190157 -0.009525 0.031174 0.141634 -0.148752 0.023120 -0.110836 -0.131646 0.035702 -0.197228 -0.246275 0.035612 0.047885 0.035281 -0.206485 0.070587 0.255477 0.123025 0.043483 0.426551 -0.326159 -0.086865 0.136548 0.047515 0.214005 0.279119 0.152909 -0.031169 0.161288 -0.090351 -0.003431 
World -0.085303 -0.246452 0.234243 -0.261720 0.016654 -0.173130 0.124916 -0.338373 0.013130 0.236848 0.283464 0.361353 -0.347507 -0.159947 0.007355 0.367245 0.247289 0.109620 0.395873 -0.258272 -0.180952 0.229796 0.025917 -0.103178 -0.171055 -0.346035 -0.039591 0.044216 0.266378 0.244889 -0.102431 -0.016755 -0.412496 -0.121014 -0.082556 0.174524 0.280109 -0.291812 0.017075 -0.120301 -0.012072 0.261290 -0.089313 -0.192193 0.054402 0.327218 -0.063145 0.078482 -0.177767 -0.154333 -0.193109 -0.147261 0.039110 0.090327 0.041013 -0.097356 -0.059142 -0.197975 -0.132127 -0.142683 -0.046204 -0.346268 0.170917 0.052988 -0.321296 0.107884 0.184778 -0.010882 0.291878 0.223447 -0.000304 0.043309 0.149223 -0.143968 0.009496 -0.091910 -0.173722 0.001054 -0.222659 -0.318106 0.019618 0.053014 0.078338 -0.294512 0.075852 0.350751 0.141582 0.084583 0.516874 -0.394488 -0.076849 0.213545 0.090256 0.267662 0.396170 0.184112 -0.013507 0.191100 -0.098036 -0.044736 
Baku -0.071960 -0.283274 0.256313 -0.312044 0.028682 -0.203971 0.143557 -0.371242 0.023119 0.272672 0.352980 0.422006 -0.410934 -0.193708 0.015440 0.430860 0.288430 0.143137 0.474159 -0.305486 -0.202620 0.260939 0.029110 -0.117553 -0.207979 -0.404127 -0.055172 0.055434 0.336052 0.291879 -0.117683 -0.028470 -0.492512 -0.151009 -0.093004 0.172934 0.317639 -0.337802 0.039492 -0.148682 -0.012565 0.297948 -0.112427 -0.223947 0.059010 0.378286 -0.082569 0.075309 -0.197134 -0.183271 -0.221141 -0.151369 0.033708 0.121529 0.056964 -0.102823 -0.049555 -0.235890 -0.133961 -0.164526 -0.045004 -0.404411 0.166944 0.082986 -0.382674 0.130112 0.204577 -0.015423 0.358526 0.271005 -0.006171 0.049484 0.159049 -0.198634 0.011895 -0.117215 -0.221181 -0.020784 -0.252428 -0.362397 0.017513 0.028502 0.092265 -0.358571 0.084883 0.421135 0.190540 0.100516 0.625891 -0.466538 -0.099883 0.253031 0.112585 0.325183 0.455771 0.223427 0.005393 0.231024 -0.104443 -0.052490 
March -0.061628 -0.330821 0.303004 -0.397404 -0.001381 -0.217253 0.202069 -0.382102 0.012504 0.335423 0.469407 0.540114 -0.538404 -0.256100 0.044232 0.551833 0.328621 0.243695 0.654874 -0.419090 -0.176584 0.355021 0.024879 -0.195908 -0.310228 -0.485435 -0.085076 0.069742 0.429636 0.354846 -0.152654 -0.065138 -0.632034 -0.165996 -0.126920 0.133611 0.395992 -0.391424 0.113727 -0.193482 -0.020486 0.419759 -0.146502 -0.268989 0.094801 0.460960 -0.180656 0.098974 -0.301716 -0.261409 -0.252934 -0.156409 0.073406 0.177637 0.096261 -0.107154 -0.026212 -0.312481 -0.200763 -0.160526 -0.081220 -0.522094 0.137114 0.123072 -0.524317 0.171073 0.235943 -0.039490 0.425845 0.344663 0.047574 0.088969 0.157159 -0.234947 -0.021908 -0.093423 -0.306027 -0.113383 -0.284088 -0.503815 -0.012125 0.013727 0.167737 -0.491303 0.130655 0.568953 0.238263 0.167588 0.778723 -0.562392 -0.100899 0.371996 0.193694 0.403502 0.632204 0.306384 0.020714 0.291268 -0.077709 -0.112653 
National -0.073722 -0.213235 0.198553 -0.219136 0.033802 -0.162284 0.095389 -0.302713 0.016427 0.192875 0.225912 0.292605 -0.269460 -0.130377 0.004088 0.304962 0.212905 0.078415 0.302486 -0.202062 -0.189475 0.171122 0.024773 -0.067514 -0.107362 -0.287102 -0.033390 0.047807 0.221442 0.207522 -0.082533 -0.007801 -0.324185 -0.098356 -0.047590 0.151916 0.223056 -0.238464 0.002757 -0.099391 -0.007962 0.195622 -0.078639 -0.150790 0.041401 0.270872 -0.021908 0.053025 -0.103812 -0.092576 -0.139521 -0.132834 0.012129 0.067210 0.036862 -0.086606 -0.047757 -0.154622 -0.085362 -0.122513 -0.017983 -0.276177 0.155404 0.050521 -0.237186 0.091215 0.153715 -0.004020 0.264198 0.178905 -0.028431 0.029379 0.139376 -0.138277 0.018984 -0.099633 -0.146602 0.029310 -0.183541 -0.246732 0.035676 0.038004 0.043700 -0.228137 0.066520 0.269006 0.116974 0.055113 0.430921 -0.327149 -0.081351 0.149745 0.067719 0.212537 0.283240 0.154980 -0.018962 0.156544 -0.093115 -0.010300 
country -0.061656 -0.172308 0.150194 -0.170765 0.030618 -0.129389 0.074973 -0.225106 0.024669 0.148122 0.178224 0.222890 -0.213221 -0.098317 0.017319 0.229506 0.162802 0.057459 0.233500 -0.156959 -0.132851 0.125261 0.030072 -0.058547 -0.094894 -0.214635 -0.018434 0.020413 0.175554 0.155723 -0.070227 0.006251 -0.251832 -0.088770 -0.043135 0.113601 0.169188 -0.190407 -0.002150 -0.082740 -0.002198 0.153807 -0.058345 -0.127735 0.027831 0.210373 -0.029626 0.051487 -0.095129 -0.077961 -0.117272 -0.088500 0.004741 0.056153 0.029227 -0.066857 -0.037815 -0.123300 -0.063693 -0.099463 -0.013602 -0.209359 0.118781 0.046650 -0.190630 0.066310 0.126238 -0.004676 0.196397 0.144674 -0.005452 0.025623 0.103883 -0.116329 0.021206 -0.073525 -0.108738 0.014884 -0.137371 -0.187485 0.024335 0.021696 0.025148 -0.172928 0.047949 0.206278 0.098075 0.038449 0.333627 -0.249317 -0.062745 0.112341 0.053036 0.178138 0.230973 0.110454 -0.013975 0.118551 -0.054761 -0.019519 
it -0.088331 -0.269019 0.244331 -0.285511 0.040077 -0.204639 0.132643 -0.364413 0.032730 0.228106 0.290581 0.379248 -0.352609 -0.162726 0.030458 0.381402 0.266671 0.111011 0.397869 -0.275720 -0.221185 0.220891 0.050868 -0.100867 -0.153986 -0.363688 -0.033284 0.040942 0.300580 0.249623 -0.107397 -0.003580 -0.425450 -0.147078 -0.078690 0.191567 0.279350 -0.302959 0.013748 -0.132916 -0.009218 0.247872 -0.093198 -0.210429 0.066713 0.339442 -0.047990 0.081267 -0.149037 -0.142178 -0.199228 -0.155869 0.014086 0.085750 0.038493 -0.103222 -0.052771 -0.208155 -0.106458 -0.165223 -0.034980 -0.364388 0.189355 0.077183 -0.325252 0.113745 0.196266 -0.010539 0.322280 0.238280 0.002119 0.041475 0.166311 -0.180929 0.027807 -0.108028 -0.190432 0.014272 -0.240515 -0.311951 0.025913 0.043208 0.069429 -0.286038 0.081737 0.340370 0.160861 0.075680 0.551290 -0.399698 -0.101989 0.192287 0.094485 0.285288 0.378485 0.186496 -0.017207 0.205358 -0.092133 -0.029551 
June -0.028358 -0.316189 0.281607 -0.364458 -0.010846 -0.207225 0.211129 -0.317857 -0.013523 0.332247 0.506444 0.510663 -0.528512 -0.282448 0.066789 0.537401 0.290522 0.277679 0.681182 -0.399022 -0.089962 0.363107 0.014036 -0.223246 -0.347314 -0.465211 -0.089844 0.058718 0.424955 0.354264 -0.158532 -0.062739 -0.641536 -0.167061 -0.150717 0.067558 0.389070 -0.361970 0.136810 -0.196970 -0.031924 0.452153 -0.146239 -0.269031 0.097908 0.446246 -0.212659 0.067013 -0.338810 -0.274066 -0.242323 -0.115685 0.075838 0.193325 0.119714 -0.099153 -0.011159 -0.312308 -0.206999 -0.142648 -0.097493 -0.503452 0.094079 0.117227 -0.543033 0.177709 0.199793 -0.037000 0.393079 0.342372 0.072298 0.096456 0.129171 -0.239171 -0.047963 -0.078049 -0.307776 -0.167683 -0.244856 -0.500189 -0.042867 -0.017042 0.172184 -0.508862 0.120364 0.571671 0.251101 0.181836 0.759722 -0.543202 -0.055977 0.421980 0.216549 0.403840 0.652394 0.309092 0.049748 0.282380 -0.055278 -0.129725 
have -0.089534 -0.209779 0.206019 -0.211314 0.049241 -0.177484 0.091256 -0.302092 0.033571 0.180851 0.215709 0.303087 -0.281451 -0.119122 0.005611 0.314409 0.212009 0.057274 0.292386 -0.219222 -0.219174 0.170021 0.048245 -0.065738 -0.107641 -0.297237 -0.025473 0.038932 0.236575 0.183630 -0.077634 0.004910 -0.317607 -0.111922 -0.043759 0.171457 0.212293 -0.233856 -0.011426 -0.102048 -0.011390 0.180190 -0.064596 -0.175343 0.041655 0.268795 -0.001279 0.069141 -0.094056 -0.089843 -0.166973 -0.146037 0.004910 0.055502 0.020761 -0.085996 -0.062020 -0.152011 -0.072401 -0.141486 -0.017536 -0.288096 0.169743 0.060627 -0.243810 0.104954 0.170093 -0.009397 0.259807 0.177265 -0.014809 0.029729 0.130887 -0.143309 0.029341 -0.094116 -0.132989 0.042348 -0.197396 -0.241181 0.036211 0.055060 0.033657 -0.212372 0.070852 0.257044 0.125023 0.044760 0.423812 -0.320388 -0.086045 0.133123 0.066035 0.212160 0.278384 0.134516 -0.025937 0.165112 -0.086832 -0.008371 
Azerbaijan. -0.084755 -0.233535 0.215100 -0.238836 0.034731 -0.177990 0.109079 -0.326999 0.016260 0.204435 0.247395 0.323077 -0.300750 -0.147941 0.006516 0.332173 0.242685 0.075057 0.320826 -0.230163 -0.207010 0.180388 0.033972 -0.063019 -0.112273 -0.319063 -0.033946 0.039565 0.233382 0.221783 -0.083669 0.002248 -0.346559 -0.118628 -0.058859 0.174535 0.243596 -0.263171 -0.000356 -0.108847 -0.018054 0.206182 -0.070769 -0.175673 0.042674 0.288804 -0.025425 0.062943 -0.118200 -0.107201 -0.161206 -0.153370 0.002043 0.063259 0.044959 -0.099632 -0.062118 -0.169033 -0.094779 -0.142763 -0.017577 -0.302321 0.180691 0.047497 -0.259541 0.085648 0.165876 -0.005250 0.274355 0.194724 -0.030645 0.033291 0.153658 -0.149664 0.007704 -0.115986 -0.145753 0.034492 -0.205413 -0.264099 0.031304 0.051714 0.051750 -0.237090 0.065314 0.274188 0.141567 0.056588 0.477213 -0.345714 -0.096606 0.154039 0.058242 0.243504 0.306470 0.149155 -0.024881 0.175073 -0.111736 -0.018264 
December -0.047777 -0.340375 0.279052 -0.371563 0.000726 -0.214682 0.202700 -0.351556 -0.001851 0.332133 0.492860 0.511246 -0.522047 -0.274753 0.049099 0.533415 0.307479 0.258165 0.668123 -0.404846 -0.123986 0.366518 0.003937 -0.207801 -0.342101 -0.463638 -0.079621 0.060717 0.410466 0.356937 -0.159681 -0.058188 -0.631911 -0.175971 -0.133206 0.116580 0.374292 -0.378406 0.123466 -0.186234 -0.032095 0.438258 -0.144625 -0.280952 0.101905 0.446638 -0.197016 0.073136 -0.323643 -0.258578 -0.257546 -0.122518 0.074194 0.186007 0.089049 -0.102159 -0.016554 -0.300243 -0.199538 -0.154051 -0.083699 -0.503502 0.133455 0.113060 -0.531918 0.180463 0.224393 -0.038747 0.406613 0.331833 0.054645 0.077450 0.141799 -0.235636 -0.036410 -0.089107 -0.304898 -0.141211 -0.260913 -0.493647 -0.031443 -0.016497 0.147611 -0.503833 0.112862 0.558328 0.247393 0.169225 0.772686 -0.555961 -0.059722 0.398629 0.203456 0.407477 0.635750 0.312559 0.033747 0.290158 -0.066034 -0.128900 
Republic -0.096288 -0.261797 0.237344 -0.263929 0.031408 -0.192611 0.108165 -0.360573 0.020459 0.215462 0.266723 0.336658 -0.327611 -0.159728 0.006167 0.355206 0.252199 0.084491 0.343584 -0.240464 -0.229266 0.192667 0.035681 -0.053684 -0.104357 -0.336919 -0.025723 0.051179 0.252825 0.245900 -0.079968 0.002862 -0.375702 -0.127578 -0.072683 0.187937 0.261661 -0.291537 -0.015054 -0.109191 -0.024156 0.214086 -0.083928 -0.183542 0.044056 0.320430 -0.014991 0.062783 -0.118260 -0.101878 -0.165364 -0.165909 -0.000995 0.065542 0.038548 -0.114152 -0.061404 -0.174260 -0.105527 -0.147367 -0.015588 -0.327308 0.197203 0.053298 -0.263488 0.091150 0.183746 -0.006445 0.304579 0.217064 -0.036762 0.029934 0.173337 -0.168229 0.014275 -0.131287 -0.155822 0.044534 -0.215945 -0.277935 0.038742 0.071537 0.047673 -0.252599 0.069808 0.294593 0.154207 0.057752 0.503844 -0.369264 -0.109379 0.157938 0.048284 0.246240 0.319271 0.167869 -0.027249 0.182352 -0.119198 -0.018761 
European -0.073053 -0.304645 0.254380 -0.298241 0.023826 -0.206255 0.139289 -0.389451 0.009618 0.258471 0.344987 0.407515 -0.404995 -0.183812 0.030534 0.419623 0.292100 0.124212 0.464948 -0.295762 -0.209401 0.246909 0.039217 -0.117682 -0.193551 -0.411609 -0.055240 0.057080 0.316489 0.292640 -0.124046 -0.014047 -0.477357 -0.153961 -0.090053 0.190573 0.315111 -0.335702 0.020754 -0.150326 -0.023052 0.288271 -0.097484 -0.213442 0.058075 0.376277 -0.073191 0.081395 -0.184994 -0.157632 -0.218681 -0.170718 0.014550 0.106387 0.064347 -0.111694 -0.050481 -0.232824 -0.134466 -0.177658 -0.039494 -0.398452 0.187943 0.080221 -0.368648 0.130767 0.202508 -0.012033 0.362587 0.268596 -0.016202 0.045756 0.177408 -0.194469 0.014889 -0.118611 -0.205793 -0.000182 -0.256169 -0.351174 0.026798 0.044300 0.084564 -0.332308 0.093535 0.400489 0.181979 0.096692 0.606404 -0.462628 -0.103106 0.248423 0.108846 0.320258 0.432472 0.219908 -0.009615 0.230337 -0.102161 -0.039426 
Iranian -0.069962 -0.206723 0.184543 -0.207176 0.023178 -0.153140 0.090501 -0.275907 0.006400 0.174323 0.229807 0.287597 -0.281593 -0.124321 0.017160 0.293927 0.201870 0.085965 0.304900 -0.212016 -0.157193 0.169542 0.031680 -0.068155 -0.117940 -0.284947 -0.030785 0.040105 0.226229 0.191843 -0.082856 -0.003735 -0.320597 -0.107738 -0.059017 0.139990 0.215861 -0.226196 0.007527 -0.092649 -0.016214 0.191106 -0.069842 -0.147676 0.042615 0.261340 -0.029709 0.062603 -0.119533 -0.108658 -0.150592 -0.125760 0.008649 0.069781 0.042010 -0.081918 -0.042917 -0.159610 -0.089789 -0.112904 -0.029074 -0.265227 0.136977 0.053284 -0.251586 0.085106 0.152861 -0.009765 0.244300 0.181231 -0.004369 0.039833 0.128117 -0.138141 0.010049 -0.087367 -0.136974 0.014446 -0.168972 -0.245976 0.023037 0.045467 0.048088 -0.221481 0.056510 0.267273 0.125830 0.063825 0.414897 -0.301621 -0.072204 0.152706 0.064849 0.205162 0.294581 0.145611 -0.016076 0.162749 -0.084199 -0.025451 
Azerbaijan's -0.080589 -0.276881 0.251054 -0.296272 0.027014 -0.203502 0.136172 -0.363778 0.018184 0.252028 0.321519 0.394377 -0.385767 -0.178237 0.021053 0.399219 0.277053 0.119845 0.441764 -0.280464 -0.207640 0.240346 0.036102 -0.111333 -0.184624 -0.382533 -0.045781 0.046395 0.306324 0.265996 -0.108521 -0.020094 -0.440081 -0.140331 -0.082596 0.178483 0.285996 -0.316056 0.026359 -0.137827 -0.013107 0.271559 -0.101441 -0.212465 0.063333 0.355601 -0.064359 0.070949 -0.178209 -0.154744 -0.199953 -0.159331 0.019859 0.107399 0.052322 -0.097462 -0.050843 -0.219812 -0.119378 -0.166120 -0.039780 -0.383926 0.180339 0.072869 -0.343593 0.125795 0.197637 -0.008660 0.341247 0.257939 -0.001959 0.051210 0.160887 -0.183714 0.020218 -0.113466 -0.202832 -0.001942 -0.232699 -0.342891 0.022210 0.032639 0.075681 -0.316234 0.092012 0.374939 0.169019 0.085895 0.573640 -0.434432 -0.096667 0.221694 0.108579 0.293530 0.420163 0.208124 -0.006997 0.218071 -0.100897 -0.048957 
– -0.094628 -0.279515 0.245207 -0.285150 0.014667 -0.187167 0.126015 -0.366849 0.033898 0.253742 0.275244 0.385435 -0.355309 -0.166857 0.000694 0.385392 0.284888 0.099173 0.383614 -0.276699 -0.206694 0.231649 0.024556 -0.085998 -0.138589 -0.359792 -0.034117 0.049963 0.290113 0.248538 -0.110609 -0.002823 -0.423771 -0.127918 -0.063217 0.195147 0.292004 -0.299139 0.013303 -0.130417 0.000423 0.262474 -0.102373 -0.187829 0.051038 0.348269 -0.054450 0.088590 -0.159577 -0.155343 -0.191824 -0.172901 0.036814 0.079818 0.036807 -0.108231 -0.072907 -0.197477 -0.119363 -0.164140 -0.036116 -0.370017 0.194734 0.053337 -0.307314 0.114519 0.186962 -0.003825 0.321762 0.233724 -0.030773 0.046725 0.165851 -0.161667 -0.002666 -0.108374 -0.188153 0.026810 -0.257589 -0.316258 0.026916 0.065568 0.066806 -0.290002 0.096373 0.341661 0.149052 0.070408 0.544772 -0.408984 -0.101999 0.207505 0.092239 0.296947 0.388440 0.210841 -0.008670 0.203950 -0.109516 -0.019876 
been -0.086747 -0.175706 0.142762 -0.156997 0.047598 -0.145336 0.062026 -0.247423 0.025059 0.133667 0.163163 0.220187 -0.192730 -0.085425 0.013622 0.232365 0.162145 0.034305 0.215186 -0.172386 -0.157615 0.113534 0.044761 -0.050365 -0.063836 -0.224052 -0.024530 0.018273 0.178812 0.144125 -0.056071 0.021141 -0.237967 -0.090378 -0.044740 0.152044 0.165613 -0.193745 -0.025218 -0.085388 -0.001384 0.142983 -0.053915 -0.128670 0.031357 0.207459 0.005866 0.075081 -0.067270 -0.066550 -0.121432 -0.106707 -0.015131 0.023220 0.024536 -0.078476 -0.032774 -0.111180 -0.046466 -0.127445 -0.010562 -0.218494 0.146815 0.055910 -0.183425 0.082090 0.124542 0.005189 0.188923 0.118719 -0.008259 0.025378 0.121700 -0.115139 0.018196 -0.070427 -0.082532 0.058152 -0.136056 -0.186110 0.021576 0.029794 0.022942 -0.132327 0.062503 0.163486 0.101613 0.029355 0.307700 -0.243454 -0.074562 0.074471 0.038622 0.153791 0.197847 0.098886 -0.038428 0.134817 -0.062490 0.006655 
national -0.064943 -0.212929 0.195864 -0.223168 0.017838 -0.165662 0.105168 -0.281808 0.018202 0.205496 0.259163 0.308410 -0.302281 -0.139139 0.022615 0.317513 0.218903 0.093998 0.343807 -0.227935 -0.165690 0.191684 0.032339 -0.079437 -0.134321 -0.293553 -0.031407 0.036680 0.241186 0.216601 -0.095586 -0.011501 -0.345705 -0.119100 -0.059184 0.143675 0.228483 -0.256657 0.021459 -0.102380 -0.015318 0.219304 -0.078569 -0.178276 0.048504 0.287002 -0.055193 0.069486 -0.139686 -0.129125 -0.153725 -0.133426 0.021246 0.082785 0.040316 -0.084558 -0.045400 -0.168390 -0.089246 -0.130744 -0.033836 -0.294816 0.143890 0.068772 -0.265196 0.100844 0.166830 -0.014515 0.271319 0.201358 -0.007633 0.037247 0.133540 -0.148361 0.018271 -0.084021 -0.157911 0.003747 -0.181497 -0.262306 0.027340 0.029779 0.061771 -0.251470 0.067687 0.297345 0.134906 0.067703 0.446134 -0.341541 -0.075162 0.169249 0.079785 0.226170 0.330832 0.164186 -0.013878 0.177782 -0.078149 -0.035146 
May_2007. -0.048922 -0.376019 0.296499 -0.410324 -0.012453 -0.216630 0.222804 -0.383207 0.009679 0.383567 0.541378 0.561363 -0.557563 -0.297556 0.041286 0.596736 0.357859 0.316944 0.742807 -0.416265 -0.124346 0.395364 -0.007694 -0.231339 -0.350082 -0.510180 -0.097516 0.079098 0.460008 0.395806 -0.154842 -0.050445 -0.663105 -0.177904 -0.143231 0.077195 0.424858 -0.400706 0.157506 -0.206839 -0.010250 0.485610 -0.172406 -0.285077 0.097981 0.466505 -0.231620 0.090156 -0.378118 -0.317197 -0.255601 -0.120172 0.073080 0.222257 0.116890 -0.110715 -0.013149 -0.337019 -0.230530 -0.144124 -0.082294 -0.546396 0.125493 0.136708 -0.575981 0.181091 0.208139 -0.036662 0.453796 0.391985 0.051479 0.087518 0.141546 -0.276585 -0.063011 -0.077389 -0.336507 -0.164966 -0.284613 -0.533585 -0.023420 0.010562 0.181828 -0.566563 0.131170 0.615070 0.271347 0.179713 0.832351 -0.602486 -0.059104 0.429356 0.223397 0.446469 0.706207 0.363189 0.053057 0.309564 -0.058776 -0.154591 
b -0.115684 -0.265902 0.239574 -0.278912 0.059960 -0.206430 0.117415 -0.377526 0.067694 0.237045 0.230522 0.356315 -0.312061 -0.135719 -0.021320 0.358976 0.280147 0.052151 0.306170 -0.248307 -0.260421 0.173388 0.023897 -0.056609 -0.084350 -0.343366 -0.022900 0.064503 0.264993 0.242848 -0.114534 0.021184 -0.391490 -0.126810 -0.038838 0.228110 0.261533 -0.298909 -0.030427 -0.101766 0.004892 0.219363 -0.090514 -0.203961 0.054540 0.341221 -0.004410 0.071246 -0.085644 -0.104431 -0.180155 -0.197240 0.025878 0.054756 0.011349 -0.138255 -0.089592 -0.170415 -0.077809 -0.171116 -0.004628 -0.333033 0.224399 0.030715 -0.267524 0.095098 0.215024 -0.009671 0.315818 0.207201 -0.056701 0.030872 0.202463 -0.176921 0.019952 -0.140057 -0.164908 0.082918 -0.276198 -0.257070 0.059318 0.065228 0.042890 -0.241429 0.083283 0.269674 0.113687 0.010250 0.518650 -0.403736 -0.120639 0.143022 0.057478 0.275235 0.308383 0.194165 -0.027842 0.189678 -0.117584 0.013381 
2010. -0.048773 -0.370052 0.308402 -0.427393 -0.011899 -0.242518 0.211135 -0.399357 -0.002829 0.354087 0.534478 0.589264 -0.589260 -0.304809 0.055178 0.613370 0.361450 0.297637 0.729993 -0.440377 -0.138699 0.410226 0.013570 -0.213980 -0.372953 -0.540209 -0.099432 0.081477 0.485568 0.408695 -0.155927 -0.052082 -0.702193 -0.202392 -0.152760 0.105555 0.425400 -0.419687 0.125156 -0.216289 -0.037906 0.485089 -0.175939 -0.320462 0.098042 0.495284 -0.203089 0.105037 -0.369823 -0.309925 -0.288572 -0.152104 0.086722 0.204101 0.113333 -0.115283 -0.026235 -0.358682 -0.225405 -0.183813 -0.106549 -0.569212 0.149506 0.142751 -0.591240 0.189416 0.243431 -0.030744 0.467425 0.391706 0.054090 0.090354 0.156381 -0.267854 -0.040933 -0.097380 -0.340548 -0.153277 -0.290481 -0.562802 -0.033088 -0.009172 0.182820 -0.565042 0.145620 0.627781 0.270635 0.185730 0.853002 -0.631268 -0.081767 0.442227 0.225570 0.447700 0.725822 0.341981 0.055745 0.335583 -0.087764 -0.117389 
"Azerbaijan -0.070649 -0.249434 0.241017 -0.286440 0.021427 -0.191304 0.137706 -0.342291 0.042243 0.247633 0.291666 0.383384 -0.344860 -0.159766 -0.008629 0.375095 0.269027 0.111845 0.395608 -0.265642 -0.193414 0.229264 0.014755 -0.103883 -0.156477 -0.360700 -0.041239 0.053857 0.292921 0.259570 -0.110971 -0.016553 -0.433791 -0.133909 -0.056928 0.169052 0.278971 -0.303485 0.030244 -0.125701 -0.004386 0.262805 -0.105737 -0.192848 0.068231 0.349132 -0.069156 0.070808 -0.174575 -0.158466 -0.196003 -0.159023 0.041661 0.081254 0.038228 -0.112614 -0.056433 -0.203215 -0.109930 -0.146529 -0.040471 -0.362548 0.164358 0.050598 -0.323802 0.102264 0.189151 -0.017470 0.321203 0.219904 -0.021002 0.048456 0.157299 -0.176098 0.002888 -0.103780 -0.179051 0.006956 -0.248085 -0.309553 0.024236 0.038681 0.086304 -0.294982 0.096799 0.346640 0.144001 0.061228 0.558963 -0.419292 -0.105083 0.203919 0.101278 0.296908 0.387817 0.202099 -0.010627 0.214391 -0.092787 -0.028290 
one -0.075396 -0.227611 0.205612 -0.230961 0.027351 -0.170112 0.104818 -0.301947 0.023914 0.198686 0.251478 0.309697 -0.296839 -0.141809 0.020021 0.314692 0.214433 0.082130 0.336284 -0.224624 -0.183081 0.183980 0.037221 -0.071094 -0.128924 -0.298972 -0.037720 0.039268 0.249782 0.216275 -0.089427 -0.009339 -0.337379 -0.120925 -0.069079 0.155743 0.231617 -0.259694 0.007419 -0.109498 -0.005511 0.212293 -0.084009 -0.166742 0.048171 0.288268 -0.026427 0.064326 -0.125765 -0.118599 -0.159491 -0.131022 0.002096 0.066954 0.043552 -0.081383 -0.045699 -0.174523 -0.093359 -0.141972 -0.024866 -0.301210 0.161795 0.055672 -0.267287 0.092151 0.161621 -0.004797 0.272956 0.201408 -0.008472 0.042291 0.131147 -0.150727 0.021320 -0.098561 -0.146958 0.014310 -0.197376 -0.270591 0.030781 0.041366 0.047468 -0.239906 0.072491 0.287723 0.132118 0.059682 0.456443 -0.342845 -0.088001 0.157567 0.067670 0.230169 0.313672 0.153288 -0.014384 0.170634 -0.090459 -0.030349 
A -0.083527 -0.300863 0.271685 -0.319498 0.026486 -0.211011 0.154977 -0.389781 0.023407 0.270338 0.340893 0.427912 -0.412258 -0.188984 0.020016 0.428916 0.297728 0.130985 0.465811 -0.316669 -0.223187 0.249762 0.040812 -0.113768 -0.189445 -0.411578 -0.048405 0.066356 0.331638 0.285841 -0.119891 -0.016460 -0.478497 -0.149612 -0.087194 0.188639 0.310396 -0.338376 0.035280 -0.146661 -0.017522 0.297170 -0.104596 -0.229191 0.072669 0.382075 -0.072395 0.082953 -0.182920 -0.171504 -0.216830 -0.179626 0.026631 0.110907 0.041391 -0.126477 -0.052814 -0.230708 -0.133858 -0.170677 -0.032761 -0.399428 0.193264 0.072012 -0.365187 0.130803 0.214664 -0.017257 0.365747 0.265045 -0.013612 0.054440 0.179564 -0.199012 0.011538 -0.123743 -0.212450 0.000565 -0.261623 -0.363911 0.031936 0.046292 0.082024 -0.341939 0.100338 0.395948 0.182489 0.083733 0.622417 -0.467117 -0.114453 0.246470 0.108194 0.320637 0.440533 0.220102 -0.019127 0.232425 -0.113401 -0.034595 
April -0.031215 -0.293384 0.258134 -0.355466 -0.020980 -0.177149 0.187463 -0.308431 -0.006894 0.305664 0.450131 0.479298 -0.486776 -0.253425 0.042974 0.496798 0.288381 0.269124 0.632848 -0.381663 -0.097437 0.342850 -0.006284 -0.203468 -0.327238 -0.424889 -0.095064 0.064009 0.397526 0.325682 -0.133784 -0.060881 -0.580051 -0.159839 -0.122270 0.064266 0.361150 -0.344377 0.132820 -0.182939 -0.022344 0.404932 -0.139037 -0.263672 0.085962 0.407567 -0.203011 0.081785 -0.322889 -0.273352 -0.233386 -0.093712 0.084772 0.192405 0.100967 -0.091458 -0.004080 -0.285265 -0.185229 -0.124863 -0.089091 -0.467479 0.083281 0.126986 -0.506475 0.161584 0.189780 -0.037864 0.381223 0.321120 0.051836 0.068422 0.121827 -0.213748 -0.041674 -0.061021 -0.289805 -0.148379 -0.242650 -0.470650 -0.022396 -0.008909 0.178462 -0.477762 0.104638 0.532964 0.225696 0.157853 0.713767 -0.505451 -0.067175 0.364933 0.206339 0.370299 0.612131 0.282550 0.047772 0.261936 -0.050701 -0.118599 
Iran -0.090946 -0.280005 0.241122 -0.292656 0.030842 -0.207871 0.136290 -0.356884 0.024633 0.245798 0.313719 0.397443 -0.381053 -0.169082 0.029109 0.411332 0.271818 0.130579 0.434257 -0.287920 -0.209218 0.242399 0.043497 -0.110943 -0.177962 -0.384091 -0.049103 0.056110 0.309123 0.263040 -0.114650 -0.006887 -0.441745 -0.149376 -0.079759 0.183049 0.287187 -0.314645 0.029377 -0.133177 -0.022075 0.274209 -0.095921 -0.211343 0.057707 0.355626 -0.066039 0.082015 -0.173840 -0.152832 -0.210844 -0.160163 0.019242 0.096786 0.044677 -0.102212 -0.055642 -0.221366 -0.119416 -0.168209 -0.044375 -0.380737 0.184246 0.085384 -0.347125 0.119597 0.202358 -0.014799 0.330943 0.246993 -0.001563 0.046215 0.160069 -0.186043 0.010734 -0.105564 -0.194063 0.004051 -0.240587 -0.345906 0.027935 0.040177 0.069928 -0.318220 0.086160 0.372701 0.168216 0.087842 0.570373 -0.430164 -0.098541 0.221180 0.104090 0.289253 0.409253 0.205870 -0.014555 0.219831 -0.099362 -0.034713 
September -0.078713 -0.341022 0.290379 -0.365923 0.012866 -0.226322 0.193983 -0.397983 0.017847 0.315748 0.431823 0.495241 -0.497043 -0.232423 0.036167 0.516719 0.329707 0.216981 0.593886 -0.367013 -0.186893 0.332032 0.019444 -0.180213 -0.275065 -0.461922 -0.087182 0.063224 0.392213 0.340631 -0.143078 -0.039422 -0.579182 -0.163477 -0.114279 0.155080 0.366578 -0.368678 0.077285 -0.180636 -0.013780 0.375823 -0.127158 -0.249584 0.089708 0.443561 -0.141969 0.091187 -0.265561 -0.227853 -0.241076 -0.163094 0.065230 0.147951 0.079283 -0.128574 -0.038186 -0.286673 -0.182586 -0.172932 -0.068077 -0.493124 0.165131 0.103887 -0.478697 0.152834 0.230075 -0.027063 0.407776 0.315229 0.015132 0.065515 0.171573 -0.213694 -0.008476 -0.105523 -0.279549 -0.063169 -0.287695 -0.457900 0.009619 0.027202 0.131875 -0.443041 0.128575 0.506199 0.216631 0.126358 0.727965 -0.531415 -0.097409 0.331035 0.158409 0.391132 0.574360 0.284509 0.011746 0.268697 -0.084672 -0.091935 
first -0.071583 -0.224414 0.203145 -0.221539 0.026482 -0.159962 0.110522 -0.293945 0.019136 0.203672 0.247417 0.309613 -0.300873 -0.138928 0.014166 0.318397 0.222993 0.086701 0.336239 -0.214745 -0.172374 0.184714 0.034420 -0.086751 -0.135688 -0.297667 -0.029247 0.043807 0.248991 0.209275 -0.094460 -0.004912 -0.347845 -0.120916 -0.060362 0.148294 0.232662 -0.258543 0.016198 -0.102092 -0.015868 0.214446 -0.071480 -0.171100 0.043925 0.282867 -0.038716 0.065003 -0.140056 -0.119252 -0.165649 -0.120955 0.013634 0.076350 0.036024 -0.083488 -0.044570 -0.175839 -0.101870 -0.128058 -0.031854 -0.300038 0.138690 0.054952 -0.269762 0.103065 0.159337 -0.007457 0.272117 0.198311 -0.013494 0.035740 0.138934 -0.141881 0.013583 -0.095932 -0.153338 0.010069 -0.194895 -0.262016 0.021467 0.040662 0.060562 -0.251071 0.069299 0.292084 0.138106 0.070286 0.456625 -0.338289 -0.088430 0.173113 0.080976 0.235759 0.323433 0.161165 -0.015071 0.165059 -0.081049 -0.035427 
up -0.072908 -0.272177 0.245472 -0.281986 0.027141 -0.197040 0.123303 -0.346867 0.012346 0.249056 0.307020 0.385243 -0.368787 -0.171017 0.027503 0.394723 0.268887 0.120768 0.431652 -0.277394 -0.190117 0.236440 0.039337 -0.101905 -0.181667 -0.369583 -0.042472 0.044799 0.304198 0.264294 -0.110837 -0.012391 -0.434217 -0.141966 -0.081095 0.172775 0.280720 -0.308868 0.028738 -0.130571 -0.011291 0.273646 -0.098280 -0.213144 0.064029 0.345962 -0.068742 0.080960 -0.179791 -0.151249 -0.197812 -0.150351 0.016612 0.101672 0.054268 -0.096556 -0.044374 -0.212335 -0.123302 -0.161586 -0.038915 -0.369332 0.168785 0.079520 -0.338506 0.116750 0.196224 -0.015615 0.323867 0.240009 -0.001823 0.052278 0.151948 -0.175924 0.012928 -0.101601 -0.199366 -0.004426 -0.230031 -0.331868 0.022139 0.030811 0.068557 -0.307903 0.085676 0.366622 0.169075 0.088653 0.554689 -0.414155 -0.095389 0.220486 0.101461 0.280951 0.406468 0.195423 -0.006914 0.212704 -0.095990 -0.043803 
August -0.074028 -0.312766 0.282739 -0.349012 0.015046 -0.222686 0.184406 -0.369305 0.016372 0.313966 0.428959 0.473514 -0.465145 -0.240217 0.041554 0.488659 0.301006 0.198541 0.576771 -0.351213 -0.169809 0.313731 0.020113 -0.167058 -0.261888 -0.439574 -0.068793 0.068107 0.379046 0.319726 -0.143383 -0.032926 -0.565719 -0.161737 -0.108469 0.143828 0.360487 -0.361992 0.083650 -0.176758 -0.022246 0.373165 -0.136974 -0.245644 0.079844 0.427519 -0.134072 0.076925 -0.260697 -0.223563 -0.231673 -0.147477 0.056191 0.148559 0.080939 -0.114179 -0.035748 -0.271484 -0.168443 -0.163686 -0.064284 -0.463466 0.150702 0.093182 -0.457455 0.155093 0.213883 -0.033418 0.391027 0.307973 0.020435 0.072473 0.160508 -0.225299 -0.013369 -0.104420 -0.253940 -0.071528 -0.266735 -0.440800 -0.007886 0.028397 0.121624 -0.427350 0.107915 0.491043 0.220068 0.129143 0.703836 -0.510237 -0.090259 0.330565 0.154398 0.364898 0.549311 0.268670 0.012493 0.268664 -0.084248 -0.088331 
over -0.070844 -0.239291 0.213038 -0.250618 0.020704 -0.169463 0.115035 -0.303704 0.015709 0.221128 0.278475 0.344142 -0.326041 -0.150237 0.015467 0.349566 0.231891 0.114810 0.375625 -0.255488 -0.164923 0.207118 0.026747 -0.095325 -0.156922 -0.332139 -0.048029 0.039125 0.270651 0.238313 -0.094371 -0.013611 -0.381528 -0.124922 -0.072218 0.146788 0.246634 -0.267481 0.025000 -0.121648 -0.017941 0.240089 -0.092894 -0.185424 0.051221 0.306430 -0.060803 0.064284 -0.160411 -0.142911 -0.178842 -0.122298 0.017558 0.089820 0.045361 -0.089856 -0.041516 -0.186404 -0.104215 -0.128433 -0.032680 -0.323950 0.148479 0.062803 -0.299219 0.109468 0.170860 -0.013880 0.294614 0.215243 -0.001640 0.040134 0.138727 -0.163056 0.010228 -0.088038 -0.176685 -0.012054 -0.196630 -0.302859 0.011214 0.026500 0.072061 -0.282915 0.072814 0.324927 0.149929 0.081377 0.495633 -0.373589 -0.081200 0.202348 0.087666 0.256066 0.366527 0.175171 -0.000196 0.185354 -0.079405 -0.040693 
Main_article: -0.089662 -0.323684 0.287168 -0.336726 0.027582 -0.223569 0.152228 -0.417164 0.019723 0.291462 0.375944 0.455357 -0.447015 -0.212794 0.035293 0.470990 0.314575 0.157439 0.503855 -0.340888 -0.228737 0.279520 0.037952 -0.122661 -0.211631 -0.436027 -0.062366 0.060447 0.365179 0.310112 -0.133898 -0.015923 -0.514210 -0.158914 -0.101196 0.195512 0.334137 -0.362467 0.028695 -0.154107 -0.023818 0.324544 -0.116563 -0.242838 0.068368 0.413044 -0.074577 0.096779 -0.212977 -0.187442 -0.232007 -0.176262 0.029888 0.116627 0.062313 -0.126057 -0.055264 -0.249512 -0.151263 -0.188333 -0.053122 -0.443425 0.201260 0.084406 -0.407533 0.137905 0.224003 -0.020424 0.386313 0.295455 -0.005338 0.054276 0.177638 -0.214401 0.010576 -0.125395 -0.231471 -0.015974 -0.265299 -0.394299 0.026989 0.049986 0.095935 -0.377771 0.104754 0.435066 0.196229 0.107815 0.666354 -0.491470 -0.111396 0.262950 0.120574 0.340259 0.493721 0.246381 -0.010100 0.254316 -0.118999 -0.046649 
10 -0.028060 -0.245427 0.205923 -0.272464 -0.015462 -0.152013 0.142907 -0.261494 -0.003139 0.234124 0.360161 0.370084 -0.382734 -0.177321 0.029770 0.379534 0.236114 0.183248 0.466289 -0.272615 -0.091748 0.255203 0.011575 -0.143161 -0.231918 -0.336071 -0.048708 0.053971 0.301665 0.262707 -0.108211 -0.042071 -0.446100 -0.133794 -0.084767 0.071080 0.261911 -0.286356 0.083989 -0.135427 -0.014249 0.303432 -0.113913 -0.210593 0.060465 0.323595 -0.142585 0.055357 -0.240448 -0.196340 -0.199000 -0.096655 0.045288 0.140225 0.075786 -0.076067 -0.015628 -0.229611 -0.141142 -0.109671 -0.057388 -0.361475 0.085859 0.082274 -0.371901 0.113997 0.150074 -0.023727 0.307135 0.254084 0.026163 0.064511 0.104055 -0.180456 -0.024304 -0.063280 -0.219703 -0.091280 -0.184551 -0.357520 -0.006839 0.006741 0.116822 -0.362740 0.082182 0.424395 0.188155 0.132393 0.565027 -0.419862 -0.055356 0.279617 0.152035 0.290954 0.478408 0.216397 0.025597 0.215772 -0.056697 -0.080799 
Russia -0.067564 -0.249835 0.212788 -0.264130 0.024946 -0.169558 0.124864 -0.306941 0.013458 0.216394 0.289823 0.352300 -0.343267 -0.152090 0.019147 0.361727 0.245000 0.113413 0.388911 -0.256270 -0.170792 0.215037 0.029072 -0.099451 -0.167982 -0.333084 -0.043320 0.053636 0.272418 0.239135 -0.095597 -0.019460 -0.393831 -0.126806 -0.067022 0.147582 0.252216 -0.274026 0.035915 -0.122403 -0.011993 0.247361 -0.088979 -0.182518 0.052637 0.316028 -0.060521 0.065043 -0.158350 -0.145544 -0.183889 -0.133965 0.021516 0.092585 0.039851 -0.092688 -0.042637 -0.186805 -0.118036 -0.132731 -0.030174 -0.329736 0.151835 0.059195 -0.310535 0.102667 0.165783 -0.020426 0.298226 0.220008 -0.004510 0.041744 0.140034 -0.158386 0.012553 -0.094395 -0.177031 -0.012751 -0.213704 -0.299067 0.020486 0.031557 0.077946 -0.285697 0.080683 0.326216 0.148613 0.076519 0.510049 -0.385484 -0.090650 0.211608 0.088581 0.267977 0.365634 0.184875 -0.006886 0.185260 -0.080642 -0.042436 
into -0.097658 -0.318501 0.288219 -0.328412 0.034764 -0.226221 0.157822 -0.408526 0.028251 0.280454 0.367464 0.449772 -0.432844 -0.194922 0.026678 0.461895 0.308691 0.140048 0.492915 -0.326063 -0.238973 0.276158 0.044671 -0.122914 -0.200743 -0.428349 -0.045947 0.066239 0.354004 0.308134 -0.132875 -0.016169 -0.500790 -0.163549 -0.091532 0.200974 0.331705 -0.360739 0.024656 -0.157604 -0.021166 0.312484 -0.109666 -0.246700 0.068553 0.402440 -0.072209 0.085679 -0.205471 -0.173207 -0.233156 -0.175509 0.025464 0.116484 0.054529 -0.122598 -0.065576 -0.246561 -0.142369 -0.178049 -0.044622 -0.433004 0.209950 0.079322 -0.389704 0.139000 0.231051 -0.021626 0.384838 0.282532 -0.010329 0.053681 0.188931 -0.208737 0.017613 -0.128161 -0.226272 0.002904 -0.273572 -0.380170 0.033128 0.043353 0.081295 -0.362694 0.094293 0.421856 0.201888 0.094306 0.655261 -0.491120 -0.116241 0.250552 0.109386 0.333796 0.471117 0.240264 -0.012831 0.249624 -0.110187 -0.046458 
region -0.085763 -0.264485 0.241802 -0.273866 0.030031 -0.192569 0.128701 -0.353177 0.024071 0.235552 0.290833 0.369032 -0.358211 -0.158657 0.023708 0.379517 0.266012 0.111565 0.395725 -0.267804 -0.214753 0.226238 0.033057 -0.092956 -0.156946 -0.365657 -0.045474 0.044674 0.289435 0.249176 -0.104066 -0.014103 -0.407151 -0.131577 -0.071595 0.177416 0.279363 -0.298359 0.021263 -0.130157 -0.010903 0.257942 -0.098164 -0.197851 0.056375 0.338724 -0.050924 0.078404 -0.154102 -0.139888 -0.197741 -0.154847 0.016067 0.092399 0.043642 -0.102093 -0.054449 -0.205975 -0.109343 -0.153022 -0.036175 -0.356314 0.176845 0.067106 -0.325487 0.117155 0.193165 -0.015884 0.319903 0.242021 -0.012850 0.041526 0.154864 -0.170977 0.016248 -0.118189 -0.185610 0.005932 -0.224992 -0.324892 0.027332 0.050395 0.067279 -0.289564 0.081822 0.350051 0.167053 0.078707 0.537007 -0.397831 -0.097049 0.206873 0.085769 0.275257 0.380545 0.189453 -0.016460 0.209339 -0.093930 -0.035477 
name -0.063425 -0.200790 0.172510 -0.200818 0.019314 -0.147505 0.093330 -0.264020 0.017584 0.178145 0.222635 0.285644 -0.272486 -0.124402 0.016613 0.288212 0.190685 0.090312 0.297848 -0.210334 -0.152952 0.164861 0.027469 -0.069005 -0.124622 -0.276233 -0.038823 0.039540 0.222309 0.190642 -0.076443 -0.003215 -0.316510 -0.101506 -0.054407 0.128592 0.210522 -0.221280 0.020990 -0.096143 -0.012904 0.197782 -0.076619 -0.156251 0.037288 0.244448 -0.041852 0.059672 -0.124295 -0.107890 -0.149754 -0.108179 0.017692 0.069511 0.041776 -0.079030 -0.040194 -0.152595 -0.081696 -0.114163 -0.029172 -0.274536 0.125743 0.057471 -0.251077 0.090113 0.147230 -0.009726 0.233991 0.180586 -0.000051 0.030288 0.119410 -0.126052 0.004489 -0.081143 -0.146495 0.006007 -0.174358 -0.240730 0.025638 0.036869 0.053582 -0.214228 0.067322 0.264237 0.124891 0.053843 0.408693 -0.306862 -0.075204 0.161178 0.074280 0.209050 0.293688 0.149624 -0.004844 0.155916 -0.071273 -0.029607 
under -0.076748 -0.264859 0.234915 -0.287430 0.030396 -0.187128 0.132995 -0.342201 0.012538 0.246271 0.314530 0.380160 -0.357086 -0.174781 0.019388 0.386782 0.266474 0.124222 0.421054 -0.278033 -0.198151 0.229365 0.026408 -0.107929 -0.171389 -0.360463 -0.046308 0.051562 0.303726 0.253897 -0.102276 -0.016087 -0.429835 -0.135904 -0.078427 0.165696 0.289448 -0.301691 0.032338 -0.130621 -0.021786 0.267419 -0.100306 -0.200775 0.063784 0.332123 -0.061736 0.067694 -0.162021 -0.153058 -0.188598 -0.142622 0.026505 0.098390 0.047855 -0.104133 -0.044020 -0.207156 -0.121347 -0.155079 -0.026122 -0.358709 0.169341 0.075072 -0.327766 0.110920 0.185166 -0.023628 0.323001 0.246748 -0.007124 0.040760 0.155939 -0.171888 0.003096 -0.107734 -0.199111 -0.012022 -0.234876 -0.332894 0.019615 0.035141 0.073198 -0.306867 0.078892 0.357630 0.164513 0.077936 0.550962 -0.410758 -0.101716 0.212345 0.095168 0.278108 0.395644 0.198455 -0.007636 0.210384 -0.094285 -0.036595 
had -0.076844 -0.198422 0.188965 -0.194505 0.030262 -0.156910 0.090900 -0.278465 0.015052 0.179331 0.215379 0.270385 -0.267610 -0.117982 0.008347 0.283612 0.198635 0.074214 0.275473 -0.197883 -0.186163 0.162578 0.036839 -0.060395 -0.107233 -0.280599 -0.018933 0.032212 0.210771 0.178630 -0.077727 -0.003868 -0.310129 -0.112669 -0.056100 0.155547 0.204287 -0.220256 -0.002783 -0.101259 -0.015006 0.174316 -0.057444 -0.159681 0.038125 0.251599 -0.022554 0.070134 -0.100257 -0.096075 -0.149200 -0.130714 0.009278 0.057323 0.023258 -0.088906 -0.048959 -0.150770 -0.072795 -0.121812 -0.025030 -0.268361 0.149880 0.052786 -0.225736 0.096492 0.159681 -0.010475 0.229666 0.165654 -0.008363 0.040396 0.127629 -0.131525 0.023177 -0.088502 -0.125619 0.031864 -0.182237 -0.230717 0.028607 0.046703 0.040128 -0.197450 0.067566 0.243649 0.118556 0.037975 0.399164 -0.291575 -0.082376 0.133340 0.061152 0.195737 0.261954 0.136226 -0.032932 0.152233 -0.076723 -0.007940 
Caucasus -0.075955 -0.251834 0.213630 -0.263473 0.030681 -0.173510 0.113110 -0.315828 0.017418 0.220468 0.283978 0.341887 -0.331134 -0.149786 0.011317 0.356200 0.244208 0.107231 0.374178 -0.244667 -0.186092 0.206433 0.024963 -0.093268 -0.144253 -0.328432 -0.044749 0.052147 0.268410 0.230230 -0.096865 -0.005401 -0.379310 -0.127321 -0.069837 0.156172 0.254976 -0.271265 0.029929 -0.115380 -0.009528 0.233303 -0.093816 -0.175926 0.058843 0.309520 -0.051340 0.065554 -0.146637 -0.144821 -0.173555 -0.140047 0.019500 0.093364 0.036497 -0.095758 -0.037575 -0.189364 -0.113748 -0.144231 -0.029368 -0.326042 0.158403 0.059684 -0.296666 0.105517 0.174133 -0.020115 0.293719 0.220290 -0.010557 0.046673 0.137061 -0.160597 0.002454 -0.101293 -0.171323 -0.003947 -0.213615 -0.298019 0.023697 0.043348 0.062024 -0.281940 0.068880 0.325318 0.144420 0.076934 0.502524 -0.370979 -0.082238 0.200261 0.077341 0.257038 0.352106 0.187820 -0.002599 0.188915 -0.087317 -0.040494 
January -0.056453 -0.328496 0.276000 -0.355236 0.005994 -0.208068 0.191622 -0.362571 0.005234 0.326729 0.449043 0.500364 -0.494598 -0.247173 0.043170 0.510160 0.311010 0.236739 0.613590 -0.369576 -0.157165 0.339809 0.012224 -0.196849 -0.304031 -0.456811 -0.078945 0.066186 0.401373 0.341182 -0.153484 -0.037888 -0.590909 -0.172770 -0.124091 0.124413 0.369090 -0.366223 0.100427 -0.177511 -0.026363 0.398461 -0.137403 -0.263676 0.093081 0.431543 -0.170589 0.076455 -0.299920 -0.243965 -0.250869 -0.131407 0.062457 0.171581 0.092434 -0.107369 -0.023126 -0.293649 -0.188573 -0.160275 -0.079046 -0.476770 0.142242 0.109942 -0.495892 0.164704 0.209959 -0.034294 0.400048 0.326706 0.042482 0.072079 0.146276 -0.228277 -0.019969 -0.091310 -0.286352 -0.098093 -0.261022 -0.458056 -0.009298 0.008715 0.150636 -0.462178 0.113023 0.531094 0.226790 0.147678 0.738547 -0.532010 -0.083555 0.363754 0.191806 0.388699 0.595750 0.294859 0.019862 0.274886 -0.068986 -0.101423 
2009. -0.006090 -0.242621 0.198003 -0.299802 -0.033806 -0.152987 0.152322 -0.241483 -0.005185 0.255233 0.387333 0.397829 -0.418156 -0.217379 0.051110 0.409568 0.236990 0.224419 0.542009 -0.318516 -0.058936 0.285565 -0.002847 -0.169543 -0.274674 -0.353493 -0.072239 0.048590 0.335519 0.270241 -0.121828 -0.042179 -0.478105 -0.119118 -0.112592 0.041163 0.289835 -0.289973 0.112331 -0.143069 -0.017365 0.347792 -0.127483 -0.208749 0.073326 0.343751 -0.172474 0.056574 -0.289805 -0.232609 -0.199589 -0.072194 0.078011 0.147011 0.084126 -0.066126 0.001384 -0.251092 -0.173220 -0.109033 -0.075895 -0.401293 0.068079 0.105985 -0.421485 0.126717 0.155977 -0.025980 0.311398 0.275949 0.048401 0.074293 0.088871 -0.169083 -0.039636 -0.047190 -0.243699 -0.123369 -0.190206 -0.390207 -0.037694 -0.008711 0.140351 -0.413199 0.113950 0.441891 0.197337 0.136764 0.592762 -0.430306 -0.038748 0.328895 0.175641 0.310944 0.525674 0.250164 0.051248 0.222107 -0.040874 -0.104547 
October -0.063585 -0.295234 0.256798 -0.312551 0.013191 -0.203046 0.157870 -0.340029 0.000718 0.280914 0.382496 0.431315 -0.436882 -0.203978 0.044549 0.439019 0.276316 0.172830 0.517698 -0.328710 -0.158632 0.285807 0.029579 -0.154464 -0.235546 -0.400884 -0.057457 0.053047 0.342209 0.291590 -0.135134 -0.026502 -0.508017 -0.150353 -0.104149 0.135398 0.313879 -0.339253 0.074535 -0.161084 -0.026684 0.331624 -0.118702 -0.226875 0.071819 0.383046 -0.124152 0.069300 -0.238007 -0.197006 -0.221459 -0.139697 0.046292 0.143512 0.067208 -0.100850 -0.033910 -0.243678 -0.148225 -0.144109 -0.055744 -0.411980 0.137274 0.087928 -0.406193 0.137295 0.202791 -0.028592 0.360455 0.277825 0.028810 0.065553 0.142736 -0.204845 -0.007614 -0.086499 -0.240709 -0.064690 -0.232523 -0.399090 0.000564 0.020078 0.104448 -0.386218 0.103259 0.448124 0.207009 0.120547 0.642759 -0.466325 -0.087950 0.301415 0.142126 0.332126 0.499840 0.248280 0.006140 0.237563 -0.078671 -0.080544 
It -0.062607 -0.209084 0.191800 -0.219113 0.020086 -0.156815 0.105692 -0.273958 0.027521 0.191022 0.234713 0.305155 -0.290037 -0.132468 0.017227 0.302200 0.202115 0.094007 0.324286 -0.215335 -0.158345 0.179103 0.028300 -0.082806 -0.139191 -0.282562 -0.034922 0.033769 0.234601 0.212543 -0.088060 -0.005871 -0.340351 -0.108702 -0.054407 0.132569 0.218860 -0.240465 0.019721 -0.101612 -0.005561 0.214211 -0.074471 -0.168644 0.047751 0.271429 -0.049585 0.060038 -0.131343 -0.112222 -0.153116 -0.122383 0.011544 0.067978 0.044849 -0.078498 -0.044068 -0.169398 -0.095210 -0.122754 -0.031487 -0.288865 0.139838 0.057035 -0.269320 0.096207 0.151247 -0.007551 0.256407 0.187974 0.002069 0.039842 0.121760 -0.147978 0.007140 -0.084892 -0.159783 0.001684 -0.182891 -0.251509 0.024334 0.027138 0.062620 -0.244626 0.064279 0.278147 0.132592 0.064014 0.442155 -0.332430 -0.079925 0.162111 0.081753 0.232149 0.310803 0.155832 -0.002913 0.159124 -0.070682 -0.020059 
not -0.046656 -0.146786 0.120783 -0.139332 0.020280 -0.104592 0.059633 -0.193593 0.020288 0.115202 0.145967 0.189768 -0.175476 -0.081565 0.021399 0.193404 0.137521 0.047382 0.189904 -0.146297 -0.130608 0.114668 0.022584 -0.054501 -0.080294 -0.185220 -0.019480 0.025920 0.155135 0.120370 -0.053454 -0.001475 -0.209913 -0.076692 -0.031989 0.105851 0.133750 -0.156027 0.003432 -0.066471 -0.006881 0.125732 -0.046020 -0.109803 0.025171 0.171676 -0.013081 0.055231 -0.078948 -0.066884 -0.100214 -0.079869 0.000496 0.037939 0.016864 -0.056289 -0.028744 -0.103887 -0.056533 -0.086298 -0.014840 -0.181524 0.098597 0.048062 -0.159180 0.071312 0.114663 -0.001063 0.160009 0.116226 0.001119 0.019896 0.094197 -0.084692 0.016356 -0.057349 -0.089879 0.026004 -0.117431 -0.157186 0.021476 0.022333 0.029050 -0.137488 0.038394 0.172965 0.079671 0.025842 0.283127 -0.207905 -0.061040 0.095506 0.050093 0.143629 0.183046 0.102051 -0.021890 0.099036 -0.049733 -0.014063 
most -0.073373 -0.235045 0.210419 -0.238197 0.026587 -0.177357 0.117273 -0.308520 0.020988 0.210762 0.267039 0.332224 -0.309788 -0.143537 0.021112 0.339451 0.234121 0.095086 0.361797 -0.229897 -0.185517 0.204955 0.033265 -0.085964 -0.138414 -0.313543 -0.037835 0.038772 0.260404 0.222112 -0.088696 -0.012698 -0.371955 -0.121888 -0.066066 0.149592 0.244910 -0.273775 0.012878 -0.114519 -0.016786 0.231945 -0.078417 -0.183427 0.049205 0.294182 -0.053332 0.063848 -0.143883 -0.130846 -0.170957 -0.137110 0.008085 0.080762 0.047685 -0.089272 -0.048969 -0.184843 -0.101459 -0.135941 -0.032186 -0.308587 0.159785 0.061501 -0.285974 0.103912 0.166461 -0.015745 0.282829 0.213959 -0.004271 0.041381 0.143888 -0.160798 0.018378 -0.096222 -0.171853 0.004795 -0.206027 -0.284149 0.019508 0.033530 0.055528 -0.259180 0.063078 0.308346 0.150892 0.068626 0.479546 -0.360605 -0.089033 0.185325 0.075360 0.248774 0.340081 0.174255 -0.004610 0.181475 -0.084717 -0.038855 
this -0.068071 -0.166621 0.141918 -0.162064 0.029992 -0.130105 0.064906 -0.218512 0.020456 0.132138 0.163276 0.210783 -0.197913 -0.086857 0.005310 0.221021 0.148160 0.047808 0.216426 -0.151594 -0.147053 0.114863 0.030608 -0.043149 -0.072231 -0.210471 -0.023663 0.026686 0.161841 0.138910 -0.055374 0.001241 -0.234430 -0.081766 -0.046272 0.123192 0.156049 -0.171944 -0.008737 -0.078084 -0.007559 0.129138 -0.053918 -0.116752 0.032438 0.193046 -0.002043 0.051990 -0.075091 -0.072170 -0.111362 -0.107230 0.001445 0.042259 0.018433 -0.069134 -0.036158 -0.117359 -0.055021 -0.099423 -0.012701 -0.201743 0.119725 0.042783 -0.178192 0.074061 0.118301 -0.006754 0.182600 0.129980 -0.005550 0.029278 0.105855 -0.098662 0.012856 -0.073820 -0.097019 0.034390 -0.143958 -0.180081 0.018460 0.038156 0.025229 -0.141231 0.046500 0.182847 0.094689 0.030246 0.312468 -0.234073 -0.059858 0.092958 0.045144 0.155516 0.195867 0.099679 -0.024031 0.124051 -0.065042 -0.004196 
"The -0.079012 -0.241650 0.215416 -0.253807 0.020697 -0.179373 0.122603 -0.317841 0.018572 0.223400 0.288412 0.344194 -0.340276 -0.161980 0.018765 0.354976 0.249297 0.116659 0.385870 -0.258355 -0.186156 0.208350 0.029105 -0.083522 -0.156441 -0.334430 -0.041841 0.044863 0.274471 0.241665 -0.100804 -0.012064 -0.394285 -0.127011 -0.071341 0.155430 0.260374 -0.274840 0.023043 -0.115242 -0.013408 0.248930 -0.090972 -0.189336 0.056161 0.316767 -0.054767 0.072917 -0.152858 -0.136136 -0.177175 -0.137180 0.020268 0.093500 0.049766 -0.091825 -0.045003 -0.188618 -0.108917 -0.145047 -0.025076 -0.336073 0.157790 0.066567 -0.309687 0.099045 0.168521 -0.010070 0.294819 0.223730 -0.007629 0.043765 0.145827 -0.162579 0.000725 -0.102912 -0.174844 -0.005827 -0.217271 -0.306246 0.028367 0.045862 0.065289 -0.284554 0.072915 0.323004 0.157672 0.074672 0.511150 -0.385218 -0.088992 0.194291 0.083203 0.267223 0.373204 0.182145 -0.010814 0.197173 -0.086359 -0.032457 
ISBN -0.069509 -0.238220 0.202394 -0.249943 0.024190 -0.163814 0.117138 -0.309784 0.010730 0.206675 0.266474 0.332541 -0.322495 -0.148785 0.022965 0.342911 0.235951 0.112678 0.357644 -0.240826 -0.183097 0.200874 0.028887 -0.079427 -0.146538 -0.327465 -0.048246 0.053709 0.261351 0.230012 -0.094728 -0.019152 -0.375353 -0.122040 -0.068080 0.146160 0.255148 -0.263932 0.024107 -0.113112 -0.016242 0.237500 -0.083573 -0.170947 0.050061 0.293430 -0.055731 0.073230 -0.141797 -0.129205 -0.161216 -0.130188 0.023668 0.090006 0.042252 -0.098084 -0.038971 -0.185126 -0.113871 -0.143368 -0.024376 -0.323485 0.147507 0.062336 -0.290054 0.100512 0.168961 -0.012704 0.282125 0.212876 -0.012040 0.046070 0.143414 -0.155928 0.008841 -0.094835 -0.174039 -0.004189 -0.198221 -0.284706 0.028304 0.041784 0.065669 -0.270779 0.078368 0.317127 0.151916 0.070728 0.487221 -0.355776 -0.088280 0.187657 0.078330 0.248229 0.350844 0.172520 -0.004590 0.180244 -0.086115 -0.027555 
Nagorno-Karabakh -0.060261 -0.240583 0.212539 -0.261823 0.013242 -0.162773 0.121678 -0.292801 0.019271 0.224348 0.290057 0.354237 -0.345739 -0.165190 0.023544 0.363535 0.234618 0.139286 0.409081 -0.260696 -0.159855 0.225257 0.021326 -0.109483 -0.174490 -0.329513 -0.044961 0.047895 0.274121 0.236793 -0.104695 -0.015511 -0.393044 -0.124162 -0.081615 0.129596 0.253083 -0.265322 0.044703 -0.117448 -0.011036 0.260471 -0.088004 -0.189726 0.056839 0.312909 -0.082315 0.070406 -0.176107 -0.153880 -0.178690 -0.118447 0.031916 0.098163 0.055632 -0.090693 -0.030387 -0.197300 -0.117889 -0.133535 -0.037003 -0.338004 0.141642 0.072187 -0.320448 0.110000 0.164775 -0.013176 0.296315 0.228973 0.001440 0.046468 0.132392 -0.157876 0.000344 -0.085481 -0.181230 -0.032589 -0.201834 -0.318323 0.010839 0.022627 0.083190 -0.305227 0.073872 0.343777 0.152670 0.084425 0.509911 -0.382151 -0.077021 0.222072 0.098788 0.258775 0.386719 0.188770 0.008201 0.188741 -0.077675 -0.048509 
part -0.047451 -0.132730 0.122635 -0.132418 0.019247 -0.100479 0.060823 -0.174514 0.008595 0.110795 0.134075 0.179932 -0.172153 -0.078985 0.003196 0.186638 0.122442 0.051977 0.190160 -0.131582 -0.113615 0.106211 0.018669 -0.033234 -0.069577 -0.175878 -0.020616 0.024211 0.136301 0.125028 -0.047573 -0.003579 -0.198602 -0.058638 -0.034792 0.095830 0.137656 -0.141509 0.009743 -0.057066 -0.004160 0.118164 -0.044613 -0.094316 0.027699 0.165576 -0.020534 0.030732 -0.063904 -0.062685 -0.086311 -0.086765 0.006278 0.033841 0.026034 -0.053718 -0.032886 -0.090667 -0.057096 -0.082746 -0.017874 -0.168451 0.093601 0.032910 -0.154985 0.051157 0.089004 -0.006300 0.149792 0.114668 -0.014431 0.018974 0.080282 -0.086993 0.006404 -0.060730 -0.082691 0.011494 -0.115827 -0.154412 0.020472 0.023641 0.029304 -0.140568 0.038134 0.157702 0.080936 0.030085 0.264537 -0.197269 -0.053987 0.100203 0.042995 0.131681 0.176727 0.088600 -0.004682 0.100451 -0.055991 -0.012981 
Turkic -0.075358 -0.177495 0.167786 -0.177981 0.028813 -0.136512 0.076973 -0.261393 0.013999 0.144703 0.168224 0.230282 -0.219453 -0.093073 0.011477 0.246585 0.174670 0.040079 0.223791 -0.174301 -0.174242 0.126657 0.041165 -0.044365 -0.072447 -0.241270 -0.022431 0.028001 0.184358 0.161381 -0.062753 0.007693 -0.252820 -0.086614 -0.037012 0.149531 0.182174 -0.201259 -0.007610 -0.075707 -0.012545 0.150174 -0.056763 -0.129692 0.036680 0.219994 0.004173 0.059096 -0.062196 -0.064355 -0.125342 -0.122467 -0.003880 0.034426 0.018998 -0.079401 -0.050161 -0.121511 -0.067436 -0.120906 -0.007792 -0.224003 0.150770 0.032343 -0.180269 0.070578 0.136791 -0.010280 0.208646 0.143537 -0.023244 0.021576 0.121964 -0.114548 0.023074 -0.093450 -0.101931 0.042836 -0.163059 -0.186830 0.036942 0.050303 0.028363 -0.162134 0.049385 0.198704 0.093046 0.031244 0.341051 -0.252286 -0.086104 0.105469 0.031233 0.176005 0.215273 0.106964 -0.029166 0.126840 -0.087153 0.005080 
population -0.075405 -0.176108 0.157952 -0.165348 0.030592 -0.137651 0.072233 -0.254592 0.026816 0.141076 0.153453 0.219864 -0.196799 -0.090073 0.018115 0.216393 0.162855 0.022938 0.208283 -0.148677 -0.176918 0.109011 0.036475 -0.036577 -0.062929 -0.225911 -0.014992 0.019390 0.170811 0.150549 -0.067657 0.006951 -0.229789 -0.095032 -0.044653 0.151850 0.165150 -0.191739 -0.025979 -0.079764 -0.010646 0.123478 -0.044068 -0.126161 0.035261 0.203334 0.013202 0.051733 -0.061638 -0.059822 -0.119439 -0.115005 -0.015519 0.025211 0.017066 -0.070474 -0.047860 -0.113430 -0.045895 -0.115932 -0.006451 -0.202476 0.147737 0.038435 -0.167077 0.061834 0.128501 -0.006688 0.191094 0.135063 -0.021651 0.021599 0.118363 -0.102522 0.025114 -0.092572 -0.093403 0.049537 -0.145926 -0.175788 0.030169 0.045148 0.016514 -0.139329 0.041985 0.176833 0.089096 0.024538 0.319014 -0.238410 -0.081104 0.083781 0.021871 0.159829 0.193515 0.098932 -0.025142 0.119556 -0.084505 0.002592 
or -0.053093 -0.183031 0.152924 -0.177164 0.023247 -0.130546 0.087646 -0.227932 0.021067 0.151345 0.195652 0.252943 -0.238041 -0.108008 0.011227 0.250441 0.172422 0.069674 0.266863 -0.172324 -0.145417 0.144257 0.020728 -0.061265 -0.102617 -0.241249 -0.029242 0.029700 0.192349 0.175413 -0.068558 -0.007041 -0.274657 -0.090597 -0.048530 0.122584 0.183768 -0.197444 0.018632 -0.082603 -0.012852 0.169565 -0.066058 -0.138477 0.035918 0.215385 -0.028162 0.053198 -0.099350 -0.089905 -0.120706 -0.096491 0.008918 0.053010 0.036183 -0.064260 -0.035318 -0.126382 -0.073281 -0.102502 -0.014083 -0.238653 0.117401 0.043779 -0.212903 0.077382 0.121791 -0.017646 0.211330 0.157333 -0.001070 0.031767 0.103721 -0.120883 0.006023 -0.072548 -0.123391 0.010378 -0.148091 -0.207169 0.015276 0.036061 0.041540 -0.193003 0.055315 0.223389 0.114210 0.049791 0.352751 -0.268798 -0.070613 0.129296 0.054198 0.187936 0.244837 0.126224 -0.010503 0.140130 -0.062076 -0.017442 
Russian -0.052016 -0.165691 0.145032 -0.178058 0.026541 -0.121630 0.077442 -0.223822 0.018556 0.151512 0.177087 0.230360 -0.218904 -0.094425 0.010401 0.230229 0.163196 0.063229 0.239037 -0.162949 -0.149529 0.133122 0.024972 -0.052321 -0.091511 -0.222589 -0.029282 0.029235 0.183717 0.160746 -0.064493 -0.004109 -0.254398 -0.090198 -0.046876 0.126793 0.168507 -0.185141 0.007490 -0.074133 -0.014519 0.145961 -0.062603 -0.119584 0.039362 0.210523 -0.021480 0.045006 -0.090666 -0.076880 -0.113329 -0.106755 0.013602 0.048811 0.020971 -0.064280 -0.034508 -0.124121 -0.066098 -0.106152 -0.011322 -0.216372 0.111151 0.042553 -0.195795 0.069964 0.123179 -0.006954 0.202307 0.146217 -0.012941 0.023175 0.104053 -0.113770 0.019575 -0.074235 -0.114356 0.013232 -0.145914 -0.194223 0.025096 0.038018 0.039559 -0.169308 0.055202 0.201117 0.104014 0.041654 0.327697 -0.247058 -0.064545 0.112024 0.053023 0.164116 0.222635 0.110955 -0.009465 0.121177 -0.063773 -0.014828 
26 -0.045138 -0.277302 0.230955 -0.321023 -0.009734 -0.163103 0.161708 -0.298796 0.013167 0.276374 0.383598 0.433976 -0.419393 -0.216503 0.024497 0.441048 0.277745 0.229264 0.542318 -0.325515 -0.112926 0.292800 0.006045 -0.148230 -0.247017 -0.384696 -0.073376 0.070271 0.343046 0.276555 -0.112388 -0.026655 -0.489403 -0.121940 -0.108293 0.075627 0.316110 -0.300889 0.097658 -0.156448 -0.017309 0.362790 -0.119528 -0.209165 0.058756 0.341184 -0.147749 0.085232 -0.278540 -0.229314 -0.209068 -0.101538 0.054760 0.149629 0.088678 -0.078234 -0.008477 -0.246421 -0.148424 -0.110293 -0.074603 -0.427154 0.113156 0.109291 -0.423615 0.132374 0.172684 -0.024158 0.347758 0.288355 0.017105 0.056334 0.129796 -0.202765 -0.027154 -0.074410 -0.258728 -0.098007 -0.227164 -0.400971 -0.028479 0.013076 0.130483 -0.406890 0.118913 0.445525 0.207687 0.111237 0.602504 -0.448129 -0.053385 0.300777 0.157968 0.338407 0.512380 0.270796 0.051042 0.230265 -0.048661 -0.093564 
military -0.077285 -0.250907 0.222286 -0.261578 0.033053 -0.180544 0.121925 -0.329224 0.028651 0.228583 0.289360 0.360188 -0.347332 -0.158286 0.016017 0.364345 0.250184 0.107738 0.388476 -0.262951 -0.196343 0.215032 0.041534 -0.105611 -0.163267 -0.351904 -0.038272 0.045146 0.284665 0.244355 -0.109772 -0.010461 -0.410142 -0.136325 -0.069065 0.170347 0.263262 -0.287615 0.024654 -0.125610 -0.010787 0.249462 -0.099370 -0.191691 0.059405 0.325167 -0.058896 0.070799 -0.162155 -0.139088 -0.188439 -0.148416 0.017883 0.094130 0.050711 -0.101968 -0.052876 -0.195574 -0.111907 -0.148485 -0.032987 -0.349884 0.161599 0.072116 -0.321266 0.114774 0.175572 -0.016759 0.306089 0.222822 -0.008599 0.048597 0.154301 -0.173684 0.006127 -0.108015 -0.185350 -0.002102 -0.221912 -0.304992 0.029687 0.045679 0.074521 -0.290064 0.076944 0.335731 0.155831 0.080504 0.521301 -0.383911 -0.098863 0.203267 0.090002 0.276973 0.376921 0.188151 -0.005291 0.199723 -0.095017 -0.042512 
state -0.074252 -0.235672 0.207354 -0.244834 0.018804 -0.163399 0.117306 -0.308224 0.019434 0.210967 0.266454 0.331028 -0.314005 -0.141812 0.023834 0.342440 0.226525 0.101766 0.357190 -0.245357 -0.179960 0.205533 0.027116 -0.092587 -0.148162 -0.321599 -0.034418 0.042559 0.259993 0.228435 -0.095331 -0.011925 -0.373918 -0.121219 -0.070625 0.145493 0.237371 -0.266301 0.018862 -0.117393 -0.006673 0.225290 -0.085021 -0.174510 0.053191 0.298580 -0.049387 0.069311 -0.137826 -0.129375 -0.166990 -0.136062 0.017714 0.087619 0.043949 -0.084744 -0.047692 -0.182541 -0.101566 -0.132511 -0.029388 -0.316965 0.150416 0.064668 -0.291224 0.099324 0.166929 -0.016743 0.280901 0.210033 -0.010960 0.043653 0.134497 -0.157481 0.017072 -0.098796 -0.163436 -0.001694 -0.195920 -0.282134 0.024013 0.035386 0.057601 -0.264818 0.074792 0.308917 0.148130 0.075685 0.478902 -0.357525 -0.082715 0.183976 0.085046 0.244635 0.350293 0.172691 -0.014575 0.176365 -0.084394 -0.029296 
international -0.089607 -0.318480 0.283039 -0.336259 0.022580 -0.229859 0.150648 -0.400653 0.029112 0.291705 0.370370 0.446120 -0.441828 -0.198217 0.030346 0.467115 0.304406 0.153955 0.503105 -0.329631 -0.229956 0.273327 0.040284 -0.127077 -0.206612 -0.438923 -0.062196 0.059355 0.354203 0.314079 -0.122946 -0.018282 -0.516983 -0.162110 -0.094456 0.196400 0.336442 -0.354220 0.038680 -0.161834 -0.012703 0.316941 -0.123805 -0.240150 0.076835 0.405705 -0.071962 0.094175 -0.206475 -0.188450 -0.225761 -0.180562 0.032033 0.124079 0.052524 -0.121723 -0.051632 -0.245519 -0.142556 -0.179302 -0.043124 -0.436088 0.204842 0.085251 -0.399787 0.131712 0.217294 -0.024745 0.384337 0.286614 -0.000445 0.055458 0.173754 -0.214315 0.005170 -0.125041 -0.229874 -0.008409 -0.267613 -0.398330 0.029040 0.043173 0.091810 -0.372627 0.105857 0.429700 0.192237 0.095171 0.654365 -0.492970 -0.108049 0.260869 0.123787 0.338640 0.482234 0.241651 -0.004905 0.249179 -0.114550 -0.045731 
all -0.075345 -0.209385 0.191538 -0.223319 0.020129 -0.159372 0.095787 -0.278278 0.014366 0.187731 0.224695 0.293574 -0.286226 -0.133768 0.022347 0.301796 0.203728 0.088555 0.314391 -0.207235 -0.175167 0.178164 0.034891 -0.070725 -0.121942 -0.292375 -0.032278 0.037867 0.225385 0.201784 -0.077905 -0.004115 -0.329000 -0.114073 -0.057569 0.146392 0.218174 -0.232202 0.009036 -0.100876 -0.019271 0.196045 -0.076284 -0.153912 0.050747 0.272237 -0.026227 0.060089 -0.115107 -0.104288 -0.152434 -0.133579 0.011364 0.072584 0.028281 -0.081149 -0.042619 -0.165038 -0.091657 -0.126887 -0.019060 -0.274420 0.137828 0.049210 -0.255758 0.082522 0.155207 -0.010534 0.259461 0.185101 -0.017469 0.033327 0.124124 -0.135208 0.015629 -0.095961 -0.141840 0.009587 -0.183183 -0.254554 0.019245 0.048257 0.046196 -0.224985 0.056678 0.274372 0.134173 0.054946 0.419352 -0.313711 -0.077622 0.161404 0.065634 0.219326 0.300737 0.154816 -0.010038 0.168653 -0.087503 -0.030092 
be -0.068760 -0.189005 0.175502 -0.194849 0.026553 -0.139999 0.087727 -0.272482 0.015745 0.173441 0.203591 0.271230 -0.252339 -0.112360 0.015149 0.272824 0.192987 0.061698 0.276534 -0.196867 -0.170034 0.150762 0.034793 -0.064447 -0.104608 -0.263607 -0.025096 0.037152 0.205634 0.181912 -0.082599 -0.010284 -0.292101 -0.113221 -0.058315 0.149650 0.197188 -0.231669 -0.001434 -0.088727 -0.004446 0.176065 -0.067272 -0.150906 0.037444 0.242231 -0.024761 0.059870 -0.107573 -0.097938 -0.147519 -0.120225 -0.002528 0.053446 0.034622 -0.078384 -0.049533 -0.151300 -0.083803 -0.129224 -0.022946 -0.248582 0.144473 0.050404 -0.225473 0.077631 0.150014 -0.014208 0.232124 0.168722 -0.009257 0.037959 0.133600 -0.122524 0.022195 -0.092743 -0.125466 0.023417 -0.169780 -0.214780 0.031279 0.040561 0.034608 -0.192701 0.057877 0.240803 0.122208 0.054187 0.396971 -0.292368 -0.079781 0.133908 0.055021 0.193167 0.268804 0.140083 -0.013672 0.149343 -0.081283 -0.019773 
his -0.088111 -0.328078 0.284986 -0.344883 0.027136 -0.229260 0.156935 -0.408793 0.020001 0.293799 0.384095 0.464749 -0.449339 -0.208826 0.026402 0.476876 0.317804 0.152813 0.517578 -0.341214 -0.223507 0.287472 0.040390 -0.129703 -0.217563 -0.442778 -0.056560 0.067183 0.367700 0.315193 -0.128045 -0.015367 -0.520151 -0.169638 -0.097936 0.186029 0.344072 -0.358262 0.041783 -0.167257 -0.022272 0.330095 -0.114847 -0.243000 0.078823 0.415037 -0.082669 0.096238 -0.216451 -0.189199 -0.234374 -0.174291 0.032255 0.126738 0.059941 -0.114632 -0.050864 -0.261356 -0.146157 -0.186858 -0.048140 -0.434836 0.198741 0.094699 -0.417627 0.143492 0.225913 -0.025059 0.393739 0.294770 -0.003553 0.065424 0.174333 -0.215345 0.011073 -0.119510 -0.240070 -0.017001 -0.280563 -0.408246 0.018275 0.045008 0.093834 -0.385708 0.105329 0.444492 0.205399 0.106001 0.673474 -0.497333 -0.114460 0.273264 0.122394 0.344523 0.496817 0.249467 -0.006674 0.249303 -0.105883 -0.056523 
than -0.066789 -0.176678 0.160580 -0.175941 0.037162 -0.129465 0.070848 -0.238711 0.020521 0.137559 0.161624 0.221480 -0.208573 -0.089249 0.008729 0.238958 0.172877 0.052168 0.223918 -0.165197 -0.162898 0.128156 0.039959 -0.050856 -0.074407 -0.234430 -0.021291 0.025643 0.182243 0.149977 -0.056363 -0.001291 -0.242742 -0.092287 -0.035400 0.142007 0.176016 -0.190630 -0.006183 -0.078621 -0.008611 0.141242 -0.054795 -0.132742 0.038190 0.215815 -0.009075 0.058149 -0.081205 -0.075963 -0.122463 -0.110530 -0.012724 0.043685 0.023568 -0.070521 -0.035324 -0.128193 -0.066358 -0.106405 -0.014316 -0.216126 0.137009 0.040686 -0.178732 0.069295 0.127368 -0.007794 0.201828 0.140676 -0.014970 0.029797 0.112807 -0.103298 0.020408 -0.079681 -0.097227 0.043203 -0.148765 -0.185578 0.026573 0.039754 0.024634 -0.151218 0.052361 0.198674 0.093546 0.039750 0.336155 -0.246472 -0.073945 0.108835 0.051744 0.160996 0.215046 0.107870 -0.027366 0.132876 -0.066672 -0.009737 
2008. -0.009983 -0.233618 0.198641 -0.288111 -0.024982 -0.148551 0.156590 -0.236319 -0.009303 0.239026 0.367688 0.376137 -0.399757 -0.201264 0.041269 0.402093 0.227315 0.224606 0.504168 -0.292262 -0.062670 0.267909 -0.006904 -0.158285 -0.261862 -0.334828 -0.077696 0.060994 0.310601 0.254516 -0.105295 -0.051382 -0.469490 -0.113931 -0.106086 0.039067 0.285987 -0.263172 0.103428 -0.144824 -0.026867 0.320436 -0.123101 -0.191139 0.074641 0.315252 -0.164144 0.054826 -0.255865 -0.218894 -0.188698 -0.067522 0.061837 0.147194 0.076485 -0.074718 -0.007466 -0.232267 -0.155440 -0.096107 -0.064349 -0.377129 0.067273 0.105058 -0.406496 0.120779 0.149981 -0.027069 0.300528 0.259513 0.048168 0.067743 0.089796 -0.166466 -0.042472 -0.038438 -0.242347 -0.129939 -0.188485 -0.378736 -0.031747 -0.017759 0.129536 -0.390351 0.095194 0.431321 0.184072 0.125147 0.571816 -0.402173 -0.038107 0.297069 0.154201 0.301363 0.496591 0.241927 0.044347 0.217270 -0.033623 -0.109514 
Azerbaijan". -0.052013 -0.209151 0.182363 -0.222369 0.014949 -0.140955 0.105927 -0.253257 0.019585 0.183198 0.238804 0.286449 -0.279071 -0.137998 0.017517 0.297344 0.197333 0.099850 0.313320 -0.209277 -0.125204 0.179339 0.019674 -0.076421 -0.132698 -0.273745 -0.036505 0.034844 0.225905 0.202862 -0.083635 -0.013958 -0.336657 -0.092554 -0.066624 0.111463 0.222388 -0.222362 0.023728 -0.094562 -0.017659 0.219001 -0.081495 -0.147864 0.040876 0.265143 -0.064198 0.055335 -0.134668 -0.127954 -0.148898 -0.105617 0.028102 0.076623 0.044068 -0.079684 -0.039374 -0.162433 -0.096621 -0.104328 -0.039780 -0.275671 0.124097 0.041248 -0.256498 0.086031 0.127234 -0.010278 0.234128 0.177606 -0.003043 0.043113 0.121444 -0.123208 -0.008190 -0.083848 -0.148155 -0.012383 -0.175748 -0.256675 -0.002858 0.031793 0.062916 -0.235333 0.071085 0.273486 0.119030 0.065058 0.412814 -0.311272 -0.066392 0.183453 0.081955 0.228283 0.307970 0.160186 0.005586 0.162510 -0.067917 -0.044227 
International -0.090956 -0.341167 0.299848 -0.357967 0.029350 -0.233651 0.159788 -0.424966 0.019487 0.304709 0.391507 0.483011 -0.462752 -0.221240 0.031761 0.486515 0.329525 0.163624 0.529976 -0.355513 -0.240958 0.290627 0.036763 -0.132477 -0.223592 -0.459858 -0.065543 0.063901 0.372839 0.328242 -0.134812 -0.015403 -0.540795 -0.168420 -0.100054 0.213015 0.351974 -0.375828 0.037917 -0.160786 -0.024499 0.336746 -0.124485 -0.249269 0.080240 0.427699 -0.079950 0.099320 -0.217315 -0.198361 -0.237759 -0.182663 0.031587 0.122104 0.067546 -0.121593 -0.056909 -0.267571 -0.159899 -0.190809 -0.043340 -0.454457 0.208509 0.086942 -0.418339 0.148777 0.231084 -0.014074 0.405366 0.298837 -0.009085 0.056828 0.188618 -0.218014 0.004397 -0.138567 -0.242914 -0.014890 -0.280059 -0.416393 0.028024 0.048113 0.093284 -0.386852 0.104728 0.452941 0.204920 0.112094 0.696491 -0.520636 -0.119559 0.276741 0.123337 0.359506 0.504975 0.255269 -0.010791 0.267063 -0.126050 -0.057489 
27 -0.053640 -0.317514 0.274956 -0.350196 0.000345 -0.200022 0.167031 -0.365341 0.006718 0.299405 0.428220 0.480664 -0.465033 -0.234732 0.038185 0.486805 0.307513 0.223138 0.580555 -0.358026 -0.175056 0.313327 0.014408 -0.151265 -0.255496 -0.440282 -0.077087 0.068930 0.379077 0.328632 -0.129114 -0.028301 -0.541119 -0.157685 -0.104571 0.133293 0.352097 -0.347921 0.089706 -0.167709 -0.018730 0.378646 -0.135224 -0.253842 0.066480 0.395045 -0.140409 0.078997 -0.279959 -0.232773 -0.243420 -0.134346 0.055343 0.162070 0.085314 -0.093546 -0.027395 -0.274110 -0.159724 -0.149511 -0.073462 -0.461163 0.155423 0.108918 -0.448628 0.145268 0.205267 -0.016363 0.405790 0.318040 0.006597 0.067377 0.152110 -0.230934 -0.019171 -0.101258 -0.269293 -0.072237 -0.265461 -0.439676 -0.012749 0.031267 0.124486 -0.431743 0.111940 0.488085 0.229414 0.125880 0.690182 -0.512919 -0.091068 0.316542 0.167454 0.370916 0.553784 0.279026 0.030416 0.256582 -0.081613 -0.082571 
territory -0.063169 -0.188297 0.174234 -0.198263 0.017681 -0.137083 0.093450 -0.249956 0.015126 0.161248 0.211478 0.263007 -0.258299 -0.123059 0.015740 0.271697 0.183581 0.076104 0.282389 -0.184506 -0.149797 0.152663 0.020425 -0.060991 -0.108478 -0.258574 -0.026910 0.032704 0.210174 0.185325 -0.071365 -0.009880 -0.292077 -0.100832 -0.056602 0.118888 0.191364 -0.212665 0.020308 -0.089456 -0.016000 0.177953 -0.063676 -0.147100 0.036073 0.231872 -0.035458 0.051252 -0.110862 -0.100583 -0.133084 -0.105562 0.006792 0.064558 0.035671 -0.078461 -0.034302 -0.145080 -0.083215 -0.114592 -0.029078 -0.251284 0.127073 0.049563 -0.231842 0.079313 0.132051 -0.013278 0.221802 0.166435 -0.005902 0.029283 0.112895 -0.125515 0.005589 -0.085455 -0.131742 0.009918 -0.165217 -0.232022 0.019484 0.037001 0.046502 -0.212573 0.051040 0.248535 0.117908 0.055328 0.388184 -0.286927 -0.069433 0.142097 0.061382 0.197681 0.275380 0.140941 -0.009569 0.146530 -0.069115 -0.021003 
