2799 100
</s> 0.004003 0.004419 -0.003830 -0.003278 0.001367 0.003021 0.000941 0.000211 -0.003604 0.002218 -0.004356 0.001250 -0.000751 -0.000957 -0.003316 -0.001882 0.002579 0.003025 0.002969 0.001597 0.001545 -0.003803 -0.004096 0.004970 0.003801 0.003090 -0.000604 0.004016 -0.000495 0.000735 -0.000149 -0.002983 0.001312 -0.001337 -0.003825 0.004754 0.004379 -0.001095 -0.000226 0.000509 -0.003638 -0.004007 0.004555 0.000063 -0.002582 -0.003042 -0.003076 0.001697 0.000201 0.001331 -0.004214 -0.003808 -0.000130 0.001144 0.002550 -0.003170 0.004080 0.000927 0.001120 -0.000608 0.002986 -0.002288 -0.002097 0.002158 -0.000753 0.001031 0.001805 -0.004089 -0.001983 0.002914 0.004232 0.003932 -0.003047 -0.002108 -0.000909 0.002001 -0.003788 0.002998 0.002788 -0.001599 -0.001552 -0.002238 0.004229 0.003912 -0.001180 0.004215 0.004820 0.001815 0.004983 -0.003111 -0.001532 -0.002107 -0.002907 0.002815 0.001579 0.000425 -0.002194 0.001524 0.003059 0.000194 
soviet 0.777977 -0.646164 0.330925 -1.212489 -0.929250 -0.129687 -0.684831 0.138398 -0.171122 0.694830 0.457189 0.353444 -1.047881 -0.650324 -0.464337 0.833161 0.660131 -0.263119 -0.219036 0.763948 -0.216282 0.927080 0.471105 0.601556 0.051570 0.086663 -0.033511 0.211015 -0.135240 1.019809 0.298066 0.488979 -1.144529 0.149998 -0.173973 -0.349701 0.436944 0.238559 -0.555743 -1.131021 0.332577 0.691651 -0.328029 -0.988638 -0.289045 1.110594 0.085899 -0.088061 -0.723729 -0.670465 0.305567 -1.500615 0.538717 -0.182138 -0.269971 -0.439288 0.202902 -0.423719 0.335441 -0.799109 -0.105234 0.190608 0.703778 0.313506 0.351630 0.685968 0.084053 -0.203520 -0.192854 0.496957 -0.346824 0.726585 -0.585562 -0.391054 0.439175 0.010180 -0.603168 -0.166848 0.343630 -0.863545 -0.542928 -0.069349 -0.173247 0.548605 0.126238 0.631007 1.321373 -0.673875 0.763608 -0.104538 -0.126109 -0.040508 -0.727693 0.041529 0.676796 0.137156 0.205020 0.611150 -1.018453 0.442816 
iran -0.178188 -0.114836 -0.014924 -0.533679 -0.028357 -0.195885 0.140578 -0.055514 -0.058871 0.218747 0.122775 0.000892 -0.106040 -0.517715 0.057854 0.181737 0.154342 0.113070 0.261514 -0.088410 -0.054730 0.064140 -0.084416 0.279482 0.055710 0.248208 0.008967 -0.124803 0.282823 0.471808 0.147217 -0.136517 -0.317223 0.027581 -0.347241 0.066066 0.103911 -0.005519 -0.112197 -0.265087 -0.195363 0.095992 -0.018850 -0.349542 0.218512 0.222688 0.188326 0.077690 -0.415990 -0.434280 0.090088 -0.163892 0.298505 0.096570 -0.105590 -0.164284 -0.053700 -0.146984 0.177756 -0.419514 0.182431 -0.408538 0.157538 -0.003842 -0.017998 0.069107 0.095919 0.168526 0.166321 0.070631 0.098076 0.114797 0.285718 -0.143278 0.000508 0.223989 -0.016890 -0.166447 -0.256267 -0.214528 0.016343 -0.104982 0.052771 0.120449 -0.023607 -0.102832 -0.073500 -0.304589 0.189847 -0.165483 0.235922 0.097325 0.285863 -0.000140 0.232444 -0.232668 -0.195301 0.135235 0.144117 0.143983 
azerbaijan -0.643086 -0.448941 -0.240871 -0.546259 0.028526 -0.116525 0.357090 -0.053089 -0.180545 0.586790 0.266868 0.015413 -0.052488 -1.103031 0.021420 0.400144 0.625748 -0.128315 0.279915 -0.103446 0.018381 0.579301 -0.311476 0.837486 0.011006 0.818322 0.351456 0.189146 0.768828 0.650053 0.381103 -0.083137 -0.361072 0.061829 -0.423239 0.043043 -0.177236 -0.192124 0.100849 -0.570875 -0.554394 0.344404 0.092828 -1.176142 -0.020854 0.236582 0.753830 0.074007 -0.846183 -0.705281 0.239299 -0.730134 -0.066325 -0.186888 -0.496880 -0.468651 -0.110373 -0.124789 0.681686 -0.641882 -0.254769 -0.457602 0.471131 -0.062841 0.239327 0.162161 -0.044813 0.161955 0.432480 0.265236 0.089164 0.484394 0.362645 -0.383570 -0.188195 0.362201 0.007192 -0.328385 -0.364876 -0.994167 0.130740 -0.226463 -0.402569 0.173340 -0.123849 0.015079 0.299740 -0.980476 0.063951 -0.641418 0.223082 -0.046964 0.299098 -0.561211 0.707983 -0.230665 -1.054191 0.636939 -0.639118 0.520938 
human -0.166303 0.300432 0.218299 -0.609668 0.533380 -0.246396 0.455177 -0.358984 -0.146188 -0.233063 0.255401 0.091604 0.079574 0.116025 0.479734 -0.187268 -0.094452 0.785621 0.704808 -0.147834 -0.501609 -0.999177 -0.139773 -0.559980 -0.168580 -0.385158 -0.452069 -0.718286 0.182292 0.365164 -0.198407 -0.585855 -0.542590 0.194042 -0.548697 0.586267 0.542404 -0.177755 -0.248686 0.532660 -0.365305 -0.239515 0.232204 0.526650 0.933036 -0.116960 -0.360467 0.344119 -0.044807 -0.067834 0.070840 0.953082 0.749387 0.836548 0.505518 0.052910 0.044720 -0.121595 -0.397941 -0.423771 0.864950 -1.077567 -0.301264 -0.369956 -0.648996 -0.125573 0.257084 0.203713 0.469107 -0.482964 0.368048 -0.691686 1.138919 -0.100762 -0.392950 0.327978 -0.252949 0.028355 -1.041510 0.694920 0.506432 0.227334 0.540670 -0.205624 -0.189221 -0.255020 -1.193439 0.893209 0.311766 0.488402 0.348075 0.494897 1.132138 0.839110 -0.074693 -0.482592 0.225058 -0.383750 1.485522 -0.427899 
state 0.444650 -0.147595 0.160573 -0.701057 -0.455680 0.026632 -0.135306 0.026724 -0.192962 0.338081 0.380068 0.338874 -0.644328 -0.450244 -0.030165 0.387855 0.393015 0.085436 0.022466 0.385274 -0.062494 0.177191 0.295383 0.186254 -0.027625 0.045842 -0.165845 -0.051965 0.103274 0.768082 0.248067 0.100614 -0.914723 0.103783 -0.248519 -0.140405 0.500957 0.012616 -0.105490 -0.592493 0.077235 0.535220 -0.181282 -0.580543 0.151885 0.459161 0.213971 0.133268 -0.617327 -0.810257 0.212798 -0.829082 0.301423 -0.093760 -0.103546 -0.378495 0.204787 -0.281473 0.284272 -0.651019 0.222599 -0.164886 0.371062 0.066819 0.232309 0.343114 0.082063 -0.300644 -0.063889 0.087591 -0.017698 0.317884 -0.101273 -0.441364 0.002042 -0.014032 -0.342383 0.040766 -0.123126 -0.531795 -0.396542 -0.040572 0.091884 0.390700 0.122377 0.354707 0.469461 -0.517000 0.639105 -0.005431 -0.010728 -0.018047 -0.109999 -0.067903 0.465080 0.145456 -0.046839 0.314796 -0.243895 0.382393 
union 0.873821 -0.638926 0.371697 -1.194194 -0.953611 -0.093628 -0.742669 0.125343 -0.125962 0.760993 0.395005 0.443655 -1.149883 -0.575200 -0.395269 0.788873 0.707871 -0.123739 -0.295923 0.857985 -0.169400 0.857815 0.574942 0.505894 0.032545 0.062867 -0.083308 0.223492 -0.213582 1.035150 0.288206 0.550950 -1.222085 0.166013 -0.125450 -0.309800 0.549609 0.259111 -0.520639 -1.033013 0.446972 0.804971 -0.408939 -0.933120 -0.272955 1.107902 -0.014599 -0.015816 -0.595201 -0.677739 0.409004 -1.555682 0.622244 -0.213737 -0.240491 -0.457704 0.277291 -0.433930 0.304901 -0.811565 0.043204 0.161378 0.602431 0.251220 0.339577 0.678746 0.075476 -0.370269 -0.247963 0.464729 -0.325697 0.728009 -0.561429 -0.438823 0.358676 -0.010326 -0.641580 -0.030462 0.189677 -0.701602 -0.598317 -0.090226 0.018322 0.669374 0.176375 0.662081 1.288273 -0.661473 0.811483 0.021127 -0.077178 0.016318 -0.738404 0.029230 0.616322 0.218388 0.300559 0.630602 -0.875864 0.511848 
republic 0.179822 -0.275197 0.092877 -0.929772 -0.446726 -0.049000 -0.187631 -0.021891 -0.122136 0.542525 0.444479 0.267655 -0.588337 -0.763836 -0.075555 0.467046 0.534706 -0.094294 0.056798 0.269239 -0.040737 0.370176 0.194327 0.527079 0.071346 0.393906 -0.068776 -0.017147 0.278989 0.891084 0.277042 0.122505 -0.899837 0.070956 -0.390673 -0.077672 0.271633 -0.048591 -0.025964 -0.703074 0.036601 0.487577 -0.285795 -0.851104 0.148665 0.543220 0.419588 0.104420 -0.754369 -0.967237 0.157466 -0.867149 0.310095 -0.155051 -0.393063 -0.552573 0.127816 -0.236261 0.428675 -0.812304 0.075712 -0.219895 0.507375 0.067838 0.275178 0.290140 -0.030161 -0.190745 0.074183 0.244872 0.066581 0.474246 -0.157872 -0.451255 -0.068078 0.117812 -0.203395 -0.171541 0.014600 -0.734804 -0.367081 -0.088291 -0.060525 0.376827 0.071744 0.278148 0.513221 -0.791135 0.653771 -0.264153 0.106102 -0.136710 -0.017876 -0.134268 0.656332 -0.000173 -0.295280 0.454945 -0.469349 0.477773 
rights 1.204711 0.397938 0.893710 -0.684463 0.237505 -0.326898 -0.022269 -0.061067 -0.168452 -0.346672 0.539157 0.642731 -0.865962 0.687526 0.276202 -0.039287 -0.456782 0.944248 0.514380 0.068602 -1.040136 -1.657097 0.326802 -1.137869 -0.216990 -0.830581 -1.023145 -0.671791 -0.480188 0.623483 -0.081211 -0.330141 -1.771701 0.090140 -0.129125 0.494823 1.456321 -0.312960 -0.354626 0.428630 0.267081 0.093993 -0.319949 0.855370 1.050497 -0.008545 -0.563351 0.538902 0.030186 -0.569266 0.220702 0.096013 0.670171 0.361984 0.417226 -0.253855 0.464960 -0.183643 -0.634038 -0.792857 1.435047 -0.472711 -0.232483 -0.381869 -0.049812 0.131851 0.119781 -0.788781 0.151267 -0.158049 0.493354 -0.799481 0.296417 -0.856760 -0.425625 -0.767843 -0.313755 0.551319 -0.692348 0.486554 -0.536550 0.331848 1.079904 0.041128 0.152922 0.169294 -1.130567 1.024093 1.376929 0.818855 0.054097 0.207031 0.688842 0.971917 -0.069759 0.407756 0.926120 -0.493350 1.803663 -0.278308 
world -0.119461 -0.258654 0.033198 -0.726856 -0.247773 -0.171344 0.030028 -0.056511 -0.048744 0.442217 0.151499 -0.003771 -0.171991 -0.731951 -0.127841 0.323563 0.345687 0.011718 0.136891 0.064010 -0.093059 0.437140 -0.077361 0.527992 0.070546 0.308831 0.152122 0.012403 0.338543 0.590320 0.200573 0.021637 -0.322089 0.075145 -0.279467 -0.013559 0.028595 0.060902 -0.253423 -0.470096 -0.148663 0.195543 -0.069910 -0.713822 0.049039 0.491677 0.285337 -0.044149 -0.553595 -0.459517 0.218617 -0.566555 0.295027 -0.028423 -0.125161 -0.211752 -0.008510 -0.126627 0.333416 -0.494578 -0.001435 -0.346891 0.314488 0.012346 0.096991 0.237901 0.125081 0.183892 0.134535 0.125673 0.002244 0.293653 0.223464 -0.134485 0.168483 0.286766 -0.122601 -0.316671 -0.178124 -0.435826 0.079266 -0.187410 -0.070086 0.215172 -0.065910 0.062812 0.328235 -0.418711 0.115271 -0.217487 0.142520 0.085589 0.090216 -0.082367 0.375368 -0.322080 -0.289041 0.377853 -0.264154 0.327054 
iranian -0.343613 -0.142812 -0.133238 -0.549901 0.071882 -0.178308 0.222553 -0.022432 -0.071552 0.241294 0.096318 -0.014090 0.018051 -0.643541 0.093186 0.119040 0.129444 0.110027 0.343400 -0.165821 0.000742 0.041376 -0.211760 0.322523 0.061125 0.336013 0.030546 -0.115493 0.403582 0.455676 0.202696 -0.157900 -0.260628 0.029430 -0.373142 0.099012 0.018886 -0.070016 0.002210 -0.251253 -0.334315 0.085523 0.006482 -0.423231 0.231203 0.156349 0.323011 0.037132 -0.497063 -0.477372 0.087267 -0.130145 0.237429 0.091185 -0.159765 -0.157414 -0.098797 -0.090453 0.267197 -0.474321 0.128397 -0.461308 0.152992 -0.033776 -0.059915 0.025753 0.074478 0.218777 0.226775 0.053814 0.182115 0.098971 0.354882 -0.138708 -0.119142 0.310912 0.038071 -0.206926 -0.296749 -0.301333 0.079813 -0.158778 -0.056428 0.096402 -0.068842 -0.131639 -0.161510 -0.388054 0.104596 -0.275304 0.281733 0.032192 0.394317 -0.143047 0.277987 -0.268447 -0.340463 0.179077 0.113549 0.165275 
government 0.337200 -0.034623 0.104873 -0.546275 -0.215710 -0.070432 0.075808 0.014578 -0.118363 0.126648 0.269192 0.223548 -0.429288 -0.242795 0.117144 0.207674 0.125587 0.193467 0.166613 0.192067 -0.028955 -0.145927 0.233512 -0.062406 0.016080 -0.021516 -0.232418 -0.140889 0.090891 0.502948 0.169579 -0.097489 -0.722940 0.091474 -0.273034 -0.070031 0.529159 -0.086372 -0.070275 -0.322548 0.018268 0.399559 -0.150124 -0.156927 0.307512 0.209921 0.048527 0.154876 -0.423504 -0.639476 0.057897 -0.397155 0.274578 0.053362 -0.034799 -0.264049 0.164968 -0.214252 0.149336 -0.541302 0.378657 -0.284383 0.186261 0.023203 0.035779 0.197743 0.077400 -0.261842 -0.026263 0.011329 0.034621 0.042409 0.026627 -0.333946 -0.138187 -0.026687 -0.218948 0.119275 -0.246537 -0.251007 -0.334224 -0.031689 0.230794 0.227337 0.145716 0.147493 0.082650 -0.288880 0.533251 0.052227 0.158347 0.031893 0.111175 0.083664 0.219679 0.147772 0.064184 0.105796 0.215717 0.155142 
history -0.059929 -0.122566 0.208528 -0.634601 -0.050786 -0.041959 -0.008789 -0.055565 -0.215520 0.342122 0.160479 0.103045 -0.021862 -0.613540 0.070276 0.190771 0.142684 0.225180 0.311933 0.067481 -0.315118 -0.052905 -0.128621 0.259579 -0.067275 0.106960 -0.059802 -0.122869 0.199320 0.609248 0.145365 0.038781 -0.527631 0.149301 -0.244410 0.254602 0.227397 -0.099579 -0.083091 -0.104276 -0.218998 0.268582 -0.080141 -0.500187 0.280722 0.260945 0.304218 0.054843 -0.390091 -0.401330 0.209066 -0.361564 0.384131 0.161575 0.080418 -0.092831 0.094260 -0.185966 0.202699 -0.548470 0.169047 -0.360992 0.094507 -0.183066 -0.027893 0.216382 0.135556 0.023932 0.207689 -0.083535 0.147032 0.060015 0.271271 -0.243891 -0.043772 0.225920 -0.262693 -0.199193 -0.386825 -0.281595 0.181066 -0.094596 -0.140939 0.086228 -0.111498 0.150105 -0.035597 -0.130279 0.190798 -0.066843 0.093061 0.132531 0.282147 -0.017156 0.451543 -0.351391 -0.113592 0.214328 0.026933 0.210259 
political 0.472445 0.224187 0.370394 -0.425735 0.129307 0.006805 0.068403 -0.084596 -0.300776 -0.094965 0.318412 0.298970 -0.408843 0.033235 0.254635 0.048818 -0.050328 0.518742 0.285363 0.068788 -0.453951 -0.731010 0.197229 -0.445298 -0.203094 -0.381551 -0.466347 -0.439814 -0.063023 0.480053 0.027836 -0.077493 -0.989311 0.161949 -0.216335 0.296418 0.675912 -0.143518 -0.103817 0.155241 0.020023 0.240056 -0.006169 0.105205 0.506646 0.057310 -0.124789 0.369696 -0.221363 -0.454752 0.220710 -0.070612 0.408605 0.243271 0.316389 -0.104862 0.245554 -0.245669 -0.180218 -0.473149 0.677546 -0.435907 -0.007353 -0.297333 -0.046216 0.154021 0.113098 -0.263563 0.067138 -0.255450 0.224682 -0.292550 0.369307 -0.511592 -0.216600 -0.121685 -0.263346 0.179212 -0.538673 0.102508 -0.159267 0.101025 0.444525 0.147488 0.027410 0.131925 -0.517461 0.335796 0.680383 0.321038 -0.006613 0.230977 0.483264 0.382668 0.115050 0.027281 0.239016 -0.177298 0.784729 -0.017862 
russian 0.123553 -0.577443 0.109125 -1.294841 -0.671017 -0.174330 -0.203213 0.124749 -0.044124 0.812546 0.220210 0.254261 -0.398310 -1.110242 -0.328209 0.525580 0.376285 -0.105824 0.135256 0.408411 -0.057354 0.865033 -0.058670 0.782555 0.128265 0.415924 0.129987 0.147386 0.340003 1.020697 0.503095 0.189101 -0.726366 0.159296 -0.352497 -0.210110 0.232157 -0.001694 -0.335583 -0.922433 -0.147405 0.551844 -0.293013 -1.110421 -0.030746 0.835706 0.595961 -0.288763 -0.918581 -0.830730 0.251326 -1.133102 0.388125 -0.320652 -0.388878 -0.289452 0.028626 -0.216553 0.719386 -0.976477 -0.064167 -0.118793 0.515765 0.146879 0.203870 0.529194 0.083846 0.001470 0.068729 0.239734 0.082002 0.542263 -0.093918 -0.203521 0.259471 0.218720 -0.341097 -0.319685 -0.025847 -0.930667 -0.185422 -0.320686 -0.341018 0.483794 -0.106814 0.413140 0.931147 -0.753112 0.238690 -0.382675 0.169794 -0.194709 -0.281417 -0.408508 0.777624 -0.193763 -0.130697 0.708109 -0.707233 0.455018 
international 0.056121 -0.095230 0.136380 -0.638409 0.007176 -0.169172 0.121596 -0.064366 -0.147760 0.183758 0.242284 0.185664 -0.308250 -0.381185 0.086190 0.236001 0.198303 0.243797 0.273458 0.043435 -0.212277 -0.124397 0.023789 0.091446 -0.032245 0.106429 -0.133911 -0.200056 0.239835 0.581542 0.147130 -0.119097 -0.668585 0.092905 -0.362158 0.121975 0.382942 -0.035882 -0.122077 -0.261812 -0.090848 0.245767 -0.060785 -0.321374 0.315146 0.222345 0.102831 0.160116 -0.482618 -0.545545 0.162004 -0.306212 0.365640 0.109917 -0.036814 -0.248443 0.073894 -0.204067 0.104096 -0.535523 0.324194 -0.426371 0.171926 -0.097314 -0.009101 0.147875 0.083482 -0.030545 0.156809 0.035632 0.141213 0.051780 0.315817 -0.346395 -0.086792 0.123236 -0.158055 -0.059390 -0.386735 -0.213731 -0.043932 -0.079406 0.197183 0.157097 -0.004840 0.008667 -0.124949 -0.196594 0.463593 0.028942 0.164748 0.116874 0.348740 0.135348 0.275642 -0.088318 -0.139026 0.109567 0.260490 0.189038 
party 0.072753 0.049865 0.058184 -1.008782 -0.140387 -0.478568 0.259681 0.087006 -0.003616 0.088364 0.228457 0.163500 -0.662868 -0.480623 0.143895 0.246452 0.065683 0.161797 0.447308 -0.133944 0.140681 -0.240137 0.183466 -0.101186 0.241534 0.241778 -0.346529 -0.346836 0.295308 0.676298 0.378231 -0.455870 -0.844339 0.062947 -0.769485 -0.044105 0.721837 0.072079 -0.046838 -0.665223 -0.035699 0.276638 -0.243521 -0.247306 0.734204 0.200119 0.059002 0.209121 -0.706801 -1.247793 -0.144487 -0.307199 0.690530 0.173951 -0.266257 -0.333357 0.054264 -0.263634 0.050122 -0.836623 0.651287 -0.818855 0.417626 0.260382 0.044277 0.105612 -0.043181 -0.090165 0.013103 0.107515 0.164208 -0.013413 0.171590 -0.318199 -0.231023 0.292210 0.054963 0.001876 -0.173228 -0.168965 -0.552359 -0.128720 0.487682 0.346999 0.338061 -0.374343 -0.225728 -0.521045 0.838468 0.189501 0.553028 0.009009 0.313395 0.225389 0.190520 -0.004102 0.150056 -0.104872 0.607210 0.080444 
states 0.452062 -0.173927 0.072801 -0.884511 -0.467530 -0.170735 -0.467798 0.048188 0.040373 0.347921 0.365866 0.349634 -0.818096 -0.373134 -0.064075 0.524909 0.409373 -0.137725 -0.150753 0.166178 -0.058341 0.299140 0.396273 0.250956 0.092586 0.195762 -0.234075 -0.225100 0.042586 0.801344 0.108195 0.098123 -0.925854 -0.107575 -0.356955 -0.086089 0.303356 0.349455 -0.219382 -0.730470 0.581269 0.226075 -0.362760 -0.362506 0.030309 0.520197 0.005429 0.083670 -0.555664 -0.884139 0.172369 -0.672913 0.623863 -0.100513 -0.415530 -0.500420 0.160631 -0.150463 0.115103 -0.611919 0.273287 -0.002406 0.407785 0.186681 0.127938 0.182606 -0.020591 -0.091934 -0.153715 0.480282 0.091760 0.411763 -0.324073 -0.295020 0.367286 0.035194 -0.103680 -0.108844 0.264881 -0.172185 -0.514808 -0.052042 0.331480 0.437042 0.072820 0.112822 0.317567 -0.544628 0.824129 0.005800 0.049082 -0.171797 -0.061336 0.241209 0.330682 0.144371 0.215218 0.079667 -0.102463 0.334396 
council 0.228169 -0.089826 0.096710 -0.540573 -0.147664 -0.103561 0.031916 -0.025222 -0.071821 0.123862 0.239951 0.196428 -0.363011 -0.224677 0.045269 0.227050 0.168521 0.141413 0.130449 0.081438 -0.112851 -0.053260 0.126965 0.016584 -0.000967 0.044276 -0.136585 -0.120622 0.123245 0.444656 0.126015 -0.095804 -0.580348 0.045396 -0.253034 -0.024288 0.400853 -0.025050 -0.144433 -0.303156 0.089566 0.258391 -0.092321 -0.150169 0.269724 0.200729 0.032862 0.082981 -0.401637 -0.519728 0.069658 -0.329577 0.281482 0.033741 -0.077354 -0.262917 0.131137 -0.137377 0.111413 -0.477668 0.269210 -0.224328 0.172832 0.027175 0.025071 0.156863 0.053478 -0.136644 0.019874 0.094744 0.054633 0.096476 0.073444 -0.268363 0.040633 0.029609 -0.171104 0.038095 -0.146806 -0.165273 -0.208780 -0.038216 0.198492 0.180939 0.081501 0.059790 0.070881 -0.199565 0.455643 0.053240 0.129891 -0.005148 0.114205 0.109369 0.178727 0.066196 0.077425 0.063308 0.155315 0.115000 
national -0.098890 -0.325810 -0.053152 -0.689669 -0.175018 -0.073631 0.348474 0.023673 -0.199285 0.386505 0.283704 0.083874 -0.233335 -0.682119 0.049634 0.267203 0.405544 0.207561 0.302789 0.063416 -0.058776 0.205810 -0.063179 0.385415 -0.036252 0.336299 0.035024 0.097241 0.427380 0.595723 0.325292 -0.017484 -0.608430 0.118066 -0.325611 -0.065437 0.334953 -0.156396 -0.144431 -0.424548 -0.388120 0.466146 0.045586 -0.737511 0.179650 0.324323 0.404241 0.013197 -0.696617 -0.600926 0.188395 -0.709613 0.125350 0.015111 -0.108034 -0.344149 0.052097 -0.173505 0.489724 -0.696328 0.107302 -0.465570 0.353381 -0.050495 0.126720 0.286947 0.054725 -0.095618 0.224420 0.003914 -0.018583 0.235376 0.344996 -0.430320 -0.192420 0.166703 -0.198073 -0.075519 -0.410872 -0.694385 -0.110998 -0.167250 -0.041369 0.205736 -0.007740 0.192686 0.336566 -0.526419 0.237689 -0.236166 0.220423 0.038761 0.123179 -0.325900 0.412844 -0.112919 -0.442684 0.456112 -0.209217 0.327999 
population -0.338788 -0.063753 -0.140639 -0.555290 0.230569 -0.227455 0.421163 -0.196944 0.090189 0.115522 0.117135 -0.058166 0.067834 -0.525264 0.054551 -0.039862 0.096967 0.152644 0.398548 -0.238468 -0.023353 -0.020886 -0.224974 0.150821 0.136125 0.166152 0.082272 -0.177345 0.519883 0.232073 0.052521 -0.368222 -0.130081 0.120179 -0.411940 0.121145 0.036326 -0.261193 -0.050576 -0.145950 -0.362128 0.030637 0.156916 -0.150894 0.353860 0.040930 0.134196 0.113079 -0.420145 -0.256860 -0.013517 0.182845 0.238432 0.195823 -0.032026 -0.104003 -0.036214 -0.056171 0.155912 -0.439910 0.212940 -0.601934 0.065872 -0.051590 -0.162750 -0.045078 0.169774 0.234405 0.360254 0.076138 0.111340 0.032345 0.599985 0.013939 -0.159496 0.291330 0.009399 -0.192501 -0.501045 -0.112840 0.163257 -0.108413 0.074506 0.074400 -0.123733 -0.297617 -0.338474 -0.181327 0.141075 -0.230856 0.354857 0.176435 0.486325 0.175376 0.094842 -0.321295 -0.318468 0.176402 0.333853 -0.107918 
azerbaijani -0.600806 -0.462404 -0.327781 -0.712327 0.143459 -0.219653 0.483706 0.009864 -0.077670 0.489207 0.179073 -0.023661 0.055446 -0.964883 0.069499 0.175099 0.362160 0.038774 0.496509 -0.114662 0.112218 0.385072 -0.404245 0.508304 0.007818 0.588575 0.233063 0.042564 0.728237 0.450122 0.396918 -0.183094 -0.199949 0.132738 -0.462083 -0.033314 -0.077269 -0.322356 0.008556 -0.451286 -0.647599 0.271755 0.107580 -0.784671 0.145071 0.221844 0.596116 -0.034805 -0.861304 -0.534771 0.167559 -0.384258 0.025223 -0.009474 -0.293547 -0.279954 -0.113410 -0.120413 0.614784 -0.744066 -0.109027 -0.563332 0.280104 -0.041594 -0.013512 0.129434 0.042985 0.236957 0.445376 0.141676 0.097023 0.277891 0.556454 -0.166315 -0.281814 0.447529 -0.043721 -0.241617 -0.475669 -0.775403 0.157125 -0.262785 -0.315115 0.172234 -0.195594 -0.057015 0.057137 -0.721745 -0.058040 -0.567711 0.358124 -0.031579 0.387260 -0.495073 0.527500 -0.289403 -0.732599 0.522563 -0.252296 0.216958 
region -0.277154 -0.005737 -0.373036 -0.719228 0.041620 -0.447390 0.170531 -0.174908 0.250938 0.116086 0.257567 0.077067 -0.451093 -0.657658 0.117601 0.503020 0.439178 -0.203593 0.055092 -0.398982 0.253727 0.277292 0.116565 0.465411 0.239738 0.577692 0.099339 -0.454295 0.679448 0.673233 0.192315 -0.428817 -0.409238 -0.296775 -0.729694 -0.128441 -0.185759 0.360028 -0.121651 -0.825702 0.230984 -0.169025 -0.036189 -0.444124 -0.028763 0.199772 0.016846 0.213606 -0.753093 -1.075164 0.105418 -0.159063 0.528593 -0.016329 -0.661056 -0.618766 -0.306809 -0.110124 0.200589 -0.373600 0.300802 -0.483901 0.371702 0.330943 0.036661 -0.187106 0.022123 0.494408 0.078456 0.671450 0.193346 0.567506 0.275204 -0.151411 0.557865 0.398141 0.431556 -0.274173 -0.036774 -0.009638 -0.263953 -0.330925 0.556634 0.355356 0.001401 -0.582876 -0.210350 -0.995203 0.530398 -0.304795 0.443509 -0.065647 0.626074 0.212472 0.028105 -0.143383 -0.354315 -0.033166 0.439758 0.230497 
humans -0.738946 0.224048 -0.083053 -0.619995 0.673284 -0.290677 0.595902 -0.401355 0.003372 -0.127015 0.070040 -0.209757 0.484096 -0.239880 0.447082 -0.294291 -0.024654 0.490284 0.760122 -0.452252 -0.251341 -0.752327 -0.469393 -0.179715 -0.059022 -0.032082 -0.200676 -0.713364 0.476515 0.215106 -0.192796 -0.632726 0.016334 0.173394 -0.685505 0.625569 0.020159 -0.205539 -0.115554 0.453541 -0.524246 -0.513020 0.278891 0.409059 0.807974 -0.155940 -0.149982 0.128575 -0.162685 0.039831 -0.034274 1.233786 0.720275 0.804275 0.320231 0.084665 -0.184094 0.018369 -0.231179 -0.363517 0.537780 -1.170478 -0.358470 -0.333113 -0.731684 -0.301188 0.239409 0.638369 0.559254 -0.385121 0.398962 -0.541453 1.284487 0.262087 -0.365942 0.679659 0.055836 -0.259650 -0.967887 0.677329 0.763357 0.120129 0.280595 -0.237590 -0.340169 -0.513357 -1.262424 0.597343 -0.109189 0.147853 0.520226 0.403428 1.270071 0.649251 -0.046892 -0.834377 -0.104881 -0.276734 1.276717 -0.470634 
first -0.193923 -0.134476 -0.019996 -0.721575 -0.080786 -0.166840 0.147628 -0.062652 -0.073841 0.312026 0.141218 0.053312 -0.061700 -0.634483 0.039650 0.200914 0.167357 0.172490 0.357618 -0.069135 -0.065553 0.096286 -0.166483 0.314128 0.060046 0.248774 -0.033293 -0.192526 0.340108 0.588752 0.180546 -0.134044 -0.353399 0.057156 -0.402443 0.120167 0.139610 -0.008944 -0.132647 -0.312193 -0.257048 0.091555 -0.053339 -0.457044 0.308861 0.270730 0.247891 -0.023150 -0.530215 -0.520775 0.084653 -0.180051 0.424722 0.128972 -0.082892 -0.176733 -0.041698 -0.076672 0.250083 -0.572673 0.161816 -0.538194 0.176293 -0.012283 -0.076056 0.120142 0.107909 0.191296 0.195110 0.013645 0.166877 0.076029 0.364244 -0.126224 -0.022453 0.307848 -0.055866 -0.250232 -0.280675 -0.242771 0.085575 -0.139184 0.012846 0.121825 -0.045004 -0.043037 -0.089080 -0.263253 0.188164 -0.145366 0.277245 0.085512 0.343428 -0.015615 0.322424 -0.389274 -0.188339 0.206402 0.130357 0.166687 
country 0.037299 -0.128151 -0.019146 -0.654254 -0.173106 -0.206847 0.035745 -0.036617 -0.055657 0.251673 0.252936 0.152047 -0.382442 -0.525554 0.064575 0.399779 0.351792 0.025674 0.105932 0.031459 0.008304 0.230173 0.118258 0.307652 0.072150 0.299834 -0.017737 -0.125103 0.288247 0.642076 0.176803 -0.098942 -0.575855 -0.018206 -0.405885 -0.029883 0.217328 0.133357 -0.120790 -0.542369 0.009902 0.237027 -0.102117 -0.493706 0.111308 0.305401 0.129525 0.168912 -0.562663 -0.725007 0.114945 -0.453842 0.364609 0.016008 -0.259483 -0.360956 0.001893 -0.216780 0.190163 -0.449023 0.201948 -0.341451 0.341819 0.128785 0.052942 0.123019 0.048131 0.063309 0.051017 0.244789 0.044683 0.326797 0.111075 -0.272176 0.111297 0.184839 -0.054464 -0.113084 -0.145098 -0.298376 -0.186156 -0.152008 0.186108 0.255643 0.062321 -0.058016 0.130285 -0.555553 0.458386 -0.127923 0.193234 0.057070 0.202673 0.060161 0.275109 -0.025041 -0.194867 0.195996 0.018933 0.264553 
during -0.149603 -0.287621 -0.050996 -0.849575 -0.140684 -0.237030 0.171613 -0.040813 -0.000554 0.378573 0.118773 0.020760 -0.172268 -0.679221 -0.077633 0.217483 0.279750 0.093681 0.331934 0.065590 -0.005893 0.283891 -0.151004 0.354358 0.060734 0.218861 0.053995 -0.091556 0.428042 0.527330 0.212609 -0.077946 -0.328388 0.141216 -0.397506 -0.020075 0.099541 -0.103187 -0.195977 -0.440180 -0.241358 0.197583 0.007863 -0.523002 0.211253 0.425501 0.204228 -0.045672 -0.585852 -0.437300 0.174172 -0.337516 0.360737 0.068586 -0.097835 -0.216843 -0.049014 -0.169633 0.344998 -0.661786 0.109385 -0.461608 0.225208 0.040679 -0.020068 0.190566 0.114500 0.173799 0.221939 0.053504 0.006344 0.215494 0.341925 -0.052030 -0.007872 0.313052 -0.138402 -0.232286 -0.321581 -0.375110 0.071078 -0.142740 -0.021862 0.238887 -0.104733 -0.011229 0.115159 -0.403964 0.145935 -0.199406 0.252097 0.044278 0.223738 -0.059234 0.329560 -0.312850 -0.180570 0.331752 -0.045279 0.086879 
armenian -0.399560 -0.420479 -0.289198 -0.585225 0.088823 -0.118301 0.218620 0.029262 0.039488 0.418607 0.129894 0.110951 0.048098 -0.841800 -0.030303 0.170936 0.328435 -0.131626 0.354459 -0.021919 0.078749 0.498149 -0.328706 0.429539 0.002851 0.496955 0.330347 0.070022 0.659104 0.309916 0.365387 -0.141799 -0.146880 0.100884 -0.363869 -0.088268 -0.129022 -0.316077 0.078288 -0.487098 -0.394338 0.269814 0.047475 -0.694355 -0.026649 0.131531 0.482854 -0.139089 -0.775192 -0.441970 0.060748 -0.391325 0.009797 -0.139126 -0.382318 -0.259424 -0.027761 -0.114737 0.543611 -0.620331 -0.219555 -0.223474 0.225127 0.039283 -0.008578 0.089313 -0.013958 0.116795 0.338396 0.338706 0.130562 0.303534 0.280407 -0.074665 -0.111052 0.349850 -0.073500 -0.227345 -0.266122 -0.637981 0.101849 -0.309424 -0.318718 0.203989 -0.199840 -0.014401 0.178617 -0.704568 -0.023317 -0.492872 0.212376 -0.148207 0.193243 -0.476689 0.517808 -0.203883 -0.581493 0.487625 -0.401341 0.152748 
regions -0.097840 0.098645 -0.087300 -0.563771 0.133481 -0.306601 0.297117 -0.214905 0.042671 0.027594 0.264395 0.043473 -0.239443 -0.356082 0.225895 0.299437 0.290527 0.158336 0.225857 -0.230058 -0.022860 -0.077352 0.109301 0.124604 0.123525 0.179761 -0.026932 -0.381450 0.486470 0.537902 0.043828 -0.424672 -0.502299 -0.089941 -0.526271 0.063699 0.136133 0.154128 -0.086831 -0.327500 0.004264 -0.027344 0.049796 -0.201161 0.279200 0.095225 -0.058419 0.307469 -0.490806 -0.719612 0.100338 -0.001918 0.440376 0.255356 -0.108538 -0.325996 -0.091905 -0.166252 0.055703 -0.315994 0.434863 -0.629884 0.179841 0.094311 -0.141392 -0.093001 0.105776 0.254191 0.123418 0.201253 0.140173 0.181499 0.462081 -0.180388 0.112752 0.291492 0.088625 -0.157073 -0.414043 0.059734 -0.028375 -0.159697 0.497576 0.142423 0.019152 -0.315582 -0.409234 -0.369946 0.378104 -0.042031 0.329492 0.209718 0.666643 0.370672 0.003621 -0.180120 -0.238427 -0.012285 0.624551 0.099388 
modern -0.239085 -0.036319 0.034218 -0.752962 0.044233 -0.067474 0.027692 -0.106190 -0.070127 0.271531 0.178564 0.021336 -0.006890 -0.594797 0.142342 0.100241 0.165291 0.125250 0.361106 -0.044420 -0.132269 -0.169153 -0.143011 0.226674 0.036223 0.191075 -0.128421 -0.296048 0.266550 0.528153 0.084544 -0.125432 -0.425112 0.093658 -0.484745 0.311484 0.084644 -0.114471 0.014306 -0.093059 -0.228044 0.023531 -0.120117 -0.271647 0.414145 0.177079 0.240024 0.046669 -0.353782 -0.497748 0.054412 0.120674 0.527430 0.267481 -0.069666 -0.150659 -0.019692 -0.122985 0.129567 -0.583590 0.210801 -0.501301 0.019698 -0.158703 -0.169811 0.018705 0.112808 0.172472 0.230353 -0.045031 0.266550 -0.032099 0.362304 -0.062202 -0.200346 0.376561 -0.096335 -0.251012 -0.349592 -0.069622 0.181379 -0.018249 -0.069560 0.072152 -0.168325 -0.023701 -0.303449 -0.142252 0.217874 -0.090992 0.240841 0.091698 0.463417 0.152127 0.400127 -0.399632 -0.104996 0.112211 0.229611 0.048807 
right 0.952485 0.395867 0.698185 -0.605702 0.239637 -0.374683 0.146772 0.023737 -0.017245 -0.397414 0.390900 0.573152 -0.803176 0.567434 0.213815 0.004453 -0.562498 0.781454 0.519091 -0.095673 -0.874902 -1.453790 0.128869 -0.872190 -0.044534 -0.535452 -0.854562 -0.530166 -0.358576 0.457264 -0.030253 -0.555979 -1.449648 0.063851 -0.273645 0.422846 1.226841 -0.273756 -0.193490 0.235471 0.185882 -0.034414 -0.259117 0.874287 0.963322 -0.064100 -0.541875 0.513027 -0.027866 -0.675416 -0.000534 0.230106 0.501497 0.284879 0.115491 -0.254278 0.217350 -0.133301 -0.618827 -0.709689 1.189473 -0.397059 -0.090836 -0.195071 -0.088564 -0.079220 0.002681 -0.642331 0.155227 -0.003393 0.566259 -0.666249 0.094050 -0.649379 -0.508173 -0.672893 -0.038642 0.432614 -0.556591 0.334726 -0.483485 0.214638 0.991338 -0.026614 0.245540 -0.020414 -1.165670 0.727487 1.238123 0.629030 0.179800 0.114128 0.676410 0.728175 -0.072093 0.413114 0.748778 -0.534480 1.690520 -0.307059 
people 0.051500 -0.015310 0.068004 -0.507364 0.112624 -0.205364 0.194426 -0.094771 0.061105 0.053263 0.100774 0.052687 -0.126765 -0.204354 0.024544 -0.025327 0.000509 0.179335 0.310475 -0.086026 -0.143319 -0.220285 -0.108553 -0.094027 0.067920 -0.071642 -0.138600 -0.203889 0.201527 0.262614 0.028954 -0.222601 -0.368628 0.095595 -0.260942 0.075156 0.296857 -0.187089 -0.104888 -0.089573 -0.154532 0.038592 0.015552 0.052813 0.390801 0.108548 -0.022582 0.072472 -0.255826 -0.237725 0.027956 0.045552 0.288123 0.161855 0.061884 -0.116368 0.039095 -0.082508 0.034652 -0.426983 0.346732 -0.415308 0.010972 -0.024363 -0.107587 0.037509 0.126044 0.018814 0.178671 -0.006577 0.115911 -0.078059 0.320548 -0.101711 -0.140157 0.080960 -0.050541 -0.020790 -0.314380 -0.006288 -0.051340 -0.018172 0.200481 0.101310 -0.016465 -0.089572 -0.295177 0.026520 0.284866 0.034246 0.243537 0.102678 0.311340 0.243546 0.042762 -0.144356 0.039397 0.018944 0.464387 -0.152513 
economic 0.463996 0.060876 0.363486 -0.592537 -0.066419 -0.140417 0.045252 -0.181675 -0.233272 0.034890 0.365116 0.304972 -0.565311 -0.106144 0.129181 0.304901 0.197343 0.407852 0.185781 0.195809 -0.371317 -0.317062 0.295794 -0.153235 -0.141896 -0.287855 -0.312423 -0.403131 0.074465 0.646500 0.013104 -0.137824 -0.982291 0.109977 -0.316091 0.130362 0.561599 0.046242 -0.297217 -0.157613 0.116441 0.249483 0.010143 -0.094318 0.363354 0.309379 -0.221788 0.352907 -0.337127 -0.495148 0.303110 -0.278620 0.465313 0.230159 0.180768 -0.221876 0.104736 -0.293786 -0.113534 -0.458051 0.581140 -0.443764 0.166360 -0.135573 -0.022290 0.203274 0.132970 -0.074026 0.057513 -0.121185 0.079913 -0.022716 0.353174 -0.447878 0.068139 -0.067134 -0.296228 0.034134 -0.499954 0.049275 -0.134604 0.045851 0.526167 0.165209 0.014799 0.118627 -0.236572 0.107234 0.678818 0.318096 0.039645 0.296226 0.368927 0.474962 0.135798 -0.027419 0.138553 -0.054352 0.601286 0.074635 
empire 0.181256 -0.363145 0.093833 -1.130715 -0.572131 -0.193382 -0.184685 0.063068 0.035437 0.611755 0.162876 0.258291 -0.320589 -0.907453 -0.286958 0.467573 0.205399 -0.096649 0.121994 0.236270 -0.080464 0.601720 -0.096815 0.636696 0.186123 0.284772 0.037703 -0.053144 0.298145 0.952974 0.385359 0.019435 -0.595433 0.079535 -0.352943 -0.116238 0.171619 0.089134 -0.329009 -0.793225 -0.040734 0.278555 -0.247821 -0.810833 0.059079 0.699057 0.454515 -0.256183 -0.762958 -0.734612 0.209740 -0.764326 0.524056 -0.290812 -0.353534 -0.248394 -0.053891 -0.087845 0.523415 -0.863050 0.058650 -0.195508 0.360399 0.149345 0.174769 0.408755 0.095979 0.094214 -0.036624 0.225302 0.191563 0.365013 -0.042264 -0.098424 0.386153 0.147086 -0.155197 -0.331739 0.043080 -0.568743 -0.208317 -0.227803 -0.078118 0.410576 -0.092679 0.212404 0.642880 -0.488762 0.243955 -0.269783 0.150261 -0.177844 -0.114311 -0.226649 0.520091 -0.290351 0.018009 0.435157 -0.330510 0.323345 
republics 0.519640 -0.378238 0.231107 -1.157578 -0.642436 -0.058198 -0.513474 0.058883 -0.125171 0.594489 0.448298 0.362574 -0.795363 -0.735090 -0.176691 0.569658 0.493163 -0.106458 -0.047222 0.494633 -0.154064 0.428160 0.333911 0.440888 0.076661 0.188470 -0.190032 -0.076485 0.033470 0.970636 0.264624 0.276298 -1.119820 0.125144 -0.351625 -0.106847 0.388728 0.096382 -0.207631 -0.790065 0.250282 0.518033 -0.376448 -0.775849 0.062085 0.775445 0.224856 -0.003859 -0.687386 -0.898556 0.244410 -0.983206 0.586828 -0.114077 -0.322695 -0.471878 0.212462 -0.319524 0.312369 -0.895445 0.122199 -0.040198 0.483301 0.129050 0.239997 0.409141 0.003959 -0.217047 -0.061445 0.347508 0.010768 0.468050 -0.356738 -0.401392 0.107063 0.123767 -0.382217 -0.172102 0.129483 -0.595161 -0.491881 -0.081938 -0.034263 0.503698 0.053437 0.414050 0.688369 -0.641280 0.756204 -0.103349 0.007498 -0.138140 -0.241352 0.020452 0.659777 0.018288 0.127879 0.412794 -0.531250 0.395812 
majority 0.184791 0.166275 0.117204 -0.910016 0.825093 -0.760718 0.491898 -0.304866 0.512125 -0.454202 0.187750 0.268304 -0.619070 -0.187959 0.186320 -0.218871 -0.562100 -0.037426 0.664935 -0.754428 0.248077 -1.076281 0.166383 -0.672550 0.656766 0.058450 -0.273469 -0.644475 0.545008 -0.060595 -0.032115 -1.151914 -0.583333 0.048214 -0.994385 0.086870 0.643270 -0.749681 0.504915 -0.277330 0.072747 -0.123363 -0.530493 1.287954 1.311620 -0.415072 -0.306332 0.350004 -0.668206 -1.229314 -0.774252 0.916542 0.465220 0.534874 -0.694982 -0.662986 0.007651 -0.295300 -0.558584 -0.758386 1.175798 -0.533216 -0.313586 0.155113 -0.350089 -0.520650 0.001558 -0.131953 0.488316 0.562450 0.589592 -0.200241 0.371422 -0.215308 -0.612959 -0.066901 0.529598 -0.075402 -0.327286 0.567668 -0.666854 -0.115333 0.904081 -0.211295 0.191170 -0.781361 -1.555307 -0.484430 1.454621 0.066177 0.757496 -0.090287 0.805092 0.755241 -0.201506 0.660340 0.183453 -0.614030 1.636406 -0.627995 
russia 0.114438 -0.361593 0.064286 -0.954475 -0.427318 -0.281182 -0.300695 0.019722 -0.016723 0.496132 0.235893 0.203995 -0.515936 -0.762764 -0.183957 0.579341 0.427286 -0.161139 -0.001067 0.126199 -0.083017 0.607176 0.104236 0.605602 0.148746 0.411891 0.039330 -0.048217 0.232934 0.866775 0.258167 0.060713 -0.690482 -0.051730 -0.418739 -0.061774 0.097999 0.280017 -0.306273 -0.801460 0.186815 0.233018 -0.231259 -0.784917 -0.061352 0.650735 0.221609 -0.042560 -0.638775 -0.803755 0.191876 -0.758145 0.564163 -0.167042 -0.463171 -0.377787 -0.063737 -0.209416 0.315145 -0.624568 0.042737 -0.155233 0.484199 0.184307 0.147747 0.272159 0.017178 0.171524 -0.014927 0.442522 0.102063 0.483433 -0.102976 -0.212091 0.406727 0.207852 -0.036334 -0.313714 0.102102 -0.411798 -0.252718 -0.214947 0.053463 0.392399 0.005097 0.058953 0.481238 -0.676845 0.451886 -0.204383 0.181897 -0.073163 -0.049742 -0.033035 0.458378 -0.129749 -0.081970 0.306015 -0.305917 0.395028 
social 0.107981 0.265401 0.304845 -0.440191 0.428537 -0.101754 0.317984 -0.209503 -0.293569 -0.157438 0.222260 0.134661 -0.129477 0.042638 0.366888 -0.089282 -0.101914 0.641911 0.553422 -0.099121 -0.438258 -0.863225 -0.002296 -0.496926 -0.215817 -0.413213 -0.467941 -0.596763 0.061634 0.404602 -0.072748 -0.268426 -0.749309 0.245636 -0.422469 0.452831 0.588010 -0.205786 -0.170417 0.394001 -0.229031 0.044555 0.190127 0.287414 0.673159 -0.033452 -0.246308 0.370240 -0.124412 -0.192905 0.195988 0.398966 0.526650 0.513175 0.467994 0.046885 0.091057 -0.219430 -0.304414 -0.408264 0.738258 -0.773498 -0.171837 -0.415471 -0.336210 0.036203 0.193489 0.026194 0.245899 -0.469254 0.277130 -0.484993 0.793544 -0.318641 -0.323466 0.139955 -0.239589 0.072444 -0.839984 0.347065 0.213977 0.151050 0.481157 -0.026833 -0.101162 -0.060558 -0.920042 0.623499 0.424159 0.409787 0.202336 0.415510 0.792724 0.576057 0.008407 -0.297367 0.168928 -0.284521 1.157017 -0.266028 
nagorno-karabakh -0.180448 -0.237663 -0.118921 -0.613960 0.040729 -0.173439 0.145502 -0.041350 0.020940 0.320524 0.205964 0.146250 -0.206860 -0.599900 -0.022416 0.219166 0.329953 -0.068529 0.223329 -0.026207 0.018722 0.239453 -0.114413 0.322824 0.013138 0.361122 0.105492 -0.072180 0.452619 0.412786 0.228610 -0.149161 -0.395110 0.054009 -0.375680 -0.009181 0.042437 -0.153157 -0.000259 -0.457841 -0.166697 0.174935 -0.038551 -0.484035 0.080136 0.179926 0.257898 0.037695 -0.609122 -0.562788 0.083186 -0.323734 0.196158 -0.029622 -0.330366 -0.337275 -0.016002 -0.112418 0.320016 -0.552268 0.047052 -0.278883 0.221871 0.043838 0.049605 0.064129 0.000391 0.080142 0.232126 0.279264 0.109574 0.246149 0.205934 -0.184493 -0.042974 0.218166 -0.020846 -0.148191 -0.199081 -0.394377 -0.049217 -0.169245 -0.035498 0.198180 -0.108797 -0.053622 0.063316 -0.562988 0.278999 -0.278647 0.194539 -0.110812 0.241544 -0.122929 0.358978 -0.108407 -0.341846 0.282378 -0.135068 0.131836 
secession 0.582567 0.195310 0.417015 -0.353264 0.113403 -0.042258 -0.109941 0.029028 -0.214227 -0.173170 0.234222 0.393490 -0.645867 0.310667 0.164656 0.194210 -0.096947 0.375029 0.143361 0.040548 -0.525504 -0.708339 0.290898 -0.447114 -0.150684 -0.304120 -0.488601 -0.398336 -0.286998 0.416123 -0.007389 -0.037172 -1.002978 0.074704 -0.134683 0.285389 0.741780 0.058932 -0.110896 0.016390 0.346620 0.144786 -0.111389 0.197262 0.346974 0.044655 -0.349479 0.351603 -0.075765 -0.399647 0.161463 -0.225875 0.399279 0.090148 0.152179 -0.087913 0.296728 -0.194116 -0.350510 -0.340161 0.580604 -0.157466 0.043836 -0.190450 0.044907 0.103749 0.040855 -0.339646 -0.097971 0.054163 0.268757 -0.192760 0.013553 -0.503508 -0.020872 -0.278318 -0.137681 0.197633 -0.216857 0.117547 -0.257393 0.069057 0.517958 0.165299 0.152723 0.091552 -0.460910 0.290901 0.842170 0.456936 -0.062738 0.047959 0.388305 0.461371 0.028110 0.211247 0.393187 -0.304200 0.736596 0.000144 
military 0.106613 -0.243075 0.048191 -0.701173 -0.193751 -0.101962 0.095939 -0.046314 -0.110044 0.379788 0.263827 0.198678 -0.347076 -0.620996 -0.065124 0.434743 0.441162 0.044461 0.145272 0.201419 -0.064469 0.341131 0.050841 0.334664 -0.044614 0.230204 0.125308 -0.037136 0.352950 0.594377 0.233078 -0.026827 -0.557200 0.138030 -0.246519 -0.136931 0.235510 -0.061499 -0.114458 -0.582432 -0.058571 0.420082 -0.098833 -0.667195 0.063179 0.373112 0.274454 0.065351 -0.679534 -0.606280 0.231874 -0.702604 0.245846 -0.029709 -0.134671 -0.337671 0.072842 -0.191335 0.400940 -0.585167 0.047380 -0.225647 0.363369 0.063551 0.151906 0.284287 0.087020 -0.043522 0.109451 0.151651 -0.054686 0.345633 0.121957 -0.261644 0.115447 0.188241 -0.267110 -0.128021 -0.188617 -0.546126 -0.110060 -0.215303 -0.016249 0.262858 -0.005929 0.173139 0.352022 -0.573435 0.330677 -0.186227 0.076458 0.016710 0.070064 -0.161568 0.390047 -0.068118 -0.296970 0.363624 -0.267341 0.326050 
south -0.082757 -0.076070 -0.107514 -0.808157 0.019454 -0.421086 -0.200844 -0.025963 0.119341 0.150532 0.183576 0.181539 -0.462162 -0.424556 0.036571 0.458575 0.186488 -0.142212 0.075384 -0.320730 -0.074241 0.109200 0.078583 0.338011 0.224169 0.458973 -0.160583 -0.455410 0.186893 0.681288 0.099939 -0.235545 -0.600791 -0.246315 -0.582844 0.198839 0.082202 0.452194 -0.171893 -0.588948 0.424659 -0.181613 -0.253960 -0.214018 0.106485 0.271738 -0.111779 0.055246 -0.465059 -0.869367 0.010332 -0.086930 0.719757 0.008649 -0.586789 -0.361551 -0.119889 -0.012944 -0.040798 -0.443049 0.273130 -0.278839 0.335689 0.166141 -0.055372 -0.147025 -0.091496 0.369906 0.038190 0.591987 0.396981 0.288503 0.000506 -0.138335 0.426388 0.237210 0.387764 -0.270138 0.190748 0.123092 -0.228998 -0.230822 0.394407 0.237256 -0.016915 -0.385725 -0.295239 -0.521676 0.649441 -0.053578 0.351205 -0.173942 0.479062 0.334810 0.170201 -0.139029 0.074109 -0.175805 0.410174 0.179924 
north -0.212341 -0.105763 -0.151695 -1.011409 0.111232 -0.494099 -0.043040 -0.070287 0.116200 0.187852 0.208705 0.177355 -0.369554 -0.616082 0.085091 0.450782 0.200308 -0.075467 0.243732 -0.421974 -0.105172 0.107337 -0.055080 0.391917 0.269941 0.522726 -0.138679 -0.526819 0.382140 0.785193 0.170426 -0.352734 -0.640715 -0.227483 -0.752926 0.263981 0.080286 0.396628 -0.199129 -0.611906 0.263033 -0.207593 -0.193035 -0.288106 0.254866 0.278175 -0.026610 0.040042 -0.583812 -0.980633 0.022779 -0.007488 0.830276 0.060007 -0.627417 -0.357586 -0.173213 -0.029753 0.040926 -0.607761 0.321752 -0.505145 0.329902 0.134776 -0.136937 -0.151019 -0.080360 0.482918 0.150278 0.571582 0.500967 0.237812 0.231622 -0.104694 0.404959 0.383353 0.380926 -0.361289 -0.005430 0.110263 -0.157739 -0.277527 0.429374 0.247333 -0.105319 -0.468669 -0.419614 -0.518897 0.613485 -0.086324 0.476419 -0.130299 0.662933 0.327719 0.226606 -0.286414 -0.000159 -0.142678 0.558216 0.133440 
organization 0.240387 0.091230 0.151686 -0.417008 0.052108 -0.129412 0.213309 -0.069092 -0.182826 -0.022546 0.250929 0.190127 -0.367168 -0.158118 0.172366 0.203614 0.144058 0.278783 0.224569 0.056517 -0.104133 -0.299783 0.194102 -0.124560 -0.061564 -0.128213 -0.234921 -0.320963 0.151209 0.491107 0.055745 -0.202015 -0.667932 0.088619 -0.353040 0.041447 0.464789 0.032745 -0.102315 -0.195152 0.027454 0.276025 0.005176 -0.060355 0.348421 0.146591 -0.093538 0.239586 -0.346527 -0.498038 0.174792 -0.185739 0.306109 0.193064 0.094747 -0.220645 0.060839 -0.223206 -0.047474 -0.358379 0.425272 -0.424814 0.105408 -0.080197 -0.034650 0.119604 0.065526 -0.032149 0.018283 -0.107348 0.066218 0.022754 0.311809 -0.344658 -0.070806 0.027523 -0.166505 0.043335 -0.357357 0.029310 -0.123012 -0.044194 0.407426 0.145393 0.050533 -0.033722 -0.210371 -0.083103 0.518650 0.191400 0.134311 0.190742 0.355635 0.271896 0.064266 -0.011985 0.028508 -0.104536 0.482154 0.107428 
often 0.146371 0.128502 0.092577 -0.623371 0.130829 -0.274179 0.261212 -0.103645 -0.001115 -0.031763 0.237238 0.173959 -0.342110 -0.192076 0.169522 0.089697 0.022808 0.304834 0.386955 -0.122183 -0.176714 -0.450337 0.055515 -0.198010 0.054754 -0.076318 -0.316932 -0.404816 0.258213 0.464786 0.084716 -0.346351 -0.674310 0.086949 -0.436337 0.104468 0.496142 -0.081771 -0.113484 -0.161158 -0.097148 0.080725 -0.035100 0.066938 0.562161 0.091939 -0.083226 0.218620 -0.406128 -0.603789 0.051233 0.030860 0.495893 0.250359 0.030846 -0.218663 0.040973 -0.140593 -0.029166 -0.578837 0.617559 -0.641897 0.064619 -0.035599 -0.121004 0.037828 0.109834 -0.024439 0.159307 -0.041039 0.215044 -0.147088 0.419676 -0.284269 -0.206894 0.107587 -0.058468 0.028880 -0.435918 0.076749 -0.215531 -0.002392 0.471565 0.141304 0.080616 -0.165856 -0.487961 -0.007090 0.580991 0.134035 0.314793 0.138381 0.541215 0.363816 0.066107 -0.088997 0.083800 -0.085768 0.781762 -0.067284 
independence 0.140399 -0.229830 0.025046 -0.587949 -0.350359 -0.130767 -0.017566 0.081798 -0.060316 0.348306 0.180099 0.198910 -0.428769 -0.420260 -0.152864 0.374720 0.338705 -0.039179 -0.000561 0.163275 0.030136 0.362191 0.109045 0.334758 0.017741 0.244086 0.032549 0.049354 0.155709 0.562033 0.234878 0.047434 -0.496526 0.011603 -0.187278 -0.164226 0.239373 0.099651 -0.180297 -0.610843 0.059528 0.304428 -0.125170 -0.586623 -0.015057 0.364134 0.175348 -0.015828 -0.550398 -0.599243 0.146922 -0.736149 0.171625 -0.162610 -0.236402 -0.314252 0.029189 -0.114901 0.333655 -0.465180 0.075490 -0.107464 0.405480 0.148006 0.232221 0.274711 0.016159 -0.075430 -0.036731 0.187359 -0.046518 0.348515 -0.114583 -0.244656 0.149721 0.020632 -0.112501 -0.051193 0.040290 -0.426115 -0.268085 -0.148800 0.076122 0.287094 0.063829 0.114331 0.466827 -0.520875 0.364833 -0.111670 0.082202 -0.105523 -0.108155 -0.144370 0.307743 0.062825 -0.115023 0.276788 -0.317031 0.318598 
power 0.200866 -0.198717 0.127614 -0.650805 -0.237931 -0.098456 0.024074 0.012285 -0.090242 0.307197 0.221219 0.198973 -0.354752 -0.455362 -0.072216 0.271733 0.217817 0.103717 0.157677 0.173364 -0.110955 0.155239 0.037285 0.200530 -0.029701 0.137285 -0.033229 -0.045152 0.155841 0.553062 0.214195 -0.020316 -0.591580 0.112062 -0.200445 -0.054429 0.328229 -0.077521 -0.131781 -0.414472 -0.071046 0.367832 -0.108398 -0.461679 0.183671 0.346779 0.177920 0.014458 -0.506837 -0.507540 0.158743 -0.533600 0.261410 -0.009210 -0.095078 -0.234752 0.094995 -0.147867 0.267751 -0.555060 0.189717 -0.224622 0.266684 0.028566 0.113270 0.277360 0.071243 -0.127428 0.061207 0.051092 0.033944 0.169397 0.036419 -0.263336 -0.008365 0.038046 -0.238485 -0.058703 -0.152983 -0.392324 -0.201046 -0.107004 0.025958 0.215652 0.018825 0.172518 0.290675 -0.333888 0.365093 -0.074969 0.118267 -0.009219 0.006202 -0.071277 0.338542 -0.013903 -0.053506 0.253932 -0.089867 0.193762 
part 0.035147 -0.004067 -0.006799 -0.452659 -0.035148 -0.190099 0.039768 -0.021040 0.021749 0.069791 0.156982 0.113416 -0.251529 -0.304056 0.076013 0.144368 0.036038 0.066407 0.171990 -0.070680 0.009576 -0.070224 0.031899 0.050627 0.069346 0.151780 -0.080743 -0.168496 0.198134 0.385656 0.146620 -0.197229 -0.403639 -0.047828 -0.348338 0.013192 0.188380 -0.036958 -0.049788 -0.259485 -0.028597 0.040743 -0.121040 -0.132308 0.230665 0.127417 0.090541 0.107108 -0.364729 -0.505690 0.011086 -0.079521 0.261737 0.026988 -0.190867 -0.244508 0.003069 -0.118388 0.052548 -0.374401 0.284415 -0.294442 0.122901 0.029579 0.008593 0.008546 0.024904 0.015222 0.079324 0.140524 0.141657 0.044236 0.158642 -0.170672 -0.016103 0.058855 0.049955 -0.045575 -0.134699 -0.069007 -0.159993 -0.054077 0.211040 0.117833 0.015548 -0.148186 -0.143610 -0.257134 0.360980 -0.081195 0.168934 -0.016144 0.248302 0.074165 0.121543 -0.003977 -0.027462 -0.002866 0.277367 0.061694 
countries 0.030590 -0.118846 -0.027027 -0.795597 -0.104816 -0.272131 0.052461 -0.096579 -0.024894 0.217676 0.270185 0.127302 -0.442920 -0.543276 0.077286 0.346484 0.300500 0.055747 0.220510 -0.052437 -0.014472 0.057313 0.104985 0.241276 0.111077 0.232557 -0.118033 -0.256060 0.346100 0.693493 0.140094 -0.178910 -0.667978 0.008393 -0.511886 0.028307 0.264124 0.075522 -0.176567 -0.523464 0.026294 0.164491 -0.089396 -0.374410 0.280142 0.332157 0.092107 0.160800 -0.627985 -0.769713 0.128563 -0.351238 0.478237 0.067592 -0.230434 -0.392186 0.003221 -0.199534 0.154663 -0.609520 0.327314 -0.479189 0.289455 0.073852 -0.002207 0.107648 0.070007 0.115179 0.095647 0.219716 0.121834 0.234085 0.256445 -0.266774 0.075697 0.220919 -0.008852 -0.149326 -0.229111 -0.198201 -0.197728 -0.132013 0.295266 0.274125 0.034843 -0.124075 -0.059308 -0.475541 0.546952 -0.099586 0.291813 0.067201 0.359923 0.172140 0.252791 -0.109553 -0.131435 0.129935 0.234909 0.210936 
european -0.050999 -0.285513 -0.031318 -0.684598 -0.205240 -0.219417 -0.059135 -0.015397 -0.052069 0.346463 0.230871 0.104442 -0.324687 -0.591901 -0.059463 0.395264 0.362649 -0.048107 0.106351 -0.022220 -0.056778 0.348931 -0.015073 0.453859 0.102789 0.365647 0.040059 -0.030457 0.288095 0.601599 0.180608 -0.020738 -0.497071 -0.051330 -0.343503 -0.013698 0.107825 0.141796 -0.230513 -0.523259 0.009737 0.154499 -0.102463 -0.564253 0.049688 0.407186 0.224227 -0.021801 -0.561318 -0.611410 0.136395 -0.529204 0.332312 -0.068305 -0.304263 -0.359317 -0.010785 -0.122640 0.265023 -0.495641 0.024561 -0.253521 0.341315 0.074522 0.086093 0.150569 0.017814 0.133857 0.117605 0.323914 0.086962 0.332949 0.122213 -0.231945 0.181477 0.182129 -0.001839 -0.221638 -0.023471 -0.355676 -0.106678 -0.142487 0.042824 0.227133 -0.035251 0.004081 0.245758 -0.486661 0.300025 -0.171819 0.207212 -0.019755 0.107849 -0.066040 0.354110 -0.124059 -0.223568 0.267728 -0.186677 0.299110 
number -0.033590 -0.063253 -0.002076 -0.772804 0.055146 -0.286723 0.124915 -0.104564 0.020155 0.150748 0.214015 0.115945 -0.304589 -0.466867 0.107991 0.140327 0.135285 0.117702 0.313568 -0.130284 -0.057077 -0.130275 0.033257 0.075913 0.110261 0.144143 -0.148345 -0.315408 0.320022 0.485448 0.122905 -0.226909 -0.524114 0.050618 -0.475359 0.104578 0.245538 -0.051803 -0.085750 -0.308029 -0.059082 0.078779 -0.100822 -0.116188 0.392609 0.219667 0.056477 0.109590 -0.505683 -0.602810 0.051910 -0.052579 0.473256 0.197634 -0.163962 -0.248518 0.024991 -0.173371 0.078465 -0.580302 0.389084 -0.492435 0.136222 -0.015818 -0.109439 0.031884 0.099256 0.108230 0.172624 0.145657 0.199587 0.073902 0.344534 -0.183051 -0.049889 0.215988 -0.018432 -0.136090 -0.280770 -0.071478 -0.118374 -0.106064 0.246287 0.182419 -0.015885 -0.173944 -0.292370 -0.272064 0.473561 -0.062260 0.314802 0.033959 0.432758 0.210213 0.171814 -0.135545 -0.034924 0.042351 0.422688 0.006427 
years -0.417723 -0.212266 -0.165863 -0.741096 0.045001 -0.295013 0.235813 -0.133960 0.080256 0.275893 0.034885 -0.108910 0.051917 -0.619870 -0.042315 0.113742 0.234555 0.046177 0.328410 -0.195118 0.013698 0.204615 -0.299251 0.385130 0.127513 0.356212 0.103214 -0.186817 0.439440 0.359695 0.113926 -0.226344 -0.052500 0.035645 -0.413200 0.105937 -0.074595 -0.028750 -0.157902 -0.314722 -0.222878 -0.108493 0.026679 -0.363013 0.228941 0.244209 0.128741 -0.059679 -0.483068 -0.317824 0.069901 0.033803 0.390895 0.118778 -0.148240 -0.165405 -0.145663 0.011984 0.248319 -0.465591 0.088128 -0.529633 0.150776 0.036939 -0.097735 -0.005260 0.077434 0.398358 0.276041 0.142129 0.111582 0.126818 0.430360 0.104762 0.058515 0.422797 0.072665 -0.324971 -0.276547 -0.134307 0.215167 -0.132538 -0.010147 0.117363 -0.154909 -0.239056 -0.147404 -0.271865 0.021926 -0.179710 0.349677 0.040456 0.407844 0.081101 0.199890 -0.440908 -0.220610 0.177665 0.142610 0.031447 
persian -0.174077 -0.125936 -0.070195 -0.574078 0.051858 -0.170295 0.164651 -0.027613 -0.077704 0.198457 0.157067 0.042114 -0.084315 -0.503035 0.114438 0.148242 0.104413 0.140915 0.333751 -0.103654 -0.047260 -0.057375 -0.107695 0.179570 0.051566 0.211369 -0.084222 -0.158866 0.314633 0.463198 0.169821 -0.131739 -0.397099 0.072312 -0.358248 0.088253 0.163290 -0.099341 -0.048151 -0.232403 -0.257594 0.168873 -0.022981 -0.299608 0.278051 0.169726 0.221698 0.096573 -0.471337 -0.473575 0.081900 -0.136289 0.272299 0.091576 -0.085957 -0.170732 -0.007853 -0.141688 0.203004 -0.523219 0.209188 -0.446802 0.137152 -0.039625 -0.087072 0.075363 0.079459 0.113389 0.186205 0.020067 0.140129 0.053016 0.321818 -0.194979 -0.164681 0.245860 -0.030321 -0.118548 -0.316760 -0.261264 -0.019659 -0.115272 0.036606 0.130725 -0.028380 -0.082072 -0.150245 -0.277105 0.212545 -0.173851 0.260630 0.050365 0.364595 -0.038426 0.261941 -0.186863 -0.213559 0.161450 0.206297 0.105779 
revolution 0.015511 -0.241205 0.109624 -0.715796 -0.270912 -0.131825 0.030429 0.041311 -0.116849 0.408515 0.145647 0.068454 -0.164099 -0.576996 -0.099107 0.192715 0.180199 0.129321 0.230568 0.133170 -0.122298 0.213580 -0.075526 0.348304 0.020603 0.155520 -0.013670 -0.009594 0.173698 0.587443 0.217090 0.055488 -0.446224 0.103761 -0.213560 -0.012611 0.216857 -0.056640 -0.188193 -0.355743 -0.209486 0.273721 -0.108139 -0.541454 0.172577 0.429531 0.237493 -0.066387 -0.472129 -0.415516 0.191636 -0.523954 0.301188 0.050971 -0.026947 -0.144662 0.016357 -0.155118 0.329751 -0.551169 0.145872 -0.276442 0.233606 0.021236 0.085042 0.266629 0.127572 0.044955 0.145882 -0.014607 0.012243 0.165444 0.140197 -0.176920 0.012620 0.161933 -0.218427 -0.152411 -0.205252 -0.404972 0.010528 -0.118698 -0.096904 0.164297 -0.057672 0.178200 0.250783 -0.278770 0.175436 -0.136201 0.152022 0.019246 0.034860 -0.101900 0.394896 -0.211330 -0.074153 0.316848 -0.153563 0.191751 
used -0.007294 0.053358 -0.074382 -0.612020 0.084263 -0.267907 0.157747 -0.082616 0.061558 0.037439 0.193251 0.069491 -0.250063 -0.349874 0.178961 0.132394 0.047711 0.143896 0.352842 -0.187621 0.033462 -0.242112 0.054604 -0.008648 0.182724 0.134242 -0.247934 -0.293269 0.312528 0.442875 0.083781 -0.270653 -0.519369 -0.007769 -0.484278 0.043296 0.306229 -0.036809 0.039573 -0.278695 -0.048380 0.109148 -0.139202 0.011094 0.484740 0.079967 0.014396 0.194264 -0.485484 -0.723613 -0.054762 0.037698 0.373233 0.203097 -0.181290 -0.313608 -0.022559 -0.174779 0.018430 -0.500871 0.431315 -0.484234 0.091556 0.060976 -0.122918 -0.049736 0.046017 0.026927 0.124018 0.122393 0.215191 0.056585 0.229470 -0.237794 -0.231119 0.150276 0.071530 -0.084984 -0.231735 -0.058644 -0.223744 -0.061775 0.340998 0.123593 0.090514 -0.190521 -0.415355 -0.331203 0.527438 -0.068891 0.355386 0.065907 0.463096 0.215182 0.099544 -0.005189 -0.083844 -0.033606 0.561851 0.013557 
official 0.074787 0.063697 -0.057254 -0.668513 0.076763 -0.279779 0.264788 0.055728 -0.011123 0.013722 0.208221 0.142111 -0.252848 -0.296192 0.259894 0.107123 -0.116046 0.321862 0.474504 -0.117706 0.032170 -0.425604 0.046170 -0.175049 0.136829 0.054849 -0.379755 -0.275353 0.227221 0.419282 0.155614 -0.296452 -0.673536 0.072513 -0.503124 0.019844 0.520855 -0.160996 -0.018483 -0.199901 -0.209132 0.270539 -0.122676 0.090182 0.579316 0.048581 0.031523 0.193329 -0.478086 -0.744600 -0.099982 0.008260 0.344888 0.214953 -0.083134 -0.234062 0.036665 -0.237656 0.080038 -0.659140 0.510462 -0.528640 0.068773 -0.012769 -0.147540 0.011551 0.077208 -0.133919 0.128039 -0.023393 0.207485 -0.142188 0.276708 -0.293632 -0.431356 0.041483 -0.009059 0.072364 -0.390583 -0.134801 -0.303111 -0.063820 0.298924 0.120606 0.110661 -0.147439 -0.446570 -0.235384 0.521632 -0.042585 0.436346 0.075507 0.464346 0.096147 0.109876 0.081847 0.065069 -0.018957 0.661064 -0.043269 
when -0.005979 -0.112601 -0.025807 -0.685359 0.014565 -0.296244 0.142685 -0.060428 0.063164 0.138937 0.154221 0.097307 -0.288426 -0.428145 0.010185 0.166073 0.144151 0.038648 0.257285 -0.088310 0.025399 -0.005420 0.000593 0.115231 0.157325 0.170560 -0.091526 -0.191968 0.334836 0.458595 0.135678 -0.213270 -0.476506 0.034464 -0.407366 -0.027891 0.231728 -0.083586 -0.061804 -0.394234 -0.087944 0.127397 -0.114193 -0.164777 0.330640 0.195750 0.085962 0.071784 -0.519571 -0.584545 0.012209 -0.157914 0.338508 0.096425 -0.195727 -0.290016 -0.039309 -0.128951 0.137122 -0.567502 0.287369 -0.391357 0.171687 0.056543 -0.011426 0.046955 0.056670 0.066837 0.145903 0.149458 0.128392 0.118622 0.207808 -0.177053 -0.090720 0.126801 0.023219 -0.115149 -0.182722 -0.181361 -0.210941 -0.091920 0.203750 0.159321 0.030628 -0.134746 -0.149858 -0.345066 0.436639 -0.106973 0.285465 -0.000367 0.294352 0.122990 0.177216 -0.051751 -0.085083 0.103538 0.262443 0.033194 
united_states 0.246630 0.009257 0.140257 -0.578000 -0.095942 -0.227965 -0.119424 -0.042246 -0.022399 0.097331 0.238673 0.235662 -0.441160 -0.146017 0.020419 0.279598 0.127168 0.096325 0.093474 -0.017868 -0.190830 -0.111868 0.134509 0.035305 0.081076 0.062935 -0.211147 -0.257955 0.012958 0.532354 0.074493 -0.134407 -0.659637 -0.070848 -0.282141 0.101556 0.331017 0.156127 -0.140064 -0.313686 0.234158 0.050038 -0.206279 -0.092472 0.226220 0.202864 -0.101348 0.110931 -0.322490 -0.603382 0.060276 -0.216414 0.477309 0.022202 -0.189116 -0.239756 0.086390 -0.092910 -0.022306 -0.414505 0.329297 -0.232712 0.170129 0.022597 0.017587 0.029262 0.021792 -0.042229 0.010797 0.237033 0.198407 0.088847 0.024511 -0.274187 0.116783 0.001252 0.028539 -0.051382 -0.040689 0.027487 -0.248421 -0.066533 0.323260 0.198114 0.085009 -0.087582 -0.143409 -0.207905 0.600284 0.101548 0.145808 -0.064185 0.256586 0.267685 0.130067 0.008265 0.138274 -0.035919 0.346706 0.128312 
century -0.257765 -0.158852 -0.086581 -0.632723 -0.003123 -0.179744 0.213387 -0.032110 0.011876 0.275390 0.079906 -0.004537 0.037607 -0.619723 0.004125 0.075184 0.090044 0.080658 0.361564 -0.084918 0.006298 0.096109 -0.240173 0.299948 0.055066 0.248053 0.025370 -0.141514 0.419753 0.411647 0.183876 -0.184142 -0.197632 0.067312 -0.369235 0.048296 0.032720 -0.149770 -0.058061 -0.262731 -0.303818 0.077285 -0.015957 -0.357342 0.261448 0.202839 0.287863 -0.049039 -0.501075 -0.406368 0.069487 -0.077538 0.272595 0.089441 -0.104819 -0.118089 -0.082001 -0.087632 0.290465 -0.540935 0.111998 -0.434535 0.109572 -0.008315 -0.061151 0.067339 0.094363 0.204021 0.251242 0.036788 0.133121 0.081773 0.335801 -0.025829 -0.067324 0.293474 -0.021811 -0.235473 -0.305586 -0.285292 0.119898 -0.123274 -0.065171 0.112607 -0.121544 -0.084295 -0.106102 -0.301033 0.070971 -0.233116 0.250099 0.009222 0.305688 -0.089075 0.281283 -0.327369 -0.204210 0.203320 0.073400 0.032971 
islamic -0.082717 -0.106714 0.052993 -0.621888 -0.029869 -0.139379 0.140904 -0.048578 -0.145411 0.230347 0.186656 0.081350 -0.139597 -0.538169 0.077925 0.160759 0.145361 0.185972 0.323293 -0.052349 -0.125221 -0.060896 -0.067251 0.207256 0.003071 0.151429 -0.082265 -0.174980 0.271900 0.559333 0.172258 -0.106808 -0.497787 0.086874 -0.355901 0.104748 0.229536 -0.076347 -0.091181 -0.237133 -0.222309 0.184104 -0.040687 -0.366548 0.305042 0.235146 0.207290 0.077019 -0.456718 -0.500607 0.141424 -0.238624 0.336939 0.132027 -0.046249 -0.176620 0.033268 -0.167325 0.194215 -0.525655 0.263108 -0.440719 0.133434 -0.080370 -0.025803 0.126329 0.098034 0.086652 0.188267 -0.011364 0.127249 0.068620 0.336011 -0.237764 -0.079571 0.204636 -0.109430 -0.143523 -0.342081 -0.237612 0.026958 -0.093504 0.042973 0.136086 -0.046803 -0.028657 -0.114745 -0.237939 0.285931 -0.112651 0.204285 0.097575 0.342923 0.027439 0.282338 -0.247290 -0.155585 0.150139 0.184281 0.165665 
early -0.281302 -0.127098 -0.003195 -1.021640 0.061702 -0.293976 0.239761 -0.142586 -0.054160 0.281850 0.211891 0.042633 -0.102286 -0.702679 0.137472 0.154726 0.214862 0.261914 0.536037 -0.132828 -0.136804 -0.111037 -0.208757 0.230945 0.035043 0.233180 -0.135199 -0.387581 0.466736 0.680716 0.145580 -0.296269 -0.507906 0.097560 -0.622323 0.224950 0.200957 -0.097995 -0.177093 -0.279054 -0.293941 0.019789 -0.028095 -0.309881 0.516943 0.315302 0.168524 0.084718 -0.618628 -0.628190 0.116725 0.083595 0.663650 0.329656 -0.069222 -0.235296 -0.052434 -0.152651 0.184642 -0.764712 0.373901 -0.760042 0.100534 -0.061037 -0.231681 0.049643 0.152711 0.290038 0.339678 0.000823 0.238912 -0.021324 0.620801 -0.085930 -0.118396 0.446936 -0.081455 -0.284053 -0.533406 -0.118501 0.197628 -0.072404 0.141259 0.140001 -0.182888 -0.178438 -0.399638 -0.196711 0.302546 -0.088949 0.381790 0.109760 0.664302 0.202541 0.327671 -0.471040 -0.136496 0.113654 0.450444 0.010133 
language -0.545514 -0.224128 -0.297707 -0.566713 0.238188 -0.222463 0.440014 0.004298 -0.041542 0.257958 0.061039 -0.087758 0.224480 -0.613576 0.259055 -0.010711 0.090079 0.219013 0.569967 -0.118623 0.092808 0.016975 -0.295647 0.180584 0.054953 0.244911 -0.006116 -0.065755 0.497509 0.290566 0.179218 -0.189272 -0.147996 0.155774 -0.418962 0.080786 0.015291 -0.294099 0.024286 -0.066972 -0.641397 0.191436 0.184548 -0.268571 0.295396 0.074497 0.330733 0.000972 -0.506595 -0.272867 0.043097 0.040004 0.109684 0.186015 -0.049232 -0.051033 -0.115547 -0.175663 0.369751 -0.571550 0.092382 -0.612724 0.061586 -0.114345 -0.278492 0.012032 0.133524 0.233470 0.352179 -0.134463 0.120454 -0.021036 0.611306 -0.056534 -0.449769 0.431520 -0.038332 -0.101460 -0.597505 -0.390424 0.226311 -0.157265 -0.220150 0.058247 -0.143026 -0.069987 -0.291675 -0.284087 -0.130750 -0.337007 0.455284 0.119217 0.527856 -0.254163 0.250226 -0.320265 -0.414960 0.272673 0.208500 0.011529 
culture -0.574587 -0.438454 -0.171894 -0.626266 0.203032 -0.218845 0.455377 0.014530 -0.195381 0.362001 0.119424 -0.143227 0.061522 -0.805139 0.159456 0.105084 0.224554 0.185082 0.529754 -0.023597 0.021926 0.247708 -0.352703 0.325387 -0.036002 0.360957 0.100385 0.011796 0.532851 0.452200 0.335615 -0.130395 -0.208648 0.272061 -0.489942 0.050766 0.013730 -0.265404 -0.067345 -0.230368 -0.724112 0.303362 0.217817 -0.596026 0.203818 0.297671 0.436993 0.057517 -0.606942 -0.268556 0.217527 -0.263411 0.148863 0.163598 -0.020673 -0.112578 -0.073611 -0.290775 0.403478 -0.680014 -0.004364 -0.696202 0.163501 -0.109899 -0.165678 0.161112 0.123832 0.269829 0.411612 -0.091503 -0.033163 0.138589 0.643273 -0.131573 -0.336924 0.511137 -0.208406 -0.165170 -0.661564 -0.662794 0.287675 -0.166097 -0.315544 0.099145 -0.146604 -0.010966 -0.047654 -0.424380 -0.101003 -0.374511 0.362477 0.155763 0.326807 -0.283383 0.478211 -0.384422 -0.518876 0.392088 -0.053321 0.093661 
armenia -0.093910 -0.308660 -0.006248 -0.720339 -0.144723 -0.149297 -0.113490 -0.002472 -0.026410 0.461361 0.186421 0.203026 -0.230942 -0.780316 -0.112663 0.423014 0.404375 -0.179643 0.125139 0.054807 -0.112245 0.437921 -0.082118 0.521049 0.021563 0.447002 0.142753 -0.066670 0.430458 0.631481 0.223776 -0.024454 -0.526455 0.037025 -0.345392 0.045785 0.034432 0.026260 -0.066115 -0.571097 -0.051034 0.190953 -0.107514 -0.778901 -0.020162 0.376010 0.389916 -0.031894 -0.685690 -0.629788 0.147535 -0.565639 0.368181 -0.153729 -0.413152 -0.341528 -0.003809 -0.129758 0.356781 -0.608775 -0.112352 -0.150520 0.310507 0.012821 0.108297 0.202338 -0.011936 0.092783 0.142943 0.374108 0.121361 0.353990 0.046978 -0.171371 0.162843 0.220045 -0.068964 -0.265727 -0.054733 -0.466609 -0.057466 -0.184926 -0.116529 0.215863 -0.116423 0.067704 0.295664 -0.579054 0.251895 -0.269235 0.064966 -0.091278 0.123329 -0.186024 0.524703 -0.196696 -0.313716 0.330657 -0.370000 0.278784 
among -0.073103 -0.002975 0.021261 -0.675557 0.156056 -0.264304 0.224007 -0.129940 -0.022802 0.093279 0.178958 0.108131 -0.159610 -0.374474 0.158688 0.093060 0.094686 0.248370 0.406880 -0.155954 -0.142379 -0.263138 -0.075709 0.026138 0.036269 0.080146 -0.168639 -0.355312 0.323072 0.480988 0.080339 -0.305351 -0.516876 0.069687 -0.465681 0.176899 0.285735 -0.101792 -0.116910 -0.153079 -0.175430 0.038313 -0.006263 -0.067681 0.472951 0.135410 0.022652 0.141116 -0.440530 -0.490394 0.076537 0.098173 0.459035 0.251370 -0.028490 -0.188862 -0.014281 -0.113234 0.030283 -0.551257 0.430768 -0.602244 0.052416 -0.067165 -0.168729 -0.001834 0.106361 0.122901 0.239177 0.007408 0.226258 -0.073358 0.494662 -0.158361 -0.130204 0.219681 -0.037518 -0.090099 -0.446460 0.014352 0.008660 -0.054038 0.281201 0.101848 -0.061931 -0.182989 -0.429700 -0.061228 0.368527 0.004484 0.310353 0.127455 0.569087 0.238479 0.145665 -0.237948 -0.040220 0.001978 0.575522 -0.049613 
group 0.404626 0.058551 0.258857 -0.676157 0.160802 -0.304690 0.171675 -0.061161 -0.017094 -0.044585 0.350469 0.305514 -0.477982 -0.063675 0.156741 0.074595 -0.041912 0.384607 0.389820 -0.042467 -0.351766 -0.615018 0.103407 -0.388499 -0.011923 -0.159857 -0.404007 -0.356566 0.073485 0.475025 0.068379 -0.303091 -0.980573 0.076856 -0.314998 0.119718 0.729502 -0.209676 -0.149703 -0.097079 0.000532 0.169382 -0.151931 0.236254 0.610239 0.119997 -0.150791 0.231653 -0.373164 -0.598560 0.111101 -0.066433 0.429060 0.184987 0.035738 -0.339818 0.168657 -0.145328 -0.104212 -0.668776 0.719896 -0.474670 -0.007771 -0.115067 -0.052462 0.066764 0.071226 -0.292549 0.177222 0.067824 0.259285 -0.197449 0.339533 -0.475212 -0.216939 -0.182706 -0.110590 0.191657 -0.436018 0.028515 -0.340059 0.054408 0.553488 0.137724 0.061253 -0.020086 -0.511746 0.119463 0.784941 0.228194 0.224935 0.105370 0.459947 0.401411 0.067412 0.123309 0.229792 -0.104854 0.871406 -0.112952 
western -0.132784 -0.102825 -0.087665 -0.599780 -0.081200 -0.242188 -0.059506 -0.040637 0.029379 0.228854 0.114531 0.055782 -0.247232 -0.470139 0.020775 0.310318 0.205772 -0.053057 0.106947 -0.151108 0.003887 0.164526 -0.012989 0.337540 0.117139 0.315623 -0.036195 -0.200202 0.247894 0.514660 0.142607 -0.094115 -0.343984 -0.086940 -0.381305 0.069647 -0.003543 0.199159 -0.159951 -0.414426 0.052141 -0.054185 -0.099284 -0.364113 0.090576 0.290680 0.101465 0.026787 -0.415909 -0.558966 0.094879 -0.186087 0.418531 -0.035400 -0.315607 -0.248147 -0.085796 -0.056693 0.141887 -0.382448 0.136209 -0.304005 0.244273 0.057263 0.007751 0.027376 0.022685 0.242429 0.061160 0.259916 0.173451 0.213100 0.163835 -0.106259 0.218817 0.241457 0.138045 -0.232697 -0.019147 -0.115947 -0.079964 -0.156561 0.170939 0.182101 -0.039557 -0.193661 -0.030407 -0.403245 0.271009 -0.140106 0.228622 -0.047344 0.284235 0.057270 0.195731 -0.195884 -0.088484 0.062487 0.120335 0.172115 
great -0.169708 -0.247036 -0.039970 -1.138661 -0.144815 -0.378677 0.017366 -0.085930 0.008857 0.459296 0.199425 0.131166 -0.301895 -0.929472 -0.009358 0.459607 0.298322 0.065965 0.335800 -0.147005 -0.088458 0.278772 -0.170814 0.581195 0.169204 0.451006 -0.008061 -0.290632 0.505859 0.924320 0.269443 -0.243378 -0.621820 0.012122 -0.641792 0.105276 0.128540 0.157438 -0.326272 -0.647891 -0.142349 0.041168 -0.101453 -0.662001 0.248644 0.521877 0.286875 -0.010932 -0.809884 -0.864851 0.174868 -0.340001 0.720662 0.010215 -0.388530 -0.362742 -0.109053 -0.111056 0.302738 -0.814127 0.234683 -0.616263 0.345209 0.045829 -0.051209 0.152985 0.098076 0.347958 0.190633 0.328813 0.303053 0.251823 0.372129 -0.162142 0.261532 0.406656 0.071847 -0.396054 -0.219940 -0.271014 -0.029627 -0.250592 0.175999 0.282339 -0.094135 -0.190904 -0.000949 -0.536883 0.389905 -0.214413 0.403967 0.007978 0.460679 0.016716 0.425870 -0.408909 -0.178417 0.221489 0.198326 0.255747 
several -0.122326 -0.109613 -0.036678 -0.695255 0.074886 -0.250089 0.201094 -0.066416 -0.005597 0.166396 0.196750 0.099561 -0.198873 -0.452810 0.086222 0.170071 0.171210 0.152794 0.338215 -0.114722 -0.093871 -0.054941 -0.086593 0.132975 0.060638 0.207212 -0.087360 -0.239851 0.350848 0.488573 0.142986 -0.246679 -0.482469 0.061246 -0.434074 0.092918 0.220897 -0.075919 -0.091002 -0.296164 -0.141643 0.089789 -0.037823 -0.246075 0.342974 0.184746 0.106485 0.088803 -0.513800 -0.549302 0.073469 -0.102646 0.392157 0.133969 -0.147304 -0.250223 -0.005430 -0.123309 0.150603 -0.560991 0.298583 -0.499199 0.140617 -0.021185 -0.091672 0.037195 0.052040 0.107823 0.214500 0.124220 0.182351 0.071416 0.362888 -0.180148 -0.082854 0.222291 -0.027347 -0.132626 -0.321307 -0.145365 -0.022244 -0.101199 0.173279 0.155768 -0.060626 -0.128512 -0.235774 -0.248187 0.342673 -0.088400 0.295786 0.040376 0.435877 0.114431 0.228730 -0.183576 -0.135948 0.108814 0.341023 0.050707 
east -0.214849 -0.091167 -0.158754 -0.699839 0.030923 -0.370654 -0.210825 0.001026 0.110137 0.177495 0.113582 0.105308 -0.267332 -0.442359 0.020910 0.404347 0.152231 -0.201261 0.076235 -0.342726 -0.035046 0.211577 -0.040929 0.389150 0.227545 0.482322 -0.075892 -0.329981 0.206718 0.558502 0.135067 -0.197799 -0.349658 -0.263949 -0.515552 0.193570 -0.081613 0.438217 -0.148649 -0.505189 0.307121 -0.255240 -0.196913 -0.232693 0.048825 0.243045 -0.004840 -0.045273 -0.355281 -0.704637 -0.037982 -0.005951 0.633895 -0.036021 -0.577404 -0.251059 -0.176741 0.040118 -0.017830 -0.326923 0.122447 -0.224772 0.283980 0.129345 -0.127049 -0.147806 -0.105475 0.436282 0.034677 0.539678 0.399442 0.238883 0.031593 0.024157 0.454204 0.295645 0.394386 -0.339513 0.187505 0.136054 -0.100927 -0.253834 0.265001 0.159497 -0.076357 -0.398963 -0.234602 -0.457770 0.381618 -0.112122 0.313957 -0.145642 0.388891 0.202573 0.154037 -0.198608 0.044546 -0.147288 0.289189 0.145296 
within 0.038509 -0.052484 0.069681 -0.659401 0.068150 -0.210717 0.208374 -0.073205 -0.062714 0.106517 0.237664 0.134762 -0.284119 -0.344430 0.122972 0.156976 0.151880 0.239298 0.340331 -0.034193 -0.153066 -0.186196 0.013476 -0.000426 0.006332 0.043823 -0.167228 -0.260821 0.274721 0.510251 0.110445 -0.216702 -0.613386 0.104464 -0.401045 0.088297 0.368673 -0.090241 -0.144431 -0.227481 -0.137174 0.153631 -0.001094 -0.156282 0.376807 0.198898 0.017692 0.154078 -0.452663 -0.505797 0.133486 -0.119097 0.411372 0.204519 -0.009641 -0.233982 0.028819 -0.174247 0.067699 -0.551963 0.417176 -0.530348 0.123757 -0.060463 -0.086305 0.085921 0.105947 0.033949 0.172989 0.014826 0.132825 0.004576 0.396485 -0.238440 -0.113696 0.164311 -0.114621 -0.036157 -0.419506 -0.097920 -0.067405 -0.056645 0.266919 0.156701 -0.013716 -0.068464 -0.244432 -0.140129 0.434590 0.016065 0.254618 0.113195 0.407311 0.210072 0.175911 -0.129540 -0.044421 0.066784 0.453087 0.025521 
president 0.114874 -0.110851 0.095792 -0.672599 -0.074892 -0.170305 0.136685 -0.057490 -0.074816 0.210659 0.257601 0.174949 -0.351282 -0.422280 0.049831 0.257226 0.255998 0.168873 0.230839 0.042006 -0.138759 -0.010470 0.029357 0.138386 0.024759 0.148954 -0.101768 -0.185708 0.264307 0.567928 0.171820 -0.165255 -0.637637 0.102231 -0.352684 0.026147 0.380619 -0.057059 -0.093055 -0.363856 -0.063421 0.283771 -0.099705 -0.348382 0.304606 0.237314 0.123436 0.123718 -0.555754 -0.631892 0.105747 -0.358550 0.371862 0.086047 -0.117818 -0.281138 0.089622 -0.173128 0.197514 -0.589843 0.279405 -0.414973 0.215895 -0.021236 0.013845 0.172062 0.067061 -0.059982 0.145455 0.111202 0.100712 0.102612 0.220657 -0.316851 -0.061584 0.117578 -0.157599 -0.077370 -0.284792 -0.271524 -0.153707 -0.092098 0.160581 0.211442 0.025639 0.008429 -0.004970 -0.328708 0.470970 -0.033472 0.207925 0.044929 0.257064 0.085463 0.269517 -0.069749 -0.119292 0.164736 0.197255 0.155795 
term 0.113187 0.087848 -0.025875 -0.669716 0.007438 -0.267676 0.119789 -0.079988 0.047279 0.043510 0.246558 0.155590 -0.410425 -0.347630 0.186731 0.185894 0.060125 0.128383 0.310133 -0.156162 0.063325 -0.280509 0.163475 -0.014317 0.163686 0.107330 -0.308832 -0.335549 0.305243 0.513220 0.110808 -0.258026 -0.692300 -0.010964 -0.518591 0.012782 0.384529 -0.039322 0.058394 -0.363733 0.022021 0.187326 -0.213019 -0.028525 0.489679 0.110833 0.011840 0.221518 -0.556582 -0.866716 -0.056154 -0.061515 0.417779 0.165728 -0.219797 -0.380302 0.003873 -0.213335 0.045463 -0.561674 0.480955 -0.471406 0.127347 0.059506 -0.059190 -0.013262 0.056900 -0.038415 0.061442 0.134730 0.233055 0.084600 0.166299 -0.298588 -0.222116 0.088517 0.059721 -0.049798 -0.202428 -0.080270 -0.344039 -0.068418 0.406522 0.198942 0.129729 -0.153823 -0.374584 -0.432024 0.657456 -0.060333 0.323189 0.037004 0.460166 0.226328 0.141173 0.071849 -0.034870 -0.034781 0.560535 0.057557 
ancient -0.077000 -0.109618 0.026733 -0.648261 -0.014613 -0.145508 0.037403 -0.049746 -0.096001 0.251298 0.206821 0.091563 -0.151490 -0.589910 0.068520 0.192177 0.165668 0.104043 0.280054 -0.059340 -0.126905 -0.000690 -0.076841 0.229139 0.027907 0.215164 -0.068470 -0.181229 0.295080 0.522636 0.165701 -0.096901 -0.484346 0.053942 -0.369837 0.125677 0.163016 -0.049054 -0.043186 -0.261910 -0.154974 0.138064 -0.087061 -0.368506 0.266261 0.226956 0.249039 0.059661 -0.465961 -0.542113 0.119650 -0.220208 0.372099 0.106387 -0.130493 -0.209664 0.033759 -0.159598 0.183876 -0.545644 0.205664 -0.354260 0.154951 -0.052661 -0.029115 0.086689 0.065787 0.079417 0.169420 0.109905 0.163976 0.105069 0.224974 -0.192230 -0.051551 0.228613 -0.084389 -0.199504 -0.255121 -0.256127 -0.009388 -0.120065 0.017416 0.141213 -0.071419 -0.033216 -0.098142 -0.304965 0.287302 -0.153624 0.166705 0.026769 0.294102 0.001846 0.310111 -0.229164 -0.148780 0.158092 0.108609 0.159345 
west -0.138777 -0.051537 -0.077149 -0.743003 0.040733 -0.357466 -0.110436 -0.036996 0.042076 0.177592 0.173443 0.135148 -0.324884 -0.472957 0.061734 0.372430 0.180512 -0.046338 0.152437 -0.280016 -0.093384 0.083779 -0.020891 0.305241 0.174321 0.374486 -0.109109 -0.376769 0.238509 0.625485 0.123784 -0.216230 -0.529552 -0.183024 -0.542206 0.206560 0.079309 0.335044 -0.150996 -0.472793 0.210318 -0.135113 -0.163858 -0.255148 0.165204 0.246108 -0.013319 0.060988 -0.458921 -0.754112 0.011550 -0.066169 0.655105 0.046572 -0.460604 -0.290009 -0.106356 -0.059446 0.011199 -0.444174 0.222229 -0.353647 0.267195 0.093503 -0.095638 -0.077606 -0.030815 0.326306 0.072004 0.418687 0.360680 0.224836 0.131970 -0.113398 0.307569 0.285668 0.276368 -0.267949 0.014823 0.060361 -0.114432 -0.199496 0.290720 0.184592 -0.045665 -0.318889 -0.272847 -0.431720 0.495010 -0.061709 0.314073 -0.087784 0.467581 0.224812 0.202226 -0.186943 -0.008100 -0.102807 0.369771 0.159757 
known -0.091261 -0.119343 0.004985 -0.778226 0.040789 -0.225428 0.213186 -0.080912 -0.078446 0.209111 0.233129 0.088299 -0.205586 -0.518032 0.106235 0.168164 0.181875 0.218543 0.380342 -0.091502 -0.130486 -0.120291 -0.080406 0.129183 0.050717 0.182258 -0.149313 -0.258344 0.357300 0.564788 0.164673 -0.206635 -0.549205 0.091650 -0.460749 0.116113 0.293554 -0.089104 -0.115806 -0.269658 -0.225638 0.137540 -0.036985 -0.273800 0.424720 0.237207 0.158251 0.113645 -0.540473 -0.591068 0.110489 -0.129472 0.450152 0.202256 -0.071064 -0.241227 0.011279 -0.161879 0.150240 -0.639594 0.356247 -0.594017 0.164342 -0.041021 -0.092993 0.091370 0.104573 0.104589 0.241887 0.018846 0.162116 0.030581 0.414256 -0.212551 -0.151423 0.267200 -0.093775 -0.130780 -0.401841 -0.199139 -0.015533 -0.074556 0.167828 0.147063 -0.047440 -0.087654 -0.245736 -0.217415 0.389599 -0.074085 0.318365 0.112565 0.440279 0.135668 0.256640 -0.227786 -0.122419 0.118746 0.365502 0.064939 
time -0.077775 -0.122816 0.015357 -0.847753 0.044641 -0.277250 0.209459 -0.105529 -0.038586 0.205723 0.204117 0.106212 -0.226037 -0.510016 0.091786 0.180684 0.189509 0.230090 0.403223 -0.062605 -0.137696 -0.096123 -0.084302 0.132363 0.047186 0.160385 -0.142777 -0.295281 0.361280 0.574399 0.142843 -0.260237 -0.551872 0.094754 -0.513641 0.112464 0.320859 -0.074094 -0.155372 -0.311080 -0.192836 0.122186 -0.032474 -0.232890 0.456847 0.257560 0.059560 0.106909 -0.569009 -0.592520 0.086245 -0.068384 0.507513 0.231219 -0.068563 -0.243071 0.003622 -0.165145 0.138648 -0.666303 0.367770 -0.587851 0.158330 -0.013651 -0.137923 0.081594 0.109032 0.132991 0.234378 0.055373 0.185160 0.037506 0.435256 -0.166722 -0.088594 0.277254 -0.108690 -0.144845 -0.412188 -0.129114 0.006475 -0.086108 0.216521 0.166619 -0.057042 -0.118858 -0.271593 -0.222749 0.411196 -0.026301 0.329430 0.104651 0.487971 0.200745 0.247002 -0.249662 -0.075400 0.094676 0.425335 0.014951 
members 0.144990 -0.019690 0.127783 -1.001699 0.312026 -0.505811 0.337587 -0.204843 0.166520 -0.026862 0.276685 0.238062 -0.465934 -0.383397 0.119549 0.069891 -0.057906 0.192559 0.532929 -0.306325 -0.108206 -0.534477 0.006014 -0.219764 0.253837 0.073847 -0.262268 -0.510234 0.439235 0.476633 0.078528 -0.629967 -0.754976 0.108130 -0.688827 0.112833 0.560275 -0.335392 -0.024850 -0.303936 -0.064204 0.041412 -0.232373 0.343181 0.820478 0.065395 -0.099105 0.196647 -0.665544 -0.873239 -0.141139 0.244057 0.596870 0.315881 -0.264759 -0.425784 0.030136 -0.179836 -0.130421 -0.796579 0.794975 -0.657118 -0.024873 0.011731 -0.203570 -0.105492 0.099688 -0.002621 0.346772 0.253312 0.367588 -0.087884 0.503063 -0.256130 -0.236606 0.100003 0.072997 -0.052327 -0.458102 0.167919 -0.289342 -0.075666 0.576099 0.069789 0.023393 -0.357135 -0.747820 -0.215018 0.898876 0.071983 0.501093 0.046572 0.666699 0.495230 0.082081 0.067165 0.094059 -0.170358 1.021033 -0.243283 
parties 0.104014 0.032298 0.060299 -0.680576 -0.025818 -0.286475 0.207790 -0.019229 -0.017559 0.087463 0.193980 0.148452 -0.425164 -0.329893 0.117782 0.174035 0.084395 0.172584 0.313422 -0.098316 -0.031730 -0.207848 0.082261 -0.056350 0.121413 0.101200 -0.233219 -0.299444 0.260676 0.497109 0.174797 -0.295786 -0.640795 0.062185 -0.477402 0.020607 0.473096 -0.015036 -0.071160 -0.376585 -0.055888 0.177040 -0.105240 -0.158204 0.500903 0.152908 0.026698 0.158122 -0.512365 -0.750723 0.008420 -0.200531 0.479378 0.157894 -0.113729 -0.236655 0.057230 -0.146077 0.071165 -0.603921 0.470592 -0.567770 0.210339 0.072296 0.006056 0.083788 0.040892 -0.043233 0.082104 0.033583 0.149898 -0.015035 0.246252 -0.278720 -0.148768 0.176292 -0.045006 -0.028745 -0.251207 -0.110367 -0.290968 -0.084663 0.348105 0.224032 0.155097 -0.164931 -0.215860 -0.252342 0.563998 0.109520 0.329844 0.070931 0.331583 0.192815 0.142049 -0.047415 0.025490 -0.032209 0.491868 0.047834 
general 0.027509 0.000058 0.036273 -0.597381 0.138257 -0.241842 0.242269 -0.085819 -0.025164 0.021186 0.220199 0.176355 -0.275051 -0.256087 0.151753 0.146013 0.072073 0.254151 0.332650 -0.118619 -0.162799 -0.283286 -0.027482 -0.043297 0.010137 0.084971 -0.195189 -0.327474 0.279234 0.471418 0.096918 -0.314706 -0.579771 0.033145 -0.421972 0.121163 0.353737 -0.064125 -0.091030 -0.210074 -0.073446 0.106391 -0.007284 -0.068069 0.419100 0.094230 -0.007938 0.179177 -0.456612 -0.531901 0.077843 -0.023773 0.354749 0.162063 -0.053695 -0.219347 0.017153 -0.133319 0.019423 -0.521806 0.422047 -0.520344 0.108045 -0.044099 -0.110847 0.029880 0.055398 0.020396 0.192547 0.057623 0.223548 -0.031199 0.377852 -0.275329 -0.108338 0.117482 -0.035460 -0.023078 -0.368794 -0.031992 -0.073508 -0.070482 0.346474 0.101134 -0.005088 -0.152403 -0.367224 -0.108809 0.471618 0.020890 0.239404 0.063924 0.510986 0.231147 0.105059 -0.080925 -0.048109 -0.037681 0.575734 0.026617 
territory 0.250059 -0.184590 0.002464 -0.683252 -0.236628 -0.048100 -0.084955 0.005964 -0.017320 0.291679 0.317063 0.359219 -0.503763 -0.454215 -0.008457 0.329366 0.392603 -0.049196 0.017476 0.209690 -0.051554 0.196672 0.151604 0.175439 -0.054399 0.209316 -0.023055 -0.097743 0.252363 0.605058 0.221665 -0.032104 -0.752505 0.052133 -0.301988 -0.053059 0.300404 -0.048099 -0.024758 -0.555327 0.094501 0.342855 -0.196875 -0.500124 0.067504 0.307257 0.231075 0.145852 -0.647186 -0.780466 0.174035 -0.562948 0.304162 -0.122030 -0.304576 -0.390480 0.103125 -0.159374 0.257342 -0.644690 0.184780 -0.121642 0.274248 0.084856 0.150328 0.189111 0.003121 -0.181844 0.038807 0.294392 0.090246 0.293459 -0.041601 -0.316480 0.030066 0.066954 -0.177505 0.050697 -0.111151 -0.398569 -0.310772 -0.104548 0.094644 0.373508 -0.032295 0.145922 0.262488 -0.560139 0.568968 -0.154143 0.002872 -0.124313 0.049610 -0.053645 0.395944 0.123685 -0.123391 0.252195 -0.118936 0.241704 
karabakh -0.128763 -0.260846 -0.053621 -0.876087 -0.022685 -0.268072 0.221075 -0.027873 0.000984 0.349280 0.242834 0.185749 -0.226741 -0.712435 0.016340 0.263912 0.270189 0.067214 0.362609 -0.026331 -0.060055 0.171400 -0.131854 0.316133 0.064981 0.350172 0.015857 -0.172473 0.490287 0.613926 0.301586 -0.229104 -0.569608 0.088614 -0.496262 -0.005979 0.215469 -0.158318 -0.113274 -0.512896 -0.239218 0.238517 -0.058191 -0.507121 0.281849 0.283369 0.269473 0.025240 -0.755660 -0.730892 0.120567 -0.353561 0.353745 0.013165 -0.265595 -0.335249 -0.030351 -0.169490 0.351837 -0.746801 0.216959 -0.457294 0.259594 0.031612 -0.007589 0.142103 0.050666 0.088437 0.252864 0.217563 0.197150 0.203743 0.337383 -0.226308 -0.047679 0.268673 -0.098118 -0.186952 -0.339774 -0.421316 -0.088546 -0.209147 0.053832 0.266254 -0.110949 -0.063410 -0.004017 -0.509267 0.351329 -0.243556 0.300714 -0.038763 0.339799 -0.066731 0.395381 -0.169084 -0.256805 0.283269 0.102114 0.118977 
called 0.121994 0.013000 0.100151 -0.679845 0.048762 -0.296095 0.079836 -0.028417 0.016271 0.065022 0.210649 0.175375 -0.346630 -0.269440 0.097581 0.157920 -0.010421 0.192274 0.317734 -0.115983 -0.152776 -0.300559 0.042336 -0.052447 0.109984 0.073431 -0.271046 -0.319545 0.157157 0.482519 0.115942 -0.252337 -0.647534 0.027741 -0.429422 0.121557 0.407441 -0.017790 -0.093776 -0.248096 -0.001359 0.076191 -0.152591 -0.006192 0.447255 0.139544 -0.016038 0.150151 -0.405883 -0.639570 0.020868 -0.067920 0.483813 0.159445 -0.128654 -0.234979 0.037115 -0.148453 -0.018691 -0.560265 0.471962 -0.438741 0.105467 0.011572 -0.073625 0.030425 0.041948 -0.017840 0.119939 0.119800 0.241766 -0.033915 0.200508 -0.236228 -0.117444 0.081902 0.013929 -0.044840 -0.246132 -0.021314 -0.226918 -0.053937 0.329639 0.152534 0.052774 -0.150678 -0.356258 -0.143976 0.560951 0.066630 0.292497 0.026564 0.401459 0.260358 0.129156 -0.048187 0.112836 -0.052180 0.556302 0.006043 
largest 0.040050 -0.174089 0.050448 -0.903281 -0.117398 -0.287924 0.107075 -0.065584 -0.015293 0.293490 0.260168 0.137242 -0.391349 -0.624330 0.018963 0.276203 0.232122 0.137515 0.311387 -0.011091 -0.112331 0.069446 0.018078 0.258628 0.118604 0.211757 -0.074500 -0.200462 0.339430 0.674558 0.197395 -0.180456 -0.665324 0.077551 -0.481470 0.020342 0.319988 -0.051585 -0.188917 -0.462884 -0.116701 0.235155 -0.112609 -0.396682 0.327317 0.376753 0.131708 0.108632 -0.627211 -0.685563 0.100336 -0.348324 0.476343 0.121903 -0.165866 -0.294310 0.040963 -0.212096 0.188451 -0.705808 0.348355 -0.494212 0.251890 0.054263 -0.024430 0.137729 0.101834 0.082977 0.171527 0.195452 0.136296 0.192689 0.301723 -0.251420 -0.009369 0.214654 -0.101109 -0.168122 -0.335748 -0.293077 -0.139962 -0.142471 0.187487 0.246939 0.000623 -0.057085 -0.018139 -0.400831 0.502985 -0.132921 0.297986 0.080310 0.289850 0.136356 0.316467 -0.167780 -0.096285 0.217008 0.237635 0.137194 
body 0.004821 0.000034 0.051936 -0.593399 0.118122 -0.166214 0.264163 -0.144451 -0.088934 0.039320 0.200685 0.086351 -0.165365 -0.249125 0.191230 0.089071 0.115604 0.306829 0.349667 -0.036473 -0.155826 -0.292194 -0.032137 -0.079559 -0.015378 -0.001494 -0.184559 -0.268528 0.260106 0.414444 0.069098 -0.312415 -0.475911 0.117332 -0.412661 0.102649 0.401305 -0.138064 -0.120632 -0.113303 -0.149130 0.150288 0.032234 0.029372 0.499050 0.087365 -0.048975 0.156296 -0.391621 -0.402844 0.067554 0.095234 0.430472 0.313937 0.086783 -0.195816 0.064445 -0.153523 0.007891 -0.516586 0.407782 -0.578979 0.020745 -0.079434 -0.214893 0.056080 0.141719 0.033095 0.176061 -0.077264 0.131491 -0.084423 0.493738 -0.168609 -0.133627 0.212594 -0.183136 0.000967 -0.468689 0.054041 0.039781 0.018351 0.276570 0.065699 -0.001056 -0.088320 -0.303654 0.006698 0.364118 0.114503 0.273946 0.147546 0.440086 0.253032 0.119101 -0.152791 0.037733 -0.032249 0.543777 -0.066940 
economy 0.109626 -0.194862 0.077139 -0.753294 -0.119920 -0.218903 0.054250 -0.044497 -0.054727 0.277039 0.221202 0.164330 -0.404821 -0.486502 -0.017719 0.313451 0.281228 0.144768 0.218746 0.105595 -0.104117 0.136433 0.070553 0.187484 0.020148 0.117395 -0.046115 -0.169404 0.244637 0.582247 0.164889 -0.084659 -0.588650 0.086049 -0.372552 -0.001443 0.271223 0.008921 -0.203859 -0.426623 -0.048532 0.268988 -0.059768 -0.402460 0.212383 0.383227 0.052519 0.106351 -0.528255 -0.543978 0.174081 -0.388971 0.427194 0.073219 -0.085299 -0.248318 0.039692 -0.216861 0.165737 -0.582014 0.257179 -0.403710 0.274316 0.031450 0.011004 0.202266 0.073868 0.061263 0.117552 0.120753 0.036761 0.188826 0.230139 -0.217991 0.037004 0.182201 -0.163164 -0.127194 -0.280169 -0.273555 -0.118666 -0.121569 0.151631 0.224102 -0.010628 0.020099 0.053897 -0.331943 0.431980 -0.046841 0.204843 0.106275 0.176651 0.093624 0.276474 -0.127480 -0.058942 0.197450 0.098746 0.146921 
press 0.021953 -0.179233 0.163350 -0.712176 -0.041266 -0.119201 -0.039823 -0.023901 -0.186112 0.335437 0.212770 0.213294 -0.228049 -0.653950 0.026146 0.339113 0.246888 0.110087 0.286594 0.054842 -0.295159 0.032232 -0.062067 0.302110 -0.049671 0.219621 -0.055755 -0.133719 0.280490 0.654983 0.184363 -0.038373 -0.718618 0.128411 -0.346784 0.212501 0.326814 -0.028259 -0.058427 -0.312758 -0.103549 0.309048 -0.113264 -0.596219 0.239738 0.268417 0.268993 0.082591 -0.544771 -0.627089 0.177007 -0.548567 0.422001 0.053548 -0.126390 -0.239188 0.133515 -0.197390 0.196916 -0.668567 0.132710 -0.317768 0.204105 -0.113621 0.020891 0.214405 0.062242 -0.048201 0.175376 0.169714 0.146733 0.153545 0.180895 -0.347615 -0.040273 0.210962 -0.199536 -0.168153 -0.349364 -0.357245 0.001213 -0.150338 -0.059061 0.142215 -0.062133 0.131504 0.037954 -0.347365 0.409891 -0.075739 0.087480 0.117867 0.260816 -0.030020 0.532428 -0.224272 -0.167328 0.216184 -0.044615 0.284108 
according -0.032693 -0.008831 0.053967 -0.547499 0.106526 -0.173155 0.204121 -0.116983 -0.023038 0.075995 0.169148 0.084667 -0.136121 -0.338670 0.097475 0.066151 0.054844 0.184564 0.305739 -0.111459 -0.131151 -0.203539 -0.054321 0.001473 0.051070 0.062809 -0.109281 -0.246683 0.272787 0.368936 0.089164 -0.234055 -0.420867 0.087075 -0.343510 0.135919 0.265321 -0.155412 -0.055298 -0.126136 -0.158030 0.093108 -0.017641 -0.090504 0.387746 0.094686 0.069150 0.130831 -0.367985 -0.405731 0.034491 0.020305 0.313770 0.164547 -0.023304 -0.162103 0.038938 -0.114042 0.045183 -0.460068 0.347957 -0.455216 0.056171 -0.069284 -0.090131 0.024532 0.102017 0.041829 0.207330 0.035245 0.167821 -0.042877 0.373106 -0.167653 -0.118596 0.141382 -0.046528 -0.084429 -0.365074 -0.056507 -0.005869 -0.058295 0.187558 0.088563 -0.053461 -0.115762 -0.307409 -0.104819 0.335681 -0.027328 0.227309 0.092623 0.383763 0.194146 0.150722 -0.161205 -0.072959 0.033311 0.405502 -0.018277 
name -0.060599 -0.084838 -0.039315 -0.633909 -0.027283 -0.187750 0.126735 -0.048993 -0.038608 0.213796 0.206724 0.104576 -0.240527 -0.537805 0.114083 0.239017 0.207094 0.085861 0.269587 -0.050920 -0.011793 -0.010697 0.006537 0.209182 0.063174 0.235802 -0.101872 -0.174475 0.352507 0.534644 0.173952 -0.147103 -0.535012 0.044092 -0.425184 0.019059 0.223606 -0.046113 -0.014076 -0.381897 -0.158522 0.222967 -0.081578 -0.377880 0.275240 0.184792 0.193964 0.144891 -0.565732 -0.669405 0.073265 -0.268932 0.310799 0.073447 -0.180407 -0.293646 -0.004458 -0.188459 0.224229 -0.550831 0.225554 -0.411100 0.213392 0.013062 -0.000025 0.082692 0.059459 0.032257 0.135646 0.108381 0.120264 0.170388 0.207207 -0.252151 -0.138529 0.196881 -0.032121 -0.122954 -0.243001 -0.303554 -0.148287 -0.122052 0.118964 0.192987 0.021902 -0.059234 -0.089870 -0.466280 0.391073 -0.161402 0.241362 0.040566 0.323409 0.002495 0.289289 -0.098824 -0.220873 0.163844 0.151055 0.171905 
system 0.196136 -0.010037 0.127590 -0.693103 0.053714 -0.235236 0.145232 -0.064009 -0.071159 0.072407 0.284755 0.243085 -0.416627 -0.295409 0.137637 0.195926 0.091986 0.263782 0.332913 -0.031620 -0.187461 -0.304377 0.075332 -0.069484 0.037101 0.001090 -0.267988 -0.328581 0.199356 0.574962 0.125552 -0.253633 -0.772669 0.083037 -0.438190 0.122924 0.502469 -0.072978 -0.103809 -0.255708 -0.049714 0.208994 -0.101929 -0.078466 0.453186 0.173677 -0.003582 0.227321 -0.461903 -0.665401 0.091143 -0.130662 0.442460 0.159310 -0.060515 -0.267718 0.076814 -0.193495 0.003350 -0.606023 0.508829 -0.489814 0.138971 -0.043403 -0.066858 0.082104 0.059999 -0.078521 0.144715 0.059736 0.218690 -0.017154 0.293633 -0.333433 -0.142231 0.075240 -0.097238 -0.003978 -0.371370 -0.073720 -0.207671 -0.049461 0.351034 0.165572 0.039463 -0.063334 -0.305493 -0.152674 0.616552 0.081863 0.246194 0.084374 0.413183 0.259901 0.181272 -0.014320 0.036309 -0.007935 0.556048 0.048924 
cultural -0.042377 0.054333 0.107831 -0.627401 0.258831 -0.237697 0.240295 -0.154207 -0.113941 0.049581 0.257637 0.128924 -0.176935 -0.284972 0.244470 0.094876 0.065884 0.382051 0.441747 -0.141163 -0.321653 -0.438408 -0.068525 -0.092127 -0.052949 -0.008366 -0.257014 -0.433778 0.283056 0.533870 0.044406 -0.301330 -0.660063 0.067371 -0.465486 0.310723 0.341679 -0.079101 -0.153848 0.010828 -0.197072 -0.000222 0.030801 -0.030231 0.475442 0.104327 -0.031970 0.235731 -0.373429 -0.441697 0.164630 0.118760 0.489047 0.322744 0.062655 -0.157611 0.010712 -0.157568 -0.045603 -0.515911 0.525919 -0.646632 -0.001685 -0.192187 -0.219606 0.008221 0.132360 0.118650 0.282980 -0.067092 0.277015 -0.168370 0.599032 -0.285114 -0.143000 0.172331 -0.074472 -0.071451 -0.599337 0.077233 0.108616 -0.009737 0.334621 0.048622 -0.091910 -0.133524 -0.601561 0.100647 0.399527 0.093388 0.272730 0.219396 0.700326 0.334336 0.142954 -0.248344 -0.043787 -0.077467 0.761949 -0.042083 
became 0.055955 -0.242937 0.027829 -0.707421 -0.217092 -0.138345 0.003047 -0.012417 -0.058807 0.334775 0.226685 0.146852 -0.318193 -0.558400 -0.046344 0.290413 0.279320 0.048493 0.166129 0.102612 -0.049426 0.235227 0.028692 0.317309 0.059127 0.230810 -0.016575 -0.047774 0.248939 0.565302 0.216312 -0.026534 -0.529731 0.061200 -0.328251 -0.060691 0.205182 -0.028060 -0.154940 -0.457261 -0.095366 0.280441 -0.107583 -0.491619 0.134764 0.372681 0.225647 0.023645 -0.548028 -0.571225 0.132092 -0.477523 0.293371 -0.019266 -0.178975 -0.276451 0.049483 -0.155923 0.284111 -0.560437 0.130122 -0.289497 0.281172 0.044732 0.081783 0.199790 0.054580 -0.003146 0.108500 0.159159 0.036686 0.229776 0.123184 -0.241592 0.028846 0.139255 -0.153532 -0.145544 -0.149662 -0.395729 -0.155279 -0.113076 0.028273 0.232230 -0.004935 0.086840 0.227864 -0.415281 0.326410 -0.154186 0.162027 -0.003506 0.071560 -0.050159 0.340036 -0.089377 -0.132726 0.275096 -0.111649 0.216078 
including -0.069150 -0.078460 -0.014709 -0.599418 0.051452 -0.191875 0.166109 -0.054292 -0.040136 0.166647 0.181205 0.092394 -0.199852 -0.408465 0.087074 0.156493 0.143167 0.154190 0.293215 -0.081014 -0.097930 -0.076562 -0.056165 0.112568 0.030072 0.152683 -0.092574 -0.204686 0.294021 0.453144 0.124875 -0.182680 -0.460946 0.051430 -0.366301 0.098554 0.224527 -0.060488 -0.089744 -0.249597 -0.135786 0.118308 -0.028728 -0.239270 0.289430 0.176817 0.109666 0.098612 -0.470044 -0.498279 0.096450 -0.142808 0.335049 0.118736 -0.089492 -0.216610 -0.002785 -0.117068 0.138185 -0.508479 0.271196 -0.448798 0.138132 -0.037882 -0.068061 0.065793 0.066981 0.084470 0.161879 0.068814 0.148371 0.061333 0.342610 -0.192526 -0.088130 0.175310 -0.042059 -0.111744 -0.323012 -0.159391 -0.024480 -0.088242 0.153992 0.143638 -0.044672 -0.088619 -0.194163 -0.235182 0.312703 -0.071642 0.229733 0.051288 0.379689 0.081970 0.212678 -0.156614 -0.124769 0.106610 0.284745 0.070912 
development -0.076929 0.002490 0.045550 -0.438108 0.170655 -0.169775 0.296845 -0.155806 -0.105166 0.019945 0.190866 0.064066 -0.133047 -0.226554 0.196084 0.081464 0.129132 0.294583 0.321006 -0.062044 -0.154904 -0.224425 -0.027172 -0.065459 -0.046687 -0.043202 -0.121437 -0.278631 0.286551 0.383107 0.041301 -0.251354 -0.428239 0.100144 -0.377377 0.132753 0.240285 -0.097396 -0.129591 -0.038823 -0.207689 0.081279 0.128443 -0.060656 0.348466 0.091150 -0.028979 0.238458 -0.294612 -0.296921 0.139868 0.062104 0.304789 0.276864 0.102070 -0.123775 -0.004509 -0.191001 -0.025038 -0.353264 0.373445 -0.570918 0.038154 -0.096824 -0.164993 0.028861 0.106514 0.099577 0.230868 -0.105618 0.068286 -0.059624 0.524163 -0.197708 -0.125428 0.178494 -0.114433 -0.033982 -0.519231 0.004293 0.098484 -0.011273 0.248149 0.044621 -0.047544 -0.113240 -0.365302 0.029093 0.284975 0.055023 0.221751 0.236028 0.478833 0.252402 0.101803 -0.175286 -0.121348 -0.013121 0.510376 -0.029232 
against 0.059189 -0.093971 0.094229 -0.924233 0.056017 -0.334496 0.205544 -0.065261 -0.028205 0.202078 0.292089 0.213169 -0.388293 -0.520897 0.104617 0.237500 0.123112 0.270169 0.456273 -0.100634 -0.225724 -0.227344 -0.049833 0.074244 0.067050 0.153451 -0.209442 -0.335829 0.360559 0.672248 0.199373 -0.334390 -0.807541 0.093335 -0.541765 0.137486 0.448601 -0.135496 -0.145166 -0.373055 -0.155875 0.169360 -0.114505 -0.214283 0.525910 0.250713 0.098696 0.179518 -0.661150 -0.785809 0.104715 -0.182991 0.520608 0.178580 -0.164790 -0.335313 0.034713 -0.184183 0.122177 -0.788780 0.493082 -0.608513 0.199464 -0.041367 -0.070673 0.074784 0.077787 0.002849 0.266688 0.131747 0.272112 0.013291 0.398703 -0.322889 -0.166523 0.160198 -0.074825 -0.089919 -0.439899 -0.203212 -0.135973 -0.120550 0.309986 0.187604 -0.004951 -0.123469 -0.358837 -0.270630 0.598756 -0.048154 0.344743 0.073551 0.541019 0.181929 0.294956 -0.124947 -0.064339 0.081121 0.527968 0.048373 
iran. -0.115118 -0.095147 0.032585 -0.605604 0.013269 -0.176102 0.108115 -0.044077 -0.076116 0.208258 0.156406 0.071828 -0.143154 -0.516665 0.090369 0.185466 0.144817 0.139408 0.292960 -0.057102 -0.127786 -0.030081 -0.078795 0.199269 0.025842 0.191680 -0.044764 -0.159044 0.277908 0.498463 0.144985 -0.128295 -0.460742 0.053676 -0.351173 0.111932 0.194627 -0.051630 -0.069294 -0.240011 -0.179070 0.154646 -0.061551 -0.325803 0.272273 0.193921 0.186464 0.093357 -0.440182 -0.493682 0.089818 -0.209090 0.344183 0.144739 -0.098433 -0.180958 0.009144 -0.155263 0.157364 -0.487889 0.228766 -0.395379 0.130025 -0.047910 -0.057974 0.077336 0.089535 0.093723 0.192609 0.065184 0.132407 0.088967 0.280450 -0.200237 -0.050165 0.218105 -0.069103 -0.145443 -0.308468 -0.211169 0.000413 -0.106295 0.040591 0.113320 -0.044064 -0.044083 -0.123441 -0.278208 0.269361 -0.098628 0.226203 0.090057 0.326175 0.042161 0.285900 -0.203143 -0.151712 0.127362 0.179828 0.114425 
example 0.225547 0.038256 0.156863 -0.733124 0.055229 -0.319016 0.177429 -0.049086 0.023898 0.021885 0.244780 0.237836 -0.392952 -0.219199 0.111249 0.141483 -0.053823 0.284632 0.371822 -0.128824 -0.207903 -0.423820 0.048310 -0.153563 0.089371 0.010936 -0.310546 -0.331940 0.162100 0.499364 0.104241 -0.367559 -0.750045 0.030672 -0.438884 0.091969 0.528062 -0.119535 -0.115180 -0.227464 -0.001747 0.094005 -0.174009 0.101434 0.545059 0.111177 -0.074274 0.177672 -0.457043 -0.715727 -0.004437 -0.038423 0.446248 0.173900 -0.102036 -0.292820 0.042835 -0.148918 -0.052972 -0.637896 0.589834 -0.455444 0.091401 -0.005657 -0.079552 0.001802 0.063020 -0.107406 0.154701 0.117268 0.272581 -0.088575 0.259785 -0.286803 -0.149307 -0.028900 0.001807 0.026161 -0.325687 0.022897 -0.264986 -0.046989 0.443343 0.125719 0.070746 -0.149633 -0.442402 -0.079993 0.664546 0.108329 0.314150 0.044679 0.432704 0.284580 0.107255 0.040464 0.176792 -0.082231 0.717903 -0.053291 
city 0.351748 -0.083786 0.100764 -0.666418 -0.313534 -0.069505 -0.045357 -0.008345 -0.092432 0.211016 0.277128 0.321028 -0.513210 -0.341898 0.029903 0.319968 0.279710 0.067883 0.080938 0.137970 -0.034937 0.053623 0.261021 0.133308 -0.009943 0.064036 -0.108219 -0.162743 0.197106 0.607294 0.159008 -0.071672 -0.707117 0.026771 -0.297138 -0.133109 0.441066 0.045094 -0.092573 -0.506070 0.177883 0.363144 -0.149713 -0.337957 0.280114 0.314746 0.126045 0.162836 -0.581776 -0.751499 0.114479 -0.525413 0.352000 -0.009661 -0.140658 -0.317491 0.199682 -0.196008 0.186924 -0.608186 0.291505 -0.172999 0.318747 0.138580 0.107414 0.189846 0.047007 -0.191266 -0.009013 0.167104 0.014856 0.237670 -0.050128 -0.320105 0.106588 0.062855 -0.223281 0.024400 -0.119962 -0.276966 -0.337753 -0.079663 0.230153 0.317959 0.101290 0.103669 0.177435 -0.406387 0.606046 0.042734 0.061714 -0.032428 0.046950 0.067256 0.263510 0.084852 0.028360 0.108223 0.060335 0.229544 
high 0.017389 -0.091207 0.060844 -0.876876 0.044020 -0.290774 0.184524 -0.096720 -0.044612 0.184138 0.270904 0.164539 -0.327519 -0.504205 0.112497 0.236957 0.186057 0.239076 0.386813 -0.080269 -0.170126 -0.144073 -0.015428 0.100813 0.066642 0.135111 -0.173474 -0.329680 0.355685 0.646987 0.166244 -0.282777 -0.696629 0.083021 -0.519582 0.123147 0.376314 -0.068931 -0.162362 -0.344703 -0.141406 0.160065 -0.063561 -0.247508 0.445717 0.270394 0.074138 0.167834 -0.606224 -0.695169 0.108892 -0.156850 0.527503 0.203790 -0.103138 -0.290788 0.024528 -0.199180 0.102883 -0.688864 0.438836 -0.606921 0.185462 -0.026150 -0.096344 0.088066 0.101921 0.083967 0.225593 0.096377 0.198505 0.058571 0.418337 -0.251711 -0.087900 0.224254 -0.079720 -0.122212 -0.412064 -0.143903 -0.088659 -0.097725 0.276582 0.192457 -0.028162 -0.113822 -0.280142 -0.235295 0.530358 -0.031139 0.319382 0.113302 0.492825 0.219106 0.255855 -0.186930 -0.072998 0.094398 0.466767 0.053133 
area -0.024308 -0.063214 -0.031463 -0.726618 -0.015525 -0.297411 0.288286 -0.105826 0.030609 0.159122 0.184478 0.133220 -0.191552 -0.553091 0.089961 0.215762 0.123031 0.144996 0.354521 -0.130450 -0.009367 -0.002061 -0.058382 0.153433 0.133690 0.252814 -0.051238 -0.275958 0.442426 0.608202 0.140544 -0.371743 -0.547318 -0.004215 -0.504466 0.021675 0.319062 -0.045112 -0.123476 -0.394858 -0.109527 0.109366 -0.059620 -0.223000 0.377944 0.186163 0.175204 0.141148 -0.608619 -0.739174 0.012130 -0.095424 0.407584 0.097615 -0.203681 -0.312007 -0.028191 -0.132770 0.248829 -0.631010 0.414352 -0.512578 0.179229 0.107371 -0.044551 0.031055 0.133230 0.145558 0.223916 0.208448 0.205610 0.129917 0.310260 -0.171401 0.026955 0.232823 0.021648 -0.114354 -0.338963 -0.218978 -0.135895 -0.171152 0.249410 0.197845 -0.065191 -0.154037 -0.225847 -0.414192 0.417025 -0.148417 0.328797 -0.025821 0.465458 0.130721 0.196359 -0.146995 -0.171601 0.063557 0.446537 0.052748 
geography -0.137013 0.035334 0.208612 -0.686599 0.304187 -0.242310 0.360309 -0.305543 -0.156788 0.066705 0.298813 0.107209 -0.059309 -0.393836 0.377115 0.187903 0.198055 0.492903 0.471172 -0.018912 -0.358969 -0.334448 0.004368 -0.024485 -0.010936 -0.077276 -0.087747 -0.440572 0.420701 0.642344 -0.052988 -0.440229 -0.717129 0.128520 -0.491615 0.324153 0.373044 -0.069696 -0.169494 0.079116 -0.395347 0.114569 0.129945 -0.079258 0.473750 0.091245 -0.068308 0.424455 -0.392363 -0.414751 0.137966 0.236746 0.530450 0.573102 0.235651 -0.101077 -0.039479 -0.281174 -0.008000 -0.379640 0.553315 -0.779468 -0.010786 -0.208693 -0.400262 0.041622 0.187142 0.220298 0.371401 -0.202914 0.237325 -0.105698 0.850940 -0.239654 -0.163570 0.329532 -0.266656 -0.129871 -0.902356 0.068185 0.299003 0.013096 0.263320 0.012528 -0.102169 -0.088500 -0.673636 0.152501 0.260602 0.119615 0.298089 0.487893 0.863531 0.470103 0.132357 -0.335002 -0.188811 0.014389 0.818485 -0.101333 
philosophy 0.302656 0.139765 0.392606 -0.569331 0.374512 0.080053 0.083092 -0.056533 -0.535719 -0.084426 0.330989 0.238754 -0.333895 -0.176631 0.484211 -0.033889 -0.141184 0.714965 0.472304 -0.184075 -0.552518 -1.043471 0.097527 -0.482374 -0.257245 -0.344131 -0.585225 -0.571082 -0.066270 0.548088 0.081243 0.019767 -1.051484 0.260948 -0.314162 0.558068 0.724680 -0.206020 -0.080174 0.391323 -0.219274 0.253308 0.061161 0.136806 0.709335 -0.010564 -0.039818 0.526743 -0.214113 -0.459224 0.330345 0.132136 0.556236 0.420844 0.483043 0.061945 0.326710 -0.343357 -0.298511 -0.578538 0.851076 -0.633453 -0.082288 -0.470151 -0.178061 0.135429 0.108748 -0.126818 0.159496 -0.398948 0.316650 -0.467819 0.584486 -0.558688 -0.389022 0.057658 -0.292320 0.065970 -0.733816 0.095083 0.025689 0.076534 0.344718 0.166776 -0.078545 -0.005782 -0.873668 0.487785 0.712325 0.325759 0.102710 0.273779 0.733470 0.443068 0.149717 -0.119621 0.261006 -0.211919 0.988069 -0.129278 
constitution 0.195726 -0.071839 0.155798 -0.744518 -0.091440 -0.210412 0.030243 -0.051280 -0.099348 0.172987 0.288481 0.229222 -0.413041 -0.379054 0.077083 0.264446 0.162903 0.220677 0.275506 0.031146 -0.209971 -0.138924 0.075047 0.075991 0.036995 0.082281 -0.220987 -0.241272 0.160753 0.644026 0.139003 -0.155389 -0.759553 0.059381 -0.384373 0.102051 0.434157 -0.003718 -0.136245 -0.341639 -0.005305 0.227356 -0.143991 -0.258449 0.352485 0.263147 0.046703 0.159311 -0.505141 -0.663996 0.105827 -0.301858 0.471970 0.125275 -0.085011 -0.257341 0.104479 -0.197898 0.094960 -0.624838 0.366651 -0.422872 0.217448 -0.018488 0.000269 0.146441 0.084815 -0.057640 0.126512 0.130320 0.152085 0.071132 0.198531 -0.339687 -0.072701 0.078008 -0.137417 -0.058513 -0.288467 -0.183944 -0.194356 -0.056447 0.244361 0.206127 0.050705 -0.010885 -0.110677 -0.237108 0.574065 0.030224 0.193913 0.056761 0.323003 0.204937 0.269252 -0.071968 0.015034 0.097497 0.332093 0.128830 
large -0.047869 -0.076430 0.001017 -0.750361 0.052698 -0.282829 0.196295 -0.098848 0.016701 0.145391 0.199715 0.110205 -0.260930 -0.444209 0.087998 0.175140 0.158686 0.159902 0.342789 -0.098083 -0.097282 -0.108772 -0.047482 0.101204 0.083886 0.139583 -0.126053 -0.292954 0.342267 0.517374 0.130893 -0.277280 -0.526448 0.056702 -0.475462 0.079471 0.273888 -0.060342 -0.124590 -0.315585 -0.132452 0.078137 -0.038939 -0.184173 0.375838 0.202736 0.048407 0.115675 -0.515576 -0.576504 0.071109 -0.056901 0.455668 0.178121 -0.114690 -0.248948 -0.014198 -0.143633 0.107647 -0.599110 0.363579 -0.545230 0.155508 0.007382 -0.105097 0.040200 0.092135 0.112764 0.192984 0.097493 0.179880 0.039188 0.387800 -0.169784 -0.072678 0.219139 -0.032917 -0.110460 -0.357499 -0.105087 -0.077426 -0.089409 0.253925 0.167931 -0.031782 -0.154652 -0.262301 -0.230965 0.418308 -0.052516 0.327390 0.075888 0.441973 0.196322 0.186061 -0.181554 -0.065550 0.070201 0.436373 0.007712 
