1225 100
</s> 0.004003 0.004419 -0.003830 -0.003278 0.001367 0.003021 0.000941 0.000211 -0.003604 0.002218 -0.004356 0.001250 -0.000751 -0.000957 -0.003316 -0.001882 0.002579 0.003025 0.002969 0.001597 0.001545 -0.003803 -0.004096 0.004970 0.003801 0.003090 -0.000604 0.004016 -0.000495 0.000735 -0.000149 -0.002983 0.001312 -0.001337 -0.003825 0.004754 0.004379 -0.001095 -0.000226 0.000509 -0.003638 -0.004007 0.004555 0.000063 -0.002582 -0.003042 -0.003076 0.001697 0.000201 0.001331 -0.004214 -0.003808 -0.000130 0.001144 0.002550 -0.003170 0.004080 0.000927 0.001120 -0.000608 0.002986 -0.002288 -0.002097 0.002158 -0.000753 0.001031 0.001805 -0.004089 -0.001983 0.002914 0.004232 0.003932 -0.003047 -0.002108 -0.000909 0.002001 -0.003788 0.002998 0.002788 -0.001599 -0.001552 -0.002238 0.004229 0.003912 -0.001180 0.004215 0.004820 0.001815 0.004983 -0.003111 -0.001532 -0.002107 -0.002907 0.002815 0.001579 0.000425 -0.002194 0.001524 0.003059 0.000194 
soviet -0.094018 -0.539776 0.026123 -0.224420 0.000156 -0.075507 0.281147 0.093490 -0.028842 0.414549 0.093378 0.332062 -0.347475 -0.143191 -0.091403 0.314005 0.380302 0.430405 0.416401 0.308584 -0.059892 0.188658 0.078695 -0.532232 0.357080 -0.140792 -0.138743 -0.106480 0.234945 -0.036422 0.030342 -0.274149 -0.273712 0.164397 -0.167446 -0.131620 0.199636 -0.105996 0.031332 0.083337 -0.243740 -0.016585 -0.087079 -0.384815 0.040427 -0.005428 0.345380 0.093275 -0.133630 -0.387474 0.072876 0.168634 0.196280 -0.033367 -0.138480 0.092047 0.479900 -0.057102 -0.043134 -0.566474 0.363435 -0.184822 -0.203320 -0.299155 0.048747 0.275643 0.048431 -0.332846 -0.061271 0.282893 -0.407344 0.122860 0.348720 -0.122957 -0.333782 0.123267 -0.712487 -0.108972 -0.085707 -0.069449 -0.285202 0.005998 0.047565 -0.383094 0.012126 0.061536 0.016376 -0.037626 0.494548 0.250709 0.288284 0.171954 -0.080654 0.033349 -0.284916 0.146170 0.033800 0.186515 -0.060155 0.099429 
azerbaijan -0.184028 -1.153269 0.019038 -0.511647 0.149359 -0.193759 0.677021 0.322726 -0.076281 0.942816 0.049475 1.018103 -0.711083 -0.305283 -0.148595 0.591730 0.766220 0.817710 0.900766 0.657887 -0.027311 0.343833 0.140971 -1.222219 0.859999 -0.264689 -0.485918 -0.310682 0.730312 -0.247519 0.015652 -0.573170 -0.657823 0.532872 -0.212264 -0.355055 0.385561 0.005448 0.071754 0.330942 -0.541947 -0.244238 -0.301997 -1.033442 0.129391 -0.205751 0.906212 0.229709 -0.129383 -0.928813 0.206080 0.382846 0.494361 -0.147820 -0.595683 0.301893 1.320453 0.040082 0.124673 -1.247822 0.927794 -0.409852 -0.497084 -0.797054 -0.042524 0.641928 0.034359 -0.791885 -0.183847 0.773149 -0.974733 0.503650 0.797010 -0.278959 -0.875628 0.479966 -1.791027 -0.134765 -0.288102 -0.013070 -0.738644 -0.155997 0.062612 -0.899929 0.125119 0.155726 -0.013540 -0.080057 1.228936 0.723398 0.798651 0.372481 -0.247800 0.149299 -0.801422 0.257951 0.119201 0.525476 -0.168643 0.081984 
community -0.136688 -0.845319 0.032172 -0.366300 0.137149 -0.174675 0.499691 0.247994 -0.055457 0.693209 0.005520 0.807162 -0.502310 -0.221009 -0.113536 0.442684 0.580810 0.572341 0.709481 0.445830 -0.013042 0.257509 0.088156 -0.933240 0.674571 -0.201689 -0.379459 -0.240155 0.552563 -0.193829 0.004387 -0.435135 -0.498124 0.435641 -0.110058 -0.262313 0.277834 0.038575 0.064687 0.252328 -0.410381 -0.227458 -0.261208 -0.774844 0.095315 -0.192305 0.676934 0.163789 -0.043210 -0.673631 0.151763 0.305960 0.370670 -0.124941 -0.489706 0.211003 0.996750 0.066865 0.131843 -0.916665 0.695471 -0.312834 -0.345911 -0.597438 -0.044760 0.490050 0.012962 -0.592451 -0.154094 0.604305 -0.718138 0.392156 0.577229 -0.210711 -0.669557 0.381090 -1.353727 -0.103446 -0.208240 -0.007796 -0.554342 -0.150054 0.022076 -0.720442 0.105393 0.106218 -0.033417 -0.052353 0.913696 0.547552 0.582659 0.241492 -0.218608 0.145119 -0.605306 0.187723 0.089015 0.401221 -0.115867 0.019822 
religion -0.168743 -1.054939 0.010535 -0.460004 0.147250 -0.167959 0.605999 0.302932 -0.072248 0.859714 0.036433 0.950905 -0.638546 -0.264071 -0.141498 0.546325 0.687973 0.742643 0.826129 0.609742 -0.020864 0.310577 0.123983 -1.127672 0.800632 -0.249078 -0.456510 -0.288090 0.680116 -0.244068 0.008446 -0.530112 -0.601645 0.504115 -0.180674 -0.331262 0.342325 0.031312 0.066058 0.309233 -0.502609 -0.239723 -0.280978 -0.943833 0.110536 -0.204931 0.839191 0.204421 -0.104509 -0.830929 0.179871 0.363774 0.449226 -0.134223 -0.563631 0.281730 1.215027 0.049998 0.124131 -1.137057 0.841703 -0.372466 -0.449931 -0.728405 -0.058016 0.578029 0.029360 -0.723227 -0.166393 0.723409 -0.891731 0.446449 0.728873 -0.241899 -0.816458 0.455293 -1.649830 -0.132267 -0.242305 0.010715 -0.677358 -0.155723 0.044704 -0.840794 0.119561 0.140785 -0.012751 -0.065783 1.123475 0.672179 0.726453 0.327805 -0.237990 0.147809 -0.741100 0.235598 0.117201 0.480319 -0.154638 0.068001 
mosques -0.086044 -0.652209 -0.027789 -0.312557 0.106989 -0.065166 0.358075 0.192379 -0.065905 0.486347 0.037837 0.572932 -0.456196 -0.168013 -0.079846 0.308336 0.407593 0.459843 0.438991 0.396423 0.005867 0.150281 0.094520 -0.673920 0.452576 -0.148235 -0.302705 -0.178911 0.446943 -0.167918 0.008022 -0.307624 -0.362560 0.264439 -0.104247 -0.195750 0.233981 0.034209 0.055420 0.172658 -0.297421 -0.130031 -0.132543 -0.566083 0.075006 -0.108596 0.533189 0.140030 -0.114443 -0.546889 0.106019 0.200730 0.283090 -0.057158 -0.322812 0.193266 0.735603 0.022046 0.034179 -0.678767 0.496896 -0.222871 -0.303782 -0.443031 -0.037873 0.326478 0.013515 -0.419747 -0.066787 0.425078 -0.531675 0.288761 0.449678 -0.136461 -0.478162 0.290604 -0.974782 -0.060620 -0.168352 0.011227 -0.419798 -0.094199 0.050072 -0.461523 0.061981 0.105585 -0.005515 -0.044434 0.671133 0.431841 0.450532 0.239932 -0.129413 0.057531 -0.445769 0.155984 0.063509 0.273564 -0.109568 0.056792 
religious -0.104755 -0.752438 0.003531 -0.336072 0.093410 -0.114248 0.416326 0.201342 -0.051582 0.597278 0.034055 0.653385 -0.481579 -0.188956 -0.098378 0.375449 0.488890 0.534169 0.558374 0.436902 -0.010319 0.206958 0.096612 -0.781606 0.552543 -0.169028 -0.320383 -0.194819 0.472228 -0.168141 0.006147 -0.362849 -0.419710 0.330570 -0.127637 -0.227368 0.254797 0.017508 0.055695 0.208337 -0.351471 -0.143961 -0.195161 -0.655751 0.069988 -0.115431 0.581017 0.151692 -0.098865 -0.592152 0.126878 0.254191 0.322757 -0.090749 -0.372228 0.202605 0.844920 0.026436 0.057503 -0.803496 0.584608 -0.263337 -0.332569 -0.514132 -0.037338 0.408834 0.026298 -0.508104 -0.117980 0.499110 -0.624244 0.315937 0.509593 -0.170300 -0.569027 0.313915 -1.147867 -0.088978 -0.172758 0.002594 -0.476292 -0.107213 0.051493 -0.573852 0.076306 0.100712 -0.001505 -0.047212 0.790942 0.470893 0.513229 0.247586 -0.164676 0.090880 -0.520553 0.178565 0.077913 0.335824 -0.110804 0.067584 
union -0.062300 -0.349222 0.006072 -0.154326 -0.027954 -0.039662 0.183000 0.030790 -0.001818 0.290120 0.090396 0.184838 -0.226694 -0.115388 -0.066740 0.198056 0.278667 0.326993 0.264870 0.191752 -0.038304 0.142546 0.067047 -0.327793 0.207125 -0.068121 -0.049470 -0.053989 0.153039 0.004568 0.003282 -0.174684 -0.175602 0.093789 -0.152493 -0.077649 0.136456 -0.102215 0.030278 0.051809 -0.161931 0.033303 -0.060712 -0.249553 0.034814 0.033616 0.227194 0.074558 -0.133382 -0.273355 0.036573 0.114692 0.107178 -0.032710 -0.041524 0.039339 0.290779 -0.064809 -0.042930 -0.411493 0.247270 -0.128880 -0.143933 -0.188295 0.041938 0.166506 0.034825 -0.239835 -0.031830 0.173707 -0.270133 0.074616 0.255772 -0.088465 -0.245270 0.063329 -0.474614 -0.096786 -0.036399 -0.066425 -0.182144 0.029134 0.055456 -0.241735 -0.004122 0.046629 0.022028 -0.023320 0.342399 0.136205 0.183525 0.110405 -0.034722 0.013326 -0.170839 0.097296 0.015081 0.116842 -0.043026 0.109705 
city -0.051996 -0.438791 0.037712 -0.200314 0.126625 -0.133970 0.301099 0.178621 -0.003484 0.432228 -0.065525 0.529342 -0.225182 -0.086636 -0.047233 0.206455 0.303974 0.242511 0.441239 0.238683 0.010444 0.141681 0.031311 -0.559756 0.451612 -0.130117 -0.261710 -0.165125 0.363622 -0.139912 0.002348 -0.228621 -0.302370 0.323517 -0.014160 -0.175497 0.117156 0.085021 0.009962 0.207371 -0.242771 -0.211584 -0.199720 -0.510692 0.052099 -0.182845 0.402280 0.073711 0.084369 -0.373050 0.118878 0.187322 0.228049 -0.098908 -0.406379 0.144488 0.671877 0.076517 0.184431 -0.504478 0.435744 -0.181143 -0.197493 -0.372172 -0.073648 0.311461 -0.014267 -0.368171 -0.123481 0.398547 -0.438862 0.278841 0.310102 -0.132614 -0.415411 0.254632 -0.845909 -0.026220 -0.147829 0.042092 -0.356881 -0.125231 -0.027615 -0.437206 0.083255 0.050153 -0.019454 -0.010914 0.558725 0.349739 0.386559 0.105067 -0.151878 0.115215 -0.403329 0.089136 0.084068 0.296345 -0.076408 -0.049706 
world -0.076027 -0.498510 0.018121 -0.224590 0.059831 -0.089848 0.302387 0.137172 -0.013375 0.425063 0.020857 0.440886 -0.299184 -0.130809 -0.066117 0.254998 0.334997 0.346534 0.396067 0.271839 -0.019594 0.157913 0.067337 -0.540936 0.383487 -0.121684 -0.200152 -0.126203 0.313449 -0.112333 0.015286 -0.250648 -0.286050 0.240351 -0.098644 -0.160243 0.162463 0.005259 0.029556 0.143226 -0.235520 -0.106268 -0.138330 -0.452430 0.048415 -0.086099 0.381687 0.102296 -0.054657 -0.404130 0.094387 0.165857 0.209464 -0.067359 -0.254552 0.125482 0.581401 0.017997 0.060923 -0.541329 0.393340 -0.186142 -0.204534 -0.351266 -0.013237 0.290936 0.022742 -0.360923 -0.088060 0.334311 -0.425703 0.211215 0.341313 -0.123786 -0.384956 0.208018 -0.777005 -0.070384 -0.116089 -0.005328 -0.320149 -0.061083 0.026268 -0.396284 0.057113 0.068493 0.000993 -0.022289 0.529891 0.323785 0.342254 0.162054 -0.106063 0.067811 -0.342813 0.118332 0.048654 0.236923 -0.071712 0.037557 
cities -0.065684 -0.417966 0.011045 -0.174530 0.103856 -0.125219 0.278668 0.171292 -0.017835 0.382505 -0.050150 0.471414 -0.219667 -0.100516 -0.056675 0.194161 0.287516 0.251724 0.401958 0.217161 0.008467 0.115082 0.017392 -0.504860 0.398389 -0.108779 -0.235520 -0.151515 0.317785 -0.122240 0.006556 -0.215725 -0.280651 0.312232 -0.021925 -0.151717 0.130286 0.071301 0.025607 0.173890 -0.224358 -0.183883 -0.162430 -0.452540 0.040061 -0.142509 0.373807 0.077271 0.056233 -0.331243 0.095819 0.175550 0.208257 -0.078931 -0.337897 0.126914 0.586375 0.082314 0.126939 -0.465916 0.392079 -0.177610 -0.174212 -0.329271 -0.064299 0.276975 -0.013762 -0.325766 -0.115481 0.357524 -0.387563 0.231356 0.296387 -0.120033 -0.390339 0.249669 -0.772124 -0.029131 -0.141455 0.026250 -0.313566 -0.110375 -0.021792 -0.413637 0.088226 0.042007 -0.022399 -0.026789 0.516329 0.308724 0.354688 0.102609 -0.128197 0.102892 -0.369206 0.098153 0.056783 0.257915 -0.069670 -0.030898 
mosque -0.083464 -0.628655 -0.023139 -0.304230 0.102240 -0.038254 0.351358 0.167143 -0.066648 0.462069 0.030894 0.548963 -0.411024 -0.153771 -0.072143 0.292205 0.370113 0.431732 0.405674 0.384200 0.010632 0.145137 0.092055 -0.640726 0.416523 -0.138585 -0.284509 -0.165068 0.417789 -0.162854 0.016629 -0.288028 -0.356152 0.250355 -0.100301 -0.186307 0.210019 0.018853 0.035436 0.178088 -0.277292 -0.114231 -0.142543 -0.546192 0.065434 -0.104846 0.488657 0.138020 -0.095117 -0.524077 0.105379 0.174540 0.265657 -0.065489 -0.320706 0.193658 0.697546 0.022220 0.046788 -0.656736 0.471285 -0.202699 -0.279942 -0.434180 -0.036366 0.302892 0.008913 -0.404266 -0.060825 0.398957 -0.521505 0.268691 0.416307 -0.135519 -0.451572 0.273349 -0.931151 -0.056121 -0.156517 0.007237 -0.403243 -0.088223 0.046080 -0.432782 0.064270 0.107100 0.002841 -0.041257 0.631064 0.408791 0.435576 0.232320 -0.109358 0.064413 -0.428359 0.136953 0.069347 0.264408 -0.098597 0.061959 
social -0.113113 -0.665159 0.027181 -0.277002 0.073447 -0.108029 0.377157 0.191985 -0.037892 0.581313 -0.014004 0.660973 -0.374902 -0.140277 -0.089052 0.359960 0.455857 0.451316 0.544958 0.388971 -0.027765 0.201698 0.066954 -0.756625 0.565380 -0.184853 -0.310808 -0.196601 0.443215 -0.144419 0.015692 -0.353876 -0.410467 0.354315 -0.084207 -0.231595 0.199037 0.034808 0.028569 0.231758 -0.333510 -0.190950 -0.207668 -0.633974 0.066958 -0.166123 0.545533 0.129047 -0.023013 -0.531877 0.128411 0.235169 0.304853 -0.090730 -0.393106 0.168328 0.823579 0.037557 0.124186 -0.732563 0.557879 -0.235452 -0.298756 -0.483433 -0.044409 0.375302 0.003085 -0.504363 -0.134766 0.485527 -0.593827 0.315734 0.452806 -0.175334 -0.537370 0.295162 -1.111150 -0.072358 -0.136283 0.035438 -0.452146 -0.117575 0.034732 -0.572473 0.087937 0.072909 -0.015249 -0.039055 0.750574 0.461126 0.482717 0.182267 -0.157100 0.113762 -0.486083 0.134664 0.096918 0.351028 -0.100429 0.030880 
first -0.078261 -0.532188 0.005005 -0.253646 0.077008 -0.068308 0.307866 0.143867 -0.033932 0.427547 0.018394 0.482388 -0.337440 -0.128913 -0.073395 0.272107 0.337606 0.368192 0.399672 0.319468 -0.006863 0.158214 0.067505 -0.585326 0.397592 -0.133195 -0.234256 -0.143543 0.344710 -0.132995 0.016412 -0.251790 -0.313116 0.249943 -0.097985 -0.163286 0.161097 0.007476 0.024307 0.154057 -0.247959 -0.119388 -0.140322 -0.477089 0.052938 -0.107939 0.419033 0.112064 -0.058057 -0.437665 0.087026 0.175783 0.236371 -0.077520 -0.282912 0.147111 0.609529 0.014099 0.059590 -0.579940 0.423483 -0.182975 -0.224722 -0.377631 -0.030678 0.282498 0.012262 -0.360599 -0.068698 0.349685 -0.452172 0.230521 0.370459 -0.127252 -0.408771 0.234282 -0.818860 -0.055217 -0.131062 0.008651 -0.349784 -0.068795 0.019745 -0.408899 0.057832 0.075459 -0.005743 -0.031844 0.573389 0.336439 0.361178 0.181752 -0.116569 0.063039 -0.369125 0.122030 0.070018 0.241449 -0.091044 0.033723 
people -0.102208 -0.699648 0.009873 -0.313801 0.107347 -0.122409 0.401374 0.206952 -0.044442 0.564281 0.013434 0.628632 -0.436753 -0.176428 -0.094737 0.346179 0.442387 0.482036 0.543876 0.394709 -0.003527 0.205103 0.072650 -0.745566 0.544667 -0.153261 -0.317034 -0.197171 0.459423 -0.170817 0.008105 -0.333636 -0.401655 0.353899 -0.120980 -0.225107 0.225464 0.036943 0.033174 0.215421 -0.331717 -0.170649 -0.205497 -0.637553 0.058711 -0.140586 0.558480 0.131787 -0.049596 -0.561546 0.115098 0.250448 0.298238 -0.100379 -0.398155 0.193886 0.836075 0.042458 0.092099 -0.756835 0.576023 -0.246070 -0.300438 -0.492337 -0.049573 0.395764 0.004020 -0.484882 -0.109748 0.484769 -0.602111 0.306778 0.476016 -0.164806 -0.562400 0.312997 -1.117243 -0.075446 -0.172963 0.007696 -0.455387 -0.118463 0.020383 -0.567912 0.089513 0.094654 -0.015005 -0.047349 0.758646 0.459560 0.506123 0.213763 -0.162249 0.110039 -0.506052 0.165832 0.090375 0.337541 -0.110141 0.032155 
state -0.135420 -0.783244 0.024232 -0.348225 0.098335 -0.140599 0.457819 0.226448 -0.055238 0.645335 0.032849 0.683958 -0.478235 -0.202542 -0.110453 0.416127 0.530951 0.575420 0.624322 0.448982 -0.035846 0.226599 0.080307 -0.844987 0.579794 -0.172134 -0.328847 -0.207264 0.490653 -0.149345 0.017643 -0.387304 -0.448213 0.370528 -0.157084 -0.238152 0.277617 -0.007335 0.061403 0.216218 -0.372690 -0.155836 -0.203576 -0.696757 0.085235 -0.137087 0.605875 0.148546 -0.097397 -0.611510 0.135097 0.275839 0.347879 -0.105934 -0.387054 0.192335 0.882211 0.019684 0.072009 -0.853438 0.627367 -0.277940 -0.346315 -0.538338 -0.018554 0.440293 0.026563 -0.545894 -0.134479 0.521308 -0.651460 0.313828 0.554993 -0.189138 -0.600400 0.329036 -1.208195 -0.096429 -0.190240 -0.018407 -0.488010 -0.104997 0.052202 -0.624779 0.075113 0.088601 -0.023772 -0.053890 0.836065 0.495975 0.527593 0.248028 -0.160433 0.106163 -0.535853 0.186772 0.064510 0.354438 -0.107839 0.067827 
religions -0.142894 -0.898092 0.007081 -0.403015 0.123990 -0.146064 0.524199 0.262138 -0.056468 0.733539 0.029381 0.810151 -0.547510 -0.230743 -0.118109 0.447622 0.585819 0.626681 0.702489 0.509607 -0.010620 0.255849 0.099808 -0.964495 0.683616 -0.212819 -0.399321 -0.247119 0.582936 -0.204415 0.012609 -0.444591 -0.510437 0.429211 -0.152391 -0.279302 0.299524 0.028593 0.061041 0.264884 -0.426481 -0.201418 -0.239647 -0.816447 0.093766 -0.168409 0.717927 0.172092 -0.096437 -0.722547 0.154644 0.307293 0.394663 -0.119035 -0.488081 0.246395 1.049544 0.042871 0.104848 -0.968501 0.726198 -0.324291 -0.386298 -0.623622 -0.042722 0.499526 0.014059 -0.623220 -0.151170 0.616170 -0.765767 0.393908 0.621779 -0.210211 -0.697346 0.392615 -1.406456 -0.100563 -0.219364 0.001696 -0.585297 -0.139380 0.040281 -0.712788 0.103911 0.112933 -0.013063 -0.062820 0.955764 0.582426 0.625173 0.278326 -0.201951 0.123437 -0.642893 0.201168 0.100973 0.408166 -0.135895 0.055178 
during -0.096114 -0.626690 -0.004775 -0.291711 0.056865 -0.100105 0.367347 0.174077 -0.025393 0.517972 0.049387 0.525664 -0.410881 -0.168306 -0.076858 0.317189 0.412789 0.467229 0.464651 0.356074 -0.014365 0.195232 0.087556 -0.663939 0.443297 -0.157796 -0.250176 -0.164982 0.403818 -0.140255 0.000841 -0.303169 -0.356557 0.263109 -0.145897 -0.194703 0.213714 -0.006214 0.033031 0.162907 -0.285548 -0.099023 -0.144563 -0.548047 0.065592 -0.095178 0.491219 0.132791 -0.110188 -0.509854 0.114301 0.189140 0.276039 -0.065138 -0.288476 0.154913 0.700733 0.018543 0.054995 -0.695735 0.493027 -0.214981 -0.276326 -0.422222 -0.019822 0.350008 0.031008 -0.438470 -0.086430 0.393319 -0.530828 0.256194 0.432602 -0.157124 -0.468548 0.244401 -0.951721 -0.094341 -0.147136 -0.010052 -0.399438 -0.056231 0.048641 -0.474683 0.050351 0.084311 0.005357 -0.041219 0.653757 0.381560 0.424574 0.221592 -0.139155 0.064538 -0.428352 0.157974 0.076715 0.264508 -0.105858 0.057017 
azerbaijani -0.182177 -1.153135 0.007780 -0.516161 0.151949 -0.180662 0.675793 0.327145 -0.066210 0.932257 0.048847 1.026632 -0.705986 -0.304596 -0.146207 0.585799 0.757942 0.812906 0.891232 0.644372 -0.026507 0.339589 0.135153 -1.228310 0.859610 -0.266108 -0.484932 -0.310756 0.741416 -0.262880 0.013819 -0.557730 -0.655545 0.544486 -0.198446 -0.355523 0.386989 0.012700 0.070915 0.333270 -0.538557 -0.249214 -0.303706 -1.028178 0.128476 -0.217486 0.915313 0.229269 -0.129395 -0.924818 0.198687 0.386059 0.486795 -0.149415 -0.609330 0.302506 1.322910 0.051000 0.132708 -1.242417 0.920242 -0.401313 -0.491477 -0.789442 -0.051736 0.636182 0.024911 -0.792463 -0.192629 0.771881 -0.972144 0.499959 0.788359 -0.281280 -0.877230 0.493595 -1.786334 -0.130219 -0.279738 -0.004932 -0.739408 -0.167132 0.053227 -0.902095 0.130029 0.141394 -0.006182 -0.075475 1.225557 0.723144 0.798578 0.357752 -0.257032 0.153877 -0.811836 0.271126 0.129977 0.520530 -0.174929 0.072213 
country -0.073744 -0.483983 0.006117 -0.217285 0.048390 -0.077564 0.285503 0.126088 -0.022381 0.398566 0.032762 0.409046 -0.297046 -0.130708 -0.070344 0.250735 0.328513 0.355715 0.377445 0.264778 -0.019085 0.146682 0.061573 -0.507709 0.354651 -0.121151 -0.188689 -0.121498 0.291600 -0.090089 0.003299 -0.243363 -0.277747 0.207913 -0.104171 -0.140336 0.161813 -0.009865 0.030537 0.124690 -0.227137 -0.083111 -0.117384 -0.420744 0.045424 -0.065860 0.368625 0.096523 -0.062197 -0.381541 0.081199 0.155995 0.207617 -0.056122 -0.228876 0.111504 0.535800 0.006429 0.044203 -0.528228 0.376108 -0.169599 -0.198428 -0.323807 -0.005153 0.269560 0.012042 -0.338990 -0.075157 0.311423 -0.402859 0.197797 0.336120 -0.121346 -0.370767 0.182266 -0.730709 -0.067088 -0.108160 -0.010921 -0.310248 -0.057051 0.031223 -0.373426 0.043518 0.063289 0.002019 -0.025120 0.505097 0.293799 0.317978 0.148886 -0.102638 0.057778 -0.333306 0.112669 0.046179 0.217901 -0.069807 0.041272 
population -0.086028 -0.594742 0.020350 -0.281752 0.091685 -0.122318 0.369805 0.189550 -0.017435 0.509045 0.017200 0.536322 -0.370665 -0.159654 -0.080992 0.282805 0.367940 0.396591 0.475369 0.325480 0.002501 0.175706 0.071749 -0.634664 0.481188 -0.146516 -0.263299 -0.157472 0.413183 -0.167944 -0.003065 -0.283094 -0.326359 0.312884 -0.131244 -0.181173 0.175073 0.026511 0.032447 0.178986 -0.274046 -0.137968 -0.159285 -0.575180 0.056679 -0.131445 0.479797 0.128750 -0.043769 -0.492743 0.105586 0.205727 0.276543 -0.085392 -0.355220 0.172695 0.724492 0.043604 0.087386 -0.662942 0.493143 -0.216748 -0.264148 -0.428221 -0.036764 0.369527 0.021643 -0.432915 -0.098536 0.416373 -0.519626 0.281166 0.405848 -0.139508 -0.476313 0.269491 -0.946377 -0.074193 -0.165050 -0.009907 -0.391207 -0.081564 0.003347 -0.477129 0.067868 0.068392 -0.013239 -0.034421 0.660688 0.387106 0.458975 0.208448 -0.144567 0.084606 -0.442659 0.139348 0.080686 0.296065 -0.104112 0.019531 
russian -0.082791 -0.493613 0.013633 -0.220965 0.037292 -0.061229 0.282527 0.126520 -0.026252 0.396153 0.066066 0.367216 -0.308172 -0.143551 -0.067267 0.260158 0.356550 0.382810 0.390655 0.281475 -0.026922 0.144653 0.051469 -0.514116 0.345902 -0.105278 -0.163506 -0.114554 0.269701 -0.072035 0.020415 -0.247132 -0.255359 0.192747 -0.131729 -0.133395 0.191008 -0.063204 0.042179 0.121568 -0.229338 -0.058590 -0.126532 -0.417831 0.045555 -0.039657 0.365198 0.109461 -0.095042 -0.389701 0.078895 0.173174 0.182897 -0.054670 -0.193647 0.118207 0.504331 -0.010710 0.014031 -0.550535 0.366065 -0.172145 -0.211267 -0.308985 0.015432 0.255455 0.016887 -0.338476 -0.063511 0.312054 -0.388558 0.181320 0.355907 -0.109908 -0.366830 0.179423 -0.704796 -0.070513 -0.095557 -0.034885 -0.290920 -0.028014 0.029438 -0.366338 0.026150 0.049610 -0.025128 -0.041578 0.494327 0.255321 0.310459 0.147869 -0.088272 0.049762 -0.314388 0.122482 0.049195 0.203876 -0.042176 0.067100 
century -0.107545 -0.657974 -0.001826 -0.316043 0.099628 -0.088373 0.393976 0.191016 -0.029581 0.544251 0.020159 0.615689 -0.422656 -0.165707 -0.088246 0.333803 0.428106 0.468000 0.499755 0.389289 -0.005119 0.191711 0.078212 -0.728972 0.516562 -0.167487 -0.291232 -0.183212 0.453539 -0.173592 0.008713 -0.312098 -0.388351 0.307052 -0.112053 -0.219882 0.205017 0.030215 0.037950 0.210346 -0.328747 -0.152510 -0.179941 -0.629224 0.073334 -0.140360 0.543938 0.133329 -0.061014 -0.553231 0.133391 0.211448 0.295047 -0.076894 -0.377348 0.184803 0.778493 0.024165 0.095319 -0.729383 0.543530 -0.227430 -0.308171 -0.474268 -0.035277 0.370949 0.023336 -0.471691 -0.100950 0.454621 -0.580196 0.310747 0.454369 -0.171035 -0.512903 0.298291 -1.051259 -0.073460 -0.173070 0.000846 -0.445760 -0.091799 0.020258 -0.519465 0.081498 0.096265 -0.004445 -0.039464 0.715276 0.440036 0.486122 0.231631 -0.164185 0.081905 -0.491232 0.154335 0.085568 0.314522 -0.111815 0.039885 
communities -0.109450 -0.745206 0.013684 -0.327790 0.107133 -0.143636 0.438787 0.223751 -0.050428 0.612034 0.021180 0.674539 -0.450768 -0.187587 -0.091358 0.377182 0.496994 0.505611 0.593915 0.417688 -0.018233 0.214275 0.084010 -0.794110 0.568786 -0.171182 -0.325428 -0.213320 0.484966 -0.162958 0.009661 -0.373662 -0.424296 0.368357 -0.124710 -0.223967 0.245868 0.022667 0.051680 0.214824 -0.348953 -0.184198 -0.204669 -0.668476 0.070317 -0.146797 0.583818 0.139369 -0.068047 -0.584668 0.123980 0.265658 0.327993 -0.092524 -0.410248 0.200357 0.871205 0.041208 0.104900 -0.794814 0.593239 -0.274128 -0.316808 -0.519097 -0.046292 0.426196 0.015941 -0.508690 -0.128072 0.519056 -0.631245 0.328578 0.511337 -0.168739 -0.582466 0.329204 -1.167853 -0.091824 -0.187953 0.003510 -0.477017 -0.118653 0.024699 -0.594137 0.090518 0.098654 -0.005985 -0.045316 0.789322 0.471698 0.518718 0.230510 -0.166495 0.108560 -0.531000 0.169735 0.071086 0.355457 -0.107166 0.033776 
used -0.103947 -0.631992 0.001192 -0.275016 0.097313 -0.099552 0.369562 0.191620 -0.045159 0.513163 0.021013 0.585675 -0.390770 -0.155504 -0.077921 0.317505 0.412027 0.442550 0.500603 0.355819 -0.007840 0.185622 0.077052 -0.680983 0.483694 -0.151736 -0.288104 -0.175127 0.418708 -0.146285 0.012332 -0.309758 -0.365456 0.311399 -0.104779 -0.193323 0.206769 0.016900 0.048716 0.185359 -0.308179 -0.156532 -0.171149 -0.575756 0.064398 -0.131196 0.496378 0.122055 -0.051600 -0.507879 0.111303 0.211993 0.261821 -0.084717 -0.343789 0.176815 0.731368 0.039341 0.084588 -0.682555 0.501003 -0.229242 -0.266190 -0.433402 -0.039285 0.356771 0.002741 -0.440765 -0.105312 0.432231 -0.537876 0.279347 0.432908 -0.155313 -0.483615 0.286453 -1.001091 -0.065208 -0.147549 0.002640 -0.411613 -0.107034 0.026227 -0.505940 0.076324 0.081285 -0.016414 -0.034942 0.681684 0.406742 0.450532 0.196154 -0.147274 0.098075 -0.456991 0.132721 0.073097 0.299972 -0.094532 0.031729 
government -0.108029 -0.719930 0.013072 -0.327001 0.091521 -0.125432 0.413139 0.205928 -0.042033 0.568168 0.030494 0.621754 -0.445775 -0.191125 -0.090788 0.376562 0.488041 0.525759 0.568040 0.419908 -0.018702 0.214159 0.072531 -0.782742 0.541027 -0.164973 -0.306579 -0.194655 0.446867 -0.140010 0.007065 -0.351791 -0.391835 0.330535 -0.132016 -0.214555 0.245821 0.002685 0.047312 0.196666 -0.339271 -0.150465 -0.190364 -0.633402 0.076670 -0.121975 0.549305 0.140916 -0.072588 -0.563078 0.122401 0.242417 0.311021 -0.097915 -0.362317 0.178700 0.803355 0.015815 0.064665 -0.767110 0.571879 -0.258789 -0.307824 -0.473844 -0.026937 0.393098 0.023896 -0.486192 -0.115703 0.475766 -0.591048 0.304369 0.486578 -0.170507 -0.539702 0.298412 -1.096673 -0.081732 -0.160556 -0.002765 -0.448130 -0.105843 0.044271 -0.561090 0.071241 0.080068 -0.008538 -0.049579 0.752403 0.448738 0.486223 0.227371 -0.156698 0.102428 -0.486395 0.166981 0.076305 0.333592 -0.100856 0.050737 
political -0.069375 -0.403926 0.014342 -0.175054 0.047201 -0.075608 0.240397 0.124543 -0.018394 0.357556 -0.008884 0.402730 -0.235603 -0.093803 -0.057685 0.221012 0.283327 0.285814 0.348363 0.242382 -0.014203 0.128832 0.032936 -0.470268 0.341951 -0.117677 -0.194755 -0.119555 0.282395 -0.093892 0.003157 -0.214222 -0.250103 0.226158 -0.058136 -0.144791 0.133657 0.021117 0.009154 0.135724 -0.205211 -0.122999 -0.124987 -0.392640 0.046419 -0.094959 0.341934 0.073563 -0.013339 -0.327820 0.075313 0.151380 0.187892 -0.070534 -0.245999 0.100846 0.505395 0.019964 0.069253 -0.461204 0.348228 -0.149471 -0.187421 -0.299412 -0.033276 0.245772 0.003005 -0.309529 -0.076538 0.294239 -0.375920 0.197749 0.285975 -0.103565 -0.334678 0.180279 -0.684144 -0.050957 -0.091978 0.021526 -0.278508 -0.072265 0.020419 -0.349516 0.050473 0.048296 -0.009868 -0.026409 0.459568 0.290252 0.293306 0.108798 -0.103774 0.070699 -0.301931 0.081939 0.058329 0.215422 -0.063409 0.008851 
church -0.073889 -0.526167 0.008857 -0.226403 0.067029 -0.078919 0.297614 0.150711 -0.034888 0.417461 0.028332 0.455867 -0.328787 -0.142598 -0.064855 0.267872 0.350479 0.373394 0.410118 0.302138 -0.022381 0.147909 0.053181 -0.560765 0.385238 -0.118604 -0.215723 -0.138572 0.336798 -0.108372 0.012300 -0.264642 -0.285434 0.235494 -0.102693 -0.162342 0.185618 -0.009507 0.045140 0.144841 -0.250439 -0.101302 -0.132676 -0.464942 0.052729 -0.094983 0.402543 0.102071 -0.066326 -0.412473 0.084304 0.181794 0.222567 -0.067869 -0.268037 0.134699 0.597181 0.011250 0.049340 -0.566329 0.406351 -0.181687 -0.224701 -0.354035 -0.018880 0.281794 0.011264 -0.361544 -0.081184 0.358190 -0.429328 0.216031 0.365069 -0.121574 -0.400488 0.215740 -0.796167 -0.056293 -0.122771 -0.011490 -0.324115 -0.078199 0.034423 -0.409466 0.049271 0.065942 -0.011754 -0.037683 0.553421 0.324570 0.356733 0.160881 -0.109281 0.067371 -0.352718 0.118257 0.049852 0.238768 -0.066060 0.044779 
often -0.084713 -0.600842 -0.000645 -0.265727 0.094524 -0.099120 0.343566 0.176447 -0.053433 0.479004 0.017513 0.548371 -0.379468 -0.148930 -0.072576 0.305048 0.387297 0.414845 0.460239 0.333708 -0.002102 0.172074 0.074041 -0.638047 0.436918 -0.142171 -0.267269 -0.166365 0.397102 -0.146373 -0.004335 -0.307861 -0.350380 0.268819 -0.085995 -0.186406 0.201294 0.030388 0.050725 0.171177 -0.285118 -0.144981 -0.153439 -0.545962 0.063083 -0.117799 0.486666 0.128882 -0.063684 -0.480671 0.112213 0.199646 0.251669 -0.065724 -0.316830 0.170801 0.693252 0.029965 0.066630 -0.635131 0.485310 -0.215291 -0.267894 -0.416802 -0.037134 0.334865 0.008764 -0.407165 -0.093107 0.416864 -0.495361 0.272397 0.405683 -0.143639 -0.464025 0.264383 -0.939334 -0.068115 -0.144511 0.005541 -0.379887 -0.099392 0.038029 -0.477734 0.062253 0.086264 -0.000795 -0.032111 0.629677 0.386949 0.407857 0.190519 -0.136310 0.083635 -0.433642 0.125791 0.064381 0.269751 -0.078292 0.032310 
including -0.071208 -0.488190 0.006806 -0.222672 0.072301 -0.081050 0.287100 0.151923 -0.035912 0.394264 0.015909 0.441408 -0.303912 -0.116747 -0.060726 0.255362 0.326155 0.340395 0.384298 0.288288 -0.005632 0.139718 0.055222 -0.530579 0.383012 -0.114951 -0.216494 -0.136886 0.312601 -0.111878 0.014896 -0.245358 -0.283861 0.235666 -0.089098 -0.153070 0.158331 0.011743 0.028098 0.149064 -0.239620 -0.121384 -0.138189 -0.441773 0.052728 -0.101912 0.394246 0.090803 -0.035516 -0.393460 0.083888 0.166702 0.217456 -0.063992 -0.267557 0.137126 0.572834 0.019333 0.068494 -0.526910 0.396703 -0.175252 -0.219189 -0.347295 -0.019213 0.273852 0.014421 -0.340353 -0.091218 0.330580 -0.413913 0.215821 0.329121 -0.109226 -0.385624 0.214367 -0.777205 -0.057212 -0.117842 0.006922 -0.327397 -0.078556 0.017901 -0.399915 0.053610 0.062407 -0.013977 -0.028034 0.531054 0.321721 0.351765 0.152591 -0.114590 0.076337 -0.352410 0.107333 0.057860 0.240643 -0.078578 0.022140 
national -0.105112 -0.703259 0.010190 -0.312530 0.087430 -0.120371 0.416596 0.208059 -0.035370 0.572253 0.034990 0.634012 -0.437955 -0.186141 -0.091538 0.360476 0.463555 0.499577 0.550513 0.394300 -0.020080 0.197860 0.076160 -0.746471 0.528778 -0.169325 -0.292594 -0.189398 0.444701 -0.163733 0.007176 -0.348880 -0.402052 0.336207 -0.121764 -0.214493 0.235331 0.007398 0.053329 0.204610 -0.327426 -0.161353 -0.185322 -0.627938 0.074214 -0.125859 0.552802 0.146279 -0.078351 -0.567481 0.123185 0.238550 0.296095 -0.094811 -0.379772 0.191699 0.808281 0.029750 0.069240 -0.756551 0.572255 -0.249118 -0.292174 -0.480399 -0.030315 0.384155 0.013227 -0.489034 -0.116366 0.474066 -0.593912 0.304225 0.487492 -0.166580 -0.545900 0.299992 -1.086442 -0.084579 -0.178393 0.002435 -0.450670 -0.095217 0.035851 -0.556264 0.082005 0.085031 -0.009427 -0.046709 0.755201 0.444562 0.493123 0.227461 -0.150847 0.093575 -0.490929 0.170468 0.071642 0.312085 -0.092362 0.047272 
development -0.103672 -0.671713 0.041453 -0.288398 0.105421 -0.156104 0.395924 0.199013 -0.039188 0.585244 -0.016493 0.665242 -0.382143 -0.166344 -0.085232 0.351476 0.469110 0.455433 0.577077 0.349836 -0.005407 0.200515 0.059938 -0.763941 0.552086 -0.169025 -0.314034 -0.213415 0.444378 -0.145760 0.003028 -0.360225 -0.420486 0.370826 -0.089103 -0.227701 0.229145 0.032910 0.046515 0.206653 -0.340689 -0.201860 -0.200916 -0.631797 0.085810 -0.162535 0.552562 0.131188 -0.024602 -0.528155 0.110625 0.246070 0.313273 -0.115609 -0.398248 0.163696 0.815689 0.054714 0.134461 -0.727439 0.569341 -0.253646 -0.272948 -0.487916 -0.036428 0.408237 0.020198 -0.485998 -0.136832 0.489587 -0.583088 0.317551 0.476749 -0.172111 -0.539939 0.325147 -1.099674 -0.073634 -0.160798 0.011246 -0.452493 -0.136092 0.022000 -0.583027 0.092888 0.084630 -0.029419 -0.044901 0.749906 0.464135 0.476496 0.188472 -0.156280 0.116653 -0.493695 0.137805 0.056786 0.329773 -0.083638 0.008331 
countries -0.095618 -0.599824 0.001708 -0.265274 0.069954 -0.094405 0.340126 0.167232 -0.038259 0.490550 0.024892 0.529446 -0.373065 -0.151967 -0.072113 0.312091 0.383895 0.424272 0.451447 0.338748 -0.018523 0.174525 0.078268 -0.628596 0.436793 -0.154295 -0.259408 -0.162431 0.386360 -0.139160 0.003717 -0.300903 -0.343840 0.277611 -0.105797 -0.187480 0.203164 0.012393 0.038886 0.171841 -0.280977 -0.118359 -0.145835 -0.523969 0.062375 -0.106729 0.465149 0.121464 -0.077633 -0.474986 0.110366 0.193015 0.258436 -0.074534 -0.305261 0.161757 0.684167 0.016747 0.063115 -0.647198 0.471109 -0.207060 -0.252298 -0.416808 -0.025164 0.331640 0.017508 -0.407305 -0.101048 0.385677 -0.508117 0.249897 0.416646 -0.142204 -0.457952 0.245880 -0.922499 -0.077089 -0.152970 -0.004263 -0.386308 -0.073741 0.038978 -0.470109 0.058556 0.082392 -0.002766 -0.039415 0.636223 0.385818 0.411642 0.190407 -0.126854 0.079963 -0.420720 0.139165 0.063381 0.270904 -0.085359 0.044017 
major -0.073780 -0.513084 0.003024 -0.231229 0.064321 -0.086436 0.308077 0.154194 -0.026475 0.432857 0.018351 0.463167 -0.315781 -0.138300 -0.060609 0.260551 0.341216 0.359449 0.400785 0.293412 -0.016743 0.150740 0.055164 -0.542869 0.389672 -0.127202 -0.224346 -0.135730 0.335521 -0.116332 0.007682 -0.252067 -0.295363 0.248687 -0.097413 -0.160416 0.172169 0.008678 0.034317 0.144991 -0.246270 -0.117504 -0.135188 -0.466164 0.057145 -0.086584 0.412501 0.098167 -0.048873 -0.416848 0.100528 0.166532 0.219201 -0.073512 -0.275038 0.139022 0.597467 0.029299 0.061129 -0.558721 0.419677 -0.182327 -0.219159 -0.349974 -0.021771 0.291164 0.013081 -0.350533 -0.092378 0.351000 -0.432202 0.219988 0.354362 -0.122578 -0.387963 0.216552 -0.805838 -0.066350 -0.126653 -0.006603 -0.336021 -0.074289 0.019801 -0.406908 0.047496 0.067074 0.005144 -0.034695 0.545154 0.322420 0.358855 0.165363 -0.116094 0.066729 -0.367075 0.119582 0.054994 0.239100 -0.079128 0.038133 
muslims -0.066891 -0.502672 -0.004000 -0.237677 0.072777 -0.059703 0.267636 0.132795 -0.037488 0.380726 0.035549 0.418106 -0.326281 -0.139653 -0.055131 0.235381 0.300975 0.342990 0.333286 0.300858 -0.007368 0.117539 0.059216 -0.497660 0.340873 -0.110421 -0.224764 -0.129306 0.323579 -0.132795 -0.004811 -0.226445 -0.266235 0.202786 -0.089818 -0.151338 0.158999 0.027416 0.045218 0.142501 -0.219436 -0.088492 -0.100489 -0.440313 0.043248 -0.077348 0.376103 0.096910 -0.088042 -0.399591 0.091781 0.161409 0.210522 -0.041265 -0.236812 0.137845 0.557855 0.019007 0.025785 -0.516940 0.373833 -0.152195 -0.219269 -0.338974 -0.014153 0.260253 0.017131 -0.320671 -0.063131 0.316869 -0.393306 0.205502 0.331925 -0.112863 -0.369414 0.214720 -0.728929 -0.067268 -0.116859 0.005552 -0.313199 -0.075321 0.028447 -0.352137 0.038666 0.069834 -0.002554 -0.030100 0.500478 0.307217 0.331686 0.174795 -0.103686 0.043494 -0.336230 0.112595 0.053180 0.199301 -0.074996 0.047391 
states -0.125136 -0.708503 0.018304 -0.290304 0.069309 -0.116171 0.400762 0.180969 -0.040202 0.568806 0.044669 0.579020 -0.419725 -0.178992 -0.107990 0.376032 0.466286 0.492878 0.537680 0.381842 -0.028543 0.222340 0.089173 -0.713994 0.498141 -0.166356 -0.248828 -0.189319 0.406129 -0.123327 0.016267 -0.371784 -0.387750 0.305753 -0.148369 -0.226388 0.239420 -0.033983 0.068858 0.182626 -0.326199 -0.115325 -0.175706 -0.589637 0.071234 -0.094581 0.524152 0.132963 -0.105851 -0.549757 0.107810 0.237693 0.285294 -0.080967 -0.322430 0.155505 0.767393 -0.000072 0.057674 -0.757498 0.537383 -0.236924 -0.294666 -0.465122 -0.006963 0.386303 0.032364 -0.466745 -0.111380 0.448363 -0.575002 0.261591 0.488107 -0.165518 -0.510094 0.262579 -1.058809 -0.105406 -0.159968 -0.041801 -0.428479 -0.072582 0.053844 -0.559637 0.061089 0.096617 0.004367 -0.039408 0.735405 0.406548 0.448922 0.211706 -0.135752 0.076110 -0.457724 0.167545 0.062372 0.304145 -0.090330 0.088509 
muslim -0.072742 -0.559975 0.008147 -0.242915 0.078497 -0.094373 0.298554 0.147751 -0.046041 0.423007 0.020717 0.486524 -0.338538 -0.144492 -0.071322 0.270409 0.357497 0.377820 0.409589 0.315810 -0.008780 0.152268 0.072965 -0.564575 0.390863 -0.109265 -0.248850 -0.136410 0.350479 -0.133852 -0.003570 -0.273027 -0.301725 0.228997 -0.091053 -0.172224 0.170343 0.021920 0.046892 0.149076 -0.256265 -0.111139 -0.137050 -0.490468 0.048242 -0.086182 0.434553 0.113411 -0.066963 -0.426504 0.084393 0.185655 0.237661 -0.075450 -0.281159 0.151184 0.614758 0.022593 0.057019 -0.569960 0.418807 -0.179066 -0.228259 -0.375618 -0.030633 0.304362 0.024995 -0.358649 -0.096212 0.369523 -0.442946 0.223761 0.374711 -0.125401 -0.419425 0.230582 -0.832076 -0.069185 -0.133014 0.006928 -0.339253 -0.087726 0.029928 -0.417682 0.064239 0.067917 -0.015476 -0.035585 0.572398 0.330018 0.369781 0.181180 -0.128785 0.070753 -0.391935 0.125688 0.047116 0.228568 -0.072594 0.048840 
economic -0.084910 -0.387232 0.032897 -0.156822 0.053473 -0.084715 0.235865 0.116683 -0.023052 0.364581 -0.011846 0.406609 -0.214992 -0.090827 -0.062543 0.226625 0.284822 0.266381 0.355388 0.207071 -0.014444 0.134806 0.030038 -0.462532 0.337121 -0.113228 -0.180254 -0.135896 0.258671 -0.077981 0.006272 -0.225856 -0.257867 0.234761 -0.062285 -0.137418 0.136820 0.014168 0.017102 0.134229 -0.204604 -0.118620 -0.126378 -0.383104 0.046841 -0.110354 0.322233 0.080404 -0.015721 -0.314908 0.070002 0.153004 0.194091 -0.062279 -0.245186 0.087732 0.493724 0.034725 0.079105 -0.439977 0.335712 -0.147816 -0.161883 -0.296975 -0.027617 0.248070 0.016229 -0.306934 -0.098152 0.289067 -0.355600 0.188013 0.276079 -0.105834 -0.317297 0.183813 -0.674160 -0.045963 -0.094485 0.001305 -0.275548 -0.074320 0.017844 -0.361235 0.050163 0.056703 -0.016957 -0.017862 0.450543 0.275714 0.292539 0.102012 -0.114513 0.074646 -0.285043 0.079458 0.044802 0.209802 -0.061567 -0.001647 
when -0.112697 -0.749279 0.006413 -0.336555 0.106331 -0.114327 0.436710 0.202444 -0.044578 0.622974 0.032661 0.674662 -0.476823 -0.191262 -0.110344 0.377191 0.495276 0.536686 0.582642 0.437700 -0.017119 0.215173 0.091776 -0.792805 0.561144 -0.182838 -0.318851 -0.205401 0.485675 -0.165717 0.009550 -0.381071 -0.435969 0.353321 -0.146682 -0.226606 0.252707 0.003383 0.047875 0.214606 -0.355652 -0.163603 -0.196950 -0.670245 0.073881 -0.131949 0.603414 0.152173 -0.084919 -0.615768 0.127167 0.257103 0.323619 -0.092804 -0.390927 0.202363 0.865418 0.023799 0.076136 -0.829800 0.605811 -0.264448 -0.330464 -0.520640 -0.029099 0.410516 0.018771 -0.516313 -0.118228 0.505662 -0.645958 0.312456 0.518511 -0.186638 -0.573570 0.313628 -1.172854 -0.091952 -0.180636 -0.000232 -0.486972 -0.105501 0.041618 -0.604102 0.074359 0.104482 -0.001280 -0.050616 0.806068 0.467501 0.530998 0.237807 -0.166746 0.099632 -0.533927 0.173433 0.090417 0.341632 -0.121560 0.060883 
central -0.107813 -0.634654 0.010508 -0.290962 0.079935 -0.092025 0.375711 0.183379 -0.041310 0.524662 0.014885 0.572615 -0.400407 -0.148583 -0.080989 0.337815 0.412303 0.439685 0.496780 0.363344 -0.027015 0.185917 0.079184 -0.685153 0.478612 -0.151836 -0.262531 -0.173669 0.408499 -0.135616 0.007054 -0.331645 -0.368356 0.298588 -0.108949 -0.192565 0.213874 0.009963 0.039469 0.176868 -0.299117 -0.137991 -0.158180 -0.550981 0.071026 -0.114637 0.492682 0.136233 -0.064395 -0.492842 0.111707 0.207207 0.276118 -0.086208 -0.325974 0.176008 0.739389 0.010017 0.064358 -0.673050 0.505871 -0.218905 -0.277489 -0.433876 -0.031188 0.349962 0.022237 -0.448967 -0.111250 0.429059 -0.529599 0.278510 0.442612 -0.132927 -0.478098 0.262609 -0.987063 -0.068799 -0.155121 -0.005465 -0.416876 -0.082865 0.033652 -0.492183 0.072086 0.091433 -0.011010 -0.039752 0.670922 0.412631 0.432435 0.196963 -0.130116 0.073722 -0.442195 0.144773 0.056392 0.284247 -0.074733 0.034559 
power -0.091213 -0.598350 0.012971 -0.268401 0.077564 -0.114859 0.353161 0.166926 -0.040385 0.499736 0.024402 0.534848 -0.359994 -0.161391 -0.082531 0.321239 0.407930 0.431145 0.499614 0.349479 -0.023004 0.192556 0.060626 -0.664691 0.473041 -0.143408 -0.259652 -0.159832 0.379578 -0.116108 0.008741 -0.297526 -0.343543 0.302579 -0.100288 -0.187283 0.203980 -0.002041 0.033630 0.171411 -0.284400 -0.132463 -0.170973 -0.540495 0.062703 -0.111398 0.474968 0.111532 -0.044207 -0.463362 0.112948 0.206177 0.267494 -0.077775 -0.313648 0.148924 0.691799 0.030483 0.068643 -0.648503 0.494677 -0.216283 -0.256751 -0.400613 -0.017852 0.344732 0.022562 -0.417033 -0.096086 0.404308 -0.511587 0.257686 0.414950 -0.140811 -0.459552 0.252433 -0.944415 -0.068579 -0.140324 -0.014367 -0.384589 -0.091635 0.020606 -0.488553 0.062555 0.070168 -0.015021 -0.032751 0.642256 0.373342 0.419699 0.177499 -0.136224 0.079752 -0.423187 0.146531 0.064205 0.277723 -0.094691 0.045972 
prayer -0.083275 -0.699296 -0.022235 -0.323170 0.110946 -0.080546 0.358846 0.185406 -0.056154 0.510692 0.029181 0.587779 -0.465663 -0.188366 -0.081725 0.322624 0.390445 0.472771 0.443901 0.429622 0.016195 0.161187 0.094339 -0.681383 0.457093 -0.139138 -0.311585 -0.189031 0.454425 -0.174170 -0.014912 -0.321909 -0.368211 0.257935 -0.100748 -0.201382 0.239228 0.039089 0.039242 0.188031 -0.307354 -0.126300 -0.151848 -0.597491 0.056630 -0.101388 0.540469 0.153294 -0.135356 -0.544789 0.122113 0.219485 0.294545 -0.059378 -0.330618 0.197021 0.765947 0.029662 0.023862 -0.710483 0.539511 -0.212767 -0.315440 -0.471625 -0.034751 0.346012 0.021863 -0.428507 -0.072992 0.441805 -0.557929 0.294959 0.460586 -0.156371 -0.500152 0.285433 -1.012428 -0.071857 -0.152680 0.025012 -0.416087 -0.122234 0.048310 -0.491859 0.066898 0.105139 -0.010903 -0.045679 0.706574 0.428727 0.469885 0.245791 -0.126020 0.087233 -0.460586 0.152387 0.071194 0.276408 -0.089070 0.068103 
modern -0.117781 -0.789354 0.004741 -0.365227 0.109845 -0.121778 0.469414 0.221870 -0.046496 0.634287 0.022432 0.721613 -0.483162 -0.202314 -0.096566 0.394437 0.520371 0.556584 0.616501 0.449620 -0.011762 0.228039 0.093913 -0.851738 0.602010 -0.188690 -0.346162 -0.225038 0.524951 -0.189168 0.011502 -0.395286 -0.464616 0.371367 -0.139185 -0.249069 0.261831 0.020086 0.048980 0.235959 -0.373219 -0.184779 -0.213996 -0.725217 0.092939 -0.155549 0.631190 0.156738 -0.075453 -0.644155 0.143514 0.268277 0.349178 -0.096172 -0.437887 0.220829 0.924563 0.033595 0.103249 -0.863733 0.632093 -0.283877 -0.345224 -0.553182 -0.043132 0.425979 0.014156 -0.540389 -0.128422 0.544582 -0.669920 0.348009 0.549655 -0.190519 -0.602060 0.344991 -1.249651 -0.102381 -0.197626 0.007451 -0.522492 -0.116770 0.041501 -0.624277 0.088538 0.107702 -0.013526 -0.042618 0.852915 0.516940 0.560270 0.251305 -0.171878 0.110570 -0.563973 0.173232 0.094448 0.363578 -0.114762 0.047867 
part -0.065997 -0.461278 0.008350 -0.200010 0.060661 -0.071547 0.269827 0.136794 -0.035589 0.371044 0.021355 0.403972 -0.281997 -0.127810 -0.051910 0.243138 0.293691 0.317782 0.357612 0.263986 -0.007966 0.131905 0.060349 -0.488933 0.337000 -0.113992 -0.192386 -0.127604 0.296345 -0.100686 0.003024 -0.237842 -0.266553 0.199035 -0.084660 -0.148281 0.161694 0.012850 0.033573 0.126566 -0.216691 -0.090364 -0.113065 -0.398946 0.057615 -0.078044 0.357705 0.092868 -0.050522 -0.359560 0.090114 0.142542 0.188639 -0.058571 -0.225770 0.114298 0.523821 0.015929 0.044852 -0.492167 0.356801 -0.156032 -0.201647 -0.319749 -0.017579 0.252696 0.010560 -0.310913 -0.076328 0.303646 -0.376458 0.209978 0.318443 -0.110199 -0.351335 0.180342 -0.704457 -0.063834 -0.100526 0.006334 -0.294647 -0.068400 0.027183 -0.349473 0.044959 0.056730 -0.008847 -0.028598 0.477146 0.293938 0.312875 0.150258 -0.093952 0.061866 -0.316249 0.100139 0.050451 0.195340 -0.063646 0.036603 
within -0.095276 -0.656772 0.004512 -0.296379 0.106172 -0.110471 0.377666 0.196334 -0.039779 0.528521 0.013953 0.605153 -0.418572 -0.170751 -0.093305 0.338231 0.426363 0.451416 0.500752 0.382667 -0.013851 0.182998 0.080930 -0.703367 0.499614 -0.158019 -0.301394 -0.190293 0.444503 -0.166493 0.009859 -0.318562 -0.374280 0.320511 -0.100875 -0.213044 0.217233 0.037564 0.037763 0.202041 -0.310603 -0.147502 -0.172935 -0.603683 0.065570 -0.129179 0.535995 0.126285 -0.067457 -0.534037 0.110726 0.214479 0.297448 -0.087235 -0.359624 0.189667 0.766100 0.037263 0.072688 -0.711811 0.530496 -0.238144 -0.294846 -0.473359 -0.044702 0.374262 0.016931 -0.448063 -0.098107 0.450069 -0.563096 0.290035 0.450948 -0.157615 -0.515685 0.292293 -1.032552 -0.079832 -0.163958 0.016821 -0.435648 -0.099935 0.031992 -0.521067 0.080889 0.094432 -0.011828 -0.048385 0.713557 0.432641 0.476639 0.221457 -0.142233 0.095054 -0.475369 0.148799 0.078568 0.308787 -0.102258 0.046374 
include -0.123909 -0.787452 0.001975 -0.350044 0.114554 -0.130340 0.460546 0.229865 -0.051498 0.648350 0.024312 0.716996 -0.483171 -0.204576 -0.107055 0.404871 0.521227 0.549073 0.605343 0.449187 -0.011712 0.224630 0.092609 -0.846330 0.593455 -0.185387 -0.349254 -0.220165 0.510088 -0.189705 0.007372 -0.387708 -0.446626 0.371440 -0.130776 -0.247136 0.263147 0.024002 0.053471 0.228299 -0.374539 -0.181109 -0.206438 -0.718005 0.080594 -0.155299 0.630154 0.159613 -0.087411 -0.638574 0.138104 0.260310 0.339706 -0.106874 -0.421151 0.211513 0.914721 0.041425 0.093633 -0.853180 0.638252 -0.279062 -0.337859 -0.556007 -0.039620 0.434946 0.017116 -0.541796 -0.127854 0.532980 -0.676406 0.350124 0.545526 -0.185655 -0.618213 0.343643 -1.229058 -0.088987 -0.194972 0.012055 -0.515358 -0.124940 0.043738 -0.624441 0.085294 0.096246 -0.011836 -0.051929 0.849115 0.512439 0.552277 0.251519 -0.177394 0.112823 -0.564921 0.175175 0.085228 0.357262 -0.122758 0.050825 
international -0.098765 -0.618848 0.010967 -0.265960 0.079759 -0.109553 0.363380 0.171626 -0.030080 0.508061 0.026716 0.539927 -0.374785 -0.171880 -0.087669 0.318634 0.417402 0.439323 0.499834 0.329668 -0.020933 0.198280 0.069520 -0.661346 0.461684 -0.141747 -0.243624 -0.167966 0.377643 -0.113218 0.003040 -0.314853 -0.359593 0.282959 -0.105638 -0.179644 0.209630 -0.000455 0.053964 0.181188 -0.291023 -0.122661 -0.160117 -0.556818 0.071174 -0.104615 0.474462 0.118161 -0.075097 -0.489347 0.114579 0.221665 0.261704 -0.071328 -0.320496 0.161389 0.708790 0.021779 0.060904 -0.663917 0.506028 -0.225012 -0.249734 -0.422347 -0.020880 0.355793 0.017717 -0.428983 -0.110025 0.407053 -0.513198 0.259060 0.425832 -0.153488 -0.479866 0.246940 -0.961806 -0.082270 -0.151825 -0.006960 -0.402201 -0.083883 0.026368 -0.495265 0.060850 0.074108 -0.001596 -0.042627 0.658221 0.381765 0.434935 0.187406 -0.125503 0.082278 -0.430066 0.152895 0.058978 0.285028 -0.080428 0.041532 
early -0.094311 -0.606340 -0.006350 -0.287962 0.066913 -0.096185 0.363017 0.174404 -0.025128 0.498175 0.032855 0.541372 -0.382721 -0.163285 -0.083079 0.307158 0.402566 0.441324 0.480239 0.348441 -0.012545 0.191151 0.073551 -0.660000 0.462087 -0.147099 -0.246354 -0.157797 0.403220 -0.133475 0.013613 -0.300563 -0.357124 0.271013 -0.123295 -0.204902 0.205936 -0.007646 0.025499 0.178313 -0.302019 -0.136837 -0.169259 -0.562922 0.062365 -0.103899 0.496198 0.122579 -0.083576 -0.489287 0.115550 0.204249 0.265389 -0.079894 -0.313869 0.149483 0.705383 0.019805 0.065141 -0.671143 0.498802 -0.221530 -0.271590 -0.417168 -0.021300 0.334893 0.020373 -0.427321 -0.091491 0.411303 -0.531782 0.271620 0.427449 -0.160512 -0.473169 0.253430 -0.943195 -0.076654 -0.137388 -0.000908 -0.401692 -0.068410 0.037244 -0.480568 0.060239 0.070177 0.003503 -0.031826 0.655289 0.379879 0.417158 0.190806 -0.144626 0.070224 -0.430339 0.143571 0.077279 0.276681 -0.104574 0.044250 
large -0.089557 -0.642452 -0.005114 -0.284387 0.098849 -0.107873 0.378697 0.196618 -0.044891 0.518388 0.014946 0.587700 -0.405010 -0.158570 -0.073850 0.305824 0.410767 0.428138 0.505378 0.371127 0.004528 0.175318 0.076179 -0.698223 0.492535 -0.158807 -0.296178 -0.172540 0.427298 -0.153816 -0.002105 -0.311151 -0.377108 0.314433 -0.103483 -0.207047 0.210827 0.024795 0.035540 0.190748 -0.299797 -0.163300 -0.172111 -0.589188 0.069508 -0.136785 0.514483 0.128554 -0.046649 -0.515190 0.122860 0.214050 0.276103 -0.080417 -0.364505 0.177064 0.769968 0.040920 0.095492 -0.693905 0.527625 -0.228583 -0.286020 -0.445605 -0.046058 0.361957 0.005121 -0.447775 -0.103049 0.445988 -0.553089 0.296243 0.442289 -0.156446 -0.499492 0.298205 -1.017000 -0.061159 -0.174985 0.015602 -0.417858 -0.100652 0.028856 -0.509115 0.071606 0.087153 -0.008539 -0.038172 0.694385 0.420363 0.474208 0.210345 -0.146985 0.099506 -0.476213 0.145088 0.077266 0.309383 -0.093941 0.028003 
number -0.077722 -0.500104 0.000910 -0.218745 0.064242 -0.087112 0.277249 0.143591 -0.040399 0.385104 0.027059 0.447795 -0.325833 -0.132368 -0.056525 0.252798 0.326585 0.352256 0.371643 0.274558 0.002954 0.126020 0.061092 -0.522877 0.365964 -0.118433 -0.215737 -0.140793 0.328916 -0.122904 -0.016560 -0.244197 -0.282838 0.220022 -0.079688 -0.154157 0.181546 0.026702 0.036114 0.148742 -0.228222 -0.114571 -0.122074 -0.441273 0.054628 -0.089830 0.409127 0.113113 -0.071243 -0.399472 0.080052 0.161498 0.213935 -0.053574 -0.249049 0.135002 0.566255 0.020170 0.050236 -0.517311 0.388028 -0.165020 -0.207064 -0.338433 -0.027840 0.266337 0.019028 -0.323812 -0.074962 0.331315 -0.404775 0.226723 0.350480 -0.116544 -0.390534 0.217592 -0.748109 -0.052399 -0.121220 0.003607 -0.316775 -0.067015 0.029626 -0.382678 0.039306 0.061088 -0.012835 -0.032644 0.519664 0.320647 0.344845 0.158952 -0.106614 0.056098 -0.343559 0.121904 0.047796 0.223068 -0.076297 0.025609 
local -0.101380 -0.616173 0.019373 -0.277083 0.095481 -0.139206 0.374059 0.189155 -0.039785 0.515678 0.007001 0.572399 -0.387149 -0.164318 -0.083114 0.311179 0.428207 0.427975 0.521838 0.353611 -0.017731 0.184809 0.065874 -0.679527 0.478004 -0.140126 -0.277608 -0.185242 0.401903 -0.139382 0.012050 -0.317184 -0.354578 0.324826 -0.098722 -0.185441 0.211449 0.015227 0.049061 0.188497 -0.298031 -0.160796 -0.179392 -0.565525 0.073341 -0.121338 0.501092 0.108808 -0.044931 -0.485067 0.119178 0.217918 0.280826 -0.076885 -0.352340 0.167136 0.738779 0.035629 0.082873 -0.683498 0.514521 -0.243501 -0.261003 -0.440991 -0.025774 0.367817 0.013017 -0.431531 -0.115614 0.443917 -0.526333 0.278116 0.433123 -0.148689 -0.490387 0.272098 -0.995024 -0.066045 -0.162931 -0.007061 -0.406002 -0.110051 0.019522 -0.513161 0.073126 0.070009 -0.016351 -0.046392 0.674315 0.393907 0.449788 0.185043 -0.141231 0.091252 -0.444770 0.145064 0.059945 0.304413 -0.091287 0.022172 
islamic -0.085530 -0.606168 -0.006101 -0.276646 0.083281 -0.066204 0.328692 0.153706 -0.054784 0.456803 0.017971 0.534279 -0.386507 -0.147919 -0.078031 0.294886 0.374167 0.411576 0.414701 0.350869 0.002846 0.164377 0.070593 -0.616716 0.428900 -0.128280 -0.265490 -0.164649 0.398563 -0.155315 0.002950 -0.289010 -0.340170 0.246771 -0.088577 -0.184828 0.203271 0.031157 0.045519 0.163526 -0.276288 -0.126252 -0.142331 -0.525412 0.060625 -0.112806 0.460499 0.124601 -0.084518 -0.476422 0.100274 0.192505 0.259797 -0.066671 -0.312257 0.167047 0.667177 0.019709 0.057736 -0.627591 0.459874 -0.195548 -0.264288 -0.417514 -0.028330 0.312420 0.010006 -0.390694 -0.083286 0.392850 -0.498316 0.260278 0.407403 -0.129811 -0.455397 0.266079 -0.907229 -0.066699 -0.143952 0.009629 -0.377324 -0.083513 0.032692 -0.434294 0.066056 0.087110 -0.005447 -0.027184 0.615978 0.387551 0.404341 0.205663 -0.121982 0.075088 -0.408468 0.132463 0.068328 0.255029 -0.080521 0.046110 
among -0.079978 -0.477510 -0.000797 -0.206840 0.056399 -0.073898 0.262576 0.136189 -0.029747 0.381735 0.024874 0.419715 -0.286423 -0.121922 -0.063627 0.252127 0.311020 0.338155 0.365597 0.267235 -0.006002 0.132038 0.049653 -0.508788 0.355681 -0.112577 -0.209560 -0.133725 0.305284 -0.099066 0.006082 -0.237883 -0.279629 0.219398 -0.083164 -0.153020 0.159827 0.003581 0.025492 0.134021 -0.224678 -0.098833 -0.129047 -0.419114 0.048437 -0.083774 0.382297 0.106986 -0.064625 -0.379571 0.078948 0.159595 0.198762 -0.064795 -0.239533 0.121919 0.546276 0.014138 0.048764 -0.518759 0.377199 -0.174056 -0.206265 -0.319583 -0.029303 0.257949 0.007385 -0.318562 -0.078119 0.310447 -0.405277 0.201964 0.335180 -0.114181 -0.368930 0.199730 -0.727112 -0.051035 -0.099789 0.001931 -0.309837 -0.070534 0.035770 -0.365916 0.055321 0.053500 0.001267 -0.034320 0.501773 0.298933 0.322985 0.139756 -0.098053 0.059318 -0.326359 0.109450 0.046949 0.215717 -0.065068 0.043300 
several -0.070605 -0.412856 -0.001844 -0.185796 0.037198 -0.058351 0.243841 0.115453 -0.016594 0.346936 0.038016 0.358462 -0.266485 -0.111582 -0.055080 0.207859 0.284412 0.310025 0.325176 0.238714 -0.015533 0.125308 0.052474 -0.442127 0.316139 -0.098468 -0.164798 -0.113329 0.261556 -0.087546 -0.000120 -0.209214 -0.238054 0.180083 -0.081111 -0.129288 0.138266 -0.015527 0.023679 0.123767 -0.202053 -0.078544 -0.105446 -0.378658 0.040754 -0.059748 0.325714 0.093114 -0.063360 -0.346562 0.083257 0.132558 0.180400 -0.044048 -0.199009 0.108035 0.472459 0.004479 0.041047 -0.460733 0.327453 -0.145839 -0.179710 -0.275640 -0.001958 0.222344 0.015442 -0.287409 -0.060617 0.280326 -0.363296 0.171450 0.301512 -0.112118 -0.316536 0.171494 -0.645404 -0.053304 -0.091660 0.000791 -0.266766 -0.046263 0.027913 -0.327127 0.031818 0.053330 0.002347 -0.031710 0.441819 0.247788 0.298297 0.130073 -0.086657 0.042871 -0.287120 0.102012 0.049861 0.192751 -0.064038 0.033606 
republic -0.109210 -0.666852 0.007842 -0.291459 0.079397 -0.098276 0.391714 0.173167 -0.039717 0.543126 0.037675 0.560156 -0.410011 -0.179629 -0.094104 0.349861 0.453295 0.492317 0.528417 0.382903 -0.018251 0.203505 0.083726 -0.703165 0.491998 -0.153160 -0.259419 -0.164581 0.410174 -0.123075 0.009368 -0.325644 -0.370403 0.295405 -0.134970 -0.199420 0.231614 -0.014231 0.046145 0.181702 -0.302155 -0.119667 -0.171663 -0.579296 0.075853 -0.103429 0.510156 0.133705 -0.088391 -0.541295 0.126998 0.224291 0.268841 -0.077649 -0.321269 0.170267 0.731987 0.006736 0.042891 -0.721798 0.533953 -0.234068 -0.287676 -0.453017 -0.013900 0.363778 0.012397 -0.456153 -0.098841 0.439336 -0.556501 0.273095 0.459496 -0.167034 -0.503037 0.265356 -1.016895 -0.093024 -0.155428 -0.012646 -0.416158 -0.062823 0.033709 -0.510531 0.061888 0.092178 -0.013602 -0.044198 0.701982 0.399376 0.463794 0.209758 -0.137670 0.075397 -0.454351 0.168224 0.065629 0.295558 -0.081436 0.052687 
largest -0.050668 -0.362868 0.001899 -0.177434 0.054974 -0.059338 0.220665 0.118755 -0.010477 0.306719 0.021479 0.313670 -0.219936 -0.099419 -0.042674 0.177621 0.223034 0.238477 0.273630 0.207053 0.005326 0.104761 0.042281 -0.385488 0.286000 -0.083872 -0.155313 -0.091214 0.251386 -0.105999 -0.000805 -0.157849 -0.201466 0.168509 -0.093638 -0.117822 0.109604 0.015804 0.013832 0.113759 -0.166991 -0.067951 -0.095080 -0.350217 0.035820 -0.072985 0.281193 0.073006 -0.039824 -0.300879 0.069308 0.124817 0.160050 -0.036974 -0.200860 0.107720 0.424804 0.010133 0.053214 -0.400831 0.292553 -0.116885 -0.171092 -0.259234 -0.010326 0.216594 0.015429 -0.260912 -0.053692 0.243049 -0.316430 0.162116 0.250864 -0.097864 -0.284145 0.150154 -0.570653 -0.051248 -0.097104 -0.006067 -0.242079 -0.042971 0.008286 -0.282687 0.032725 0.044803 -0.008886 -0.023519 0.388165 0.227504 0.274534 0.141566 -0.089963 0.036558 -0.264411 0.093549 0.054934 0.173847 -0.056803 0.012405 
according -0.100106 -0.665007 0.004147 -0.297171 0.103352 -0.125564 0.382330 0.198415 -0.045135 0.537606 0.010592 0.605361 -0.405712 -0.173807 -0.085473 0.334260 0.430807 0.457399 0.513984 0.383848 0.000602 0.193912 0.069956 -0.715045 0.508864 -0.159079 -0.298010 -0.184244 0.447297 -0.154777 0.001296 -0.317189 -0.387568 0.321466 -0.110772 -0.214111 0.216378 0.035082 0.043430 0.197230 -0.318729 -0.157817 -0.181692 -0.615433 0.066640 -0.137599 0.537195 0.135520 -0.062643 -0.530073 0.123426 0.222248 0.298169 -0.086029 -0.366886 0.176598 0.780501 0.033978 0.077279 -0.719755 0.537903 -0.229998 -0.288280 -0.471504 -0.031631 0.380950 0.018517 -0.456261 -0.112327 0.458407 -0.566909 0.295761 0.450072 -0.164419 -0.526572 0.290671 -1.047841 -0.082960 -0.164851 -0.001450 -0.435659 -0.110367 0.018866 -0.531452 0.076975 0.079809 -0.013357 -0.041789 0.712478 0.421725 0.473697 0.212056 -0.151319 0.098557 -0.480417 0.154194 0.077214 0.317339 -0.104369 0.041129 
cultural -0.087935 -0.548982 0.017498 -0.241043 0.063821 -0.086349 0.321167 0.161522 -0.035530 0.483046 -0.005566 0.556409 -0.318309 -0.122977 -0.081435 0.296269 0.379470 0.378155 0.455473 0.330596 -0.018970 0.173261 0.048327 -0.636474 0.469705 -0.161748 -0.258961 -0.168714 0.377963 -0.121453 0.007479 -0.296564 -0.343474 0.281359 -0.069064 -0.201281 0.167793 0.023842 0.025918 0.193344 -0.281466 -0.169048 -0.170600 -0.514439 0.064089 -0.133835 0.457634 0.107513 -0.024085 -0.444537 0.099711 0.202874 0.252223 -0.088679 -0.338993 0.148533 0.689060 0.029308 0.102186 -0.610322 0.464929 -0.196145 -0.250787 -0.412930 -0.037507 0.308618 0.001787 -0.416073 -0.108732 0.393224 -0.505896 0.270620 0.382596 -0.141290 -0.453051 0.244588 -0.921070 -0.062057 -0.123017 0.030229 -0.391225 -0.101445 0.022730 -0.468443 0.077741 0.061609 -0.017619 -0.041157 0.629957 0.383652 0.396989 0.151426 -0.143490 0.093981 -0.416188 0.110064 0.074468 0.286342 -0.089979 0.023521 
ancient -0.067904 -0.439666 0.007052 -0.193503 0.060562 -0.081115 0.270446 0.138099 -0.016168 0.378712 0.015601 0.408949 -0.265222 -0.114456 -0.058147 0.219586 0.284494 0.300696 0.363937 0.255719 -0.009020 0.134617 0.043729 -0.481050 0.349323 -0.106677 -0.199994 -0.122538 0.303542 -0.109592 0.001221 -0.228749 -0.247643 0.222032 -0.082582 -0.151355 0.142227 0.010295 0.019245 0.140946 -0.210562 -0.110828 -0.135038 -0.417440 0.045898 -0.090212 0.367687 0.081619 -0.034328 -0.364621 0.085646 0.160922 0.192800 -0.063421 -0.251322 0.125643 0.533350 0.022408 0.071624 -0.492888 0.365783 -0.166109 -0.192560 -0.321327 -0.030515 0.254292 0.010421 -0.313760 -0.075786 0.318452 -0.381954 0.209714 0.303536 -0.113067 -0.351092 0.195644 -0.707308 -0.055930 -0.114316 -0.001663 -0.288679 -0.062197 0.010351 -0.367395 0.059021 0.063447 -0.011150 -0.025919 0.489456 0.290160 0.321249 0.132743 -0.112863 0.064117 -0.324124 0.092952 0.059791 0.215340 -0.074090 0.010821 
known -0.088869 -0.645165 0.003346 -0.293428 0.085330 -0.096086 0.382888 0.186424 -0.046403 0.524898 0.025595 0.583261 -0.399680 -0.168076 -0.084462 0.315292 0.422157 0.445446 0.507027 0.360028 -0.000285 0.185597 0.083732 -0.691997 0.481225 -0.158762 -0.278079 -0.171718 0.418541 -0.146713 0.012554 -0.315060 -0.376503 0.306415 -0.109406 -0.204303 0.212676 0.006125 0.039661 0.187265 -0.309825 -0.152666 -0.165142 -0.585806 0.075876 -0.120106 0.507315 0.125688 -0.062120 -0.525660 0.114595 0.206910 0.274433 -0.077793 -0.354486 0.169909 0.754926 0.024265 0.078397 -0.697943 0.526084 -0.221428 -0.279422 -0.449429 -0.029054 0.356381 0.014421 -0.447686 -0.098170 0.435777 -0.561213 0.290991 0.445427 -0.161187 -0.491195 0.274884 -1.010902 -0.071659 -0.162173 0.000521 -0.421196 -0.096719 0.022872 -0.509744 0.071096 0.084913 -0.003118 -0.046173 0.694753 0.411723 0.449552 0.208840 -0.146722 0.088453 -0.463327 0.140837 0.067896 0.297045 -0.109192 0.046272 
following -0.105954 -0.638547 0.016197 -0.288548 0.076715 -0.100938 0.377876 0.178350 -0.040899 0.519456 0.026539 0.552161 -0.395934 -0.175558 -0.088220 0.319077 0.435689 0.463537 0.505693 0.357228 -0.010959 0.192750 0.067708 -0.691611 0.476937 -0.147723 -0.267436 -0.172888 0.408611 -0.142385 0.006138 -0.308949 -0.362719 0.292425 -0.120113 -0.201185 0.217727 -0.001948 0.044782 0.174029 -0.302132 -0.137144 -0.167385 -0.576908 0.069151 -0.110347 0.501195 0.131241 -0.076823 -0.513631 0.113188 0.220127 0.281206 -0.076582 -0.317955 0.152553 0.728203 0.027525 0.071990 -0.700077 0.502532 -0.224691 -0.283657 -0.434367 -0.029156 0.360287 0.017526 -0.445032 -0.101567 0.427601 -0.546058 0.266544 0.441298 -0.149906 -0.486834 0.263465 -0.986160 -0.084633 -0.156691 -0.010479 -0.400198 -0.075581 0.037476 -0.502802 0.060237 0.077218 -0.013162 -0.045763 0.677171 0.406387 0.429204 0.195635 -0.139799 0.079146 -0.445264 0.143766 0.071307 0.284520 -0.102147 0.051287 
late -0.089799 -0.472296 -0.005273 -0.217756 0.046526 -0.077500 0.278833 0.129873 -0.021424 0.380486 0.027714 0.400544 -0.304704 -0.130811 -0.060465 0.248681 0.322700 0.364782 0.381854 0.270563 -0.015917 0.149310 0.065150 -0.518443 0.347993 -0.118897 -0.193624 -0.115740 0.298809 -0.104697 -0.000002 -0.230953 -0.269534 0.208310 -0.097955 -0.141486 0.159779 -0.015951 0.033713 0.137899 -0.234867 -0.087735 -0.116008 -0.421846 0.047265 -0.079213 0.367840 0.091173 -0.067301 -0.377544 0.079624 0.156214 0.204950 -0.057694 -0.233156 0.120245 0.531266 0.005921 0.049671 -0.535803 0.372161 -0.176549 -0.205583 -0.312612 -0.014475 0.259532 0.023047 -0.324838 -0.073572 0.313580 -0.404174 0.189352 0.333770 -0.119505 -0.367983 0.196675 -0.725020 -0.063766 -0.118770 -0.016135 -0.293658 -0.050684 0.023580 -0.376653 0.040568 0.063028 -0.005682 -0.028004 0.497299 0.285580 0.330923 0.153600 -0.097829 0.050501 -0.329038 0.108018 0.050343 0.217347 -0.079225 0.042810 
human -0.098915 -0.650823 0.018650 -0.281254 0.107723 -0.125798 0.385549 0.197357 -0.032544 0.525136 0.006587 0.604675 -0.389909 -0.155986 -0.086148 0.326927 0.422631 0.436673 0.520974 0.363385 0.003926 0.194111 0.064678 -0.708127 0.510843 -0.148714 -0.300546 -0.189179 0.421110 -0.148344 0.007555 -0.321373 -0.379079 0.334999 -0.101904 -0.207812 0.198879 0.036576 0.034711 0.196900 -0.311529 -0.175733 -0.182614 -0.593949 0.063633 -0.138009 0.516127 0.119880 -0.036902 -0.507207 0.109198 0.225593 0.293701 -0.101171 -0.376618 0.165585 0.771939 0.040884 0.097242 -0.702396 0.523968 -0.240850 -0.272578 -0.465958 -0.040472 0.365531 0.015856 -0.448933 -0.114858 0.446668 -0.556967 0.286289 0.442189 -0.147650 -0.510229 0.293410 -1.038347 -0.060508 -0.163899 -0.001473 -0.416588 -0.110032 0.011393 -0.536484 0.090134 0.080643 -0.020936 -0.041709 0.705558 0.421422 0.457168 0.193691 -0.160003 0.114030 -0.467136 0.139041 0.076815 0.312107 -0.095243 0.018424 
traditional -0.095255 -0.622013 -0.006607 -0.274707 0.083382 -0.087298 0.358626 0.178309 -0.041343 0.496201 0.020749 0.553329 -0.399828 -0.161605 -0.081938 0.306538 0.399250 0.430339 0.462001 0.367223 -0.004609 0.166300 0.076931 -0.653302 0.447346 -0.141832 -0.268521 -0.160326 0.409992 -0.156537 -0.004122 -0.292730 -0.348257 0.272555 -0.099695 -0.186564 0.206332 0.012104 0.042761 0.183519 -0.291347 -0.138153 -0.153241 -0.552645 0.061616 -0.109676 0.502789 0.136269 -0.080153 -0.501235 0.106656 0.210328 0.260358 -0.074054 -0.332745 0.168941 0.706877 0.025803 0.059033 -0.657672 0.485704 -0.215123 -0.276991 -0.434430 -0.035255 0.332090 0.006563 -0.414078 -0.088733 0.414227 -0.521149 0.269582 0.428194 -0.138032 -0.474392 0.258295 -0.944593 -0.060878 -0.153389 0.009455 -0.397761 -0.082154 0.038806 -0.479598 0.067867 0.080355 -0.000927 -0.038635 0.654369 0.397111 0.421501 0.201619 -0.128409 0.085329 -0.436719 0.135867 0.062036 0.274582 -0.090010 0.033087 
although -0.072941 -0.528422 0.014545 -0.236053 0.078898 -0.087415 0.298883 0.152024 -0.037155 0.431102 0.008386 0.485201 -0.335842 -0.135108 -0.069402 0.271647 0.353595 0.376078 0.419939 0.302708 0.000354 0.153778 0.065079 -0.566723 0.405140 -0.126315 -0.234170 -0.150485 0.351383 -0.118525 0.001866 -0.260283 -0.307932 0.254186 -0.086906 -0.158407 0.173714 0.016808 0.030571 0.161306 -0.249094 -0.115663 -0.147867 -0.492593 0.056976 -0.103151 0.413997 0.108570 -0.056722 -0.419894 0.095558 0.176139 0.225230 -0.065805 -0.280513 0.148689 0.620374 0.022370 0.059728 -0.576245 0.427694 -0.194371 -0.231438 -0.365530 -0.030920 0.292366 0.010888 -0.365123 -0.089729 0.362212 -0.453746 0.236508 0.357736 -0.125550 -0.408473 0.236440 -0.836750 -0.053803 -0.127424 0.006233 -0.342722 -0.088722 0.020115 -0.421685 0.057486 0.068970 -0.009569 -0.033024 0.566144 0.346890 0.376831 0.168366 -0.119131 0.069739 -0.377869 0.115570 0.058821 0.254226 -0.081392 0.028960 
urban -0.050843 -0.273155 0.029297 -0.117418 0.078024 -0.100471 0.208222 0.119372 0.007405 0.293059 -0.030053 0.342907 -0.133717 -0.059629 -0.018462 0.124215 0.194499 0.146513 0.306874 0.142708 0.016527 0.109212 0.019305 -0.381016 0.299442 -0.068714 -0.152964 -0.098374 0.211536 -0.105321 0.007568 -0.143965 -0.197272 0.225958 -0.004226 -0.123974 0.069839 0.051936 0.005507 0.127443 -0.163326 -0.155752 -0.142347 -0.328227 0.027707 -0.110136 0.255911 0.035248 0.064813 -0.233441 0.073839 0.123166 0.145935 -0.069692 -0.264006 0.076704 0.438848 0.059858 0.148443 -0.325676 0.277324 -0.127112 -0.125909 -0.244564 -0.048670 0.210659 -0.005417 -0.257859 -0.089623 0.258857 -0.294000 0.185054 0.195536 -0.094216 -0.265834 0.157132 -0.551518 -0.021813 -0.099978 0.027702 -0.233813 -0.074456 -0.024985 -0.293056 0.068669 0.035383 -0.005731 -0.010590 0.370534 0.240596 0.244713 0.074774 -0.115018 0.068732 -0.263473 0.042965 0.057599 0.202467 -0.056032 -0.057848 
called -0.077466 -0.488835 0.008854 -0.213945 0.065937 -0.079041 0.276976 0.135459 -0.036261 0.393756 0.015477 0.440490 -0.299213 -0.112981 -0.071857 0.247033 0.319213 0.333305 0.373239 0.270281 -0.002252 0.137387 0.058952 -0.515114 0.363784 -0.119025 -0.214265 -0.132328 0.316784 -0.105811 0.002754 -0.246839 -0.271291 0.214611 -0.077227 -0.147060 0.152976 0.007044 0.027133 0.134474 -0.239560 -0.118210 -0.132048 -0.432762 0.046662 -0.083783 0.389333 0.096366 -0.053836 -0.388406 0.075465 0.173914 0.200449 -0.064464 -0.261615 0.127790 0.557341 0.020468 0.062381 -0.518657 0.388487 -0.167413 -0.202288 -0.341418 -0.018493 0.265635 0.016160 -0.331092 -0.073778 0.330135 -0.405838 0.205241 0.335476 -0.121130 -0.369425 0.208753 -0.757995 -0.056705 -0.108586 -0.004817 -0.314320 -0.072779 0.026606 -0.389921 0.054161 0.056240 -0.011739 -0.026543 0.507521 0.296609 0.335682 0.151500 -0.115548 0.069336 -0.344573 0.102253 0.056603 0.209844 -0.065644 0.026810 
term -0.084415 -0.577905 0.011307 -0.250809 0.089990 -0.095040 0.333153 0.168431 -0.038785 0.477626 0.007259 0.537498 -0.351706 -0.149743 -0.072069 0.296971 0.385727 0.404581 0.462481 0.320695 -0.000488 0.167971 0.062092 -0.626216 0.454951 -0.134762 -0.267568 -0.161519 0.388935 -0.134214 0.003160 -0.289351 -0.337000 0.296968 -0.086981 -0.185310 0.187263 0.025024 0.026779 0.186616 -0.286208 -0.149860 -0.166084 -0.527278 0.055293 -0.119976 0.468504 0.112036 -0.045043 -0.461232 0.109946 0.208904 0.256853 -0.082155 -0.328667 0.152174 0.688986 0.039584 0.076574 -0.630045 0.467592 -0.212999 -0.255443 -0.412845 -0.036642 0.326901 0.007440 -0.411383 -0.104175 0.412949 -0.501401 0.259196 0.388742 -0.140332 -0.456831 0.260076 -0.926890 -0.073243 -0.130507 0.013626 -0.379198 -0.094839 0.022187 -0.479333 0.072553 0.066912 -0.018317 -0.030783 0.625713 0.383554 0.414577 0.168279 -0.140991 0.086176 -0.418307 0.132219 0.066567 0.279589 -0.093112 0.028144 
even -0.096716 -0.624121 -0.003102 -0.278929 0.073955 -0.100770 0.357288 0.176419 -0.039080 0.490392 0.033958 0.540767 -0.397201 -0.155157 -0.091775 0.315897 0.407628 0.448880 0.471743 0.365382 -0.003617 0.185885 0.081931 -0.653975 0.455089 -0.142868 -0.257036 -0.159149 0.401074 -0.136563 0.003231 -0.310907 -0.350366 0.275493 -0.105145 -0.192945 0.201674 0.002680 0.040766 0.169533 -0.289136 -0.126807 -0.160851 -0.552021 0.067233 -0.100968 0.483262 0.119844 -0.078205 -0.498060 0.099032 0.202678 0.264690 -0.075175 -0.310682 0.156998 0.702260 0.017808 0.056836 -0.672155 0.493228 -0.221669 -0.275988 -0.432173 -0.032396 0.334420 0.008869 -0.422803 -0.097287 0.412507 -0.526203 0.268345 0.420195 -0.149492 -0.474789 0.252730 -0.958794 -0.081554 -0.139996 -0.002387 -0.388983 -0.081893 0.037200 -0.476821 0.058489 0.083954 -0.001280 -0.032786 0.648761 0.386448 0.428375 0.196624 -0.131753 0.075359 -0.432414 0.143232 0.067722 0.278502 -0.090088 0.049942 
word -0.054694 -0.373765 0.001137 -0.161374 0.058125 -0.052326 0.208951 0.100018 -0.033946 0.279735 0.023977 0.335500 -0.225522 -0.089582 -0.049574 0.186242 0.249151 0.251060 0.288878 0.206921 -0.002486 0.103788 0.045204 -0.385545 0.262193 -0.071702 -0.165071 -0.088045 0.239376 -0.085165 0.004424 -0.186902 -0.195714 0.159583 -0.053287 -0.116151 0.105729 0.001679 0.031084 0.100628 -0.168795 -0.083650 -0.098229 -0.330636 0.027159 -0.061295 0.295402 0.067052 -0.036201 -0.291005 0.055644 0.133362 0.153401 -0.051237 -0.200926 0.105456 0.413125 0.027136 0.037912 -0.384503 0.295706 -0.123790 -0.151844 -0.259436 -0.027695 0.192976 0.008768 -0.249398 -0.058601 0.254247 -0.299418 0.150966 0.251542 -0.082788 -0.275509 0.159577 -0.564199 -0.047185 -0.090303 0.006836 -0.227210 -0.062586 0.021053 -0.288812 0.043343 0.035525 -0.020782 -0.025915 0.394689 0.210707 0.250335 0.119907 -0.091876 0.059835 -0.269003 0.074797 0.033745 0.153927 -0.044777 0.019109 
common -0.114631 -0.744960 0.014038 -0.331444 0.112007 -0.126849 0.439662 0.227017 -0.043132 0.599937 0.021568 0.681725 -0.464148 -0.182734 -0.098556 0.379546 0.484785 0.519144 0.586047 0.421382 -0.010816 0.220738 0.085265 -0.802646 0.573301 -0.169094 -0.329688 -0.202201 0.495856 -0.166910 0.003063 -0.370924 -0.425131 0.363306 -0.125659 -0.237373 0.249628 0.023846 0.044842 0.220807 -0.358724 -0.176602 -0.194417 -0.682874 0.076383 -0.146475 0.599364 0.146580 -0.077534 -0.587024 0.131501 0.258584 0.332009 -0.093674 -0.414135 0.199209 0.865806 0.039049 0.087242 -0.799911 0.599987 -0.274848 -0.317718 -0.525360 -0.044875 0.414817 0.021398 -0.516757 -0.120857 0.511217 -0.637834 0.329260 0.516889 -0.172951 -0.577608 0.331275 -1.174733 -0.081170 -0.188487 0.006951 -0.478679 -0.122078 0.028666 -0.603867 0.083769 0.091352 -0.006806 -0.051013 0.803347 0.479075 0.524483 0.228278 -0.176216 0.106881 -0.536770 0.177753 0.080390 0.354338 -0.107310 0.043693 
ussr -0.099445 -0.633735 0.008254 -0.283544 0.064808 -0.092022 0.373396 0.169239 -0.029583 0.534060 0.038920 0.530425 -0.397433 -0.158490 -0.083253 0.324515 0.428156 0.469235 0.484681 0.365969 -0.028924 0.197068 0.074262 -0.667163 0.468814 -0.159470 -0.254547 -0.161783 0.389121 -0.130315 0.012719 -0.325350 -0.355854 0.288534 -0.130663 -0.195340 0.221150 -0.013988 0.044746 0.171852 -0.290272 -0.108984 -0.160002 -0.549420 0.065527 -0.094196 0.489567 0.123994 -0.084703 -0.512001 0.107073 0.207845 0.270886 -0.067661 -0.312441 0.155660 0.709971 0.003763 0.054892 -0.695032 0.493225 -0.224035 -0.268825 -0.434731 -0.014759 0.353350 0.022714 -0.446274 -0.093566 0.414227 -0.539090 0.253280 0.437349 -0.153802 -0.481596 0.246861 -0.980159 -0.092478 -0.147575 -0.022575 -0.405946 -0.057062 0.036599 -0.493931 0.055480 0.087146 0.007289 -0.042166 0.663689 0.396021 0.440174 0.208838 -0.136928 0.073065 -0.442129 0.153273 0.065606 0.292050 -0.093575 0.058243 
economy -0.099387 -0.550096 0.007564 -0.239950 0.056224 -0.112158 0.327648 0.146401 -0.022945 0.465438 0.032262 0.484270 -0.344244 -0.154878 -0.072154 0.291139 0.369684 0.412805 0.439368 0.297333 -0.013171 0.166933 0.068270 -0.587869 0.413581 -0.140885 -0.231462 -0.139801 0.351088 -0.112049 0.007545 -0.272883 -0.321581 0.270962 -0.118682 -0.170713 0.195808 -0.004033 0.040538 0.157109 -0.262187 -0.098873 -0.145288 -0.499034 0.058233 -0.099706 0.428804 0.110275 -0.076897 -0.440486 0.090488 0.187620 0.249552 -0.066875 -0.265804 0.130012 0.624409 0.019172 0.064326 -0.616652 0.439427 -0.209002 -0.249386 -0.371184 -0.026308 0.327750 0.032609 -0.396868 -0.103101 0.371740 -0.471988 0.229854 0.387304 -0.132137 -0.429413 0.220949 -0.871433 -0.079975 -0.137725 -0.017359 -0.344504 -0.059210 0.031261 -0.436754 0.059741 0.073074 0.003280 -0.042194 0.594764 0.343993 0.379998 0.183965 -0.121162 0.069168 -0.381276 0.135569 0.059159 0.251990 -0.084887 0.038096 
different -0.095134 -0.622760 -0.000779 -0.285103 0.094134 -0.104396 0.370842 0.179383 -0.043704 0.515012 0.018343 0.578260 -0.377913 -0.165966 -0.082772 0.312311 0.410903 0.438980 0.500212 0.354672 -0.008887 0.175021 0.060792 -0.675911 0.476783 -0.150155 -0.279469 -0.184022 0.423113 -0.153881 0.007826 -0.316273 -0.363276 0.313786 -0.104490 -0.197558 0.214826 0.019365 0.043764 0.186205 -0.304229 -0.145397 -0.174819 -0.571461 0.070402 -0.126674 0.512060 0.117702 -0.050311 -0.501847 0.115987 0.219217 0.275372 -0.085714 -0.343869 0.169724 0.744907 0.033312 0.075899 -0.687605 0.516907 -0.217955 -0.271209 -0.434222 -0.027358 0.347259 0.002016 -0.440011 -0.105593 0.440789 -0.535653 0.268837 0.433795 -0.146397 -0.499815 0.276796 -0.999260 -0.082044 -0.163279 -0.000843 -0.420526 -0.105630 0.028536 -0.504836 0.065477 0.074901 -0.005504 -0.046659 0.675344 0.400329 0.440948 0.192354 -0.147222 0.080710 -0.462446 0.139807 0.072320 0.296768 -0.094736 0.043536 
found -0.082531 -0.557205 0.003717 -0.246246 0.077816 -0.088883 0.326101 0.160517 -0.042281 0.453951 0.019886 0.500712 -0.350458 -0.136568 -0.072808 0.278830 0.362504 0.393405 0.423679 0.317770 -0.013673 0.163831 0.062572 -0.595961 0.414234 -0.131608 -0.239701 -0.153267 0.363250 -0.139692 0.003482 -0.282513 -0.324736 0.257275 -0.093860 -0.170230 0.189169 0.023911 0.039219 0.153190 -0.266702 -0.130521 -0.139546 -0.509396 0.062943 -0.108008 0.438321 0.116866 -0.063375 -0.449786 0.092539 0.189505 0.250519 -0.072992 -0.307787 0.150337 0.649810 0.020726 0.068575 -0.595829 0.440733 -0.200499 -0.239312 -0.387711 -0.027443 0.312113 0.013047 -0.390495 -0.097349 0.374676 -0.461964 0.247916 0.384305 -0.129012 -0.431669 0.252430 -0.871256 -0.064906 -0.141040 -0.002100 -0.363071 -0.079158 0.033649 -0.442215 0.063870 0.071275 -0.008277 -0.035419 0.598093 0.360509 0.390740 0.176715 -0.115293 0.068382 -0.394538 0.125911 0.057568 0.259059 -0.076309 0.041589 
form -0.128632 -0.839394 -0.000513 -0.376505 0.123282 -0.131523 0.472603 0.235490 -0.059754 0.675649 0.030059 0.763388 -0.521915 -0.203147 -0.116653 0.425439 0.551081 0.583132 0.643800 0.477191 -0.017362 0.241099 0.091626 -0.903235 0.639447 -0.194649 -0.377831 -0.225880 0.551914 -0.198470 0.004250 -0.413843 -0.475991 0.387840 -0.134556 -0.264907 0.267669 0.026725 0.060063 0.249564 -0.396394 -0.200075 -0.227411 -0.750185 0.090396 -0.159838 0.673251 0.162902 -0.078843 -0.668734 0.145696 0.281893 0.365420 -0.103210 -0.457933 0.221173 0.975112 0.038482 0.100157 -0.903711 0.666766 -0.292831 -0.366127 -0.588768 -0.051469 0.463615 0.020994 -0.577034 -0.136681 0.569094 -0.711787 0.370721 0.570780 -0.198329 -0.651899 0.361307 -1.311871 -0.100212 -0.203101 0.003350 -0.541532 -0.122844 0.043536 -0.671058 0.087006 0.112111 -0.018632 -0.047152 0.900894 0.535694 0.590465 0.267902 -0.194270 0.119071 -0.603994 0.188924 0.099965 0.385356 -0.122449 0.049349 
time -0.119406 -0.756710 0.007613 -0.332636 0.095835 -0.117942 0.434906 0.209212 -0.044625 0.610397 0.033728 0.653202 -0.461212 -0.200732 -0.104378 0.379502 0.496655 0.542308 0.581743 0.429311 -0.025493 0.223662 0.077636 -0.808336 0.557306 -0.177034 -0.319356 -0.192519 0.479086 -0.157682 0.003182 -0.363598 -0.413048 0.343230 -0.146309 -0.230723 0.246869 0.004124 0.048377 0.216919 -0.359722 -0.157621 -0.189763 -0.671081 0.083917 -0.129364 0.583111 0.137630 -0.094706 -0.590611 0.127133 0.257888 0.320233 -0.090274 -0.372451 0.192079 0.854192 0.019198 0.068647 -0.820137 0.589234 -0.258278 -0.322363 -0.504904 -0.031380 0.417129 0.015211 -0.519343 -0.122962 0.499075 -0.625441 0.314400 0.507522 -0.179696 -0.569348 0.304887 -1.157749 -0.094861 -0.167336 -0.001819 -0.471663 -0.104585 0.042543 -0.589165 0.077267 0.094077 -0.015624 -0.049839 0.793097 0.470915 0.513982 0.238916 -0.162434 0.101817 -0.521844 0.171399 0.079956 0.341005 -0.108927 0.052384 
groups -0.090871 -0.662782 -0.000362 -0.295761 0.079743 -0.113339 0.373794 0.192268 -0.036413 0.540147 0.018246 0.588919 -0.405734 -0.166289 -0.081947 0.331667 0.435003 0.453450 0.522559 0.366261 -0.006164 0.184932 0.070052 -0.701871 0.505760 -0.156874 -0.283225 -0.188439 0.435672 -0.151585 -0.000746 -0.319944 -0.373408 0.315364 -0.106331 -0.206502 0.211272 0.015156 0.039919 0.199332 -0.307004 -0.159248 -0.188017 -0.589416 0.064120 -0.114819 0.525344 0.132904 -0.073227 -0.524728 0.112394 0.227338 0.287734 -0.087681 -0.351049 0.181333 0.769455 0.024541 0.075372 -0.708316 0.533426 -0.239023 -0.291598 -0.458655 -0.029265 0.367514 0.019768 -0.445649 -0.113376 0.453636 -0.566504 0.295624 0.440275 -0.152978 -0.514559 0.281175 -1.037464 -0.076372 -0.155885 0.007966 -0.428413 -0.097078 0.026991 -0.525491 0.086554 0.078988 -0.005464 -0.046138 0.705857 0.419222 0.457853 0.203929 -0.145200 0.091597 -0.476011 0.154641 0.082446 0.301560 -0.089252 0.044054 
based -0.081556 -0.514064 0.011512 -0.216647 0.077981 -0.101137 0.299965 0.152329 -0.031505 0.426501 0.007740 0.467341 -0.314112 -0.128012 -0.058205 0.253388 0.334262 0.344199 0.402595 0.279050 -0.009035 0.158904 0.055204 -0.557503 0.397066 -0.116305 -0.225377 -0.147308 0.333793 -0.124146 -0.002623 -0.250536 -0.289511 0.255211 -0.087594 -0.160526 0.164097 0.013769 0.039017 0.146741 -0.247936 -0.125591 -0.142573 -0.464751 0.049789 -0.099305 0.401783 0.095740 -0.042693 -0.394098 0.090756 0.178521 0.226267 -0.062644 -0.290016 0.137987 0.602411 0.035228 0.076004 -0.546620 0.413800 -0.181360 -0.220642 -0.360887 -0.025986 0.292441 0.013873 -0.359309 -0.087597 0.348266 -0.429458 0.223894 0.343572 -0.126082 -0.404362 0.227628 -0.810541 -0.066820 -0.124316 -0.004547 -0.328828 -0.081818 0.014516 -0.414021 0.064587 0.066837 -0.002333 -0.030703 0.555492 0.328570 0.356460 0.160523 -0.114462 0.078869 -0.369557 0.119369 0.052427 0.241268 -0.072336 0.021041 
places -0.084880 -0.573627 0.006334 -0.257696 0.084742 -0.096310 0.338991 0.170010 -0.032708 0.472219 0.004863 0.543199 -0.360595 -0.145420 -0.077830 0.288695 0.373487 0.396995 0.457152 0.334153 0.000113 0.166734 0.065078 -0.632162 0.442274 -0.128606 -0.263376 -0.170516 0.383373 -0.132792 0.007951 -0.282839 -0.336182 0.284876 -0.085914 -0.191089 0.189285 0.022878 0.035397 0.179914 -0.280406 -0.135001 -0.157396 -0.536636 0.060749 -0.116491 0.466905 0.107911 -0.048883 -0.459205 0.103235 0.199489 0.247257 -0.082493 -0.319765 0.163848 0.683310 0.022926 0.070702 -0.631683 0.463296 -0.209252 -0.258765 -0.408627 -0.040375 0.327657 0.008172 -0.397363 -0.090580 0.400001 -0.495275 0.263963 0.396510 -0.141356 -0.461217 0.260074 -0.923902 -0.067181 -0.139325 0.015406 -0.383168 -0.099923 0.031150 -0.470041 0.071917 0.072720 -0.012708 -0.027782 0.627907 0.368400 0.408290 0.175199 -0.132563 0.088278 -0.426981 0.129079 0.072534 0.266436 -0.088531 0.039971 
islam -0.055737 -0.425805 -0.003931 -0.187324 0.059249 -0.058256 0.227778 0.119199 -0.030633 0.326358 0.013457 0.378940 -0.253727 -0.108018 -0.048386 0.206921 0.267610 0.287489 0.305672 0.239991 -0.005968 0.118960 0.042398 -0.448735 0.306218 -0.092744 -0.194554 -0.108497 0.282065 -0.109805 -0.001003 -0.212247 -0.236518 0.189866 -0.063296 -0.132964 0.130264 0.023830 0.028351 0.124211 -0.200759 -0.094889 -0.111146 -0.374055 0.041326 -0.085032 0.336959 0.087433 -0.053452 -0.335413 0.077330 0.141876 0.183560 -0.053717 -0.225324 0.114706 0.483928 0.024227 0.042355 -0.444693 0.332712 -0.137188 -0.188829 -0.287382 -0.024527 0.231959 0.015145 -0.276274 -0.071757 0.279658 -0.346362 0.178658 0.288261 -0.090514 -0.325288 0.185844 -0.640249 -0.042017 -0.095615 0.008470 -0.268719 -0.068890 0.020023 -0.322619 0.040793 0.059026 -0.013903 -0.030723 0.443331 0.265015 0.290594 0.137501 -0.093187 0.055727 -0.302302 0.098454 0.045297 0.179088 -0.059295 0.025460 
western -0.065481 -0.380731 0.002223 -0.163137 0.053245 -0.061696 0.223792 0.108000 -0.022831 0.316925 0.015366 0.345595 -0.231368 -0.087684 -0.050203 0.198300 0.250694 0.262556 0.291589 0.224691 -0.010293 0.122676 0.047205 -0.404948 0.291571 -0.089549 -0.164760 -0.110851 0.252393 -0.092417 0.011279 -0.197767 -0.229616 0.179899 -0.067985 -0.129564 0.126273 0.004859 0.019651 0.112527 -0.189642 -0.078345 -0.094028 -0.347160 0.042737 -0.074701 0.302396 0.076317 -0.043460 -0.317289 0.072172 0.123591 0.161519 -0.044866 -0.199312 0.100925 0.442248 0.010996 0.048115 -0.412640 0.300483 -0.126335 -0.159671 -0.269609 -0.016906 0.210315 0.004494 -0.265940 -0.063514 0.261742 -0.318082 0.167884 0.267873 -0.097561 -0.290135 0.165423 -0.602164 -0.047940 -0.098877 -0.007444 -0.256972 -0.052398 0.015823 -0.300407 0.035058 0.051957 0.003451 -0.027891 0.403848 0.243163 0.266339 0.126703 -0.087271 0.052505 -0.272972 0.088127 0.047983 0.172787 -0.056996 0.024679 
study -0.119813 -0.742055 0.010592 -0.326321 0.087609 -0.125576 0.420184 0.208905 -0.037760 0.611192 0.030729 0.663121 -0.447211 -0.183761 -0.105042 0.391069 0.494044 0.524440 0.586937 0.423297 -0.020323 0.220867 0.085274 -0.795476 0.572512 -0.173358 -0.315913 -0.200257 0.465265 -0.161106 0.012174 -0.382423 -0.433456 0.353590 -0.136879 -0.235774 0.243213 0.012601 0.041820 0.213071 -0.354445 -0.165824 -0.208421 -0.661075 0.075908 -0.135011 0.589228 0.151906 -0.085546 -0.593854 0.131845 0.251131 0.322941 -0.091538 -0.388172 0.192710 0.855179 0.019545 0.091578 -0.805296 0.595762 -0.263441 -0.325486 -0.513564 -0.034816 0.417882 0.014308 -0.522133 -0.130274 0.504217 -0.630446 0.321980 0.511478 -0.173394 -0.581205 0.307479 -1.167242 -0.096751 -0.171271 -0.003410 -0.488850 -0.100627 0.035977 -0.590596 0.076908 0.092598 -0.009154 -0.051243 0.794280 0.468221 0.515204 0.219922 -0.160372 0.104533 -0.527629 0.165214 0.081144 0.347204 -0.105031 0.058946 
language -0.113152 -0.633488 -0.005788 -0.272088 0.079132 -0.112617 0.376894 0.192982 -0.026067 0.522427 0.049182 0.553076 -0.399352 -0.186085 -0.082925 0.319993 0.453898 0.469118 0.521826 0.361054 -0.028129 0.174487 0.062422 -0.686055 0.489531 -0.142567 -0.250996 -0.183823 0.416605 -0.124790 0.002644 -0.309090 -0.360050 0.291498 -0.114500 -0.197368 0.220742 -0.014141 0.046538 0.201630 -0.310155 -0.136083 -0.186958 -0.594392 0.065643 -0.113899 0.517068 0.120017 -0.077571 -0.509163 0.103133 0.237535 0.263469 -0.079378 -0.317993 0.184030 0.739597 0.023056 0.070419 -0.711286 0.530036 -0.242179 -0.276343 -0.432522 -0.026895 0.351398 0.006686 -0.437858 -0.114286 0.447000 -0.543795 0.276854 0.450414 -0.167236 -0.508499 0.289127 -0.990770 -0.074514 -0.154628 -0.013048 -0.404244 -0.086563 0.013128 -0.515980 0.068317 0.061127 -0.019503 -0.052749 0.680878 0.375476 0.454376 0.170902 -0.159867 0.094008 -0.447748 0.143277 0.077947 0.302775 -0.076962 0.044473 
became -0.107179 -0.680733 0.006033 -0.301288 0.079926 -0.109587 0.395601 0.188164 -0.046257 0.546625 0.030866 0.578540 -0.423507 -0.178443 -0.088429 0.355257 0.446364 0.486648 0.517372 0.392742 -0.027293 0.201400 0.085681 -0.712045 0.502198 -0.169053 -0.281407 -0.169507 0.422668 -0.137393 0.008692 -0.341841 -0.376611 0.299770 -0.130897 -0.213060 0.233378 -0.011745 0.052443 0.181689 -0.320620 -0.118345 -0.164341 -0.591545 0.066198 -0.112123 0.514735 0.136349 -0.089686 -0.530779 0.118001 0.229598 0.295526 -0.080966 -0.325884 0.168032 0.763915 0.007246 0.047458 -0.735467 0.539373 -0.242168 -0.290510 -0.455777 -0.014043 0.382609 0.029393 -0.458635 -0.108860 0.438446 -0.568181 0.279158 0.475874 -0.157569 -0.503827 0.273197 -1.032259 -0.086653 -0.155719 -0.013590 -0.417161 -0.082566 0.041818 -0.529531 0.068217 0.093497 -0.000427 -0.047400 0.709203 0.426766 0.453551 0.217002 -0.149423 0.079533 -0.461302 0.157662 0.073440 0.291152 -0.092738 0.062082 
culture -0.098675 -0.597661 0.003361 -0.266257 0.076225 -0.090681 0.348203 0.169827 -0.023562 0.491534 0.021722 0.539015 -0.372409 -0.165120 -0.075330 0.311225 0.402396 0.431127 0.471467 0.341274 -0.024022 0.186229 0.067631 -0.656500 0.458819 -0.146060 -0.245895 -0.169796 0.384944 -0.135750 -0.002515 -0.290843 -0.342641 0.275855 -0.116797 -0.189809 0.192529 0.007905 0.036256 0.184070 -0.282445 -0.128471 -0.155692 -0.549042 0.062875 -0.105216 0.477010 0.116162 -0.065949 -0.476991 0.100897 0.209171 0.261028 -0.079625 -0.310627 0.152217 0.703976 0.022522 0.068833 -0.662961 0.481870 -0.216802 -0.253309 -0.417319 -0.028820 0.332301 0.012692 -0.409348 -0.096024 0.410310 -0.512421 0.260919 0.422405 -0.148421 -0.471481 0.255782 -0.933792 -0.082055 -0.142665 -0.006933 -0.390954 -0.090760 0.029021 -0.483155 0.063046 0.073914 -0.009252 -0.040902 0.644927 0.370455 0.421242 0.192082 -0.137108 0.074711 -0.429487 0.135499 0.078825 0.276138 -0.095814 0.038709 
health -0.126162 -0.789428 0.011364 -0.340898 0.112202 -0.147616 0.438961 0.220442 -0.054457 0.634505 0.003137 0.712097 -0.481173 -0.191805 -0.110685 0.406840 0.507079 0.558223 0.630291 0.430718 -0.020826 0.226979 0.086403 -0.832170 0.590442 -0.176330 -0.344740 -0.210044 0.497294 -0.173111 0.016915 -0.395706 -0.448667 0.385924 -0.118051 -0.242528 0.275710 0.032184 0.061989 0.232047 -0.362071 -0.180733 -0.218010 -0.696241 0.079890 -0.144596 0.611886 0.135944 -0.069934 -0.609567 0.146599 0.251288 0.343160 -0.110667 -0.400603 0.195027 0.893582 0.045763 0.073529 -0.844951 0.615736 -0.281447 -0.346055 -0.538960 -0.043842 0.442912 0.005229 -0.546311 -0.135853 0.542378 -0.676133 0.341890 0.526065 -0.185823 -0.615021 0.336125 -1.223689 -0.095051 -0.200105 0.005145 -0.506183 -0.125941 0.045532 -0.630110 0.084612 0.086157 -0.009332 -0.059043 0.840596 0.491824 0.524144 0.249048 -0.173162 0.107644 -0.556654 0.173850 0.096216 0.356832 -0.121583 0.055111 
party -0.081944 -0.474441 0.026433 -0.204338 0.054764 -0.092943 0.278065 0.133949 -0.038669 0.386338 0.008080 0.405072 -0.281861 -0.121211 -0.060823 0.269092 0.325259 0.339974 0.397393 0.269001 -0.030478 0.144165 0.044420 -0.532785 0.376138 -0.110963 -0.206355 -0.141100 0.291805 -0.081903 0.016538 -0.237144 -0.256765 0.244289 -0.074536 -0.136782 0.171472 -0.004698 0.038823 0.140888 -0.229663 -0.092720 -0.134588 -0.416919 0.046453 -0.090195 0.356634 0.080664 -0.032916 -0.343931 0.069160 0.167546 0.209988 -0.075721 -0.241005 0.114671 0.535409 0.013618 0.038712 -0.507349 0.391952 -0.175944 -0.189822 -0.320029 -0.009877 0.275441 0.018407 -0.336097 -0.083369 0.318908 -0.395882 0.186239 0.336133 -0.103025 -0.363224 0.194198 -0.727340 -0.050627 -0.114815 -0.002867 -0.289073 -0.076487 0.027869 -0.394906 0.042696 0.052463 -0.024317 -0.042390 0.501131 0.305334 0.313068 0.140802 -0.111723 0.081002 -0.316438 0.100233 0.034350 0.219490 -0.065618 0.039001 
military -0.081354 -0.491347 0.006235 -0.213156 0.060142 -0.083841 0.293922 0.136594 -0.022737 0.414889 0.010795 0.450356 -0.291661 -0.131504 -0.057677 0.255198 0.319978 0.342642 0.385537 0.275540 -0.016001 0.141523 0.049875 -0.529536 0.375439 -0.131986 -0.217400 -0.144609 0.328498 -0.112303 0.002069 -0.257153 -0.294807 0.243599 -0.093948 -0.164926 0.166553 0.010990 0.027785 0.141175 -0.243150 -0.118796 -0.129387 -0.448367 0.056206 -0.101251 0.401194 0.101140 -0.056646 -0.402925 0.091111 0.169555 0.209519 -0.073555 -0.265766 0.129963 0.580507 0.021990 0.065304 -0.541346 0.399923 -0.175535 -0.207635 -0.345167 -0.020804 0.272985 0.007629 -0.354799 -0.094163 0.338323 -0.429486 0.212791 0.345786 -0.116882 -0.390307 0.208051 -0.778357 -0.064193 -0.118126 -0.006745 -0.333329 -0.069611 0.032025 -0.399191 0.051040 0.064819 -0.005359 -0.042592 0.537640 0.320424 0.345525 0.149761 -0.116830 0.067972 -0.353551 0.110681 0.058231 0.233935 -0.079641 0.036863 
services -0.108949 -0.757493 0.004466 -0.324682 0.114545 -0.150149 0.444945 0.226361 -0.037827 0.608605 0.021500 0.695533 -0.461049 -0.197888 -0.103316 0.383312 0.496226 0.518538 0.608633 0.418645 -0.015993 0.216781 0.078071 -0.806189 0.582231 -0.173869 -0.336614 -0.214844 0.486200 -0.164773 0.003496 -0.377679 -0.430839 0.373491 -0.115849 -0.226122 0.254638 0.028185 0.061319 0.223179 -0.362029 -0.173277 -0.220052 -0.689418 0.073336 -0.152967 0.596674 0.154324 -0.059298 -0.590575 0.136577 0.268252 0.322018 -0.112949 -0.410750 0.204891 0.875665 0.052435 0.095337 -0.804074 0.616827 -0.286087 -0.317012 -0.524583 -0.046883 0.434535 0.009015 -0.528776 -0.134312 0.521091 -0.630395 0.336928 0.514963 -0.181292 -0.591312 0.340782 -1.184154 -0.085580 -0.179710 0.002539 -0.496367 -0.120939 0.033320 -0.617162 0.094068 0.092854 -0.006016 -0.047408 0.802446 0.476124 0.515867 0.227341 -0.184426 0.123955 -0.544991 0.173605 0.068301 0.358381 -0.105132 0.037803 
life -0.068049 -0.456585 0.010196 -0.207025 0.064772 -0.087639 0.272430 0.132252 -0.019855 0.399618 0.003898 0.440508 -0.269259 -0.102604 -0.059866 0.230960 0.310054 0.318462 0.386266 0.252686 -0.015308 0.144499 0.049206 -0.516971 0.373520 -0.115386 -0.212388 -0.135582 0.304939 -0.099670 0.010347 -0.241527 -0.278691 0.237957 -0.070226 -0.152603 0.141430 0.022753 0.025969 0.149262 -0.236839 -0.131893 -0.145013 -0.424323 0.053112 -0.096009 0.370877 0.079822 -0.027702 -0.362145 0.089686 0.157809 0.208939 -0.073157 -0.267468 0.119770 0.557345 0.023408 0.083676 -0.509366 0.388202 -0.169790 -0.204095 -0.326868 -0.031682 0.269522 0.010700 -0.336891 -0.088883 0.332814 -0.409853 0.214949 0.312161 -0.125287 -0.362781 0.200108 -0.758512 -0.063153 -0.107298 0.009695 -0.310835 -0.074378 0.020370 -0.386690 0.062111 0.051372 -0.002742 -0.028769 0.505158 0.307923 0.329812 0.131989 -0.112179 0.070823 -0.345171 0.091814 0.064332 0.221486 -0.067154 0.010989 
russia -0.101688 -0.587029 0.014377 -0.260021 0.062113 -0.091087 0.336449 0.145059 -0.026117 0.479325 0.041353 0.486564 -0.359765 -0.153481 -0.090964 0.307116 0.405891 0.435416 0.465712 0.321825 -0.021815 0.190281 0.076226 -0.600069 0.431484 -0.136075 -0.210794 -0.137889 0.342113 -0.104565 0.008489 -0.296848 -0.323715 0.258677 -0.131113 -0.174404 0.199675 -0.029036 0.040541 0.150752 -0.278456 -0.089557 -0.141056 -0.493768 0.058352 -0.083855 0.449900 0.121827 -0.087587 -0.468433 0.099730 0.199879 0.231394 -0.061628 -0.260632 0.143538 0.639450 -0.002168 0.042944 -0.633366 0.452033 -0.216876 -0.243998 -0.385725 -0.011765 0.318277 0.023362 -0.399041 -0.082699 0.382249 -0.486539 0.223098 0.408139 -0.147345 -0.427718 0.211093 -0.895526 -0.089193 -0.128064 -0.026077 -0.368772 -0.051764 0.032301 -0.458244 0.056250 0.073242 0.004441 -0.044746 0.602727 0.339517 0.391079 0.181145 -0.122868 0.072672 -0.389539 0.146743 0.061531 0.250828 -0.074221 0.057320 
period -0.092792 -0.549889 0.004548 -0.246114 0.063299 -0.088072 0.324077 0.157624 -0.028402 0.457448 0.032517 0.483620 -0.354509 -0.149180 -0.079908 0.283370 0.376852 0.406405 0.434898 0.321266 -0.021130 0.162748 0.070840 -0.605868 0.415522 -0.136323 -0.229479 -0.147803 0.358785 -0.123021 0.000201 -0.281305 -0.321246 0.247205 -0.103820 -0.169550 0.192672 -0.004408 0.036362 0.159595 -0.267381 -0.111749 -0.148398 -0.495695 0.061789 -0.096698 0.442990 0.104724 -0.079895 -0.442252 0.093789 0.186881 0.246778 -0.061852 -0.266986 0.133299 0.628873 0.018115 0.053950 -0.618944 0.445478 -0.203151 -0.251241 -0.374288 -0.025663 0.317182 0.016486 -0.390974 -0.092012 0.367684 -0.480247 0.238465 0.398240 -0.137860 -0.434750 0.227587 -0.870710 -0.079003 -0.135471 -0.004684 -0.350584 -0.066879 0.039781 -0.444857 0.047663 0.064637 -0.007296 -0.037697 0.592132 0.356761 0.376962 0.180316 -0.124557 0.071008 -0.387948 0.130144 0.065269 0.254950 -0.093539 0.040229 
system -0.128060 -0.760147 0.007803 -0.331582 0.084598 -0.121530 0.440145 0.199862 -0.046048 0.618048 0.034438 0.659682 -0.458819 -0.190564 -0.098886 0.400499 0.508900 0.547244 0.594856 0.420991 -0.027622 0.232364 0.079393 -0.811980 0.564061 -0.181393 -0.307471 -0.206633 0.471726 -0.140333 0.009981 -0.381277 -0.432438 0.352536 -0.139535 -0.235598 0.253213 -0.005670 0.046768 0.208156 -0.351371 -0.160601 -0.202472 -0.655832 0.076149 -0.124696 0.587093 0.145923 -0.081290 -0.591199 0.130091 0.253167 0.316612 -0.097493 -0.373499 0.194987 0.846842 0.019764 0.070866 -0.815884 0.602430 -0.275266 -0.318405 -0.506704 -0.031076 0.415559 0.022837 -0.521638 -0.128902 0.507596 -0.638464 0.315705 0.520291 -0.181597 -0.569072 0.306990 -1.160203 -0.096117 -0.164697 -0.004279 -0.477541 -0.106120 0.030935 -0.602353 0.081927 0.091813 -0.007623 -0.047147 0.794388 0.463390 0.511991 0.224360 -0.161493 0.099776 -0.510889 0.171827 0.074559 0.337948 -0.109153 0.061777 
eastern -0.080756 -0.493358 0.003787 -0.212110 0.052894 -0.077884 0.275229 0.143504 -0.027840 0.408701 0.027386 0.420347 -0.307847 -0.115225 -0.062517 0.260401 0.310479 0.350954 0.363578 0.274639 -0.014685 0.146616 0.062135 -0.520105 0.359722 -0.131234 -0.206751 -0.135509 0.316759 -0.107943 0.011795 -0.253397 -0.290301 0.213957 -0.093345 -0.160665 0.167474 0.012509 0.035800 0.131064 -0.228743 -0.100729 -0.120230 -0.428212 0.055646 -0.085206 0.393264 0.110211 -0.070853 -0.400599 0.087233 0.151919 0.214484 -0.048435 -0.253377 0.122778 0.566456 0.018448 0.051188 -0.523478 0.383535 -0.170413 -0.199068 -0.334807 -0.019799 0.262074 0.013076 -0.342712 -0.079420 0.316193 -0.401478 0.205055 0.338715 -0.118069 -0.374931 0.198454 -0.750982 -0.057536 -0.113367 -0.013773 -0.310841 -0.061893 0.030686 -0.384216 0.048621 0.063814 -0.006211 -0.042523 0.510870 0.305877 0.344290 0.157758 -0.100819 0.051650 -0.335676 0.118936 0.060571 0.213781 -0.080265 0.047153 
great -0.112780 -0.677718 0.002325 -0.320157 0.092064 -0.102724 0.405037 0.202990 -0.037088 0.577174 0.019180 0.639759 -0.430105 -0.175111 -0.084762 0.355660 0.452876 0.491414 0.533023 0.408483 -0.016065 0.205498 0.082166 -0.751657 0.522260 -0.175304 -0.301068 -0.192452 0.461316 -0.154380 0.017608 -0.338099 -0.412318 0.327268 -0.113793 -0.228170 0.227889 0.019793 0.036858 0.209282 -0.338189 -0.157305 -0.196287 -0.636742 0.084612 -0.131617 0.568219 0.138250 -0.072235 -0.563195 0.127653 0.223461 0.304819 -0.086205 -0.381304 0.190610 0.812065 0.019012 0.082890 -0.761875 0.568361 -0.241439 -0.314042 -0.490356 -0.044116 0.372631 0.017216 -0.487925 -0.105925 0.472536 -0.607701 0.314650 0.474755 -0.173578 -0.538099 0.298912 -1.094697 -0.086704 -0.167194 0.007879 -0.463988 -0.095800 0.030733 -0.551731 0.069079 0.097776 -0.000409 -0.046816 0.739066 0.453748 0.488210 0.224889 -0.156108 0.096929 -0.489613 0.160250 0.092898 0.328926 -0.114988 0.038865 
established -0.086442 -0.522751 0.006131 -0.235011 0.057465 -0.066573 0.301956 0.135728 -0.036243 0.422278 0.028316 0.454843 -0.329207 -0.134689 -0.071368 0.267837 0.346831 0.381744 0.401363 0.302320 -0.014229 0.150012 0.066325 -0.557637 0.384992 -0.122142 -0.221508 -0.130192 0.323744 -0.111912 0.003540 -0.263739 -0.291865 0.227201 -0.108730 -0.162611 0.170017 -0.003695 0.030628 0.151212 -0.240628 -0.097661 -0.140907 -0.463017 0.052187 -0.092733 0.404333 0.102402 -0.068775 -0.422866 0.094697 0.169575 0.218758 -0.064923 -0.254327 0.134810 0.585735 -0.000633 0.039536 -0.574155 0.406557 -0.177542 -0.227761 -0.360611 -0.019691 0.274352 0.013260 -0.362955 -0.081438 0.345210 -0.440680 0.221772 0.363906 -0.120874 -0.399713 0.207548 -0.799598 -0.066516 -0.120653 -0.000990 -0.333316 -0.060084 0.024376 -0.398718 0.054512 0.072261 -0.000545 -0.032478 0.558071 0.323630 0.363072 0.170844 -0.110295 0.061013 -0.354298 0.127500 0.065098 0.244127 -0.078440 0.046202 
european -0.090458 -0.584638 0.007922 -0.263611 0.074550 -0.091194 0.336115 0.164483 -0.032340 0.487719 0.023629 0.521655 -0.356670 -0.140984 -0.078884 0.303186 0.383425 0.406943 0.448969 0.322891 -0.011814 0.174979 0.071653 -0.620884 0.436995 -0.146411 -0.247518 -0.155070 0.372636 -0.123644 0.016214 -0.291319 -0.335642 0.264861 -0.095696 -0.191256 0.196660 0.014622 0.041197 0.162825 -0.279492 -0.124791 -0.143707 -0.518563 0.070901 -0.101399 0.458644 0.122024 -0.071347 -0.461866 0.104564 0.187893 0.259016 -0.072380 -0.307646 0.155157 0.676500 0.013670 0.068505 -0.632228 0.463739 -0.200051 -0.233632 -0.399256 -0.025241 0.323492 0.018454 -0.414319 -0.097986 0.381312 -0.494452 0.258945 0.401624 -0.140841 -0.439974 0.245271 -0.901119 -0.069681 -0.140431 -0.002539 -0.381834 -0.084267 0.028285 -0.462286 0.066505 0.072653 -0.001852 -0.041488 0.609524 0.381277 0.396530 0.182334 -0.132566 0.067756 -0.404085 0.139628 0.059840 0.255393 -0.080866 0.043527 
area -0.115668 -0.793615 0.013306 -0.359260 0.123957 -0.118653 0.463222 0.234508 -0.050196 0.646573 0.006745 0.729804 -0.474115 -0.190306 -0.105110 0.405350 0.524152 0.555587 0.621167 0.446079 -0.008477 0.224630 0.094389 -0.856140 0.622970 -0.196633 -0.358817 -0.227267 0.529503 -0.191363 0.017573 -0.402429 -0.457084 0.391514 -0.123108 -0.249719 0.260975 0.030684 0.046841 0.247176 -0.381481 -0.189115 -0.220675 -0.729959 0.086744 -0.163931 0.634520 0.161247 -0.067416 -0.646798 0.146982 0.268973 0.340729 -0.103663 -0.440084 0.220568 0.943164 0.037541 0.102402 -0.855616 0.639355 -0.285342 -0.345288 -0.567792 -0.039369 0.443194 0.014268 -0.558784 -0.127559 0.549771 -0.685462 0.367626 0.540540 -0.185942 -0.619677 0.351083 -1.258832 -0.087603 -0.188883 0.014137 -0.529091 -0.124681 0.033357 -0.632969 0.097812 0.104872 -0.018602 -0.040525 0.862126 0.522909 0.567285 0.255206 -0.178748 0.116054 -0.575048 0.172529 0.091405 0.382020 -0.120798 0.041626 
building -0.097427 -0.684023 0.006239 -0.308863 0.100704 -0.123398 0.412384 0.195678 -0.054820 0.552564 0.018093 0.622176 -0.419334 -0.168477 -0.086632 0.344886 0.444351 0.477814 0.533768 0.386625 -0.001339 0.192056 0.075614 -0.734738 0.514267 -0.155622 -0.307337 -0.183250 0.449978 -0.158879 0.001677 -0.344996 -0.400955 0.328129 -0.103314 -0.214955 0.229037 0.030220 0.043133 0.199522 -0.334434 -0.172122 -0.196024 -0.617476 0.083426 -0.138080 0.553148 0.141308 -0.058240 -0.550435 0.114064 0.235396 0.290626 -0.093219 -0.376572 0.178422 0.791862 0.033285 0.090170 -0.734267 0.557923 -0.241292 -0.295062 -0.476990 -0.039914 0.375082 0.014597 -0.466174 -0.113372 0.475627 -0.579369 0.313481 0.463637 -0.164284 -0.537144 0.307221 -1.078708 -0.082911 -0.175149 -0.004095 -0.447653 -0.114857 0.027760 -0.552000 0.072819 0.090096 -0.008693 -0.046094 0.737132 0.444652 0.473126 0.209998 -0.159930 0.101890 -0.490396 0.156625 0.075867 0.317836 -0.096452 0.031431 
asia -0.049477 -0.340209 0.002565 -0.157457 0.045807 -0.039502 0.196758 0.090337 -0.020331 0.269942 0.010233 0.306664 -0.209368 -0.076378 -0.035329 0.176679 0.214166 0.235163 0.244490 0.188090 -0.005198 0.099248 0.042828 -0.351446 0.246501 -0.077729 -0.140550 -0.089734 0.220839 -0.071881 0.006060 -0.173260 -0.198667 0.145545 -0.055536 -0.107230 0.115307 0.011511 0.026501 0.100267 -0.157613 -0.064089 -0.084645 -0.289377 0.037279 -0.057126 0.259381 0.079232 -0.033333 -0.272110 0.053350 0.109508 0.144865 -0.036548 -0.173617 0.092239 0.381793 0.004849 0.043225 -0.349870 0.260286 -0.103489 -0.137244 -0.232764 -0.015585 0.179712 -0.002013 -0.232937 -0.055594 0.222241 -0.276555 0.153346 0.236472 -0.067662 -0.255357 0.140721 -0.523113 -0.034429 -0.088906 -0.002064 -0.229290 -0.042482 0.018906 -0.247947 0.031833 0.045940 -0.006453 -0.020072 0.339996 0.216215 0.226607 0.119378 -0.067276 0.044316 -0.237600 0.074989 0.039603 0.149532 -0.040095 0.018282 
group -0.099253 -0.684043 0.015493 -0.300823 0.095713 -0.115211 0.391257 0.204378 -0.047001 0.552386 0.017883 0.615508 -0.414518 -0.180765 -0.086387 0.339875 0.448249 0.474036 0.536251 0.378036 -0.012510 0.191194 0.072770 -0.731650 0.517304 -0.158021 -0.296322 -0.188914 0.434951 -0.154551 0.008767 -0.329135 -0.386530 0.330734 -0.106985 -0.205713 0.225036 0.020088 0.042985 0.205984 -0.325422 -0.163165 -0.186441 -0.607711 0.074331 -0.132634 0.539034 0.137209 -0.063807 -0.540472 0.126198 0.240040 0.293509 -0.092433 -0.362803 0.185538 0.793160 0.029637 0.076369 -0.728290 0.551296 -0.238166 -0.290275 -0.475842 -0.030719 0.386073 0.008038 -0.465297 -0.120067 0.458869 -0.577471 0.293036 0.460830 -0.157509 -0.532404 0.288260 -1.063657 -0.080923 -0.160415 0.001260 -0.438730 -0.106521 0.022618 -0.539710 0.075839 0.081601 -0.015032 -0.040959 0.724357 0.432128 0.474514 0.203105 -0.156059 0.092996 -0.486001 0.160306 0.076920 0.321466 -0.102809 0.036837 
developed -0.062396 -0.414944 0.009479 -0.183120 0.054359 -0.069180 0.243457 0.117206 -0.025731 0.339256 0.016903 0.379708 -0.249369 -0.108214 -0.047374 0.208163 0.275724 0.301521 0.340305 0.224824 -0.015550 0.133771 0.046715 -0.447479 0.321538 -0.101355 -0.178146 -0.111298 0.261826 -0.090855 0.006646 -0.205897 -0.241245 0.197738 -0.065669 -0.128084 0.137164 0.012611 0.029428 0.119989 -0.194983 -0.092743 -0.117686 -0.380528 0.040533 -0.081034 0.324395 0.074661 -0.042934 -0.331589 0.071420 0.138469 0.183790 -0.055082 -0.219904 0.109119 0.482957 0.018898 0.059193 -0.452523 0.326527 -0.153508 -0.171498 -0.287341 -0.010967 0.234302 0.010825 -0.284971 -0.063959 0.287578 -0.359894 0.185383 0.287306 -0.108075 -0.323429 0.171836 -0.656021 -0.053668 -0.105534 -0.009638 -0.278288 -0.052566 0.012867 -0.331549 0.044769 0.051164 0.002045 -0.027703 0.444432 0.263563 0.285938 0.127448 -0.089119 0.058416 -0.296387 0.096635 0.053135 0.189828 -0.061079 0.021943 
members -0.089145 -0.588551 0.019199 -0.259574 0.080267 -0.107793 0.342350 0.167736 -0.036111 0.467521 0.015802 0.525386 -0.367636 -0.163379 -0.076680 0.306269 0.390978 0.404525 0.462594 0.337299 -0.017552 0.164146 0.056208 -0.627964 0.454927 -0.143297 -0.255822 -0.167654 0.381143 -0.124244 0.006680 -0.292304 -0.330953 0.275045 -0.095856 -0.187309 0.193772 0.016460 0.046972 0.171127 -0.284808 -0.131013 -0.155391 -0.532687 0.052946 -0.115086 0.463116 0.108658 -0.059181 -0.457147 0.097861 0.207849 0.252039 -0.076278 -0.309564 0.147520 0.678008 0.023935 0.060794 -0.632776 0.466958 -0.211642 -0.244094 -0.408497 -0.034809 0.331302 0.011322 -0.405553 -0.103769 0.396150 -0.492647 0.250189 0.405868 -0.134614 -0.457389 0.245846 -0.912546 -0.064775 -0.150247 -0.005776 -0.379167 -0.092382 0.024335 -0.474325 0.062928 0.078382 -0.012852 -0.043822 0.627692 0.373138 0.404224 0.175559 -0.138696 0.086127 -0.412796 0.139267 0.061758 0.268149 -0.076568 0.037717 
