1525 100
</s> 0.004003 0.004419 -0.003830 -0.003278 0.001367 0.003021 0.000941 0.000211 -0.003604 0.002218 -0.004356 0.001250 -0.000751 -0.000957 -0.003316 -0.001882 0.002579 0.003025 0.002969 0.001597 0.001545 -0.003803 -0.004096 0.004970 0.003801 0.003090 -0.000604 0.004016 -0.000495 0.000735 -0.000149 -0.002983 0.001312 -0.001337 -0.003825 0.004754 0.004379 -0.001095 -0.000226 0.000509 -0.003638 -0.004007 0.004555 0.000063 -0.002582 -0.003042 -0.003076 0.001697 0.000201 0.001331 -0.004214 -0.003808 -0.000130 0.001144 0.002550 -0.003170 0.004080 0.000927 0.001120 -0.000608 0.002986 -0.002288 -0.002097 0.002158 -0.000753 0.001031 0.001805 -0.004089 -0.001983 0.002914 0.004232 0.003932 -0.003047 -0.002108 -0.000909 0.002001 -0.003788 0.002998 0.002788 -0.001599 -0.001552 -0.002238 0.004229 0.003912 -0.001180 0.004215 0.004820 0.001815 0.004983 -0.003111 -0.001532 -0.002107 -0.002907 0.002815 0.001579 0.000425 -0.002194 0.001524 0.003059 0.000194 
azerbaijan 0.381681 -0.667512 0.690737 -0.705958 -0.003589 -0.512015 -0.128324 -0.291007 0.383370 -0.086513 0.059656 0.293490 0.244084 0.040482 -0.400481 0.119685 0.076747 -0.074991 -0.073436 0.178122 -0.538989 0.358359 -0.209451 -0.017181 0.061020 -0.747121 0.267525 0.062037 1.058757 -0.023802 0.110829 0.046921 -0.484997 0.423198 0.052648 0.276408 0.524797 -0.647556 0.300362 0.036300 -0.553102 0.235375 -0.514473 -0.559161 -0.053807 0.553329 0.000851 -0.183676 -0.428023 0.138034 -0.105342 0.115051 -0.098032 -0.385348 -0.183354 -0.248510 0.588890 -0.568961 0.192590 -0.664083 0.358188 -0.032142 -1.196794 -0.781329 -0.125677 0.495558 0.100309 -0.081423 0.372388 0.263694 -0.435491 -0.700845 0.265160 -0.014509 -0.592560 -0.193852 0.250504 0.327144 -0.332437 -0.344383 -0.254267 -0.257082 0.303571 -0.201482 -0.017503 0.239085 0.090094 0.071156 0.395242 -0.178419 -0.335813 -0.194942 0.516407 0.234035 0.351253 0.343712 0.059576 0.690838 0.747026 -0.202976 
human 0.329946 -0.578910 0.574894 -0.572850 0.025011 -0.491524 -0.103828 -0.275240 0.378759 -0.028921 0.040982 0.287309 0.203492 -0.009014 -0.416622 0.170971 0.109912 -0.108087 -0.133992 0.108787 -0.451082 0.368257 -0.178688 -0.006967 0.041090 -0.619994 0.177842 0.005387 0.900349 0.004960 0.097730 0.108047 -0.387926 0.331146 0.076048 0.258290 0.498946 -0.575714 0.256431 0.037479 -0.471863 0.169135 -0.432429 -0.564377 -0.055183 0.449207 -0.006880 -0.078907 -0.475209 0.087153 -0.134616 0.061934 -0.076803 -0.384560 -0.114703 -0.315239 0.517402 -0.520357 0.191499 -0.549132 0.304723 -0.013899 -1.031301 -0.745993 -0.080558 0.402899 0.108619 -0.059003 0.297946 0.167049 -0.424428 -0.563355 0.283292 -0.030316 -0.592330 -0.140653 0.278688 0.388780 -0.343421 -0.313580 -0.243436 -0.239459 0.296181 -0.177114 -0.043930 0.155994 0.099419 0.086846 0.397374 -0.158465 -0.285706 -0.205768 0.446247 0.222459 0.296782 0.271092 0.041650 0.551006 0.592975 -0.236698 
rights 0.291526 -0.569671 0.536673 -0.573088 0.039908 -0.513280 -0.083273 -0.271454 0.361009 -0.014872 0.094756 0.308614 0.185836 -0.007012 -0.431542 0.188245 0.125929 -0.166525 -0.160043 0.041830 -0.424751 0.381155 -0.159294 -0.132704 0.018748 -0.633565 0.182586 0.043782 0.917547 0.005455 0.057585 0.084121 -0.388177 0.349223 0.074124 0.313497 0.469308 -0.560824 0.240604 -0.102472 -0.442387 0.187920 -0.416342 -0.563065 -0.048833 0.403601 -0.053962 -0.034283 -0.493661 0.023157 -0.170350 0.102682 -0.096105 -0.378102 -0.125603 -0.305426 0.476021 -0.509237 0.155285 -0.623143 0.296080 0.003465 -1.005547 -0.715368 -0.100481 0.469064 0.111159 -0.093483 0.380224 0.151321 -0.393527 -0.507488 0.262822 -0.042757 -0.629317 -0.147822 0.278841 0.343707 -0.341334 -0.335457 -0.251622 -0.246024 0.271882 -0.229062 -0.102584 0.163888 0.034911 0.091861 0.371410 -0.191244 -0.314405 -0.151772 0.448478 0.261234 0.329151 0.275972 -0.000289 0.485519 0.647670 -0.256867 
republic 0.312925 -0.563094 0.590220 -0.618524 0.000781 -0.405318 -0.116966 -0.237339 0.321223 -0.079034 0.034592 0.241862 0.219946 0.043533 -0.309713 0.068746 0.042584 -0.029855 -0.023864 0.210948 -0.481484 0.285261 -0.187203 -0.002027 0.062674 -0.652554 0.256997 0.063327 0.931913 -0.041784 0.099520 0.024593 -0.430217 0.383610 0.026436 0.227364 0.438488 -0.534530 0.280838 0.071507 -0.467681 0.215129 -0.454983 -0.450651 -0.032168 0.484048 0.013494 -0.210364 -0.292602 0.139119 -0.052946 0.103386 -0.078892 -0.318131 -0.183705 -0.186343 0.512695 -0.467473 0.176604 -0.567146 0.323553 -0.046199 -1.031813 -0.651169 -0.118861 0.411629 0.070195 -0.075068 0.317467 0.255569 -0.348815 -0.614546 0.218890 0.008362 -0.468161 -0.171406 0.170266 0.250911 -0.257138 -0.274199 -0.196330 -0.201800 0.251678 -0.160201 0.015945 0.228251 0.078227 0.049642 0.308170 -0.124319 -0.274182 -0.156548 0.437348 0.188493 0.305757 0.311750 0.070697 0.624868 0.652491 -0.152150 
humans 0.335876 -0.536786 0.544156 -0.545841 0.014644 -0.431279 -0.121960 -0.246484 0.355153 -0.044668 0.035614 0.273190 0.185697 -0.001128 -0.362346 0.134354 0.096535 -0.068502 -0.122091 0.138246 -0.432757 0.328100 -0.185101 0.005373 0.052830 -0.594678 0.170151 0.014094 0.858606 -0.013896 0.096878 0.102328 -0.382056 0.310593 0.072623 0.233467 0.470149 -0.516792 0.269479 0.066806 -0.448180 0.160858 -0.423186 -0.507674 -0.037711 0.447910 0.009488 -0.123867 -0.406642 0.107814 -0.109540 0.059360 -0.057854 -0.347391 -0.129111 -0.278719 0.502588 -0.480766 0.177140 -0.511831 0.287946 -0.026750 -0.980475 -0.692567 -0.086241 0.369047 0.099220 -0.052196 0.283477 0.170242 -0.375416 -0.549327 0.267453 -0.012987 -0.535726 -0.141438 0.241529 0.348143 -0.296075 -0.282958 -0.220922 -0.221129 0.270129 -0.160298 -0.029686 0.168254 0.105014 0.072854 0.361983 -0.130892 -0.252290 -0.202770 0.399621 0.196989 0.289133 0.285459 0.060486 0.556329 0.552861 -0.222700 
azerbaijani 0.575345 -1.010617 1.039854 -1.065896 0.010345 -0.779101 -0.210796 -0.456694 0.607926 -0.110319 0.065603 0.470274 0.366501 0.055224 -0.623906 0.192382 0.132805 -0.111423 -0.161825 0.271877 -0.811541 0.562511 -0.328462 -0.014255 0.082213 -1.116577 0.381739 0.071575 1.614107 -0.042918 0.162036 0.116743 -0.723914 0.638932 0.105436 0.439722 0.819057 -0.963189 0.492324 0.080318 -0.823409 0.350850 -0.793587 -0.872822 -0.079858 0.833117 -0.006238 -0.245381 -0.664623 0.195579 -0.161619 0.159999 -0.138175 -0.605623 -0.274142 -0.415865 0.917567 -0.860629 0.314160 -1.000154 0.548592 -0.043711 -1.829473 -1.222097 -0.185380 0.740466 0.154845 -0.134600 0.539542 0.375479 -0.666643 -1.044065 0.430674 -0.011658 -0.937268 -0.278246 0.395078 0.547551 -0.528293 -0.510261 -0.393103 -0.406468 0.492544 -0.293482 -0.042720 0.342757 0.149490 0.107036 0.617917 -0.248558 -0.489653 -0.314695 0.790292 0.353779 0.527156 0.526267 0.100808 1.044125 1.113339 -0.328065 
region 0.541831 -0.928216 0.946713 -0.975327 0.017873 -0.716339 -0.204655 -0.434286 0.576604 -0.117023 0.080170 0.430691 0.346273 0.046900 -0.584685 0.179106 0.123759 -0.124037 -0.165483 0.217259 -0.742940 0.543954 -0.296283 -0.015262 0.059033 -1.025277 0.350104 0.060088 1.506050 -0.041161 0.139624 0.120552 -0.659728 0.589246 0.080605 0.421209 0.762031 -0.906011 0.453704 0.067615 -0.774404 0.319193 -0.743479 -0.829641 -0.093471 0.765669 0.001195 -0.176271 -0.680192 0.160578 -0.176265 0.156717 -0.139897 -0.575626 -0.244261 -0.407735 0.840109 -0.809282 0.297603 -0.925483 0.511322 -0.032815 -1.682938 -1.144582 -0.183470 0.668457 0.128010 -0.116551 0.498096 0.323784 -0.630869 -0.974677 0.406585 -0.013839 -0.911606 -0.240398 0.403139 0.517902 -0.484439 -0.484668 -0.373543 -0.388753 0.467836 -0.285114 -0.059953 0.308440 0.129498 0.103342 0.580751 -0.253051 -0.456519 -0.294636 0.751153 0.351940 0.493285 0.458761 0.073481 0.942436 1.034513 -0.319969 
armenian 0.435554 -0.759705 0.781528 -0.800638 0.019362 -0.591650 -0.158166 -0.345466 0.463637 -0.083342 0.049360 0.347400 0.281079 0.040084 -0.473000 0.142080 0.100604 -0.091862 -0.126693 0.198361 -0.613020 0.426959 -0.248853 -0.011426 0.052818 -0.841222 0.283323 0.042977 1.220770 -0.030282 0.114660 0.094228 -0.544327 0.473727 0.080717 0.335225 0.621551 -0.731768 0.364199 0.066083 -0.620686 0.256660 -0.597229 -0.669842 -0.062971 0.618338 -0.000165 -0.177272 -0.511147 0.144721 -0.121163 0.114995 -0.102104 -0.463171 -0.204163 -0.327240 0.692878 -0.652902 0.242419 -0.749107 0.419260 -0.028654 -1.377516 -0.929856 -0.137903 0.550295 0.113015 -0.097715 0.407182 0.274802 -0.503146 -0.796367 0.338368 -0.014339 -0.711105 -0.213033 0.311927 0.426453 -0.402360 -0.384880 -0.298235 -0.310163 0.376210 -0.219313 -0.041236 0.253657 0.110724 0.085446 0.465794 -0.198239 -0.367196 -0.250819 0.604035 0.275099 0.401284 0.396637 0.078244 0.784098 0.846534 -0.255071 
nagorno-karabakh 0.555090 -0.971780 1.008080 -1.023464 0.018049 -0.756043 -0.199871 -0.438270 0.596478 -0.107648 0.067055 0.446866 0.364876 0.041057 -0.612787 0.190222 0.129406 -0.117373 -0.159398 0.247006 -0.788558 0.556003 -0.314171 -0.018285 0.078487 -1.083356 0.369499 0.068204 1.565448 -0.047260 0.151652 0.109200 -0.692089 0.617037 0.095161 0.426217 0.792161 -0.934012 0.460437 0.070832 -0.795005 0.323391 -0.763486 -0.850577 -0.087031 0.801317 0.000010 -0.224119 -0.659813 0.183828 -0.160201 0.146557 -0.137475 -0.588125 -0.253121 -0.416755 0.885538 -0.828303 0.304047 -0.949432 0.524355 -0.050177 -1.755153 -1.182377 -0.176830 0.711794 0.146325 -0.126037 0.515910 0.356484 -0.652800 -1.020794 0.417804 -0.011609 -0.910735 -0.264376 0.401468 0.527378 -0.503627 -0.501404 -0.375670 -0.393912 0.480416 -0.284810 -0.038473 0.327411 0.138260 0.112020 0.587225 -0.237172 -0.475953 -0.314898 0.773916 0.357596 0.519902 0.500353 0.088268 1.010281 1.081450 -0.320367 
state 0.323543 -0.619824 0.622267 -0.671071 0.014014 -0.437865 -0.113644 -0.262502 0.345812 -0.084515 0.038150 0.246462 0.233370 0.035420 -0.348315 0.063797 0.053860 -0.046112 -0.042521 0.204906 -0.502430 0.293351 -0.202774 -0.008408 0.043898 -0.683443 0.255649 0.074199 0.975099 -0.038236 0.112370 0.024711 -0.458886 0.410363 0.033102 0.269068 0.469498 -0.580330 0.298580 0.046158 -0.502822 0.224570 -0.482271 -0.477129 -0.069487 0.522996 -0.002135 -0.172927 -0.345142 0.132776 -0.057331 0.103363 -0.098001 -0.330828 -0.189931 -0.196289 0.539415 -0.492091 0.175198 -0.604247 0.349692 -0.048170 -1.091790 -0.697479 -0.140017 0.443477 0.067840 -0.073596 0.336403 0.273463 -0.366836 -0.666947 0.238496 -0.004141 -0.523406 -0.177226 0.208914 0.290413 -0.287725 -0.312705 -0.214060 -0.234398 0.280549 -0.167241 0.012437 0.236082 0.065526 0.033111 0.326949 -0.155865 -0.280495 -0.155665 0.502920 0.211415 0.308161 0.337366 0.050594 0.642107 0.716332 -0.158860 
states 0.304481 -0.587866 0.612674 -0.629976 0.014071 -0.383113 -0.119864 -0.262064 0.310939 -0.114631 0.015718 0.219943 0.233269 0.047658 -0.277909 0.040608 0.031007 -0.038679 -0.006423 0.232244 -0.511501 0.264652 -0.187513 0.009718 0.036724 -0.660375 0.262610 0.076263 0.970718 -0.087213 0.106941 0.002511 -0.450986 0.417805 -0.001047 0.251696 0.443110 -0.555053 0.297901 0.089605 -0.444813 0.244685 -0.488903 -0.418920 -0.054581 0.532998 0.008581 -0.214530 -0.261297 0.143621 -0.024582 0.105950 -0.089658 -0.333602 -0.190960 -0.126856 0.549112 -0.464486 0.187871 -0.582296 0.337493 -0.071725 -1.075386 -0.645837 -0.143432 0.424064 0.028230 -0.070819 0.295150 0.298706 -0.355422 -0.674164 0.182221 0.031782 -0.432257 -0.207159 0.166611 0.257016 -0.257364 -0.295658 -0.182454 -0.214754 0.287067 -0.151447 0.049344 0.261581 0.066111 0.018761 0.299187 -0.133450 -0.259814 -0.164245 0.497249 0.196957 0.311317 0.321944 0.069152 0.658538 0.728269 -0.126061 
modern 0.320937 -0.534088 0.557373 -0.553945 -0.000118 -0.423685 -0.118520 -0.252786 0.339824 -0.043322 0.036102 0.264700 0.202434 0.010096 -0.342304 0.116426 0.080631 -0.075288 -0.099742 0.140158 -0.447935 0.312114 -0.184949 0.005961 0.049842 -0.601129 0.195386 0.030755 0.862954 -0.015064 0.092446 0.083508 -0.382826 0.325337 0.071681 0.231919 0.451795 -0.530237 0.269788 0.067203 -0.442838 0.184604 -0.426829 -0.494131 -0.043936 0.442518 0.005101 -0.126093 -0.379584 0.114058 -0.091457 0.061140 -0.056754 -0.340244 -0.132509 -0.254863 0.485649 -0.474181 0.184965 -0.519206 0.296227 -0.024381 -0.970182 -0.676956 -0.087244 0.378639 0.087812 -0.066641 0.280116 0.175142 -0.360399 -0.552891 0.244781 -0.008536 -0.515775 -0.137599 0.222529 0.325278 -0.277686 -0.276040 -0.211145 -0.213487 0.271922 -0.171612 -0.030368 0.165566 0.097226 0.069300 0.349096 -0.132861 -0.262982 -0.188884 0.420257 0.210759 0.288229 0.276638 0.070393 0.567162 0.579924 -0.194072 
regions 0.561867 -0.975428 0.993933 -1.017764 0.026473 -0.762581 -0.204579 -0.438707 0.599903 -0.107818 0.064073 0.462400 0.347614 0.040159 -0.632954 0.206077 0.113988 -0.147659 -0.182351 0.250121 -0.790979 0.558888 -0.309644 -0.033764 0.063933 -1.083447 0.348541 0.047151 1.551050 -0.037204 0.154554 0.128668 -0.689674 0.616892 0.100221 0.445900 0.808069 -0.953254 0.478697 0.060410 -0.793794 0.325528 -0.756032 -0.878899 -0.108171 0.779893 -0.018109 -0.182089 -0.712744 0.164810 -0.193785 0.154023 -0.127348 -0.619589 -0.245198 -0.426894 0.870095 -0.850218 0.309013 -0.970726 0.529426 -0.041758 -1.749505 -1.214458 -0.180638 0.700538 0.138729 -0.101817 0.525047 0.328549 -0.656194 -1.007034 0.440259 -0.013712 -0.948524 -0.250059 0.421770 0.570541 -0.526203 -0.499678 -0.402317 -0.395770 0.466993 -0.281500 -0.069890 0.310784 0.129799 0.126034 0.621665 -0.263864 -0.477727 -0.302089 0.774746 0.354787 0.503454 0.487470 0.095197 0.975676 1.084624 -0.365327 
political 0.332506 -0.636735 0.622020 -0.661561 0.027510 -0.484085 -0.130021 -0.266662 0.355277 -0.068476 0.045339 0.271795 0.221540 0.027663 -0.390656 0.112305 0.066457 -0.076509 -0.101529 0.145307 -0.488386 0.347154 -0.198549 -0.027985 0.028393 -0.670958 0.231791 0.048911 0.992509 -0.022571 0.094726 0.058391 -0.443157 0.397973 0.047660 0.273802 0.507099 -0.594230 0.295076 0.013313 -0.497082 0.211679 -0.493705 -0.529734 -0.075446 0.505144 -0.018147 -0.123091 -0.425879 0.084182 -0.127013 0.103789 -0.103918 -0.371083 -0.171622 -0.252857 0.556350 -0.529048 0.180905 -0.621889 0.348235 -0.011697 -1.109479 -0.746612 -0.137838 0.453071 0.074538 -0.085402 0.348737 0.230401 -0.396135 -0.640859 0.266570 -0.000231 -0.600149 -0.147076 0.248516 0.346498 -0.325088 -0.332676 -0.246224 -0.258639 0.295229 -0.178614 -0.037627 0.205278 0.070114 0.059955 0.367793 -0.157303 -0.297354 -0.185948 0.510412 0.233018 0.330726 0.310939 0.048709 0.622250 0.697608 -0.205867 
world 0.253985 -0.457365 0.483924 -0.504794 0.010469 -0.351584 -0.103702 -0.203562 0.267958 -0.059102 0.022635 0.202639 0.181833 0.042883 -0.271900 0.080288 0.047268 -0.040151 -0.058624 0.136627 -0.397173 0.236374 -0.155600 -0.002995 0.033774 -0.513789 0.189985 0.034071 0.769961 -0.025774 0.084547 0.049592 -0.331726 0.314578 0.030165 0.185153 0.362574 -0.442250 0.226888 0.042606 -0.371200 0.180105 -0.368772 -0.388724 -0.042591 0.386233 0.000341 -0.135980 -0.284654 0.105008 -0.051133 0.092459 -0.054770 -0.282347 -0.132983 -0.173039 0.411351 -0.395249 0.150275 -0.465708 0.270116 -0.019701 -0.854132 -0.547359 -0.084358 0.341447 0.060522 -0.064837 0.255401 0.191888 -0.296134 -0.498972 0.187671 -0.008059 -0.395557 -0.145583 0.165727 0.227576 -0.235501 -0.234162 -0.158024 -0.169197 0.225153 -0.132394 0.001798 0.169754 0.055399 0.047785 0.276143 -0.106121 -0.243417 -0.133368 0.359574 0.165725 0.237932 0.242437 0.041570 0.481668 0.537732 -0.136635 
majority 0.216907 -0.391189 0.395347 -0.409884 0.005237 -0.299890 -0.078927 -0.176656 0.239658 -0.040373 0.028647 0.180495 0.147312 0.016588 -0.243461 0.070388 0.047714 -0.041552 -0.060524 0.102565 -0.311459 0.219548 -0.129950 -0.009545 0.029750 -0.436103 0.137328 0.026651 0.624776 -0.015320 0.062080 0.050552 -0.274524 0.246796 0.035906 0.175084 0.320004 -0.369712 0.190899 0.035815 -0.318830 0.138308 -0.302510 -0.350735 -0.034034 0.325893 0.000736 -0.091809 -0.268180 0.072358 -0.064664 0.061267 -0.047921 -0.237842 -0.107496 -0.161235 0.359642 -0.331863 0.123392 -0.380061 0.217074 -0.025139 -0.697436 -0.469118 -0.069622 0.279745 0.050070 -0.049869 0.200332 0.141761 -0.262635 -0.408914 0.174476 -0.002401 -0.373364 -0.104589 0.164811 0.223770 -0.204205 -0.198254 -0.153522 -0.163103 0.190370 -0.110061 -0.014099 0.131653 0.059161 0.035275 0.234907 -0.097051 -0.188057 -0.128979 0.307602 0.142069 0.200972 0.199719 0.042030 0.398863 0.431959 -0.136491 
right 0.310554 -0.524332 0.522049 -0.541604 0.016262 -0.453841 -0.086469 -0.225316 0.352650 -0.038187 0.075631 0.276405 0.187711 -0.003867 -0.357185 0.140153 0.104377 -0.089858 -0.138479 0.088105 -0.398698 0.334197 -0.157713 -0.071433 0.020421 -0.587344 0.166324 0.025377 0.844705 0.012778 0.042475 0.067521 -0.378278 0.318149 0.051244 0.279685 0.437580 -0.497336 0.223368 -0.032650 -0.415910 0.176207 -0.390668 -0.504402 -0.045147 0.386326 -0.025307 -0.071675 -0.412998 0.055017 -0.112242 0.079845 -0.068068 -0.317829 -0.116392 -0.279749 0.456053 -0.449397 0.159611 -0.550034 0.286992 -0.005160 -0.946492 -0.647100 -0.097402 0.413990 0.100383 -0.076416 0.319435 0.136853 -0.376369 -0.506121 0.246012 -0.022330 -0.556773 -0.141724 0.242265 0.311821 -0.284917 -0.277095 -0.224874 -0.223889 0.266289 -0.197843 -0.083272 0.163807 0.059484 0.078933 0.343206 -0.150141 -0.272914 -0.161367 0.410911 0.218934 0.287720 0.266811 0.035506 0.499544 0.576965 -0.219495 
history 0.329412 -0.596784 0.596026 -0.615506 0.012155 -0.464957 -0.113807 -0.258172 0.361811 -0.057579 0.045354 0.277980 0.213622 0.024444 -0.382474 0.133163 0.077888 -0.069348 -0.109067 0.139918 -0.464981 0.341812 -0.182310 -0.011599 0.039867 -0.641757 0.219710 0.031133 0.932301 -0.017744 0.091486 0.081758 -0.408787 0.371029 0.063317 0.257945 0.481933 -0.566754 0.280373 0.033763 -0.473191 0.198567 -0.453394 -0.525564 -0.051159 0.466793 -0.004919 -0.119514 -0.423991 0.093704 -0.125800 0.083791 -0.089043 -0.366124 -0.153040 -0.264514 0.526640 -0.508054 0.191007 -0.585541 0.316601 -0.012058 -1.058636 -0.720071 -0.113932 0.425190 0.089415 -0.077242 0.309769 0.200123 -0.402194 -0.599908 0.258494 -0.016683 -0.567156 -0.142554 0.244925 0.342166 -0.321554 -0.308251 -0.231309 -0.243955 0.282984 -0.173373 -0.038761 0.181926 0.091342 0.078370 0.376896 -0.153791 -0.287594 -0.194825 0.470727 0.216257 0.305849 0.296608 0.054292 0.591530 0.632917 -0.209637 
population 0.278291 -0.491475 0.496986 -0.516314 0.015449 -0.368338 -0.099642 -0.228397 0.303477 -0.057366 0.042362 0.224768 0.182708 0.015781 -0.304847 0.093710 0.067026 -0.053950 -0.089745 0.122121 -0.400356 0.277144 -0.157721 -0.007460 0.026945 -0.542333 0.169174 0.026710 0.789249 -0.022189 0.067862 0.063541 -0.350949 0.300448 0.048654 0.222632 0.391247 -0.460761 0.234622 0.041274 -0.405909 0.176635 -0.383088 -0.434735 -0.057281 0.408244 -0.007368 -0.104252 -0.328602 0.093687 -0.073507 0.067472 -0.057468 -0.291532 -0.127838 -0.212146 0.442099 -0.420040 0.159043 -0.481893 0.264086 -0.019833 -0.875006 -0.595656 -0.085331 0.355988 0.063443 -0.059831 0.258659 0.169274 -0.330379 -0.511930 0.219880 -0.012742 -0.467604 -0.139569 0.212604 0.275808 -0.251679 -0.248080 -0.194174 -0.216985 0.243172 -0.143990 -0.023794 0.174084 0.074105 0.052314 0.291786 -0.123520 -0.244525 -0.156005 0.383066 0.185712 0.247311 0.242912 0.043294 0.511743 0.546451 -0.171626 
national 0.412113 -0.738259 0.780447 -0.798337 0.003809 -0.576205 -0.143488 -0.330530 0.454719 -0.082538 0.052633 0.336915 0.270222 0.039579 -0.468629 0.127277 0.084446 -0.094639 -0.103117 0.192118 -0.606219 0.415694 -0.234926 -0.016905 0.061604 -0.822938 0.297882 0.051437 1.213525 -0.043797 0.118126 0.067422 -0.526222 0.491949 0.061396 0.331740 0.596379 -0.724650 0.361037 0.036195 -0.598092 0.266279 -0.572796 -0.644852 -0.067301 0.607684 0.007044 -0.176613 -0.491248 0.132503 -0.130112 0.132515 -0.098504 -0.453872 -0.208887 -0.300877 0.675280 -0.635026 0.223758 -0.743631 0.416083 -0.036072 -1.345017 -0.897423 -0.134772 0.548721 0.111521 -0.103525 0.417198 0.283594 -0.484635 -0.770278 0.317363 0.008372 -0.681828 -0.213215 0.297595 0.389157 -0.397954 -0.386407 -0.282323 -0.291589 0.354621 -0.209511 -0.034498 0.243005 0.088932 0.074891 0.456366 -0.191468 -0.365589 -0.227174 0.593565 0.276191 0.400215 0.387830 0.067368 0.769099 0.835263 -0.240445 
country 0.273930 -0.499101 0.510985 -0.548374 0.012651 -0.362827 -0.094550 -0.216316 0.280725 -0.062461 0.035874 0.218788 0.173860 0.041536 -0.293499 0.059753 0.039645 -0.061925 -0.034974 0.161716 -0.400228 0.256858 -0.153326 -0.024780 0.032868 -0.568489 0.216050 0.049914 0.797271 -0.032995 0.089931 0.016702 -0.363778 0.337786 0.025894 0.224209 0.385972 -0.497454 0.234386 0.033584 -0.397987 0.180483 -0.385614 -0.396105 -0.068415 0.416574 0.008665 -0.125796 -0.324806 0.095694 -0.063092 0.101308 -0.083299 -0.298042 -0.134592 -0.156874 0.442400 -0.414237 0.146427 -0.509557 0.279517 -0.026553 -0.888765 -0.576566 -0.104027 0.360766 0.046220 -0.051405 0.276241 0.207804 -0.308544 -0.529158 0.197538 0.006041 -0.429872 -0.149996 0.199655 0.249046 -0.244911 -0.242622 -0.189810 -0.190589 0.228057 -0.143091 -0.001866 0.172833 0.043205 0.043617 0.269992 -0.142467 -0.258728 -0.133460 0.411369 0.176943 0.255584 0.256631 0.044651 0.504183 0.593803 -0.143560 
russian 0.277389 -0.494959 0.544460 -0.572850 0.010272 -0.390554 -0.108141 -0.221639 0.309719 -0.063249 0.032285 0.228985 0.188196 0.047227 -0.312688 0.098883 0.055096 -0.020288 -0.067001 0.160706 -0.424008 0.255415 -0.163656 0.015195 0.068971 -0.591503 0.227891 0.049081 0.850145 -0.018220 0.090395 0.060982 -0.372333 0.328893 0.050819 0.202383 0.404521 -0.476245 0.260474 0.068995 -0.437362 0.189151 -0.406524 -0.438879 -0.031454 0.427500 0.009107 -0.179564 -0.289285 0.111110 -0.056871 0.069096 -0.069598 -0.283098 -0.154238 -0.214268 0.449799 -0.447023 0.180003 -0.516288 0.304457 -0.014819 -0.970762 -0.607311 -0.094299 0.386796 0.085527 -0.083335 0.291613 0.217108 -0.346605 -0.546352 0.200232 -0.005899 -0.438702 -0.153873 0.164417 0.243665 -0.261618 -0.263856 -0.192812 -0.183037 0.238369 -0.144473 -0.000351 0.197670 0.088442 0.048471 0.294302 -0.107730 -0.256455 -0.143447 0.378141 0.167067 0.265417 0.284454 0.057812 0.552651 0.580800 -0.153524 
government 0.353444 -0.619747 0.645499 -0.680547 0.006231 -0.468838 -0.120255 -0.266994 0.363968 -0.074718 0.053785 0.266392 0.235887 0.031010 -0.354078 0.087839 0.068864 -0.047650 -0.059294 0.207591 -0.514660 0.316946 -0.204155 -0.002102 0.060276 -0.702309 0.264105 0.053840 1.003209 -0.026276 0.108183 0.041611 -0.466285 0.404057 0.041565 0.271474 0.496082 -0.598692 0.303865 0.056714 -0.512746 0.219427 -0.499297 -0.505534 -0.052256 0.530382 0.002953 -0.202745 -0.361571 0.139903 -0.071066 0.103580 -0.083939 -0.351809 -0.186703 -0.229590 0.563077 -0.522444 0.196405 -0.611922 0.349530 -0.049902 -1.131275 -0.732327 -0.124132 0.462473 0.085785 -0.073753 0.348648 0.271556 -0.392115 -0.661782 0.259884 -0.002560 -0.543278 -0.180387 0.221675 0.300024 -0.295755 -0.311193 -0.221036 -0.237462 0.290189 -0.173841 0.005084 0.245263 0.097454 0.056719 0.342555 -0.148713 -0.288168 -0.171565 0.494140 0.207926 0.330525 0.349417 0.057564 0.679554 0.706630 -0.185865 
republics 0.305331 -0.583707 0.602376 -0.635648 0.005996 -0.392780 -0.127402 -0.248562 0.316122 -0.102965 0.031106 0.215943 0.217265 0.043596 -0.279133 0.047065 0.038359 -0.027042 -0.012588 0.215635 -0.504363 0.279780 -0.190943 0.008493 0.039192 -0.656437 0.255695 0.075591 0.974351 -0.077789 0.105827 0.027090 -0.443227 0.406543 0.006559 0.239094 0.441830 -0.549392 0.301323 0.081310 -0.464166 0.229062 -0.477008 -0.425446 -0.040326 0.518175 0.012288 -0.227462 -0.261745 0.140795 -0.025698 0.102565 -0.088254 -0.320510 -0.181033 -0.144836 0.531147 -0.463670 0.186227 -0.572492 0.326462 -0.064966 -1.061892 -0.634910 -0.141136 0.432232 0.031891 -0.075952 0.303125 0.285180 -0.352337 -0.657514 0.198747 0.017663 -0.434804 -0.197877 0.156399 0.250016 -0.248783 -0.292103 -0.183947 -0.211176 0.270076 -0.153970 0.044969 0.249504 0.057313 0.032727 0.310708 -0.124209 -0.264867 -0.162720 0.470335 0.197149 0.304681 0.317198 0.070774 0.658192 0.703420 -0.136301 
people 0.319326 -0.547644 0.561022 -0.573468 0.015733 -0.433443 -0.103924 -0.245136 0.343583 -0.066051 0.042371 0.256520 0.213071 0.019443 -0.339898 0.114628 0.062927 -0.068479 -0.108344 0.145013 -0.435396 0.316410 -0.182103 -0.017765 0.025264 -0.593231 0.189673 0.029099 0.863957 -0.011941 0.070468 0.063324 -0.376049 0.345021 0.052846 0.248354 0.451391 -0.514263 0.265216 0.025366 -0.440365 0.181425 -0.432430 -0.487919 -0.059535 0.443699 -0.023231 -0.095825 -0.381801 0.094702 -0.099316 0.081076 -0.072262 -0.338883 -0.146816 -0.245640 0.485351 -0.475379 0.165737 -0.536120 0.301727 -0.025243 -0.971679 -0.666379 -0.106899 0.398441 0.081803 -0.062115 0.286566 0.186667 -0.364607 -0.559664 0.242455 -0.010932 -0.530055 -0.143387 0.231952 0.312006 -0.276529 -0.279225 -0.210286 -0.237298 0.263632 -0.157538 -0.039442 0.174260 0.079420 0.061145 0.333193 -0.135617 -0.259508 -0.169063 0.439011 0.207286 0.277841 0.276628 0.045022 0.561440 0.606817 -0.197638 
karabakh 0.619570 -1.086617 1.128779 -1.146249 0.013711 -0.857681 -0.223505 -0.487611 0.670060 -0.124666 0.072152 0.502083 0.406791 0.054954 -0.684962 0.214920 0.145024 -0.126263 -0.175796 0.288347 -0.883858 0.621151 -0.359477 -0.013939 0.078833 -1.215003 0.407618 0.072736 1.758872 -0.046978 0.162567 0.132239 -0.779191 0.695627 0.105671 0.482977 0.897052 -1.048496 0.520121 0.086391 -0.886136 0.366370 -0.845013 -0.963889 -0.098015 0.902411 -0.000016 -0.256181 -0.739812 0.205388 -0.182603 0.174789 -0.149609 -0.665336 -0.288258 -0.472249 0.986005 -0.943907 0.343060 -1.079288 0.595960 -0.047026 -1.981496 -1.332250 -0.200451 0.796283 0.157129 -0.141479 0.589277 0.385530 -0.736924 -1.136613 0.478940 -0.011751 -1.027234 -0.305093 0.446127 0.598018 -0.575398 -0.552674 -0.421281 -0.439489 0.541152 -0.314171 -0.056493 0.362739 0.159562 0.117348 0.664731 -0.272826 -0.537111 -0.357684 0.867989 0.395143 0.577030 0.564509 0.109156 1.126780 1.215212 -0.378875 
first 0.320339 -0.540205 0.549449 -0.576148 0.002955 -0.404295 -0.111993 -0.231175 0.332541 -0.075110 0.035785 0.246132 0.205955 0.015398 -0.318157 0.090002 0.065982 -0.048749 -0.055849 0.167498 -0.457226 0.296851 -0.186216 -0.005975 0.051615 -0.605459 0.223929 0.048991 0.892581 -0.031308 0.100701 0.047533 -0.389661 0.347038 0.042573 0.225740 0.440399 -0.532299 0.267767 0.057356 -0.444896 0.195451 -0.421385 -0.461833 -0.037685 0.449299 0.009537 -0.172782 -0.334231 0.122287 -0.069880 0.092573 -0.070255 -0.329433 -0.166087 -0.218212 0.501194 -0.462224 0.171795 -0.534259 0.301718 -0.026876 -0.991545 -0.636621 -0.104985 0.389508 0.074979 -0.077821 0.302186 0.223542 -0.346266 -0.577505 0.227891 -0.008510 -0.476374 -0.167747 0.203130 0.282766 -0.273322 -0.274026 -0.190546 -0.205258 0.259953 -0.154083 -0.004320 0.190890 0.088126 0.053066 0.322977 -0.120833 -0.262757 -0.176633 0.421706 0.178400 0.296525 0.295512 0.058161 0.587527 0.611992 -0.169423 
social 0.348187 -0.677077 0.652246 -0.669577 0.040782 -0.564617 -0.121535 -0.297488 0.403129 -0.035925 0.057322 0.347167 0.216418 0.040326 -0.489445 0.197454 0.116783 -0.144344 -0.181637 0.085349 -0.497856 0.423885 -0.184350 -0.055820 0.009476 -0.721432 0.221176 0.013224 1.048727 -0.001465 0.089231 0.094352 -0.434987 0.386034 0.092146 0.314011 0.540496 -0.643897 0.318700 -0.031710 -0.528845 0.187033 -0.489572 -0.635572 -0.093128 0.501043 -0.042328 -0.055232 -0.553391 0.048179 -0.208625 0.098413 -0.112940 -0.421423 -0.144060 -0.330979 0.575607 -0.595368 0.181328 -0.673098 0.356989 0.011623 -1.184909 -0.843277 -0.135237 0.467429 0.112109 -0.095320 0.377829 0.198657 -0.457722 -0.646457 0.313769 -0.020579 -0.716386 -0.133905 0.313909 0.427421 -0.389337 -0.375068 -0.285845 -0.302072 0.340182 -0.223020 -0.107296 0.183857 0.081593 0.104421 0.431111 -0.194449 -0.348631 -0.207111 0.538673 0.267050 0.358121 0.284571 0.031910 0.601257 0.721678 -0.269943 
during 0.219872 -0.371381 0.398805 -0.415535 0.009039 -0.286797 -0.081444 -0.159782 0.215146 -0.047147 0.027242 0.161216 0.143898 0.032266 -0.224947 0.077719 0.052724 -0.024344 -0.053225 0.120554 -0.303842 0.192614 -0.124319 0.014046 0.046087 -0.429219 0.163028 0.030207 0.604185 -0.011026 0.069428 0.035753 -0.276653 0.237645 0.026470 0.152579 0.299857 -0.353445 0.191113 0.050361 -0.325313 0.130544 -0.307074 -0.320374 -0.022357 0.311350 0.009847 -0.130614 -0.213410 0.077292 -0.051920 0.050701 -0.050467 -0.214061 -0.111580 -0.150260 0.336918 -0.324653 0.131141 -0.372357 0.217046 -0.014053 -0.702325 -0.461949 -0.061596 0.278248 0.062992 -0.055725 0.202529 0.150535 -0.241147 -0.401823 0.150430 -0.000040 -0.335769 -0.103746 0.121757 0.180689 -0.179293 -0.186895 -0.149591 -0.144739 0.174223 -0.119668 -0.011620 0.142589 0.061191 0.044056 0.226790 -0.079336 -0.178506 -0.120382 0.274869 0.128909 0.198422 0.197500 0.045633 0.413572 0.415618 -0.118814 
armenia 0.305201 -0.529263 0.549086 -0.554391 0.003591 -0.415864 -0.104025 -0.233506 0.326282 -0.065127 0.041881 0.245867 0.191008 0.024734 -0.333613 0.098867 0.062854 -0.062992 -0.083599 0.135529 -0.430002 0.296634 -0.178380 0.000096 0.038897 -0.594313 0.207932 0.037434 0.846520 -0.029397 0.080443 0.058308 -0.376521 0.342809 0.047426 0.232688 0.430339 -0.510818 0.256156 0.039755 -0.435103 0.172619 -0.411470 -0.460243 -0.052235 0.436702 -0.004212 -0.118579 -0.354457 0.099686 -0.090808 0.085684 -0.079282 -0.320183 -0.146014 -0.221943 0.476262 -0.454295 0.163189 -0.523391 0.294196 -0.018432 -0.955746 -0.636548 -0.099655 0.378574 0.076881 -0.067269 0.284445 0.196622 -0.356507 -0.556738 0.223625 -0.006035 -0.501234 -0.151744 0.217577 0.288851 -0.281050 -0.274798 -0.203242 -0.208872 0.261040 -0.158686 -0.018489 0.176175 0.075919 0.059356 0.328859 -0.135438 -0.253282 -0.167160 0.421256 0.193136 0.284847 0.278854 0.052579 0.539865 0.597888 -0.179026 
often 0.337709 -0.582979 0.597573 -0.614489 0.016075 -0.453782 -0.117258 -0.263273 0.358955 -0.062510 0.043656 0.264789 0.220796 0.026635 -0.362238 0.103530 0.072513 -0.074273 -0.088912 0.144857 -0.464061 0.324996 -0.193500 -0.022936 0.037387 -0.648783 0.221696 0.037034 0.932005 -0.021196 0.087013 0.057099 -0.419504 0.372000 0.052016 0.252290 0.475677 -0.560611 0.282572 0.030821 -0.477391 0.203189 -0.453781 -0.504289 -0.052903 0.473393 -0.001022 -0.127175 -0.396653 0.110608 -0.101041 0.099498 -0.081909 -0.357702 -0.150513 -0.248182 0.520160 -0.496711 0.183616 -0.578725 0.321014 -0.024658 -1.045782 -0.698835 -0.107206 0.429194 0.089528 -0.069248 0.315452 0.209023 -0.381544 -0.603886 0.252049 -0.005955 -0.547650 -0.159905 0.244786 0.318240 -0.295236 -0.292909 -0.227445 -0.241133 0.277417 -0.172066 -0.033950 0.194769 0.074237 0.057006 0.350185 -0.153075 -0.279357 -0.180340 0.465053 0.214257 0.297774 0.297271 0.044276 0.587910 0.653153 -0.204861 
european 0.313797 -0.591826 0.626246 -0.637267 -0.003006 -0.433108 -0.130920 -0.273696 0.339023 -0.096332 0.025740 0.243242 0.221066 0.042935 -0.324350 0.090710 0.057500 -0.062493 -0.057254 0.174944 -0.515634 0.311923 -0.193105 -0.001491 0.029056 -0.663340 0.245970 0.050534 1.004520 -0.087342 0.095072 0.045630 -0.435373 0.422104 0.034702 0.247006 0.461879 -0.576340 0.299629 0.070256 -0.463900 0.248449 -0.474432 -0.466007 -0.054661 0.510504 0.013619 -0.175438 -0.342029 0.134739 -0.060845 0.114584 -0.076112 -0.364469 -0.160926 -0.171913 0.538375 -0.502112 0.181387 -0.597507 0.329783 -0.042220 -1.098273 -0.680622 -0.126034 0.437712 0.051156 -0.069428 0.307143 0.252061 -0.380163 -0.650071 0.213707 0.018368 -0.482479 -0.212601 0.208825 0.279355 -0.296592 -0.298177 -0.204165 -0.212562 0.295523 -0.167801 0.016045 0.230557 0.056264 0.052386 0.338071 -0.132491 -0.295455 -0.186430 0.492357 0.225392 0.312984 0.310507 0.064304 0.623792 0.726548 -0.164792 
independence 0.273828 -0.472932 0.486177 -0.508746 0.000367 -0.355703 -0.095250 -0.204905 0.288878 -0.056310 0.032155 0.214714 0.177057 0.027131 -0.285523 0.083252 0.060365 -0.053084 -0.067440 0.132721 -0.393426 0.257152 -0.161852 -0.000711 0.046466 -0.526996 0.180215 0.038773 0.769206 -0.021713 0.082865 0.046612 -0.338118 0.307484 0.038032 0.204158 0.382406 -0.449157 0.231654 0.039394 -0.394029 0.164657 -0.375037 -0.407459 -0.032587 0.400236 0.009492 -0.131919 -0.291909 0.091141 -0.062433 0.069186 -0.063263 -0.287416 -0.138883 -0.186193 0.428343 -0.398379 0.154184 -0.468992 0.268343 -0.018282 -0.864375 -0.559298 -0.088665 0.349865 0.070015 -0.055096 0.251923 0.189734 -0.306187 -0.502237 0.196635 -0.000463 -0.420500 -0.140804 0.173330 0.241702 -0.240356 -0.246844 -0.182009 -0.187499 0.221276 -0.136054 -0.019515 0.165970 0.070740 0.050228 0.279745 -0.121786 -0.236063 -0.149606 0.368662 0.165054 0.251418 0.248571 0.048828 0.499599 0.533488 -0.144154 
early 0.366302 -0.601349 0.624622 -0.625345 0.016888 -0.479619 -0.135285 -0.280434 0.388420 -0.053756 0.040644 0.293364 0.221848 -0.002148 -0.394806 0.150433 0.102287 -0.082483 -0.127186 0.159503 -0.491940 0.356093 -0.213528 0.016632 0.054450 -0.677902 0.201314 0.016980 0.965554 -0.023676 0.097150 0.108643 -0.431459 0.362205 0.079742 0.246479 0.516107 -0.581774 0.297403 0.085316 -0.495835 0.188338 -0.471376 -0.564720 -0.050055 0.504425 0.005647 -0.147058 -0.436705 0.120644 -0.103708 0.071773 -0.071536 -0.380590 -0.148900 -0.303726 0.568724 -0.528705 0.196227 -0.573974 0.328940 -0.011638 -1.103030 -0.768509 -0.089270 0.419530 0.098534 -0.069780 0.312348 0.197733 -0.419546 -0.618963 0.284840 -0.026719 -0.587876 -0.156516 0.267982 0.364726 -0.315656 -0.311402 -0.252717 -0.253130 0.298896 -0.179163 -0.035048 0.186023 0.117732 0.081031 0.390389 -0.144946 -0.295629 -0.232971 0.458640 0.216372 0.321160 0.313344 0.072893 0.626193 0.633685 -0.234369 
century 0.453128 -0.800450 0.819477 -0.834005 0.016437 -0.604820 -0.169616 -0.365629 0.478039 -0.099490 0.053113 0.364489 0.299669 0.043315 -0.496089 0.161932 0.099642 -0.092151 -0.139144 0.222281 -0.632811 0.443517 -0.267338 0.011182 0.058460 -0.883333 0.304599 0.043211 1.267530 -0.041617 0.121642 0.089328 -0.560264 0.495761 0.089178 0.332891 0.640150 -0.761510 0.396808 0.086223 -0.641151 0.274218 -0.629697 -0.688832 -0.066821 0.663566 -0.003519 -0.198083 -0.523419 0.154831 -0.132641 0.110188 -0.109806 -0.479602 -0.224740 -0.341334 0.726224 -0.681961 0.262041 -0.777454 0.439271 -0.026549 -1.451733 -0.976448 -0.140406 0.570954 0.122953 -0.092469 0.419917 0.283683 -0.537319 -0.828682 0.342188 -0.017788 -0.730879 -0.218805 0.312883 0.431416 -0.401123 -0.407138 -0.304463 -0.331687 0.388104 -0.238016 -0.037121 0.279846 0.127527 0.091895 0.491705 -0.209568 -0.385875 -0.258920 0.618285 0.280253 0.408726 0.420084 0.083941 0.826422 0.873058 -0.261344 
number 0.309758 -0.550023 0.567283 -0.574227 0.007491 -0.425052 -0.113737 -0.247891 0.328946 -0.076887 0.031958 0.247656 0.206835 0.021502 -0.336427 0.097386 0.066673 -0.064833 -0.076408 0.147061 -0.451402 0.302227 -0.176902 -0.003524 0.037893 -0.603166 0.206114 0.037742 0.875479 -0.030357 0.086376 0.051248 -0.391769 0.348577 0.041397 0.233139 0.437397 -0.524386 0.268062 0.047861 -0.443400 0.197928 -0.430926 -0.471599 -0.054138 0.457233 0.006166 -0.129710 -0.354634 0.111289 -0.086878 0.091493 -0.073567 -0.332737 -0.151329 -0.213702 0.492181 -0.470683 0.172559 -0.534625 0.297751 -0.021999 -0.983087 -0.650281 -0.107065 0.396625 0.079391 -0.061003 0.285956 0.214956 -0.356367 -0.581249 0.229075 -0.004604 -0.503694 -0.162075 0.218680 0.292739 -0.281830 -0.279732 -0.208392 -0.215659 0.261737 -0.153944 -0.011208 0.189224 0.074895 0.055117 0.326868 -0.144683 -0.261436 -0.174104 0.427634 0.193473 0.282248 0.289057 0.049105 0.562281 0.612271 -0.172829 
used 0.289848 -0.487493 0.518006 -0.517311 0.011469 -0.371816 -0.100557 -0.228751 0.305670 -0.067943 0.023366 0.236422 0.191803 0.028987 -0.310486 0.090581 0.047618 -0.063733 -0.063406 0.146560 -0.410502 0.280361 -0.166068 -0.015728 0.030324 -0.562166 0.202510 0.031868 0.797165 -0.021582 0.074593 0.041751 -0.368690 0.331651 0.023079 0.228028 0.420206 -0.494780 0.250030 0.052559 -0.396723 0.187322 -0.388248 -0.439268 -0.045977 0.404040 -0.007703 -0.116062 -0.342823 0.095265 -0.092720 0.087701 -0.059263 -0.317748 -0.136963 -0.200826 0.442026 -0.428595 0.153653 -0.495610 0.266929 -0.021231 -0.898415 -0.615481 -0.096712 0.357636 0.062879 -0.053741 0.258130 0.168970 -0.321698 -0.522321 0.210256 0.013288 -0.465544 -0.130609 0.205531 0.277919 -0.261395 -0.249194 -0.198449 -0.194142 0.246162 -0.147363 -0.027489 0.171256 0.054751 0.064560 0.297278 -0.130604 -0.237365 -0.156651 0.389028 0.178732 0.271330 0.246713 0.046838 0.516064 0.564280 -0.177903 
countries 0.278976 -0.504673 0.539192 -0.551385 0.014672 -0.372049 -0.105662 -0.242918 0.303388 -0.074222 0.024593 0.222754 0.188358 0.041294 -0.305447 0.049082 0.046402 -0.053210 -0.037779 0.155107 -0.426224 0.258397 -0.163319 0.003144 0.030479 -0.579470 0.236270 0.050977 0.833290 -0.053386 0.084319 0.021263 -0.383680 0.353215 0.019765 0.231466 0.390852 -0.507147 0.252487 0.044109 -0.400892 0.183724 -0.403230 -0.396079 -0.065866 0.435510 0.024610 -0.132323 -0.303487 0.108197 -0.065895 0.110845 -0.077898 -0.296211 -0.143368 -0.153314 0.464929 -0.422105 0.156910 -0.520337 0.292878 -0.030134 -0.930126 -0.579110 -0.115432 0.360439 0.046329 -0.052334 0.274601 0.220591 -0.324295 -0.563370 0.179134 0.001940 -0.412526 -0.178228 0.195420 0.251988 -0.247567 -0.247343 -0.190037 -0.204236 0.255767 -0.155727 0.000847 0.195401 0.068155 0.033513 0.280350 -0.149678 -0.241359 -0.156251 0.409368 0.191114 0.265088 0.266055 0.059563 0.520368 0.598916 -0.135716 
international 0.434031 -0.789727 0.810314 -0.845957 0.012582 -0.633326 -0.142654 -0.351495 0.482322 -0.080491 0.055804 0.378457 0.276274 0.040416 -0.513204 0.163798 0.103072 -0.129013 -0.124183 0.183689 -0.643927 0.445246 -0.244647 -0.039520 0.057774 -0.883019 0.310135 0.050674 1.286774 -0.033323 0.129506 0.078863 -0.564539 0.513237 0.078787 0.350872 0.643791 -0.782536 0.376848 0.029446 -0.650005 0.271282 -0.608097 -0.691859 -0.079157 0.639272 -0.010784 -0.169237 -0.555393 0.144949 -0.149568 0.133295 -0.114486 -0.497258 -0.203676 -0.324989 0.713252 -0.691955 0.232402 -0.799815 0.436403 -0.023489 -1.447847 -0.957773 -0.156925 0.588209 0.126314 -0.105580 0.443473 0.297346 -0.522952 -0.814580 0.341134 -0.008026 -0.742859 -0.225998 0.333274 0.438842 -0.433740 -0.426988 -0.323357 -0.312448 0.387035 -0.241207 -0.036352 0.263686 0.094974 0.092211 0.483846 -0.215653 -0.411455 -0.244384 0.634098 0.291023 0.416710 0.407291 0.059560 0.781069 0.906910 -0.277289 
europe 0.209922 -0.369304 0.388761 -0.403839 0.008576 -0.300433 -0.077087 -0.177479 0.223205 -0.044349 0.035387 0.172048 0.139237 0.013537 -0.233522 0.070893 0.047553 -0.049078 -0.051820 0.100556 -0.315921 0.220364 -0.124125 -0.011570 0.036145 -0.420854 0.143682 0.043624 0.616967 -0.027057 0.063556 0.039741 -0.283171 0.254034 0.036718 0.163637 0.305333 -0.374238 0.179186 0.026403 -0.303909 0.131804 -0.306134 -0.317753 -0.031959 0.317654 0.015378 -0.099414 -0.237896 0.080905 -0.047611 0.066229 -0.048327 -0.222247 -0.095282 -0.147513 0.343182 -0.309127 0.120661 -0.372394 0.208556 -0.016310 -0.686684 -0.437216 -0.071267 0.280023 0.055083 -0.050390 0.211052 0.153882 -0.259018 -0.397939 0.156676 0.002026 -0.336549 -0.113662 0.151965 0.209750 -0.189791 -0.205657 -0.143356 -0.157327 0.182258 -0.116374 -0.003971 0.135903 0.046901 0.042547 0.226920 -0.104348 -0.181357 -0.122544 0.307563 0.134627 0.203059 0.201192 0.033169 0.390392 0.428744 -0.111679 
group 0.218774 -0.404223 0.402287 -0.412363 0.013613 -0.316340 -0.079129 -0.186464 0.253728 -0.040845 0.035659 0.175002 0.145503 0.009332 -0.242433 0.084511 0.050824 -0.054360 -0.077902 0.096580 -0.318614 0.225069 -0.127476 -0.016537 0.017630 -0.427685 0.135452 0.017254 0.632214 -0.008892 0.050300 0.055993 -0.282596 0.253559 0.036985 0.183416 0.330049 -0.378280 0.181249 0.018736 -0.318101 0.137873 -0.319326 -0.358272 -0.038353 0.325831 -0.014972 -0.072793 -0.281035 0.070075 -0.063626 0.067397 -0.057915 -0.235654 -0.102012 -0.179487 0.351323 -0.339833 0.125052 -0.392650 0.217851 -0.018500 -0.706927 -0.476853 -0.067891 0.289725 0.063003 -0.048821 0.218277 0.140994 -0.267617 -0.405638 0.179565 -0.012474 -0.379225 -0.115739 0.172030 0.228391 -0.199787 -0.200901 -0.144006 -0.172464 0.189706 -0.121775 -0.024897 0.143034 0.048632 0.039040 0.246718 -0.111560 -0.185938 -0.122118 0.320190 0.153104 0.214852 0.202722 0.024644 0.403492 0.449665 -0.148433 
when 0.274298 -0.470567 0.480588 -0.508688 0.007383 -0.358618 -0.084575 -0.211553 0.280019 -0.066122 0.035909 0.207684 0.187347 0.023545 -0.270320 0.074201 0.053550 -0.036949 -0.052762 0.130283 -0.386108 0.249439 -0.152935 -0.001048 0.043315 -0.519262 0.187098 0.031093 0.757961 -0.018707 0.077970 0.039829 -0.348670 0.305187 0.031575 0.203030 0.376697 -0.450159 0.225339 0.042480 -0.387712 0.166173 -0.373586 -0.400734 -0.032385 0.391740 -0.003349 -0.131403 -0.286689 0.093900 -0.060415 0.082238 -0.064726 -0.276009 -0.140218 -0.178596 0.421853 -0.399120 0.150067 -0.467081 0.257568 -0.031860 -0.850452 -0.555022 -0.092628 0.338784 0.062112 -0.054044 0.260227 0.193601 -0.300698 -0.506496 0.197031 -0.008860 -0.416514 -0.130355 0.170727 0.233507 -0.241083 -0.233081 -0.178439 -0.189502 0.230533 -0.138062 -0.012898 0.171619 0.060773 0.048907 0.280560 -0.108183 -0.224504 -0.142210 0.376607 0.164939 0.245906 0.243341 0.042095 0.502656 0.538064 -0.147425 
term 0.357910 -0.616372 0.640415 -0.648413 0.015759 -0.474534 -0.119701 -0.270773 0.369995 -0.085080 0.036804 0.282973 0.237822 0.027212 -0.370006 0.102302 0.056501 -0.073057 -0.075782 0.180124 -0.503263 0.339214 -0.197564 -0.018427 0.038486 -0.699392 0.249572 0.048674 1.005840 -0.029431 0.092501 0.040819 -0.459415 0.403563 0.036088 0.269827 0.508096 -0.600024 0.307497 0.045149 -0.502890 0.233305 -0.489441 -0.526888 -0.058284 0.513457 -0.009906 -0.148587 -0.408339 0.122632 -0.094692 0.100709 -0.090925 -0.380047 -0.165218 -0.242989 0.556916 -0.521427 0.194170 -0.627034 0.340495 -0.023631 -1.132972 -0.748177 -0.124138 0.451143 0.066392 -0.068706 0.324392 0.223583 -0.397422 -0.648905 0.259163 -0.000846 -0.582220 -0.173402 0.246053 0.330017 -0.310903 -0.304804 -0.240739 -0.251346 0.300649 -0.173686 -0.029449 0.207035 0.072478 0.064225 0.362459 -0.159248 -0.300311 -0.193207 0.505338 0.228866 0.327899 0.318595 0.057868 0.636308 0.703507 -0.196830 
years 0.413593 -0.710946 0.737718 -0.746324 0.018039 -0.562755 -0.147332 -0.319229 0.443032 -0.087921 0.041148 0.331152 0.264166 0.033793 -0.452118 0.142465 0.093971 -0.092763 -0.113960 0.177191 -0.586306 0.403335 -0.236024 -0.000107 0.052828 -0.795346 0.269979 0.040112 1.165260 -0.045268 0.118776 0.090507 -0.507294 0.466375 0.074306 0.297243 0.575854 -0.679705 0.340157 0.066327 -0.580244 0.247804 -0.562992 -0.626632 -0.066054 0.592660 0.010685 -0.176509 -0.473632 0.144224 -0.120083 0.110348 -0.089393 -0.442530 -0.193284 -0.287757 0.644039 -0.606601 0.227787 -0.706629 0.390342 -0.036665 -1.300416 -0.872809 -0.145628 0.526105 0.111472 -0.082719 0.385862 0.276045 -0.476694 -0.761159 0.300335 -0.006184 -0.669241 -0.199805 0.283500 0.386785 -0.378146 -0.362616 -0.281195 -0.272667 0.348240 -0.217652 -0.020457 0.247561 0.102525 0.076442 0.447923 -0.181618 -0.337460 -0.231993 0.564860 0.266015 0.372244 0.367483 0.072974 0.737847 0.796523 -0.236146 
geography 0.525544 -0.925887 0.953392 -0.964729 0.031686 -0.763407 -0.193685 -0.420173 0.577642 -0.085423 0.057203 0.460346 0.341175 0.021100 -0.631790 0.221029 0.133279 -0.171393 -0.193207 0.208764 -0.755378 0.545554 -0.295373 -0.034700 0.060518 -1.041038 0.336645 0.034641 1.492934 -0.038623 0.144944 0.137155 -0.642339 0.581697 0.110668 0.429848 0.787985 -0.924674 0.463310 0.037358 -0.770601 0.301339 -0.713415 -0.858065 -0.110270 0.733560 -0.020790 -0.152406 -0.708963 0.149897 -0.199642 0.131369 -0.135424 -0.607223 -0.219151 -0.433675 0.827888 -0.812510 0.299649 -0.937510 0.509769 -0.021777 -1.680563 -1.184754 -0.171749 0.675006 0.138218 -0.091541 0.502021 0.298431 -0.654840 -0.962755 0.430162 -0.003140 -0.933779 -0.239622 0.431775 0.567273 -0.522163 -0.487557 -0.397131 -0.390858 0.467581 -0.279590 -0.076269 0.269993 0.121995 0.113213 0.608260 -0.242416 -0.464777 -0.293543 0.740692 0.375970 0.470920 0.456216 0.070625 0.917411 1.029548 -0.350794 
united_states 0.317731 -0.586944 0.591680 -0.633381 0.017986 -0.443714 -0.108618 -0.255920 0.343049 -0.068593 0.058280 0.252424 0.222998 0.015130 -0.350385 0.081376 0.056568 -0.066601 -0.052628 0.164804 -0.474024 0.314691 -0.194401 -0.033076 0.039754 -0.640930 0.247371 0.054683 0.937600 -0.023160 0.091103 0.031109 -0.427727 0.379381 0.057295 0.263152 0.444353 -0.560919 0.283684 0.021066 -0.475630 0.215610 -0.443698 -0.488363 -0.044011 0.479640 -0.008577 -0.162172 -0.366550 0.123055 -0.064656 0.120052 -0.085204 -0.340737 -0.177046 -0.210686 0.519731 -0.489959 0.159581 -0.587191 0.333069 -0.040167 -1.042273 -0.676166 -0.115064 0.448913 0.090562 -0.087607 0.340520 0.235587 -0.360784 -0.609504 0.229865 -0.021618 -0.516524 -0.180070 0.216015 0.271672 -0.290378 -0.298947 -0.215656 -0.226465 0.267524 -0.183693 -0.020909 0.209043 0.070899 0.050011 0.323857 -0.142862 -0.280939 -0.152090 0.465524 0.206866 0.300006 0.315320 0.045478 0.596053 0.679556 -0.169325 
species 0.384434 -0.634511 0.647554 -0.671353 0.000997 -0.509462 -0.132668 -0.288353 0.410682 -0.073576 0.046036 0.299551 0.229136 0.007154 -0.421689 0.136183 0.092653 -0.077498 -0.117457 0.149587 -0.515915 0.389408 -0.220905 0.000484 0.049632 -0.695014 0.231619 0.035537 1.034668 -0.023894 0.117310 0.087401 -0.457789 0.380762 0.071524 0.272624 0.548290 -0.626730 0.300054 0.065857 -0.536528 0.206490 -0.514509 -0.580784 -0.062713 0.533919 0.012973 -0.129519 -0.468975 0.132916 -0.109136 0.092130 -0.078505 -0.405387 -0.165267 -0.307876 0.588298 -0.551620 0.205239 -0.610287 0.355865 -0.032828 -1.146862 -0.783233 -0.103162 0.455415 0.094849 -0.069515 0.334543 0.219645 -0.435646 -0.653288 0.292349 -0.016546 -0.620292 -0.170655 0.284318 0.377907 -0.324838 -0.329291 -0.259638 -0.251666 0.322996 -0.192260 -0.034248 0.194070 0.110343 0.083163 0.408071 -0.163203 -0.308645 -0.227585 0.486096 0.228752 0.322462 0.338941 0.066264 0.642029 0.688928 -0.231591 
part 0.273091 -0.478007 0.492127 -0.505909 -0.002127 -0.351940 -0.115069 -0.218053 0.274571 -0.065659 0.026130 0.194003 0.162848 0.048047 -0.275773 0.064962 0.041977 -0.058698 -0.033921 0.162051 -0.387310 0.242617 -0.146426 -0.014828 0.035945 -0.556009 0.177842 0.045519 0.756403 -0.014858 0.065945 0.044910 -0.347868 0.308373 0.031488 0.203542 0.384549 -0.455373 0.225204 0.045243 -0.377802 0.154924 -0.358660 -0.398223 -0.048582 0.404922 -0.001753 -0.132469 -0.297019 0.092216 -0.052629 0.073832 -0.071853 -0.282656 -0.126136 -0.176492 0.441053 -0.399084 0.162704 -0.479204 0.277832 -0.035446 -0.851154 -0.563158 -0.095164 0.343393 0.056392 -0.054735 0.247300 0.185452 -0.323415 -0.514307 0.203165 -0.005612 -0.411855 -0.136541 0.184185 0.252929 -0.243475 -0.227773 -0.166296 -0.189017 0.229239 -0.124735 -0.001474 0.173769 0.069204 0.049266 0.276323 -0.122793 -0.229529 -0.138040 0.385592 0.172386 0.235422 0.242488 0.052488 0.498318 0.561402 -0.142994 
among 0.371147 -0.633156 0.650418 -0.660857 0.005380 -0.496981 -0.134025 -0.290551 0.391487 -0.073638 0.044227 0.301409 0.228473 0.023743 -0.400168 0.126061 0.087516 -0.075374 -0.109174 0.161746 -0.512703 0.366227 -0.213529 0.000290 0.047107 -0.712550 0.231548 0.041871 1.023051 -0.030208 0.094911 0.078343 -0.456139 0.397402 0.062354 0.279057 0.528445 -0.607877 0.304217 0.065767 -0.522576 0.213450 -0.502245 -0.557461 -0.059389 0.527930 0.005793 -0.136155 -0.442642 0.122669 -0.111535 0.090785 -0.082431 -0.387470 -0.162947 -0.280111 0.580495 -0.553989 0.199737 -0.615745 0.340118 -0.019047 -1.151699 -0.781546 -0.116945 0.451296 0.103632 -0.068746 0.333212 0.222517 -0.424091 -0.658544 0.285103 -0.010812 -0.609225 -0.171791 0.269577 0.367895 -0.325963 -0.325982 -0.246507 -0.252745 0.309342 -0.189578 -0.033766 0.209316 0.096465 0.076161 0.394760 -0.159281 -0.303140 -0.211375 0.499281 0.226948 0.335899 0.331428 0.061342 0.658333 0.690379 -0.225173 
territory 0.381336 -0.672124 0.692415 -0.716776 0.011241 -0.519027 -0.136732 -0.308165 0.405761 -0.078406 0.047020 0.303379 0.247372 0.030789 -0.418009 0.114081 0.088283 -0.082532 -0.092970 0.184713 -0.551248 0.378996 -0.220061 -0.012495 0.031817 -0.742955 0.250585 0.042971 1.084473 -0.044007 0.110292 0.060951 -0.476744 0.432901 0.060484 0.298126 0.538103 -0.649822 0.325880 0.048429 -0.547069 0.231132 -0.531230 -0.574419 -0.067564 0.557313 0.001987 -0.157043 -0.454893 0.128466 -0.097987 0.107433 -0.091295 -0.396074 -0.187619 -0.272830 0.613838 -0.571434 0.213439 -0.674183 0.375506 -0.032960 -1.211119 -0.817082 -0.122305 0.491909 0.093407 -0.070267 0.362236 0.255426 -0.435824 -0.703683 0.287148 -0.004383 -0.619766 -0.185681 0.284380 0.374072 -0.335633 -0.349551 -0.261650 -0.283791 0.326209 -0.190309 -0.022194 0.227290 0.089644 0.064525 0.395929 -0.181992 -0.319248 -0.215285 0.547835 0.238017 0.354508 0.353540 0.065719 0.690874 0.754243 -0.224020 
baku 0.404136 -0.730636 0.748376 -0.765479 -0.000691 -0.550127 -0.153756 -0.328933 0.433903 -0.086146 0.040553 0.333837 0.266515 0.036018 -0.443764 0.132956 0.098324 -0.089198 -0.113709 0.189422 -0.585400 0.404028 -0.244872 -0.017211 0.058503 -0.787700 0.290884 0.048807 1.181691 -0.047284 0.117049 0.081859 -0.519917 0.460327 0.072884 0.314529 0.586129 -0.692741 0.357816 0.053571 -0.582208 0.256399 -0.569479 -0.616614 -0.061454 0.593810 0.000755 -0.175435 -0.481746 0.135614 -0.118187 0.126874 -0.095182 -0.444578 -0.202889 -0.289964 0.642238 -0.617007 0.231639 -0.721966 0.398836 -0.030899 -1.319054 -0.867342 -0.126387 0.535096 0.101235 -0.090930 0.391491 0.271728 -0.473240 -0.751489 0.308299 0.005529 -0.661740 -0.201745 0.278304 0.389445 -0.375897 -0.369138 -0.273651 -0.275730 0.340041 -0.199260 -0.029493 0.247856 0.099534 0.076718 0.436771 -0.173244 -0.363582 -0.228566 0.575326 0.263610 0.396233 0.381397 0.077192 0.745082 0.814330 -0.234006 
evolution 0.228852 -0.360774 0.351421 -0.353761 0.019210 -0.324903 -0.073302 -0.174218 0.264064 -0.001018 0.023852 0.201507 0.135355 -0.030702 -0.287651 0.134939 0.074901 -0.076051 -0.095573 0.049135 -0.279756 0.241205 -0.131598 0.012368 0.042598 -0.388486 0.087871 -0.017969 0.573121 0.007212 0.080945 0.099367 -0.248388 0.192132 0.062386 0.150008 0.345584 -0.374632 0.159172 0.049565 -0.303748 0.106954 -0.278502 -0.374709 -0.024697 0.281470 0.010605 -0.044232 -0.319650 0.066841 -0.081877 0.029987 -0.030233 -0.265882 -0.064692 -0.242480 0.353154 -0.335251 0.128651 -0.327359 0.198132 -0.010505 -0.657067 -0.489498 -0.035679 0.256486 0.080090 -0.025651 0.173989 0.086921 -0.281953 -0.347824 0.203847 -0.034682 -0.393915 -0.074848 0.199840 0.272937 -0.217614 -0.194804 -0.169038 -0.158473 0.197375 -0.106567 -0.028208 0.073236 0.092458 0.070312 0.265566 -0.082499 -0.172796 -0.159883 0.264473 0.131510 0.182809 0.187792 0.035432 0.362898 0.347061 -0.174737 
body 0.284420 -0.469984 0.488025 -0.484820 0.006966 -0.394120 -0.091411 -0.216436 0.304391 -0.039728 0.060229 0.207057 0.171619 0.023705 -0.302110 0.097474 0.066987 -0.035629 -0.094756 0.100503 -0.364356 0.278479 -0.159124 0.010061 0.056557 -0.507416 0.150028 0.008553 0.740222 0.012296 0.051521 0.080618 -0.333378 0.286434 0.066056 0.220221 0.397604 -0.460593 0.221048 0.061103 -0.419461 0.152218 -0.386797 -0.449892 -0.049874 0.384581 -0.014405 -0.084358 -0.351396 0.080472 -0.069292 0.050327 -0.057692 -0.275897 -0.112281 -0.242575 0.407273 -0.409517 0.165446 -0.459612 0.242831 -0.032321 -0.843003 -0.583920 -0.067741 0.344318 0.081300 -0.055912 0.244953 0.177372 -0.339348 -0.507539 0.235432 -0.019791 -0.472861 -0.123368 0.209363 0.297322 -0.244980 -0.230713 -0.179891 -0.215907 0.252164 -0.152380 -0.042588 0.169815 0.071160 0.056016 0.305058 -0.134217 -0.205456 -0.162696 0.388476 0.154093 0.263555 0.238891 0.027355 0.522544 0.504639 -0.192962 
power 0.285383 -0.494800 0.503355 -0.520869 0.010647 -0.361127 -0.098876 -0.219451 0.294478 -0.067083 0.043590 0.199492 0.190066 0.025222 -0.287111 0.067260 0.051696 -0.025875 -0.047378 0.150604 -0.395326 0.256428 -0.170977 -0.006925 0.045886 -0.548265 0.196800 0.038988 0.791978 -0.023029 0.085210 0.044586 -0.359625 0.320220 0.036750 0.204827 0.394796 -0.466012 0.244520 0.050236 -0.402195 0.176909 -0.395304 -0.399164 -0.034178 0.410440 -0.001346 -0.141274 -0.289110 0.102603 -0.049822 0.081472 -0.077099 -0.276562 -0.145698 -0.192028 0.440435 -0.412499 0.144524 -0.472962 0.279971 -0.033314 -0.886211 -0.571624 -0.095896 0.364539 0.062643 -0.064380 0.261551 0.215768 -0.310446 -0.520934 0.199369 -0.008895 -0.439280 -0.135321 0.178920 0.240182 -0.236664 -0.244736 -0.169396 -0.188794 0.227692 -0.139466 -0.009908 0.191465 0.065657 0.040178 0.281667 -0.119222 -0.219260 -0.145282 0.389377 0.162876 0.259463 0.272044 0.040106 0.534718 0.561558 -0.160012 
natural 0.361644 -0.659855 0.657223 -0.672089 0.027150 -0.537366 -0.129603 -0.296986 0.420078 -0.048929 0.074140 0.318098 0.235180 0.005719 -0.446709 0.173651 0.101056 -0.136928 -0.146903 0.118494 -0.506622 0.403208 -0.204136 -0.073704 0.035376 -0.714729 0.219403 0.042668 1.053162 -0.014462 0.078862 0.102373 -0.452782 0.404501 0.062672 0.318635 0.543614 -0.636976 0.306630 -0.018052 -0.521369 0.219421 -0.504097 -0.624866 -0.074686 0.510828 -0.038947 -0.082386 -0.518057 0.080247 -0.158620 0.109010 -0.100387 -0.418952 -0.154597 -0.320401 0.573714 -0.587161 0.212052 -0.674586 0.349561 -0.014949 -1.176682 -0.825919 -0.120960 0.497323 0.103935 -0.084540 0.379654 0.194929 -0.455498 -0.649515 0.304100 -0.026811 -0.682331 -0.173398 0.297109 0.392838 -0.373956 -0.357864 -0.269600 -0.286699 0.319004 -0.217700 -0.080472 0.197658 0.062706 0.078372 0.418898 -0.200581 -0.326439 -0.194658 0.525781 0.258615 0.352564 0.325253 0.032459 0.626471 0.739380 -0.269528 
form 0.320141 -0.577576 0.590373 -0.614251 0.017689 -0.439143 -0.122637 -0.251963 0.334491 -0.075903 0.034386 0.255888 0.217316 0.024252 -0.346223 0.094379 0.065222 -0.052999 -0.076947 0.180587 -0.463750 0.311508 -0.190099 -0.005572 0.045571 -0.647686 0.231338 0.049558 0.927405 -0.020237 0.096622 0.060290 -0.422709 0.364752 0.046769 0.242420 0.459704 -0.547596 0.284532 0.051900 -0.479919 0.204931 -0.454582 -0.486515 -0.055327 0.474272 0.007102 -0.155283 -0.360922 0.118853 -0.072638 0.084041 -0.075032 -0.333316 -0.163353 -0.228176 0.518193 -0.491038 0.177609 -0.573239 0.318029 -0.032345 -1.039829 -0.691929 -0.109361 0.419360 0.078963 -0.070458 0.309239 0.227109 -0.373374 -0.612249 0.237697 -0.014174 -0.522592 -0.165729 0.215569 0.293484 -0.281029 -0.300899 -0.222348 -0.229779 0.266579 -0.168206 -0.010458 0.201066 0.082511 0.055728 0.331661 -0.145606 -0.270437 -0.169671 0.459751 0.200659 0.299871 0.308575 0.059084 0.612712 0.648395 -0.177588 
name 0.294021 -0.491939 0.519101 -0.525995 0.001847 -0.392926 -0.099470 -0.226745 0.302613 -0.057050 0.034977 0.237296 0.192676 0.025992 -0.319854 0.091739 0.062146 -0.062331 -0.073505 0.139497 -0.404717 0.285055 -0.164674 -0.010621 0.043897 -0.565977 0.199381 0.036142 0.798447 -0.015029 0.079200 0.049183 -0.361246 0.312455 0.051097 0.218505 0.403075 -0.495273 0.243250 0.042661 -0.413215 0.165109 -0.385300 -0.432246 -0.041515 0.407434 -0.004267 -0.118045 -0.347233 0.095172 -0.087498 0.081210 -0.067026 -0.312829 -0.132548 -0.209724 0.450246 -0.429266 0.162152 -0.495045 0.271534 -0.018087 -0.909060 -0.612388 -0.089079 0.353691 0.068439 -0.061060 0.268139 0.169668 -0.338497 -0.523581 0.211530 -0.007055 -0.472576 -0.143319 0.209868 0.277268 -0.260777 -0.252700 -0.200166 -0.202449 0.242627 -0.142339 -0.019607 0.159615 0.067111 0.053604 0.312433 -0.130172 -0.249671 -0.167218 0.395171 0.181191 0.261091 0.250836 0.043331 0.519054 0.559023 -0.167839 
azerbaijan. 0.493266 -0.859460 0.886921 -0.908009 0.006866 -0.674944 -0.170938 -0.382602 0.530705 -0.099534 0.067804 0.397189 0.314199 0.037722 -0.538061 0.160619 0.106304 -0.104616 -0.129527 0.225825 -0.696441 0.486376 -0.285258 -0.010662 0.064084 -0.953506 0.323262 0.058736 1.393757 -0.037465 0.136926 0.090817 -0.613122 0.544411 0.081586 0.374175 0.702852 -0.835243 0.412860 0.066618 -0.702924 0.297251 -0.684883 -0.752063 -0.079639 0.714697 0.005270 -0.207748 -0.587379 0.159461 -0.138078 0.144568 -0.123828 -0.524627 -0.227731 -0.356383 0.778131 -0.747010 0.269118 -0.860140 0.476004 -0.044065 -1.562467 -1.049366 -0.163637 0.627549 0.127598 -0.101167 0.469043 0.320569 -0.570956 -0.897174 0.366090 -0.011592 -0.805948 -0.235558 0.354160 0.467276 -0.454234 -0.448488 -0.332598 -0.343638 0.415706 -0.255074 -0.033870 0.294121 0.117853 0.090578 0.528266 -0.226934 -0.424533 -0.277901 0.679384 0.309410 0.452959 0.445857 0.087690 0.885511 0.961661 -0.295100 
military 0.337436 -0.575391 0.583943 -0.605050 0.006827 -0.429465 -0.110844 -0.255916 0.340145 -0.077952 0.048197 0.252292 0.214711 0.024828 -0.348431 0.090969 0.073876 -0.062432 -0.082105 0.142193 -0.455151 0.313929 -0.186044 -0.010003 0.039579 -0.629767 0.217593 0.046594 0.915858 -0.033203 0.093036 0.058420 -0.415646 0.368088 0.048634 0.248263 0.464392 -0.549913 0.275565 0.046407 -0.471438 0.195868 -0.450584 -0.495272 -0.045692 0.469651 -0.002623 -0.143228 -0.372580 0.111256 -0.085881 0.088236 -0.082971 -0.331921 -0.163207 -0.239122 0.524271 -0.486813 0.178417 -0.557866 0.319479 -0.014998 -1.033093 -0.683959 -0.099429 0.420783 0.082828 -0.072213 0.310828 0.214651 -0.378875 -0.599503 0.250543 -0.007515 -0.531238 -0.158906 0.227210 0.311273 -0.289183 -0.288839 -0.221377 -0.233585 0.268726 -0.170089 -0.024787 0.198330 0.080816 0.045190 0.349955 -0.153654 -0.276366 -0.178447 0.452360 0.201721 0.293032 0.298073 0.047730 0.595554 0.633612 -0.180621 
ethics 0.332817 -0.813284 0.735951 -0.728339 0.015022 -0.629536 -0.110454 -0.294556 0.358498 0.013068 0.038635 0.299805 0.231841 0.006659 -0.583644 0.209234 0.176909 -0.184379 -0.230998 -0.028122 -0.422499 0.500538 -0.203491 -0.072610 -0.086794 -0.698073 0.126518 -0.048427 1.095927 0.013931 0.022573 0.158387 -0.388268 0.378762 0.102796 0.292349 0.621660 -0.711687 0.356818 -0.182722 -0.562083 0.097714 -0.543230 -0.739803 -0.165457 0.579273 -0.058720 0.233663 -0.799416 -0.069500 -0.294025 0.093285 -0.106155 -0.404946 0.004150 -0.523047 0.637525 -0.607051 0.253833 -0.767776 0.271387 0.088095 -1.270965 -0.923640 -0.180987 0.519739 0.097373 -0.130116 0.351912 0.111741 -0.580118 -0.732293 0.389291 0.020206 -0.949605 -0.087166 0.463351 0.508525 -0.591362 -0.461645 -0.331811 -0.314809 0.407485 -0.203501 -0.231983 0.049538 -0.030581 0.064918 0.579458 -0.155100 -0.403441 -0.307289 0.689255 0.276333 0.357043 0.176647 -0.014742 0.512409 0.659286 -0.244515 
culture 0.376033 -0.669238 0.678539 -0.697423 0.001064 -0.531702 -0.123729 -0.284482 0.414302 -0.066887 0.035119 0.329611 0.239352 0.048198 -0.424971 0.158262 0.080321 -0.072061 -0.109988 0.171598 -0.526622 0.378881 -0.206472 0.001972 0.056241 -0.734005 0.235593 0.040094 1.043806 -0.017927 0.090831 0.092679 -0.453752 0.413233 0.083487 0.294454 0.533902 -0.642254 0.339789 0.056327 -0.568337 0.231238 -0.528166 -0.588131 -0.071327 0.537306 -0.025400 -0.141596 -0.477833 0.114161 -0.151564 0.093703 -0.096338 -0.408662 -0.178967 -0.289344 0.583474 -0.576681 0.211021 -0.675550 0.351601 -0.021480 -1.198755 -0.825189 -0.128991 0.458405 0.109516 -0.067047 0.341611 0.231975 -0.453504 -0.694916 0.287132 -0.013357 -0.662004 -0.150298 0.294669 0.380098 -0.352945 -0.358593 -0.258382 -0.284926 0.304639 -0.213674 -0.047754 0.219162 0.086329 0.089172 0.411096 -0.198383 -0.310466 -0.212372 0.538064 0.213921 0.331840 0.321126 0.054220 0.677168 0.718838 -0.232054 
cultural 0.448591 -0.812091 0.816633 -0.829965 0.023000 -0.648137 -0.157555 -0.370092 0.504443 -0.084463 0.056619 0.386083 0.283438 0.040824 -0.532831 0.181561 0.117522 -0.124910 -0.159842 0.184279 -0.633093 0.475661 -0.251312 -0.034170 0.050818 -0.883992 0.285797 0.035108 1.286454 -0.023892 0.125190 0.109522 -0.557733 0.497698 0.087925 0.363930 0.656777 -0.780085 0.385900 0.034063 -0.655959 0.257522 -0.615155 -0.725912 -0.082730 0.655274 -0.012814 -0.149780 -0.593209 0.135880 -0.170540 0.124951 -0.107338 -0.512169 -0.202831 -0.368236 0.717266 -0.704406 0.248925 -0.803597 0.431955 -0.027584 -1.448824 -1.004640 -0.151920 0.574183 0.122780 -0.094883 0.437186 0.270286 -0.551841 -0.824575 0.364188 -0.006932 -0.788683 -0.208890 0.347850 0.477585 -0.443201 -0.428615 -0.324060 -0.333541 0.392987 -0.250174 -0.050919 0.249040 0.109296 0.098015 0.508909 -0.218365 -0.400559 -0.253383 0.637989 0.311025 0.427176 0.395489 0.066966 0.795025 0.888841 -0.300643 
russia 0.363551 -0.655716 0.669017 -0.682366 0.010877 -0.505813 -0.126234 -0.294229 0.401698 -0.074063 0.040750 0.298569 0.235730 0.026022 -0.410338 0.125927 0.091049 -0.086333 -0.108118 0.168957 -0.527774 0.372032 -0.208000 -0.010770 0.043528 -0.721441 0.247659 0.047626 1.059099 -0.035772 0.097369 0.081938 -0.462961 0.409505 0.064334 0.287120 0.531644 -0.634315 0.318419 0.054376 -0.538211 0.219649 -0.508341 -0.577624 -0.063547 0.539968 0.006982 -0.141671 -0.451645 0.119556 -0.110522 0.108200 -0.089333 -0.399361 -0.178383 -0.277593 0.590486 -0.562390 0.198661 -0.644761 0.357456 -0.032667 -1.190440 -0.793620 -0.126413 0.479140 0.089730 -0.078381 0.348881 0.240211 -0.443223 -0.680979 0.286098 -0.000116 -0.615940 -0.190658 0.273141 0.367899 -0.341851 -0.334573 -0.259420 -0.257134 0.324249 -0.198087 -0.026601 0.213436 0.093665 0.072119 0.402232 -0.167514 -0.321053 -0.208161 0.523144 0.243644 0.345571 0.335205 0.056861 0.667183 0.729732 -0.228331 
areas 0.316072 -0.540736 0.546905 -0.557266 0.015540 -0.424700 -0.114556 -0.250359 0.333890 -0.050900 0.033929 0.256339 0.196919 0.016231 -0.346510 0.117787 0.076459 -0.078063 -0.094378 0.126407 -0.429377 0.316525 -0.174633 -0.007150 0.027605 -0.591485 0.188647 0.022368 0.863184 -0.013933 0.086587 0.071418 -0.381490 0.331807 0.055683 0.247300 0.447635 -0.528086 0.261062 0.039853 -0.439359 0.182604 -0.425264 -0.490664 -0.057807 0.435637 -0.012786 -0.093818 -0.399973 0.097224 -0.094917 0.077146 -0.077820 -0.334524 -0.132423 -0.241113 0.494036 -0.464284 0.168369 -0.534803 0.295974 -0.024295 -0.967979 -0.666399 -0.099483 0.380879 0.079933 -0.053666 0.276272 0.180018 -0.365878 -0.554522 0.240265 -0.009626 -0.533468 -0.129441 0.240038 0.326506 -0.285997 -0.277627 -0.217225 -0.229989 0.260548 -0.158223 -0.033055 0.169434 0.080981 0.063917 0.334272 -0.139644 -0.253933 -0.173774 0.430189 0.193380 0.270324 0.265512 0.048116 0.541070 0.587005 -0.196892 
president 0.377781 -0.663618 0.710781 -0.741388 0.010301 -0.503317 -0.125882 -0.284489 0.388045 -0.091363 0.067055 0.269323 0.271563 0.032630 -0.365700 0.066275 0.054135 -0.040094 -0.038496 0.221433 -0.546897 0.332929 -0.231434 -0.008120 0.070732 -0.752757 0.294202 0.076651 1.088683 -0.042797 0.114615 0.038826 -0.512187 0.448816 0.054546 0.279848 0.522774 -0.647095 0.332505 0.053050 -0.569184 0.255988 -0.547406 -0.522485 -0.048202 0.580422 0.001506 -0.232720 -0.368983 0.156805 -0.053497 0.129617 -0.095494 -0.371195 -0.211570 -0.240870 0.606024 -0.561958 0.202076 -0.666349 0.381896 -0.055323 -1.229982 -0.777671 -0.137407 0.512300 0.093077 -0.107133 0.377462 0.310379 -0.415276 -0.723289 0.266700 -0.013977 -0.563791 -0.208520 0.232244 0.297942 -0.319031 -0.346205 -0.249076 -0.242693 0.301760 -0.194078 -0.005334 0.273529 0.089561 0.048430 0.366841 -0.142223 -0.324547 -0.174489 0.522916 0.219964 0.348121 0.361398 0.059604 0.741037 0.782815 -0.190864 
economic 0.352136 -0.680233 0.681745 -0.703231 0.021970 -0.557034 -0.128119 -0.301660 0.398527 -0.058837 0.042422 0.331383 0.234702 0.043361 -0.462188 0.151504 0.092107 -0.134055 -0.130710 0.132311 -0.526060 0.381966 -0.196944 -0.037611 0.041512 -0.759777 0.256100 0.034116 1.081815 -0.023106 0.116429 0.073457 -0.455252 0.423173 0.068074 0.315365 0.540316 -0.670512 0.312916 -0.006197 -0.561846 0.220461 -0.512868 -0.601335 -0.085217 0.542478 -0.005949 -0.117707 -0.515322 0.102960 -0.165552 0.123850 -0.111333 -0.432457 -0.171701 -0.280898 0.584615 -0.584313 0.199171 -0.686797 0.371111 -0.005264 -1.209664 -0.833978 -0.137742 0.497316 0.106882 -0.083179 0.393566 0.245405 -0.446606 -0.690739 0.300925 -0.024164 -0.642450 -0.176445 0.296849 0.379606 -0.373749 -0.370417 -0.292568 -0.279894 0.341870 -0.217923 -0.053169 0.203350 0.075242 0.083187 0.414503 -0.201635 -0.343510 -0.190200 0.525536 0.260916 0.356221 0.322376 0.054893 0.628738 0.767951 -0.250313 
members 0.255974 -0.443265 0.456439 -0.464959 0.008266 -0.342475 -0.092613 -0.201295 0.263672 -0.044231 0.031382 0.199663 0.159546 0.009647 -0.274558 0.088243 0.062742 -0.051485 -0.072692 0.105438 -0.351242 0.250721 -0.150216 -0.003889 0.034076 -0.490389 0.160711 0.033137 0.720605 -0.023357 0.073434 0.052165 -0.319924 0.282630 0.045008 0.187273 0.362699 -0.428932 0.204130 0.043097 -0.371598 0.147868 -0.344724 -0.382713 -0.044712 0.368509 0.007108 -0.100069 -0.305022 0.086181 -0.066082 0.071099 -0.056123 -0.269836 -0.120734 -0.197090 0.409329 -0.374347 0.133804 -0.441385 0.238904 -0.020853 -0.805640 -0.541435 -0.081938 0.322677 0.066301 -0.059048 0.233989 0.170699 -0.296101 -0.468207 0.185108 -0.008312 -0.413243 -0.121217 0.185610 0.242018 -0.223989 -0.226520 -0.176999 -0.171417 0.216121 -0.137935 -0.015331 0.143182 0.060711 0.050422 0.267182 -0.109232 -0.213945 -0.145080 0.341446 0.154916 0.235820 0.237102 0.042363 0.452035 0.486744 -0.153235 
language 0.344997 -0.610520 0.620040 -0.630479 0.002715 -0.474041 -0.120674 -0.268249 0.375008 -0.070642 0.043132 0.280080 0.216320 0.032693 -0.395404 0.127668 0.084428 -0.073119 -0.117568 0.162153 -0.478609 0.353619 -0.194375 -0.003286 0.038420 -0.668970 0.226840 0.041285 0.966605 -0.023459 0.093111 0.071798 -0.431870 0.368461 0.072797 0.260440 0.492384 -0.591685 0.304420 0.048388 -0.485924 0.202921 -0.478920 -0.548608 -0.056912 0.499775 -0.014790 -0.132216 -0.423155 0.110188 -0.120202 0.081921 -0.076318 -0.374535 -0.156065 -0.273181 0.556093 -0.526926 0.194237 -0.598770 0.332828 -0.021893 -1.102450 -0.754642 -0.112991 0.428787 0.081176 -0.072111 0.309637 0.207477 -0.413645 -0.618881 0.261134 -0.015062 -0.584347 -0.163092 0.251571 0.352728 -0.313290 -0.313593 -0.238076 -0.244851 0.292629 -0.176951 -0.039168 0.200503 0.092771 0.079267 0.375684 -0.160677 -0.286047 -0.202092 0.481256 0.212440 0.316556 0.305644 0.056358 0.623890 0.663652 -0.214639 
development 0.288248 -0.524513 0.522672 -0.544544 0.015886 -0.409333 -0.092791 -0.229667 0.308185 -0.048548 0.037745 0.260823 0.174644 0.030031 -0.341565 0.127462 0.074275 -0.095751 -0.090705 0.109167 -0.411929 0.293804 -0.154473 -0.016344 0.033762 -0.574980 0.183328 0.022650 0.824858 -0.015148 0.096231 0.064689 -0.356183 0.320650 0.061868 0.226236 0.418928 -0.511220 0.256153 0.023929 -0.428119 0.173928 -0.397791 -0.460215 -0.063770 0.419864 -0.002255 -0.103969 -0.380290 0.086356 -0.118899 0.080697 -0.078866 -0.327154 -0.130817 -0.223407 0.463338 -0.445114 0.154426 -0.508349 0.285158 -0.003117 -0.930895 -0.649073 -0.099530 0.361125 0.081010 -0.060169 0.280859 0.189011 -0.347699 -0.537894 0.238930 -0.012754 -0.498125 -0.128678 0.238982 0.300982 -0.296546 -0.272629 -0.216600 -0.221437 0.256561 -0.158873 -0.027088 0.155596 0.061035 0.061461 0.333711 -0.154439 -0.264799 -0.149528 0.398844 0.193502 0.249009 0.244897 0.039252 0.502596 0.572243 -0.193226 
genetic 0.458080 -0.790383 0.810601 -0.823273 0.020747 -0.622403 -0.157502 -0.358906 0.505402 -0.098441 0.063542 0.373621 0.290177 0.033275 -0.506232 0.165645 0.100614 -0.102186 -0.141815 0.190280 -0.647021 0.469712 -0.257527 -0.013985 0.050255 -0.873210 0.282851 0.046027 1.281412 -0.027819 0.111823 0.101846 -0.551896 0.499493 0.079515 0.354373 0.658197 -0.762688 0.381221 0.058210 -0.653589 0.261822 -0.623381 -0.726309 -0.085561 0.647894 -0.003115 -0.154941 -0.579539 0.151585 -0.137300 0.122340 -0.100034 -0.489558 -0.210802 -0.359222 0.709597 -0.688236 0.251101 -0.779375 0.430565 -0.040044 -1.427272 -0.985979 -0.147221 0.572235 0.124967 -0.092131 0.418548 0.269708 -0.550339 -0.828516 0.360617 -0.014692 -0.771690 -0.211685 0.347699 0.461304 -0.426217 -0.404675 -0.312143 -0.342419 0.386406 -0.241715 -0.053812 0.256383 0.121558 0.086092 0.497108 -0.213822 -0.381125 -0.264116 0.621436 0.297178 0.409647 0.406465 0.070830 0.813647 0.885714 -0.288086 
area 0.392266 -0.681866 0.701369 -0.709579 0.011266 -0.528459 -0.129564 -0.308978 0.422013 -0.074941 0.047299 0.307580 0.254917 0.037896 -0.429617 0.131461 0.096375 -0.086828 -0.119969 0.177032 -0.557563 0.390488 -0.230801 -0.007473 0.049683 -0.754094 0.245244 0.033274 1.085713 -0.033071 0.104396 0.074513 -0.474164 0.439809 0.075094 0.296052 0.568109 -0.657635 0.336926 0.051737 -0.548089 0.235933 -0.540819 -0.602091 -0.069349 0.558408 -0.007933 -0.144335 -0.473082 0.130744 -0.126106 0.101972 -0.087830 -0.413638 -0.183532 -0.294923 0.613277 -0.589826 0.219742 -0.665666 0.361846 -0.029555 -1.232810 -0.837172 -0.135077 0.503132 0.102575 -0.087544 0.364403 0.256738 -0.463577 -0.714144 0.292349 -0.008833 -0.649552 -0.190310 0.286299 0.374874 -0.352819 -0.359200 -0.269058 -0.275625 0.334678 -0.204275 -0.038067 0.230785 0.105654 0.079342 0.412260 -0.170511 -0.319883 -0.217760 0.531482 0.243887 0.345416 0.346890 0.062201 0.700657 0.758421 -0.240319 
ethnic 0.281542 -0.495467 0.502279 -0.510896 0.009551 -0.389175 -0.101676 -0.230112 0.306671 -0.055659 0.036486 0.231401 0.183940 0.022624 -0.306933 0.103179 0.063035 -0.056694 -0.093427 0.116154 -0.390902 0.280987 -0.161339 -0.001689 0.027982 -0.546761 0.175034 0.031615 0.794630 -0.019393 0.073708 0.067905 -0.350673 0.315684 0.052426 0.210997 0.407020 -0.469966 0.240161 0.040682 -0.405168 0.172081 -0.395304 -0.442626 -0.052533 0.398882 -0.007273 -0.103397 -0.346914 0.091070 -0.086730 0.080473 -0.062352 -0.297041 -0.128724 -0.217435 0.442324 -0.419831 0.160098 -0.481635 0.265540 -0.028890 -0.897629 -0.601306 -0.095519 0.362008 0.076487 -0.061734 0.257853 0.179954 -0.328306 -0.517058 0.218380 0.000116 -0.478052 -0.134152 0.202971 0.278594 -0.258442 -0.248464 -0.184546 -0.200952 0.244190 -0.139420 -0.021848 0.172594 0.073821 0.049870 0.302854 -0.128213 -0.240084 -0.155539 0.393506 0.182460 0.262992 0.257940 0.048998 0.508080 0.546685 -0.175330 
soviet 0.228729 -0.395990 0.407916 -0.422868 0.008861 -0.303321 -0.081228 -0.179474 0.231693 -0.042022 0.034438 0.186086 0.152314 0.010423 -0.248948 0.071708 0.056527 -0.043050 -0.056535 0.100526 -0.321774 0.221650 -0.135960 -0.008830 0.026810 -0.440183 0.151421 0.024841 0.646714 -0.019837 0.067076 0.039802 -0.286613 0.253227 0.039202 0.174054 0.328992 -0.385661 0.192345 0.032778 -0.330147 0.139981 -0.311353 -0.347991 -0.026296 0.320719 0.007230 -0.102582 -0.258821 0.076462 -0.062347 0.063344 -0.050001 -0.240135 -0.106574 -0.171362 0.362990 -0.339214 0.123837 -0.396207 0.224381 -0.015853 -0.716575 -0.480242 -0.069175 0.287985 0.055958 -0.055549 0.211688 0.150387 -0.265359 -0.422010 0.168343 -0.004363 -0.375422 -0.109909 0.154366 0.209511 -0.212876 -0.211068 -0.159840 -0.164356 0.189545 -0.117905 -0.020453 0.130924 0.057250 0.041672 0.242599 -0.101004 -0.198073 -0.131883 0.308915 0.141267 0.208993 0.204207 0.039553 0.415508 0.441384 -0.122555 
example 0.272533 -0.469572 0.491496 -0.498774 0.011205 -0.368940 -0.095848 -0.210496 0.285093 -0.055325 0.038812 0.215240 0.173601 0.016184 -0.293081 0.090237 0.060285 -0.055082 -0.078320 0.127109 -0.389278 0.268613 -0.157824 -0.011276 0.029692 -0.531105 0.182686 0.032623 0.768728 -0.031314 0.070914 0.045165 -0.348248 0.301197 0.042030 0.218905 0.387326 -0.450029 0.232899 0.030348 -0.388831 0.164804 -0.371965 -0.418613 -0.043305 0.392155 -0.009714 -0.107166 -0.321844 0.084238 -0.075151 0.075258 -0.056398 -0.290836 -0.132284 -0.200888 0.427756 -0.410486 0.148767 -0.473502 0.258149 -0.026907 -0.860735 -0.569193 -0.089579 0.354452 0.067838 -0.059633 0.250143 0.171280 -0.308639 -0.491569 0.205619 -0.001188 -0.442566 -0.128536 0.195402 0.260155 -0.248138 -0.246885 -0.183370 -0.189085 0.235415 -0.145967 -0.021936 0.164138 0.058086 0.047639 0.290945 -0.117463 -0.228775 -0.152464 0.381985 0.168012 0.249742 0.248135 0.041611 0.489055 0.541894 -0.154788 
great 0.368444 -0.654208 0.659540 -0.687868 0.018884 -0.503157 -0.144702 -0.302839 0.401759 -0.080618 0.052015 0.297862 0.232850 0.029745 -0.419949 0.131723 0.087620 -0.076991 -0.117186 0.158426 -0.530123 0.371847 -0.222470 -0.009024 0.050170 -0.709592 0.237138 0.042254 1.050946 -0.041521 0.101011 0.086989 -0.456704 0.404461 0.068748 0.285854 0.527914 -0.628826 0.320248 0.061449 -0.526415 0.214454 -0.519258 -0.565854 -0.063245 0.531982 0.009673 -0.129620 -0.452779 0.117927 -0.104477 0.103275 -0.089604 -0.394745 -0.171584 -0.280885 0.600739 -0.560322 0.201360 -0.644651 0.356229 -0.030190 -1.174831 -0.795436 -0.122548 0.472945 0.100781 -0.074808 0.343392 0.235344 -0.439609 -0.682424 0.280078 -0.006701 -0.617996 -0.182245 0.276598 0.369756 -0.341037 -0.337977 -0.259542 -0.258159 0.324492 -0.193605 -0.038645 0.215908 0.092038 0.075786 0.404611 -0.165745 -0.305432 -0.209712 0.509477 0.239803 0.335555 0.345528 0.066059 0.656783 0.725568 -0.226746 
groups 0.269031 -0.482023 0.480432 -0.488199 0.014865 -0.368605 -0.094099 -0.217760 0.294653 -0.046787 0.029420 0.223058 0.182967 0.018961 -0.305606 0.094146 0.062812 -0.056046 -0.083478 0.121278 -0.386820 0.279423 -0.162181 -0.015337 0.021710 -0.524197 0.164498 0.027628 0.759889 -0.014974 0.063853 0.064469 -0.330408 0.297294 0.041508 0.209420 0.391798 -0.448726 0.228296 0.033821 -0.389786 0.158387 -0.370960 -0.427644 -0.040888 0.388591 -0.007182 -0.100910 -0.338004 0.087379 -0.085979 0.074737 -0.066525 -0.288503 -0.121180 -0.208502 0.432407 -0.409602 0.144266 -0.470750 0.252374 -0.015435 -0.844198 -0.582993 -0.088864 0.344701 0.068230 -0.059432 0.247639 0.166704 -0.315846 -0.493777 0.206156 -0.006747 -0.460247 -0.131183 0.197976 0.271157 -0.242217 -0.237503 -0.181659 -0.201902 0.232063 -0.140305 -0.030628 0.158276 0.063784 0.047948 0.295269 -0.117408 -0.226310 -0.149385 0.380915 0.180325 0.243259 0.242887 0.035797 0.486899 0.528094 -0.170411 
east 0.256318 -0.440465 0.451103 -0.472831 -0.006360 -0.337074 -0.096542 -0.203005 0.273221 -0.061111 0.018250 0.190565 0.161261 0.032897 -0.259117 0.070652 0.050366 -0.057715 -0.048132 0.124433 -0.365377 0.243781 -0.147969 -0.004052 0.032786 -0.497178 0.171362 0.027170 0.729740 -0.030626 0.062024 0.054152 -0.315228 0.293729 0.036191 0.186262 0.347862 -0.429785 0.217336 0.055538 -0.349875 0.150717 -0.359335 -0.377397 -0.043382 0.379620 0.003869 -0.108808 -0.290016 0.089803 -0.057035 0.078115 -0.054764 -0.272048 -0.113641 -0.168615 0.409267 -0.378929 0.138205 -0.437076 0.253714 -0.035195 -0.809080 -0.527383 -0.085100 0.312854 0.061440 -0.049005 0.226072 0.174696 -0.302517 -0.468033 0.178918 0.004317 -0.398498 -0.136243 0.168714 0.241776 -0.226860 -0.214532 -0.163379 -0.168395 0.214109 -0.126091 -0.001840 0.152334 0.066972 0.041783 0.267424 -0.105968 -0.218893 -0.138582 0.357677 0.160951 0.230039 0.230233 0.053018 0.459206 0.510657 -0.141006 
time 0.356324 -0.628136 0.638420 -0.641242 0.018014 -0.496487 -0.129793 -0.281403 0.381095 -0.063460 0.033891 0.295282 0.223283 0.026943 -0.397028 0.128315 0.078932 -0.084378 -0.114876 0.149031 -0.497254 0.364095 -0.199590 -0.011148 0.044992 -0.684851 0.224237 0.027152 0.998568 -0.025579 0.096026 0.085108 -0.441606 0.387013 0.062182 0.271597 0.509827 -0.604525 0.304953 0.043281 -0.513956 0.210687 -0.488349 -0.556560 -0.059473 0.508225 -0.006605 -0.134739 -0.438176 0.118394 -0.114033 0.087661 -0.081129 -0.379885 -0.166689 -0.273390 0.566721 -0.532075 0.201547 -0.607547 0.344355 -0.018343 -1.133409 -0.771269 -0.107216 0.446089 0.096488 -0.076840 0.333703 0.216030 -0.415918 -0.640257 0.271489 -0.020443 -0.600706 -0.159268 0.259448 0.351847 -0.326518 -0.327736 -0.247315 -0.257452 0.301753 -0.183691 -0.031479 0.206571 0.096755 0.078131 0.393206 -0.154813 -0.305340 -0.198574 0.490886 0.225880 0.323476 0.324935 0.054838 0.629477 0.684786 -0.222178 
including 0.316681 -0.550740 0.571127 -0.582232 0.004579 -0.431493 -0.110349 -0.245865 0.340605 -0.068147 0.032076 0.256446 0.199517 0.028538 -0.339044 0.097626 0.056971 -0.062951 -0.083493 0.157285 -0.446205 0.306435 -0.181112 -0.013420 0.034816 -0.614303 0.211302 0.031567 0.894851 -0.021487 0.085042 0.059006 -0.403247 0.355808 0.053846 0.240828 0.445733 -0.533307 0.269074 0.044227 -0.451592 0.204409 -0.432236 -0.482165 -0.053815 0.460025 -0.004710 -0.134815 -0.367117 0.114877 -0.089838 0.089251 -0.080724 -0.340916 -0.148708 -0.215368 0.500394 -0.478513 0.163332 -0.554603 0.297371 -0.030686 -1.002921 -0.665819 -0.114885 0.408040 0.077320 -0.062989 0.298649 0.207716 -0.358974 -0.573216 0.232055 -0.011581 -0.516032 -0.155313 0.213380 0.295861 -0.281386 -0.277406 -0.213321 -0.222256 0.268753 -0.168592 -0.027565 0.191923 0.077820 0.064134 0.335308 -0.144120 -0.269022 -0.176715 0.443516 0.199063 0.284968 0.290564 0.058905 0.569278 0.626687 -0.174501 
district 0.395301 -0.685727 0.656442 -0.698133 0.009431 -0.494091 -0.138828 -0.306506 0.422797 -0.097420 0.063694 0.300525 0.270786 0.016240 -0.396807 0.121007 0.098659 -0.087862 -0.131046 0.145516 -0.551585 0.391337 -0.249262 -0.032526 0.025826 -0.705233 0.221246 0.069269 1.090767 -0.054209 0.110339 0.071845 -0.485162 0.419917 0.077356 0.297171 0.544884 -0.634645 0.337645 0.061804 -0.569533 0.249165 -0.547056 -0.591277 -0.075156 0.534952 -0.007597 -0.121485 -0.482930 0.121717 -0.087011 0.109697 -0.083043 -0.407430 -0.198560 -0.292557 0.613539 -0.559936 0.196269 -0.657737 0.377148 -0.004393 -1.228392 -0.800442 -0.114607 0.508288 0.105103 -0.063513 0.343231 0.227805 -0.419603 -0.714052 0.311159 0.012019 -0.652588 -0.144408 0.305438 0.411627 -0.313614 -0.336652 -0.275989 -0.296491 0.321190 -0.205068 -0.051002 0.234917 0.079272 0.036129 0.398563 -0.183741 -0.311066 -0.215044 0.544562 0.250363 0.330013 0.369123 0.050351 0.662716 0.742467 -0.231489 
press 0.293198 -0.522067 0.534182 -0.544698 0.009963 -0.415938 -0.097237 -0.229177 0.305345 -0.061011 0.041182 0.243548 0.190615 0.034306 -0.328818 0.102004 0.068742 -0.069476 -0.078321 0.134574 -0.412689 0.293460 -0.169019 -0.009250 0.047420 -0.577074 0.204950 0.032594 0.836248 -0.029423 0.093926 0.048447 -0.373697 0.336124 0.055360 0.216299 0.418148 -0.507493 0.241856 0.027037 -0.435397 0.190142 -0.394205 -0.453712 -0.050128 0.419896 -0.005333 -0.119288 -0.366429 0.093542 -0.096502 0.082270 -0.080728 -0.317737 -0.132877 -0.206593 0.459704 -0.449181 0.157744 -0.522991 0.278195 -0.007231 -0.937130 -0.627811 -0.107021 0.387501 0.077665 -0.063415 0.283932 0.197946 -0.339668 -0.535937 0.218506 -0.020426 -0.478547 -0.134049 0.214983 0.273631 -0.280040 -0.274381 -0.214678 -0.212871 0.244831 -0.155514 -0.035751 0.173571 0.072929 0.053451 0.312125 -0.143539 -0.258632 -0.156338 0.402402 0.187771 0.267476 0.271599 0.052208 0.521071 0.585014 -0.175294 
philosophy 0.343575 -0.674047 0.628758 -0.665680 0.017524 -0.533462 -0.136631 -0.266594 0.375657 -0.056872 0.068093 0.294712 0.228843 0.029367 -0.435160 0.157554 0.082160 -0.102959 -0.156427 0.107714 -0.462489 0.366080 -0.202809 -0.013400 0.021394 -0.672931 0.197046 0.031134 0.986929 -0.006500 0.092643 0.082767 -0.443987 0.402226 0.075749 0.274563 0.527285 -0.600688 0.307054 -0.008656 -0.522932 0.199218 -0.498991 -0.579739 -0.079094 0.491749 -0.024907 -0.047039 -0.529009 0.054692 -0.169638 0.080354 -0.101044 -0.376279 -0.158106 -0.306086 0.578143 -0.567615 0.202059 -0.640831 0.336552 0.022232 -1.159086 -0.806903 -0.125432 0.473419 0.102296 -0.098198 0.333923 0.197239 -0.411611 -0.627100 0.308648 0.001352 -0.706290 -0.100414 0.294701 0.405249 -0.383869 -0.354318 -0.292602 -0.266272 0.310572 -0.185296 -0.088273 0.171319 0.088392 0.075071 0.415198 -0.183842 -0.314006 -0.215054 0.541752 0.249136 0.324330 0.290405 0.030403 0.612372 0.673601 -0.222593 
ancient 0.299238 -0.526579 0.536893 -0.550527 0.007772 -0.406682 -0.110217 -0.237283 0.321047 -0.063995 0.041015 0.232610 0.194344 0.023642 -0.318143 0.095329 0.066109 -0.058226 -0.080840 0.136010 -0.431158 0.289342 -0.175928 -0.000458 0.035887 -0.581419 0.201368 0.028188 0.852584 -0.021873 0.077449 0.059741 -0.378104 0.330440 0.052218 0.226012 0.423434 -0.505087 0.257011 0.053369 -0.428985 0.189835 -0.419491 -0.461619 -0.051488 0.433532 -0.004848 -0.121079 -0.356687 0.104742 -0.087561 0.088262 -0.073972 -0.317637 -0.140060 -0.215179 0.479737 -0.453284 0.172120 -0.526420 0.294845 -0.024045 -0.960573 -0.634823 -0.101713 0.377239 0.069199 -0.057249 0.278717 0.192713 -0.342879 -0.551167 0.227329 -0.006687 -0.492639 -0.142604 0.214180 0.288877 -0.276855 -0.271655 -0.199436 -0.209372 0.249813 -0.153716 -0.026365 0.177015 0.072462 0.054150 0.319287 -0.140071 -0.258673 -0.174102 0.415440 0.192245 0.284270 0.270000 0.052404 0.549043 0.592805 -0.176858 
within 0.328684 -0.577780 0.584414 -0.598958 0.013734 -0.444429 -0.119433 -0.263315 0.355479 -0.070058 0.037580 0.265877 0.212080 0.023727 -0.362430 0.117401 0.074134 -0.073147 -0.109744 0.148083 -0.470514 0.335239 -0.186035 -0.001989 0.035747 -0.639759 0.204907 0.039487 0.927898 -0.024225 0.083156 0.064124 -0.405933 0.361530 0.058785 0.251948 0.481105 -0.564074 0.284337 0.042647 -0.469607 0.199729 -0.454042 -0.507670 -0.062768 0.464779 -0.010074 -0.101862 -0.410894 0.103919 -0.096456 0.094353 -0.073999 -0.350249 -0.147381 -0.257747 0.527924 -0.502047 0.179161 -0.575182 0.319485 -0.029818 -1.046628 -0.708180 -0.106894 0.421760 0.085580 -0.062844 0.296366 0.199052 -0.395064 -0.597267 0.259995 -0.008543 -0.557934 -0.153742 0.243844 0.332895 -0.300751 -0.293937 -0.225222 -0.235438 0.282308 -0.172168 -0.031137 0.191813 0.086743 0.065848 0.357148 -0.144871 -0.278733 -0.188480 0.457963 0.212379 0.300450 0.290188 0.056060 0.582527 0.645392 -0.205684 
several 0.345693 -0.607351 0.620734 -0.635747 0.006082 -0.457617 -0.127689 -0.272330 0.370596 -0.075080 0.032631 0.269740 0.219508 0.030398 -0.361345 0.110408 0.071502 -0.059859 -0.079558 0.169343 -0.497393 0.333486 -0.202463 -0.006829 0.041122 -0.672930 0.231090 0.043819 0.972109 -0.039041 0.088378 0.067670 -0.430459 0.385497 0.048049 0.259248 0.479971 -0.575663 0.296435 0.064904 -0.487796 0.215633 -0.471869 -0.522521 -0.055863 0.509200 -0.000728 -0.145897 -0.389308 0.124171 -0.086787 0.096791 -0.076072 -0.365011 -0.158542 -0.244046 0.555785 -0.513259 0.189826 -0.601698 0.335082 -0.033118 -1.090220 -0.724391 -0.118280 0.440415 0.080287 -0.065024 0.321037 0.235639 -0.403793 -0.636027 0.257168 -0.003504 -0.548365 -0.169608 0.242279 0.320939 -0.310873 -0.311150 -0.230646 -0.244554 0.291618 -0.178596 -0.017490 0.214513 0.080408 0.060964 0.360641 -0.151368 -0.286793 -0.189463 0.474249 0.207510 0.312223 0.313813 0.065883 0.629835 0.677231 -0.191663 
empire 0.210727 -0.378728 0.404182 -0.425044 0.008623 -0.300845 -0.081156 -0.164226 0.227310 -0.057287 0.009295 0.170704 0.146923 0.033541 -0.235574 0.070733 0.028295 -0.011608 -0.028753 0.120895 -0.330256 0.196922 -0.123966 0.030659 0.054850 -0.439761 0.160414 0.037755 0.629313 -0.020404 0.072806 0.029909 -0.278676 0.271978 0.034079 0.175150 0.316055 -0.357421 0.210076 0.057657 -0.314738 0.135600 -0.306023 -0.312834 -0.022579 0.331909 -0.002446 -0.147624 -0.205571 0.079329 -0.044610 0.045641 -0.052737 -0.221927 -0.111176 -0.147134 0.330639 -0.311651 0.119879 -0.397481 0.216564 -0.023784 -0.712967 -0.443097 -0.092372 0.275609 0.043193 -0.051935 0.198442 0.181396 -0.269107 -0.425105 0.143943 -0.002364 -0.332157 -0.117691 0.139785 0.183443 -0.197089 -0.209243 -0.130677 -0.142601 0.181679 -0.111964 0.001184 0.144958 0.072289 0.033664 0.231687 -0.103419 -0.189607 -0.107781 0.302638 0.127213 0.197669 0.206730 0.061452 0.422792 0.436601 -0.110422 
azerbaijan's 0.463946 -0.813377 0.841129 -0.864129 0.006962 -0.628089 -0.159584 -0.367443 0.488485 -0.096811 0.057150 0.367653 0.305634 0.046996 -0.505760 0.159511 0.101264 -0.099415 -0.128634 0.208570 -0.664106 0.455624 -0.264966 -0.018768 0.066895 -0.914973 0.312113 0.049664 1.331142 -0.035837 0.135617 0.088672 -0.582677 0.527903 0.083778 0.355254 0.672969 -0.792123 0.397865 0.065390 -0.673763 0.290123 -0.644507 -0.719229 -0.068425 0.672725 0.007790 -0.193342 -0.544654 0.160849 -0.136939 0.132925 -0.115926 -0.499592 -0.225523 -0.342217 0.738414 -0.703981 0.249542 -0.814365 0.458346 -0.036644 -1.482028 -0.994104 -0.144958 0.600578 0.126966 -0.111043 0.451810 0.307763 -0.546345 -0.862153 0.355575 -0.014173 -0.757624 -0.229017 0.331609 0.436793 -0.432693 -0.418189 -0.314606 -0.324365 0.399960 -0.246463 -0.042110 0.280222 0.111618 0.085875 0.494372 -0.203103 -0.407909 -0.255842 0.638130 0.296419 0.436401 0.420925 0.080160 0.838803 0.912257 -0.265109 
different 0.366147 -0.639901 0.644148 -0.656481 0.015015 -0.491058 -0.121896 -0.297000 0.403873 -0.079286 0.039687 0.297866 0.245130 0.015773 -0.395200 0.123690 0.069319 -0.090018 -0.118313 0.158225 -0.524366 0.360457 -0.212600 -0.014993 0.022118 -0.701918 0.208687 0.025452 1.023293 -0.027333 0.083257 0.067705 -0.442814 0.400584 0.052400 0.280915 0.527441 -0.608250 0.309942 0.035338 -0.519396 0.214143 -0.490933 -0.579410 -0.069239 0.510781 -0.015852 -0.112523 -0.463181 0.111954 -0.112917 0.102359 -0.084928 -0.403958 -0.168053 -0.274659 0.568343 -0.548519 0.205372 -0.629743 0.343686 -0.026343 -1.138223 -0.785014 -0.121169 0.452184 0.085755 -0.073027 0.325043 0.214933 -0.436743 -0.659290 0.279863 0.000885 -0.630171 -0.171326 0.283381 0.367271 -0.331711 -0.326061 -0.254430 -0.271525 0.314365 -0.183591 -0.047301 0.216833 0.083860 0.066019 0.398565 -0.161822 -0.304718 -0.198931 0.497035 0.237827 0.321350 0.311232 0.050470 0.646242 0.707583 -0.226989 
include 0.411269 -0.724501 0.726828 -0.746058 0.011248 -0.554220 -0.142081 -0.316703 0.443964 -0.086294 0.053795 0.332197 0.259450 0.032758 -0.450427 0.139613 0.094129 -0.088288 -0.116046 0.185513 -0.581436 0.400458 -0.239169 -0.010454 0.051448 -0.783738 0.258167 0.042874 1.149048 -0.025805 0.110470 0.083259 -0.507812 0.454361 0.070511 0.312729 0.591620 -0.684347 0.353774 0.059212 -0.589992 0.255287 -0.569560 -0.631502 -0.073863 0.581007 -0.000090 -0.151676 -0.489393 0.136826 -0.119122 0.119788 -0.094189 -0.440406 -0.188054 -0.298807 0.646232 -0.610520 0.222615 -0.701455 0.395975 -0.032817 -1.297533 -0.872723 -0.132022 0.525328 0.101297 -0.095627 0.379511 0.259561 -0.469880 -0.742105 0.310422 -0.006386 -0.684866 -0.187367 0.291966 0.398746 -0.364171 -0.364001 -0.286230 -0.285459 0.345871 -0.211804 -0.032943 0.239163 0.109320 0.080932 0.433503 -0.191374 -0.350048 -0.234968 0.561705 0.261934 0.367661 0.373595 0.061854 0.736622 0.792067 -0.240850 
citation_needed 0.296955 -0.511893 0.517585 -0.536853 0.017048 -0.399448 -0.103983 -0.230841 0.317812 -0.049933 0.038670 0.239708 0.184875 0.019979 -0.326994 0.105522 0.069815 -0.064017 -0.093717 0.127425 -0.414532 0.295835 -0.168177 -0.006032 0.033525 -0.563018 0.178992 0.025116 0.824281 -0.017553 0.082086 0.068313 -0.361711 0.313031 0.049019 0.226933 0.419415 -0.491189 0.250861 0.047311 -0.424952 0.169626 -0.404277 -0.453009 -0.046877 0.417674 -0.004084 -0.112747 -0.363443 0.099200 -0.086134 0.068251 -0.062195 -0.318352 -0.133454 -0.225296 0.468509 -0.443043 0.168062 -0.503835 0.282239 -0.020904 -0.931048 -0.629399 -0.096270 0.370132 0.074564 -0.057997 0.267845 0.175771 -0.347626 -0.531015 0.228083 -0.014847 -0.485126 -0.137524 0.211107 0.293092 -0.268617 -0.264851 -0.202145 -0.204645 0.253743 -0.150841 -0.021754 0.163019 0.080445 0.060914 0.316284 -0.129187 -0.242113 -0.170431 0.406360 0.180244 0.258780 0.256654 0.051382 0.514102 0.563993 -0.189957 
kingdom 0.289832 -0.546699 0.556330 -0.585648 0.018405 -0.397347 -0.123540 -0.264615 0.335880 -0.076372 0.034653 0.250214 0.196116 0.027903 -0.345704 0.097495 0.071214 -0.050884 -0.074185 0.139408 -0.448182 0.312079 -0.186513 0.008740 0.042510 -0.601720 0.224042 0.050481 0.887298 -0.058441 0.078965 0.062123 -0.388527 0.358918 0.040011 0.232503 0.423485 -0.533248 0.269844 0.052842 -0.431806 0.205141 -0.427924 -0.446757 -0.062872 0.438698 0.019849 -0.102170 -0.366449 0.101855 -0.070648 0.102596 -0.082561 -0.319835 -0.136273 -0.203130 0.519116 -0.458043 0.181658 -0.530648 0.299015 -0.038621 -0.989332 -0.647521 -0.109826 0.389022 0.072169 -0.054047 0.285986 0.208598 -0.371494 -0.598019 0.227296 -0.003565 -0.480714 -0.174327 0.210646 0.297849 -0.275704 -0.266207 -0.215473 -0.217218 0.265911 -0.161685 -0.005891 0.186587 0.080986 0.040420 0.315258 -0.138691 -0.255495 -0.177724 0.433941 0.211718 0.280893 0.300337 0.062700 0.553682 0.626091 -0.179711 
word 0.218507 -0.356526 0.375014 -0.381049 0.008236 -0.274348 -0.078359 -0.157410 0.229299 -0.040232 0.016621 0.172797 0.130420 0.017239 -0.234739 0.060054 0.033560 -0.050794 -0.053144 0.119983 -0.305243 0.200782 -0.115503 -0.010880 0.026417 -0.421520 0.150198 0.031790 0.586779 -0.014398 0.057753 0.034937 -0.278134 0.220480 0.033992 0.169650 0.306253 -0.362216 0.184949 0.045667 -0.292408 0.130456 -0.293590 -0.314861 -0.034296 0.304866 -0.004321 -0.104224 -0.252015 0.078348 -0.063887 0.046591 -0.044340 -0.229717 -0.094669 -0.151242 0.326464 -0.313267 0.118341 -0.365934 0.202756 -0.022622 -0.675694 -0.453427 -0.069409 0.259864 0.041568 -0.033593 0.187551 0.121622 -0.244696 -0.380223 0.163988 -0.004395 -0.345079 -0.103932 0.139625 0.207367 -0.193961 -0.177320 -0.143476 -0.143795 0.172506 -0.106656 -0.015529 0.116816 0.047642 0.046873 0.223301 -0.087779 -0.189796 -0.117379 0.284040 0.136603 0.191527 0.189644 0.042783 0.386016 0.399860 -0.134170 
legal 0.299348 -0.597154 0.578185 -0.599378 0.027436 -0.489991 -0.097041 -0.275993 0.360161 -0.023991 0.070296 0.297888 0.198759 0.012955 -0.422756 0.174990 0.109138 -0.146042 -0.155926 0.066316 -0.440460 0.379337 -0.170987 -0.094440 0.006451 -0.633566 0.194707 0.028908 0.933259 -0.000003 0.065161 0.086827 -0.396313 0.354374 0.065565 0.287554 0.476441 -0.577974 0.266046 -0.068030 -0.450079 0.172574 -0.436666 -0.554441 -0.074592 0.440868 -0.037953 -0.021226 -0.498930 0.038200 -0.164708 0.095750 -0.092274 -0.378800 -0.111680 -0.294937 0.500127 -0.520223 0.172944 -0.611023 0.305095 0.001566 -1.033035 -0.734172 -0.118423 0.445452 0.096771 -0.086226 0.350025 0.156215 -0.414287 -0.554210 0.273149 -0.028578 -0.622128 -0.146272 0.287980 0.362293 -0.349214 -0.332119 -0.253117 -0.257105 0.285876 -0.196016 -0.087723 0.156152 0.047780 0.087070 0.381378 -0.177605 -0.306238 -0.175395 0.476942 0.249022 0.319916 0.263570 0.006683 0.498563 0.650307 -0.240587 
individual 0.271003 -0.473077 0.480463 -0.489203 0.008822 -0.384291 -0.095733 -0.209121 0.298378 -0.044014 0.047053 0.219780 0.169579 0.018022 -0.306797 0.112241 0.062746 -0.067623 -0.094031 0.100503 -0.372124 0.279235 -0.149640 -0.032416 0.028513 -0.524052 0.157355 0.027889 0.754639 -0.008255 0.066593 0.059865 -0.336428 0.295701 0.047583 0.225165 0.392637 -0.449995 0.223994 0.008298 -0.381705 0.159565 -0.370058 -0.431993 -0.043056 0.372985 -0.010188 -0.072546 -0.348824 0.066621 -0.092287 0.072299 -0.062388 -0.286265 -0.122807 -0.218886 0.425872 -0.405685 0.148353 -0.473458 0.255473 -0.019238 -0.842847 -0.580491 -0.085708 0.343378 0.068810 -0.064461 0.260669 0.151255 -0.318810 -0.477834 0.206252 -0.014059 -0.478843 -0.122888 0.211517 0.276561 -0.248248 -0.250685 -0.186122 -0.203274 0.231513 -0.152654 -0.037124 0.149474 0.051737 0.052856 0.292815 -0.131251 -0.225441 -0.151450 0.379688 0.177649 0.248700 0.241611 0.037304 0.465982 0.520395 -0.172883 
africa 0.273019 -0.457078 0.467205 -0.473846 0.000811 -0.367096 -0.095769 -0.208778 0.294676 -0.048457 0.017428 0.224139 0.162416 -0.003279 -0.296858 0.105232 0.068382 -0.061373 -0.081844 0.116919 -0.378134 0.280481 -0.156774 0.005245 0.030498 -0.509831 0.162246 0.020882 0.737332 -0.021898 0.090059 0.074961 -0.334089 0.272469 0.056174 0.187196 0.387191 -0.444659 0.221109 0.056943 -0.380462 0.147040 -0.370302 -0.421111 -0.031779 0.385593 0.021596 -0.107897 -0.331426 0.101253 -0.078404 0.057624 -0.050573 -0.290519 -0.119670 -0.214717 0.428958 -0.404832 0.150033 -0.436438 0.260608 -0.017266 -0.836581 -0.577893 -0.085577 0.315184 0.073259 -0.050209 0.235290 0.157782 -0.323859 -0.475255 0.205406 -0.009471 -0.436847 -0.123994 0.205058 0.277923 -0.243488 -0.241217 -0.186749 -0.184489 0.231065 -0.138286 -0.022913 0.147496 0.091813 0.053666 0.291874 -0.109622 -0.210859 -0.167677 0.354852 0.176618 0.244777 0.244393 0.058352 0.479033 0.485374 -0.174263 
republican 0.246668 -0.441276 0.451205 -0.474989 0.004409 -0.325819 -0.086210 -0.199955 0.261429 -0.059308 0.030969 0.197322 0.168639 0.022447 -0.264558 0.071527 0.047181 -0.043669 -0.060244 0.125967 -0.363434 0.232832 -0.146348 -0.005591 0.035179 -0.496697 0.176653 0.037923 0.713066 -0.025818 0.069812 0.033369 -0.316126 0.284714 0.026918 0.190244 0.349627 -0.426373 0.218603 0.042252 -0.354696 0.162489 -0.358638 -0.374897 -0.044692 0.364568 -0.001591 -0.119918 -0.278021 0.085828 -0.060357 0.073384 -0.067368 -0.263758 -0.120818 -0.170928 0.399384 -0.381302 0.136045 -0.445385 0.247220 -0.017818 -0.806710 -0.528147 -0.091228 0.321247 0.059612 -0.059503 0.239299 0.177085 -0.287224 -0.466433 0.187620 -0.001419 -0.393659 -0.132976 0.167074 0.223348 -0.220324 -0.225731 -0.163361 -0.173364 0.204622 -0.123943 -0.004826 0.157242 0.063585 0.045576 0.264993 -0.107400 -0.210470 -0.128946 0.349956 0.150935 0.235965 0.241558 0.050598 0.468634 0.504232 -0.141801 
freedom 0.310053 -0.576872 0.587913 -0.610171 0.016006 -0.474190 -0.110684 -0.248445 0.312797 -0.062779 0.053023 0.264978 0.188703 0.044687 -0.378050 0.106957 0.079389 -0.094317 -0.084156 0.117578 -0.434284 0.318791 -0.173325 -0.038329 0.043622 -0.656748 0.239355 0.047046 0.923509 -0.036929 0.110875 0.047142 -0.406066 0.373686 0.061322 0.234987 0.453666 -0.562602 0.259637 -0.013511 -0.481534 0.212676 -0.411544 -0.492497 -0.053689 0.463484 0.008375 -0.114742 -0.420692 0.110131 -0.125664 0.102113 -0.083741 -0.353820 -0.152539 -0.203105 0.503038 -0.495271 0.157940 -0.608508 0.299851 0.006300 -1.028295 -0.678333 -0.143766 0.447922 0.090290 -0.084755 0.340955 0.221822 -0.372432 -0.580495 0.220022 -0.029551 -0.511618 -0.144840 0.255784 0.290220 -0.322879 -0.309852 -0.254031 -0.224796 0.268175 -0.193337 -0.036454 0.181918 0.054007 0.060394 0.334470 -0.162411 -0.294112 -0.154947 0.437773 0.211276 0.298620 0.288223 0.046544 0.535646 0.668872 -0.187997 
conflict 0.303226 -0.537263 0.555389 -0.566554 0.018214 -0.408833 -0.112446 -0.240704 0.323268 -0.065882 0.031568 0.240295 0.203345 0.029758 -0.334149 0.104537 0.075314 -0.058572 -0.091956 0.135758 -0.432974 0.302896 -0.168098 -0.008922 0.040682 -0.596819 0.202951 0.032551 0.868348 -0.028224 0.085926 0.059704 -0.379815 0.338257 0.054383 0.239765 0.441487 -0.515022 0.259243 0.045334 -0.437929 0.183342 -0.416950 -0.474624 -0.042044 0.446759 0.001004 -0.122039 -0.365613 0.100319 -0.088192 0.082446 -0.077389 -0.321676 -0.135787 -0.226713 0.488571 -0.464302 0.165985 -0.522471 0.289533 -0.026484 -0.968616 -0.654012 -0.094743 0.387006 0.073575 -0.070831 0.289584 0.194845 -0.362437 -0.554298 0.230889 -0.000955 -0.504026 -0.149152 0.224402 0.298514 -0.280878 -0.272089 -0.212202 -0.217446 0.263762 -0.149658 -0.021011 0.185086 0.073564 0.061887 0.332855 -0.130043 -0.262584 -0.167844 0.432780 0.196166 0.286413 0.271154 0.049329 0.557149 0.600233 -0.178550 
against 0.299518 -0.509948 0.521844 -0.536385 0.009172 -0.405852 -0.094931 -0.232900 0.309346 -0.057175 0.040513 0.232750 0.188185 0.021329 -0.321236 0.103057 0.066869 -0.059574 -0.089448 0.128610 -0.402882 0.290532 -0.170831 -0.013677 0.035399 -0.562102 0.186555 0.036786 0.821505 -0.019042 0.075641 0.053931 -0.371452 0.320893 0.049669 0.229300 0.418808 -0.484714 0.238619 0.032858 -0.419447 0.168043 -0.405738 -0.448471 -0.040052 0.417290 0.000720 -0.112233 -0.348297 0.092593 -0.093808 0.082558 -0.075666 -0.309297 -0.132957 -0.229643 0.457915 -0.441486 0.158264 -0.500197 0.284284 -0.019077 -0.925696 -0.617256 -0.097347 0.367420 0.081099 -0.062463 0.277159 0.184650 -0.341458 -0.525301 0.222844 -0.006440 -0.490285 -0.135919 0.210180 0.281781 -0.268752 -0.268210 -0.200479 -0.211616 0.248280 -0.159556 -0.031993 0.170962 0.074270 0.054644 0.321356 -0.131916 -0.248998 -0.171164 0.401400 0.185800 0.268594 0.271399 0.048991 0.522355 0.569366 -0.180628 
information 0.291564 -0.520164 0.535817 -0.550468 0.014973 -0.399882 -0.097508 -0.231172 0.310067 -0.052151 0.038674 0.238973 0.182217 0.027739 -0.318619 0.101492 0.063654 -0.074559 -0.089293 0.124236 -0.406676 0.285884 -0.160193 -0.011107 0.037013 -0.564758 0.198988 0.028851 0.828060 -0.019064 0.081628 0.048399 -0.369033 0.329450 0.055437 0.218292 0.421064 -0.494949 0.254114 0.032608 -0.423084 0.184930 -0.403295 -0.436863 -0.059260 0.420778 -0.005126 -0.104689 -0.356063 0.091673 -0.096190 0.095949 -0.068932 -0.313561 -0.132334 -0.211166 0.456891 -0.442815 0.156589 -0.506315 0.276450 -0.007032 -0.927769 -0.625010 -0.101441 0.381565 0.067032 -0.059387 0.284325 0.189299 -0.335755 -0.526463 0.224982 -0.000265 -0.483477 -0.140209 0.211031 0.283026 -0.276823 -0.273338 -0.214408 -0.202992 0.249947 -0.148020 -0.028887 0.166002 0.058487 0.057210 0.301568 -0.132676 -0.261071 -0.150564 0.407143 0.192283 0.259778 0.263430 0.046200 0.513348 0.586609 -0.177981 
important 0.259566 -0.456934 0.470901 -0.483192 0.011284 -0.338756 -0.099742 -0.194526 0.265718 -0.059065 0.030355 0.204608 0.167779 0.016133 -0.270582 0.077652 0.051136 -0.038860 -0.066507 0.124887 -0.365808 0.239200 -0.153187 0.002549 0.031854 -0.501170 0.171737 0.030034 0.723584 -0.023073 0.074115 0.051745 -0.329541 0.290241 0.041523 0.194722 0.362243 -0.426575 0.224366 0.053869 -0.372230 0.155389 -0.359239 -0.381624 -0.034368 0.375208 0.001615 -0.120508 -0.282093 0.088429 -0.057203 0.071045 -0.059863 -0.271475 -0.119735 -0.177125 0.411632 -0.387201 0.139465 -0.441444 0.254135 -0.018524 -0.822784 -0.544920 -0.081543 0.328890 0.057566 -0.050641 0.231171 0.174625 -0.300835 -0.481785 0.189541 -0.001211 -0.412443 -0.134296 0.172030 0.238159 -0.220801 -0.232296 -0.168420 -0.180200 0.214318 -0.124488 -0.014914 0.157476 0.061619 0.050798 0.270160 -0.108402 -0.213863 -0.148973 0.355113 0.154887 0.229899 0.241973 0.049514 0.479474 0.501544 -0.151087 
common 0.260155 -0.415321 0.437971 -0.436349 0.004914 -0.319000 -0.097098 -0.189005 0.260577 -0.054624 0.030381 0.199323 0.161886 0.007434 -0.255995 0.080473 0.054013 -0.037048 -0.071754 0.107900 -0.352765 0.239986 -0.144053 0.016935 0.045506 -0.470239 0.152061 0.022071 0.668226 -0.014915 0.074321 0.060999 -0.299115 0.264555 0.050871 0.181613 0.352667 -0.395818 0.210074 0.060971 -0.346754 0.142227 -0.334480 -0.373385 -0.042846 0.344704 0.003726 -0.118211 -0.285170 0.095817 -0.067930 0.059736 -0.044302 -0.253719 -0.109614 -0.181585 0.387962 -0.360449 0.147387 -0.395413 0.222602 -0.022815 -0.763795 -0.514534 -0.066152 0.298879 0.066325 -0.041969 0.219701 0.154090 -0.293848 -0.439108 0.188584 -0.012111 -0.393434 -0.122352 0.169445 0.243995 -0.215335 -0.223910 -0.171546 -0.165166 0.198642 -0.123461 -0.007572 0.140872 0.081587 0.046366 0.265304 -0.104657 -0.196987 -0.147519 0.328272 0.154692 0.216158 0.227752 0.054333 0.444692 0.461982 -0.151040 
independent 0.224866 -0.419369 0.440831 -0.453831 0.009270 -0.316369 -0.081518 -0.196317 0.246870 -0.062578 0.024914 0.184281 0.147615 0.015580 -0.246871 0.068424 0.041079 -0.057036 -0.044553 0.133504 -0.354543 0.215431 -0.139378 -0.000570 0.034793 -0.477551 0.174672 0.034536 0.683821 -0.023519 0.069292 0.025059 -0.304305 0.271378 0.023490 0.181526 0.329894 -0.409412 0.210685 0.036562 -0.343131 0.149154 -0.329628 -0.348927 -0.047470 0.344399 0.006549 -0.119392 -0.257942 0.082671 -0.054243 0.075020 -0.068590 -0.249909 -0.117720 -0.152963 0.384465 -0.356782 0.128365 -0.424700 0.233650 -0.027336 -0.754812 -0.495989 -0.092310 0.301756 0.042100 -0.049994 0.218894 0.167564 -0.272084 -0.454228 0.169051 -0.002415 -0.369098 -0.133500 0.157515 0.222070 -0.210666 -0.222075 -0.157666 -0.166549 0.203099 -0.125503 -0.002683 0.153178 0.050525 0.038863 0.243833 -0.112512 -0.196476 -0.129283 0.339220 0.152525 0.219195 0.228196 0.044050 0.435134 0.493764 -0.120302 
